encog,BasicNetwork,java,3.0.1,1,1322778771149
[BASIC]
[BASIC:PARAMS]
[BASIC:NETWORK]
beginTraining=0
connectionLimit=0
contextTargetOffset=0,174,0
contextTargetSize=0,100,0
endTraining=2
hasContext=t
inputCount=36
layerCounts=36,101,137
layerFeedCounts=36,100,36
layerContextCount=0,0,100
layerIndex=0,36,137
output=0.00000488375063375764,0.00007313144460922849,-0.00005429653476322384,-0.00001806955760725064,-0.00004502727335155754,0.00003984906377283229,0.00002115774977963091,-0.00000398261757780696,0.00007672793929851957,0.00000665941095902658,-0.00004669719694187606,0.00019624199985972257,0.0001863554012000515,0.00003685456645450419,0.00004301263451634597,0.0001426463703621192,0.00001959231706106027,-0.00002607211701732143,0.010313322768801727,-0.00004803999247563178,0.00007124046626405187,0.05149364797758305,-0.0005102577996852209,-0.011919485473532217,-0.00011050064599413267,0.2194819321051893,0.2808281387384807,-0.0000019249869352353,-0.16354216105186933,-0.06941034254012447,0.8106281944780033,-0.0997262798779865,0.10204346305449569,-0.05983396797506917,-0.00008682747416022957,0.00005976260479725187,1,1,1,1,0.00000000000000000001,0.00000000000000000001,0.00000000000000000001,0.00000000000000000001,0.00000000000000000001,0.00000000000000000001,0.00000000000000000001,0.00000000000000000001,1,0.00000000000000000001,1,1,1,0.00000000000000000001,1,1,0.00000000000000000001,0.00000000000000000001,0.00000000000000000001,0.00000000000000000001,0.00000000000000000001,1,1,1,0.00000000000000000001,0.00000000000000000001,1,0.00000000000000000001,0.00000000000000000001,0.00000000000000000001,0.00000000000000000001,0.00000000000000000001,0.00000000000000000001,0.00000000000000000001,0.00000000000000000001,0.00000000000000000001,1,0.00000000000000000001,1,1,0.00000000000000000001,0.00000000000000000001,0.00000000000000000001,1,0.00000000000000000001,0.00000000000000000001,0.00000000000000000001,1,0.00000000000000000001,1,1,0.00000000000000000001,0.00000000000000000001,0.00000000000000000001,1,0.00000000000000000001,0.00000000000000000001,1,0.00000000000000000001,0.00000000000000000001,1,1,0.00000000000000000001,1,0.00000000000000000001,0.00000000000000000001,1,0.00000000000000000001,0.00000000000000000001,0.00000000000000000001,1,0.00000000000000000001,1,0.00000000000000000001,1,1,0.00000000000000000001,0.00000000000000000001,0.00000000000000000001,1,1,0.00000000000000000001,1,0.00000000000000000001,0.00000000000000000001,1,0.00000000000000000001,0.00000000000000000001,1,0.00000000000000000001,1,0.00000000000000000001,0.00000000000000000001,0.00000000000000000001,1,1,1,0,0,0,0,0,0,0,0,0,0,0,0,0,0,0,0,0,0,0,0,0,0,0,0,0,0,0,0,1,0,0,0,0,0,0,0,1,0.00000488375063375764,0.00007313144460922849,-0.00005429653476322384,-0.00001806955760725064,-0.00004502727335155754,0.00003984906377283229,0.00002115774977963091,-0.00000398261757780696,0.00007672793929851957,0.00000665941095902658,-0.00004669719694187606,0.00019624199985972257,0.0001863554012000515,0.00003685456645450419,0.00004301263451634597,0.0001426463703621192,0.00001959231706106027,-0.00002607211701732143,0.010313322768801727,-0.00004803999247563178,0.00007124046626405187,0.05149364797758305,-0.0005102577996852209,-0.011919485473532217,-0.00011050064599413267,0.2194819321051893,0.2808281387384807,-0.0000019249869352353,-0.16354216105186933,-0.06941034254012447,0.8106281944780033,-0.0997262798779865,0.10204346305449569,-0.05983396797506917,-0.00008682747416022957,0.00005976260479725187,1,1,1,1,0.00000000000000000001,0.00000000000000000001,0.00000000000000000001,0.00000000000000000001,0.00000000000000000001,0.00000000000000000001,0.00000000000000000001,0.00000000000000000001,1,0.00000000000000000001,1,1,1,0.00000000000000000001,1,1,0.00000000000000000001,0.00000000000000000001,0.00000000000000000001,0.00000000000000000001,0.00000000000000000001,1,1,1,0.00000000000000000001,0.00000000000000000001,1,0.00000000000000000001,0.00000000000000000001,0.00000000000000000001,0.00000000000000000001,0.00000000000000000001,0.00000000000000000001,0.00000000000000000001,0.00000000000000000001,0.00000000000000000001,1,0.00000000000000000001,1,1,0.00000000000000000001,0.00000000000000000001,0.00000000000000000001,1,0.00000000000000000001,0.00000000000000000001,0.00000000000000000001,1,0.00000000000000000001,1,1,0.00000000000000000001,0.00000000000000000001,0.00000000000000000001,1,0.00000000000000000001,0.00000000000000000001,1,0.00000000000000000001,0.00000000000000000001
outputCount=36
weightIndex=0,3636,17336
weights=0.00000417408866462955,0.0000081559026281016,-0.00000580335326877988,0.00003314491591859842,0.00001219404677737839,0.00002251187827002762,0.00001043194693577594,0.00001814083585254688,-0.00000053244382228707,0.00003414413753298892,0.0000011782396700142,0.00001393355186837247,0.000016371852748186,-0.00000480352763902364,0.00001560807237941416,0.00004636272007325462,0.0000243743985169749,-0.00001044819063163738,0.00002249335147972056,0.00015109911849112755,-0.00000357385835695631,0.00000113675387665235,-0.00000963224963485724,0.00002278492693499832,0.00004363050173538257,0.0000041821375037759,0.00000728301946701399,0.00000031414354950887,0.00001704754326387182,0.00002247551314347775,0.00000742427940367932,0.00002805583586491384,0.00001572432318852973,0.00001606607954888052,0.0000509244853898845,0.00000897624924454055,-0.00001155751795847777,0.00001318679249018115,0.00004751683897615324,0.00001911193932851872,0.00001800701863555733,0.00000157526388065076,0.00001689741616380068,0.00001566880777758221,0.00002182744763508315,0.00002514456536197224,-0.00000154377187500292,0.00001641367264753757,0.00001389564356940781,0.00000357396150239912,0.00001035918775755249,-0.00000815833839084851,-0.00000251576409071898,0.00001824513175681157,0.00003454667001720497,0.00000895506343827733,0.00001065218665842966,0.00000280588764320962,0.00003017275771845342,-0.00000593517161980574,0.00002530580273768909,0.00002347481587086406,0.0000212578684535947,0.00001273563432088529,0.0000314115485327544,0.00001993506637559747,0.00006103531392500273,0.00004574769265343364,0.00000157399138462923,0.00001347667136243564,0.00001542677848162139,0.00005226678186966011,0.00004373809001715747,0.00000480908399949231,0.00011692812651154025,0.00001157994784110102,0.00001329471836269264,0.00001843077172721133,0.0000082379072962271,0.00002158068420282832,0.00000170070282606991,0.0000051005713944513,0.00002184145132714837,0.00001076886817885913,0.0000219745896399176,0.00000367279455553249,0.00003959860331904321,0.0000183626761015171,0.00000169041016093315,0.00003097149084575883,-0.00001307738281378131,0.00002650892715217848,0.00001982502134459836,-0.00000378081180651425,0.00003261456159685724,0.00001635047676383912,0.0000218557702954302,0.00003204806632935089,0.00000764726621957435,0.00001359635711675665,-0.000945128129796472,-0.0003387677632913819,-0.000249729504266556,0.00000241900240486722,-0.000834506339779342,-0.00036609084865581583,-0.0008198449105420283,-0.00019921975861669663,-0.0002239392003641621,-0.0002548947798684593,-0.0012097100738065214,-0.00031935908435686385,-0.0004404180942465202,-0.00043669193565064465,0.00006815331044561925,-0.00007410509796758977,-0.00189230349713135,-0.000318932646986339,0.0001028671860493147,-0.000818250038100433,-0.004452089636280902,0.0000254531361612473,-0.00027679982357897655,0.0005145969278488702,-0.0008036920569990235,-0.0013034152145442416,0.00007819663051789989,-0.00039572330480318877,0.00008342528360005942,-0.0004131065621449648,-0.0007305459366059863,-0.0004570297481737321,-0.0006130252188193063,-0.00036744378427715094,-0.00018570085597889553,-0.0009593709006409188,-0.00046008312989683604,-0.00001555733753145341,-0.00025118844602037185,-0.0009726723838935976,-0.00040598921590754303,-0.0006215797584606894,-0.00029271110334755233,-0.0005514261531205575,-0.00040480826346057637,-0.0007307381145074527,-0.0008215718010621481,0.00002411707614380795,-0.0005588556638521894,-0.00033927648258905163,-0.00015995132947419595,-0.00030452972893396505,0.00030051635271492543,0.00013869822303380703,-0.0006583165672206794,-0.0008718338525341719,-0.00013650203248279707,-0.00033566987449030415,-0.00014455677193154034,-0.0007748314761494988,-0.00022227643246697956,-0.0007447284431462003,-0.0009814374122087785,-0.0008515827528050864,-0.00014789001215889948,-0.0010308732985324217,-0.00050125213422991,-0.001710670991900322,-0.0015884278367960267,-0.00004209725919446042,-0.0004197227004267322,-0.0005938900303320789,-0.001792557424085306,-0.0012957257733367065,-0.00046304511770473396,-0.0035866199914976076,-0.00019544604594866151,-0.0001885999968521758,-0.0005974586385877378,-0.0003020339414691758,-0.0008018146133829222,-0.00015529846290933668,-0.00013787131369352859,-0.00045427381216078073,-0.000259408178013423,-0.0006312661773570916,-0.0002731582327748806,-0.0013353468659782078,-0.0004327885278540735,-0.00012239380538525446,-0.0008586814861468184,0.0003132961055106827,-0.0010197602327591266,-0.0006692860190200686,-0.00014640372221069948,-0.000636365472321292,-0.00043172417780836116,-0.0006342135117382459,-0.0007912939088269664,-0.00016617082768299404,-0.0002749598485117578,0.028724789552934053,-0.00007139459800704819,-0.00007464561063401209,0.00002325262741740281,-0.00019371180139123842,-0.00009124976611260125,-0.0002155956851224983,-0.00007875692903347046,-0.00007929441653302281,-0.00004236343004244625,-0.0002718248778810968,-0.00004091739905541546,-0.00009037093558447375,-0.00009192074111150433,-0.00000961219514008112,-0.00001372733596999456,-0.0004987157870416024,-0.00011503412513658768,0.00005350514159347339,-0.00020056994091531793,-0.0012194910789979385,-0.00003847692501674827,-0.0000742148390449048,0.0001702281672269664,-0.00018429809090025822,-0.00037818328774765885,-0.00001063612571098214,-0.00012456891585032297,-0.00000222950407927302,-0.0001044169781285185,-0.00016628715538316444,-0.00010793406165382155,-0.00019359975422272212,-0.00007118697006300142,-0.00005132212255765251,-0.0003051656578663338,-0.00013117228564166859,-0.00000295701863751115,-0.00010615230052299525,-0.00034801417602736413,-0.00014319584922177115,-0.00010640829553045682,-0.00006532761744966093,-0.00012543351774848177,-0.00008849259616412906,-0.00015669016752895693,-0.00021154479595650717,0.00006836908757721852,-0.00014879052859670798,-0.00004115678019234824,-0.00004012842726106018,-0.00007494733083745183,0.0000843735354356463,0.00003803259102172886,-0.00015040140585654101,-0.0002311597820099293,-0.00002072519847848075,-0.00014578028422678062,0.00000600520774875,-0.00019515641872989208,-0.00003035982626208554,-0.00018921240157450126,-0.000258412288800425,-0.00020267926103205823,-0.0000573128706916399,-0.0002621389921007443,-0.0001342096540200622,-0.0004426295197182481,-0.00031099446305317576,-0.00000870434850667555,-0.00010331920403494511,-0.0001078041316251709,-0.00039548933785909113,-0.00037192042345634896,-0.00006849237579624321,-0.001057623936359889,-0.00007257783643944087,-0.00007401399834561607,-0.00015248907696971173,-0.0000844195243713729,-0.00016512774281772507,-0.00004642523872302209,-0.00002034814468403294,-0.00011544428175994474,-0.00005141445031494965,-0.0001866191643559802,-0.00005698300357171337,-0.0003477479857492424,-0.00009314942117271157,-0.00003202923368824425,-0.00024740453388639034,0.00009076174947375371,-0.0001768842288935316,-0.0001573151365349483,0.00001154786933933128,-0.0001794417928632777,-0.00011660752346212613,-0.00014498506153202845,-0.0002627280176833495,-0.00004767371973513611,-0.00007266830065159242,0.007353529289105206,0.00000999237675763247,0.00000358389667169546,0.00000091938617540134,0.00002115012751771918,0.00001249809836192883,0.00001839934374379985,0.00000208216493570192,0.00000527802761948564,0.00000759785228849015,0.00002772812627837698,-0.00000033821837808037,0.00001651795615628035,0.00000822640892142547,-0.00000128239011546239,0.00000492589501452897,0.00003674079283225581,0.00001185326641261189,-0.00000148067963089111,0.00001753989737843487,0.00010865322200091524,-0.00000541030040010781,0.00000425977426656896,-0.0000102938878694987,0.00001812537092828551,0.00003500374446401075,-0.00000053650512191053,0.00000976567179503394,-0.00000062983528715291,0.00002373937677786626,0.00001607685394805998,0.000012251673038992,0.00001672183468929773,0.0000118703483553173,0.00000053244324228582,0.00004329835730906605,0.00000153813921331594,-0.00000048329994925524,0.00000686325172464002,0.0000335397265466812,0.00001384623801594332,0.0000194092226862493,0.00000841267001864896,0.00001155625331117488,0.00000655807737171527,0.00001491847227044343,0.00001721107021877136,-0.00000099461215353591,0.00000852940286101597,0.00001112663219988287,0.00000212453117896504,0.00000925348011210393,0.00000303246190730611,-0.0000083171739104404,0.00000893064711809524,0.00001857331567201008,0.00001358356189677362,0.00000662110829548216,0.0000019518435708544,0.00002461313993817863,0.00000305526959370184,0.00001709541019354589,0.00002695781984239674,0.00002363756257884726,0.00001156183424048905,0.00003245436352991154,0.00002115050284908771,0.00004165958556880452,0.00004443812426835231,-0.00000637858268642251,0.00000868957907306256,0.0000085737593239765,0.00004032688296550739,0.00003263348752044908,0.00000465566772628585,0.00006648467774528049,0.00000317613304798744,-0.00000053470825857321,0.00001500777659394053,0.00000930103143930712,0.00002251683291248665,0.0000053611777376758,-0.00000245623707068365,0.0000076461566111858,0.00000603041842988025,0.00001182217591886142,0.00000461722699592874,0.00002665197286363913,0.00001128257113338852,0.00000598201368574623,0.00002654766338317064,-0.00000355950531454827,0.00003820354720335022,0.00000941599595760734,-0.00000123958746789257,0.00002626431080650168,0.00000963523323231526,0.00001815746779508452,0.00002053079445817251,0.00000890109586705636,0.00000449487807315357,-0.0007151792675326756,-0.00000812027642043981,-0.00001086196294544462,0.00000447330992167578,-0.00004594059860190383,-0.00002516003175316376,-0.00003409433671110256,-0.00000397936988826733,-0.00001517006759181771,-0.00000016693003590357,-0.00004797562123548519,-0.00000517894905433293,-0.00001151006734231051,-0.00001527271295858482,-0.00000345642630996203,-0.00001998202466178823,-0.00006540908103744817,-0.00002043621309647673,0.00000702792636585106,-0.00003293036499675244,-0.00016261155417381567,0.00000124336488096892,-0.00000860183776181535,0.00000976891847068513,-0.0000252904725114692,-0.00004962358912353324,0.00000019537644230937,-0.00002019872519648472,0.00000020077655305537,-0.00002730718669667422,-0.00002878114530680237,-0.00000632039408325067,-0.00002703030582248275,-0.00000989147083383873,-0.00000088755015600276,-0.00005637827119024436,-0.00002133209601686836,0.00000599749491298868,-0.0000194853908020085,-0.00005684283168684473,-0.00001768095629184682,-0.00002640940899296249,-0.00001057804670913178,-0.00001558494408408096,-0.00003122940874121198,-0.00002260995016245454,-0.00002582313822107692,-0.00000272583103681338,-0.00001502498368605638,-0.0000118970190659912,-0.00000628526859999525,-0.00001293280527918606,0.00000941708516565722,0.00000682882090211877,-0.00002540798213715043,-0.00003524950544491827,-0.00000650672128752728,-0.00001819717513895906,-0.00000017903636383789,-0.00003204175920622382,-0.00000433446015539487,-0.00002801443661644418,-0.00003175382713937642,-0.00002578248559648282,-0.0000156590541189194,-0.00003488375005506223,-0.00001139345952481084,-0.00006354486331193278,-0.00005849721577384728,-0.00000292633735863425,-0.00000418690536191398,-0.00002530469376273221,-0.00006063283423635164,-0.00004582802983643772,-0.00001134527494362522,-0.00011959348040419638,-0.00001450583154956481,-0.00000650328837484282,-0.00002021462754429706,-0.00001433817165847607,-0.00002166908927812695,0.00000365899599547738,0.00000566423371394298,-0.00002744982355586219,-0.00001774034648146339,-0.0000193262745581875,-0.00001493852227309692,-0.00003958429057145027,-0.00002594798846837497,-0.00000468618173655488,-0.00002892588308295946,0.00001044941253534163,-0.00003466232023991516,-0.00002537199196622948,0.00002161964093106305,-0.00003095624999514895,-0.00001333421448091534,-0.00002041180999755722,-0.0000468458002141861,-0.0000157655212928724,-0.0000203073919741303,0.0010516330049246513,0.00008514797460368647,0.00007879880099784357,-0.0000254033389096263,0.00021453117628510949,0.00009099693539171159,0.00022671863742800767,0.0000794501861204598,0.0000767379846153696,0.00004873669141212319,0.000294508312842932,0.00002326538066442696,0.00009668033723728565,0.00011124376827081066,0.00001431140090640764,0.00002620424200316676,0.0005015233938632849,0.00011797781363798248,-0.00005589424746923436,0.00021897196579437374,0.0012812995080930738,0.0000428253648922871,0.00008508866125849018,-0.00018013037271682414,0.00019146732543605984,0.0003816383982820183,0.00000698286646400142,0.00012007609187894397,0.00000038359584845487,0.00011665610803336378,0.00016776728083285543,0.0001421087192901061,0.00021477870554673304,0.0000681014294726923,0.00004808144199685561,0.00032022580820103576,0.00013432150485012,0.00000567676083927907,0.00009807803750194307,0.00035938754943221806,0.00013985199321342234,0.00011549259266303728,0.00006788393159849046,0.00013486660355637145,0.0000998052734466219,0.00016927654676712018,0.00022825437442445363,-0.00008437058830487187,0.00014181173303245422,0.0000658667735416981,0.00004449187620752854,0.00007219754630547369,-0.00007042471830359827,-0.00004650989960550902,0.0001437898038394542,0.00023397625389839745,0.00003076837539783052,0.00014858172394587862,-0.00002129220563855335,0.00015825699661713245,0.00003603076186710049,0.00019657842204807844,0.00026513761040487685,0.00022844731953308,0.00006096425016783811,0.00027211647968922246,0.0001409763154788477,0.00045889126431630344,0.0003501879978480929,0.00000487742411800139,0.00011756084734478295,0.00011972633256004801,0.00041196846612868635,0.0003732610707743988,0.00008278637575778383,0.0010976657290385488,0.00007825094197597691,0.00006566722414890445,0.000161154229301324,0.00009463482776904205,0.00016796404769495646,0.00004028646044169215,0.00001059673593824536,0.0001227426832438375,0.00005926756846404179,0.00017064736247805471,0.00007041428162440638,0.0003608109681036753,0.00011109721737239983,0.00003092951246543184,0.00024850623032458217,-0.00010813942595144376,0.0002011295002119333,0.00017642254922765278,-0.00001390971813871371,0.00017933044450656118,0.00012146344617425009,0.00016427898012996286,0.00027126914222187033,0.00005519976293709775,0.00007285417223151974,-0.0076946876760039746,0.00000399637723965965,0.00001312590006417842,0.00000551006840447558,0.00005920812920229935,0.00002863293904202258,0.00006130616306463754,0.00000571848911254589,0.00002018728932874602,0.00000701964511637894,0.00006148939946968881,0.00001531948297123693,0.00001410631597732328,0.00002404671346616089,-0.00000153971606423278,0.00001927734519308792,0.00010922341585266237,0.00003156412807209213,-0.00001015838825158173,0.00004192667458500714,0.00029581390738601346,0.00001080326704911474,0.00000864266486196715,-0.00004041771454600218,0.0000414239231706199,0.00008806307707325922,-0.00000103057141606091,0.00002483199084090439,-0.00000649927510033449,0.00002911802111154571,0.0000410582395806672,0.00003103991170361793,0.00003213165282921163,0.00001487675074758411,0.0000034833204551396,0.00008406060818281939,0.00003259910374203457,-0.00000718183647262605,0.00002676536157173272,0.00010113023727077264,0.00003618186743402567,0.00004418627530468715,0.00000967826813351405,0.00001871131483659248,0.0000327267354822916,0.00002882074576783934,0.00004100393550375647,-0.00001857805805810495,0.00002342415429546741,0.00003238551728274134,0.0000066691535854619,0.00001257040574297029,-0.00001692785935797676,-0.00001570334025526546,0.00003470716032700726,0.00006176094368185159,0.00000518525251834903,0.00002007525779423792,-0.00000075777850219024,0.00005089684557972806,0.00000336457623708972,0.00004621885805941918,0.00004850963796418266,0.00003786138151215393,0.00000626877055294534,0.00004478953836090943,0.00002874105093314383,0.0001035283981405094,0.0000784478365230937,0.00000150265934097888,0.00001543660638703366,0.00003227144710401909,0.00008841195006069342,0.00008536536080012489,0.0000049458835732295,0.00022700778014416787,0.00001651759494475096,0.00000375924341360839,0.00004189516269529754,0.00003131884459344904,0.00002690484116736346,-0.0000039799319457189,-0.00001337825204323078,0.0000437568619255189,0.0000183434464305883,0.00003036978116171991,0.00002125916636988692,0.00008496573784982908,0.00001921188081203883,0.00001056687591322137,0.00004837956819458409,-0.00000922178263012414,0.00004449501542613926,0.0000165016932209157,-0.00000811705601366957,0.00005520945674452544,0.00003678326373052162,0.0000398414909739211,0.00005448994725925818,0.00002274799711324253,0.00001998367683927816,-0.0016986141136224027,0.00000725054815432622,0.00000652707996466682,0.00000697719132869931,-0.00000510050177735472,0.0000058403832060527,0.00001807822101583747,0.00000047738568353898,0.00000453297549440071,-0.00000292896779159252,0.00000051761489052612,-0.00000086434876172533,-0.00000017697526835471,-0.00000109079722227287,0.00000219856377596081,-0.0000018810690110194,0.00002536037034155708,0.00000089932404928529,-0.00000194544622079319,0.00001876324734963375,0.00006670030201060517,-0.0000052759473134494,-0.00000614400753523315,-0.00000711145920846503,0.0000009995493494448,0.00002174219368110298,-0.00000061763937995418,-0.00000277900240061079,-0.00000973162220953477,0.00000599887180547891,0.00000788664946538368,0.00000489844252412662,0.00000666871803611451,0.00000823671108434365,0.00000252848554431415,0.00001574680899801927,0.00001412571766992723,-0.00000440742724798993,-0.00000159393404267707,0.00000064464965555425,0.00000609791919230342,0.00000675968821642394,0.00000216433713308697,-0.00000413883236206902,0.00000930563091753457,0.00000595674584461766,-0.00000588145265174374,0.00000314126167177747,0.00000881907347345152,0.00001515271503757712,-0.00000253782418820492,0.00000596698371168809,0.00000783488616660252,0.00000476306228987091,0.00000078660670079653,0.00000558616205455092,0.00000948471235941965,0.00000689668643832836,0.00000645903565924995,0.00001181224431471437,0.00000268880513714445,0.00001259283925695029,0.0000064871238903821,0.00001290741115572883,0.0000055986106850265,0.00001609155207035049,0.00000242018816637939,0.00006119528681573723,0.0000635222175993709,0.00000357238370163206,-0.00000457693629372788,0.00000880984201777446,0.0000215394451014132,0.00001902900200787953,0.00000935757286069684,0.00000253347250948085,-0.00000286318218898614,0.00000105508221012813,0.00000550781321119628,0.00000645643410334743,0.00000733666848657579,0.00000837094327150639,0.00000476382712978273,0.0000033833174066538,0.00000776953485184952,0.00000908409685810175,-0.00000829713497640396,-0.00002514142153837492,-0.00003050931161396649,0.00000542799643378518,0.00000024004776068366,-0.00001626440611930358,-0.00000465883302525847,0.00000570103840129193,-0.00000207122018868649,0.00000583000934012804,0.00001070366934524421,-0.00000095424858654584,0.00001048999703212622,0.00001248768785383363,-0.00001350368124227356,-0.0002841038441209954,0.0001164393378299109,0.0001102150846185042,-0.0000174894968695036,0.00033235121419994125,0.00015073567150825575,0.00031249489756217657,0.00012423123527045184,0.00012717786354672934,0.00008012907431612883,0.00046744780362218953,0.00004129367565758188,0.00016159877881717402,0.00019682264609347745,0.00000979728728551046,0.00003773526681565101,0.0007449976615410538,0.00016511645883425717,-0.00006649874651468647,0.00031927050406153966,0.001897676148620212,0.00005141238926825834,0.00012239855202192648,-0.00022066448550551752,0.0002936363636067802,0.0005460016471429434,0.00005635804807516541,0.00016314736389571203,-0.00001051216461032868,0.00014483397035261667,0.00024051674425078592,0.00019203606719209618,0.0003331115265697599,0.00011391894751515325,0.00006374948593223597,0.0004544783526415001,0.00020714286506558097,0.00003304889346250619,0.00013454087672656417,0.0005186866531506401,0.00018368135959628736,0.0001417926979785526,0.0000995843409047541,0.00021797093513164766,0.00014578885026786186,0.0002500009436420408,0.00035709145061993544,-0.00007135247956423838,0.0002280414387488919,0.0001227972775521873,0.00007150596609056524,0.00013051568868500073,-0.00008170453102206909,-0.00005052844174598567,0.0002764594066381244,0.0003459103735067606,0.00004453358737978732,0.0001855260765497949,0.00000912445367424192,0.00033474227228385943,0.00006242834936370143,0.00027425698031039277,0.00039340979137552213,0.00035736062167163646,0.00007797252402846714,0.00041951246752912173,0.0001799742416683427,0.0006856259329352206,0.0005653162227728034,0.00000791536661475517,0.00019100060091150822,0.000190096405380069,0.0006713260342811297,0.0005660022034885634,0.00017338157902856586,0.0015945646424387874,0.0000962308311136025,0.0000766671394000653,0.0002409498627573894,0.00010042897584104338,0.0002558249359528528,0.0000672239220545185,0.00006454810987772307,0.000185518955661781,0.00010415858073198174,0.0002456086145374802,0.00009219911757968273,0.0005582604903690934,0.0001827726807987666,0.00003854385427910473,0.0003521532913857489,-0.00017981808583575264,0.00028244212913971486,0.000281102515849255,0.00001124299445177783,0.0002717980903184775,0.00017321488738901498,0.000248580636505084,0.00037389175470945975,0.00006428872226750539,0.00009639633179936799,-0.011585999104150316,0.00000776871819087306,0.00002118554017542362,-0.00000393213567254664,0.00006266410124928207,0.00002780619065516076,0.0000607065294906724,0.00001171703174242739,0.0000221057226804164,0.00000208599614561397,0.00006309852703289204,0.00001472153326200161,0.00001883422728345337,0.00002334526377149308,0.00000377714756651089,0.00002450326119561576,0.00010543416462073467,0.00003960714968759878,-0.00000797567711389327,0.00005210605876652291,0.00028468678515914536,0.00001572860144007086,0.00000929758776528004,-0.0000358570972678907,0.00003683027415117487,0.00008725161914545587,-0.00000133150070809799,0.00002791706859652403,-0.00000673165672349212,0.00002160257019689696,0.00004011741199199724,0.00002478236815241396,0.0000383566285240806,0.0000078906144134209,0.00000732889313569963,0.0000815297739046884,0.00003793011829685019,-0.00000128667801602955,0.00001952638419649453,0.00009645535641107817,0.0000390881751597667,0.0000377875376431419,0.00001123918219535727,0.00001736481910424518,0.00003421798962543766,0.00002880876214062641,0.00004090057736246583,-0.00000682658381188176,0.00002279836186464572,0.00002474390336056692,0.00001487394299243808,0.00001311602596689268,-0.00001725517487387338,-0.00000463175673564169,0.00003532476256749314,0.00005258088440160875,0.00001159614578667864,0.00002544025289876602,-0.00000077987931871854,0.00004169831708832265,-0.00000249326500974796,0.00004403084960634008,0.00004484142864103015,0.00005167128875040653,0.0000078826779224881,0.00004873442867204306,0.00001997545886014337,0.00010497038933831047,0.00007511046786763516,-0.00000870816579284355,0.00001194391987906816,0.00002552340863248314,0.0000902398610485365,0.00007661055872959831,0.00001025039767838255,0.00022829836032853157,0.00000830233939347698,0.00001047659393315124,0.00003346684067853867,0.00002248581693062014,0.00003732576171498061,-0.0000029601139195473,-0.00000861062960382259,0.00005057249160738962,0.00000641870086087432,0.000029159046996133,0.0000188183575162957,0.00007853256416602345,0.00001401182420971744,0.0000104092349129997,0.00005639710245733882,-0.00001055296015581257,0.00004360648411866574,0.00003023585222465124,-0.00000512891032838686,0.00004104904553439345,0.00003685729104254368,0.0000373201717410968,0.00005735507325201743,0.00002269592910495708,0.00002055032881318236,-0.0016776735686616579,-0.00007523403126005005,-0.00007276329348031959,0.00002291570902161675,-0.00019568076997955673,-0.00009614363390472891,-0.00018748536825658764,-0.0000634336174101687,-0.00007452120504135304,-0.0000424515965819204,-0.00026497455555945224,-0.00003531752845341821,-0.00009384965850822621,-0.00007162656447050943,0.00000201334488446074,-0.00001181457558748012,-0.00046300703886720425,-0.00011391708051588332,0.00005433518542895819,-0.0001913791662214265,-0.0011616136190202007,-0.00004202293903982158,-0.00008699569577595865,0.00014610195289367511,-0.0001692471253481094,-0.00033676103598525095,-0.00000786616556481917,-0.00010326357244580745,-0.0000035659111261528,-0.00008842809941056564,-0.00016118709140643656,-0.00012035561336767879,-0.0001972001333442254,-0.00006706665768498598,-0.00003465660707263737,-0.00027943853383561104,-0.0001188997581706349,-0.00000559131905379116,-0.00010128922041701588,-0.0003443885222942117,-0.00013120906718697392,-0.00011731824973536039,-0.00005670390127945943,-0.0001181760534949813,-0.00008594534184946396,-0.00014887553808599585,-0.00019952398553619896,0.00006745561457819691,-0.00014152561487158535,-0.00004742276511559512,-0.00004118610163996396,-0.00005782151334809088,0.00008918038176462814,0.00002818061597257908,-0.0001298967474929006,-0.00021979667260325515,-0.00003222193477775867,-0.00014813030972233573,0.00001433151959662606,-0.00016612369951986825,-0.0000314772319831259,-0.00017956718459746513,-0.00023210178105584342,-0.00017616244197220875,-0.00004416236052324062,-0.0002511091530436816,-0.0001305430445725246,-0.0004244063835358788,-0.0003008859705424086,0.00000169203271479786,-0.00009170669802528642,-0.00010478962761616164,-0.00037593589365520305,-0.0003239795422772792,-0.00006929281074393592,-0.0009655305121438906,-0.0000663211092617731,-0.00006899133191865481,-0.00014683281977306842,-0.00008497313052485175,-0.00013706325246912082,-0.00002300790137991305,-0.00001383526757454112,-0.00011045359404670353,-0.00005383125882815356,-0.00017202458462575734,-0.00004684485543891702,-0.00033191624587242656,-0.00009566142180753862,-0.00003684206269139675,-0.0002358721687111172,0.00008437263942539811,-0.00017173208866868894,-0.00014858978231285707,0.00002505100481302763,-0.0001580129608425336,-0.00010401072548591718,-0.0001348672434181993,-0.0002588178901314586,-0.00004811747261534179,-0.00008502768559292328,0.006921456457034631,-0.0004411809460132096,-0.000411547136508447,-0.00002062957113713654,-0.0012976908416476847,-0.000612851484361094,-0.0012633969385930513,-0.0003510774209963245,-0.00037185626239114207,-0.0006145387146229887,-0.0020077418535363037,-0.0005006364753825071,-0.0006680617495956073,-0.0006255062020159922,0.00021150644355263668,-0.00006760177820751386,-0.002751482249477755,-0.0004296036141454844,0.00009788769520759892,-0.0012886728930096977,-0.006691327348776382,0.00010911783467140285,-0.00038610236651049745,0.0009222717877877457,-0.0012241802795987186,-0.0019512394748964943,0.00007518364083305295,-0.0005973525904424149,0.0001113410190682952,-0.0004928699251662087,-0.0011848769104421588,-0.0007204488477745652,-0.0008252733745631118,-0.0005060001622282503,-0.00019987952028695076,-0.0012260549412532477,-0.0005723045285396854,0.00004943840350338835,-0.00032659489456910237,-0.0013680735805013762,-0.0005129265934112699,-0.0008674863378103681,-0.00042120246336168477,-0.0007780106322476918,-0.0007611266749008683,-0.0011373993481550515,-0.0012401258245784295,-0.0000239669007577182,-0.0008008277665539204,-0.0006101277019845773,-0.00024961970910809713,-0.0005716500691109408,0.0003142264300653116,0.0003157297472611685,-0.0009772521205848816,-0.0012280726362315997,-0.0001264607202873401,-0.0004291584943375777,-0.0003504661675352463,-0.0012011908211569016,-0.00035071799944565624,-0.0011841010731457183,-0.0015517816927726475,-0.0012700562165403819,-0.00016157069562199486,-0.0016674592362638967,-0.0007027354364394589,-0.002543691978628663,-0.002747825028338946,0.00000198790846153992,-0.0007061970061686757,-0.0009027754525299796,-0.0026992290326666433,-0.0018310271303547444,-0.0008307066258358069,-0.004945623856154608,-0.0003306262616770636,-0.00016039711303447802,-0.0009218779269972556,-0.0004493815141833654,-0.0013322961805860554,-0.0003024823196328103,-0.0002341988295770482,-0.0006890755856920988,-0.00042715558636322536,-0.0010141255482877622,-0.0005284455007940833,-0.0020461351952282257,-0.0006573192385532227,-0.00030329102090415543,-0.0013291772334949352,0.0003587775862234064,-0.0017142993524405126,-0.0009507329307284623,-0.00022155293250556503,-0.0010317024082871617,-0.0006970257401710616,-0.0009921420755661231,-0.0012642126741342437,-0.00022782833977113095,-0.0003767199524185801,0.0435163546234185,-0.0005215683463093495,-0.0005778270071472198,-0.00009753085647802713,-0.001697586195886727,-0.0008160926524129756,-0.001580838735260379,-0.0005380226594751428,-0.0003919172549440413,-0.0008466303800359425,-0.0025005853437029923,-0.0006144041353041323,-0.0008930799701048925,-0.0008816267877192563,0.00024183633308792545,-0.00015391379709988362,-0.0033692797112007526,-0.0005746389742311261,0.00006340626330271978,-0.0016343207923063998,-0.00797452299824266,0.00024710022654071966,-0.0004908307144144917,0.001018442870296433,-0.0015593264620731605,-0.002347922892846618,0.0001990695624678748,-0.0007456369551869867,0.00005467840225685653,-0.0006932020072482854,-0.0014246269325168073,-0.0008238439212496593,-0.0009996356019717975,-0.0006273516791781203,-0.00023646459320594078,-0.0014434973540886852,-0.0006768446536076185,0.00007713001713381844,-0.0002734631161081714,-0.0017434489272625284,-0.0005328164817786963,-0.001087457476870683,-0.0004983998452865368,-0.000838693010682597,-0.0008782116686156378,-0.0015081424367399286,-0.0013589801224475966,-0.00007067104097247722,-0.0011215802144803717,-0.0008465460785713394,-0.00031648544787191694,-0.0007047001161854659,0.00027396107692086684,0.00025967424005723217,-0.0012319458922352559,-0.0015192270664412483,-0.0001280080900018331,-0.0005342837956089873,-0.00030338829426402995,-0.0013892790050278102,-0.0005134769838217253,-0.0014636062834442627,-0.001981529779392701,-0.001582236761179754,-0.00019028733082922854,-0.002144031161809733,-0.001021149870940211,-0.003180803415968513,-0.003412418319478801,-0.00004362198076873793,-0.0010031961272170356,-0.0011065936887572978,-0.003390248534646851,-0.00271388133549907,-0.0009939587153483512,-0.005962605213537386,-0.00027255578614414475,-0.0002535447847440143,-0.0011430247975361253,-0.000545704503205984,-0.0016505409333441923,-0.00013777677771322047,-0.00014630496008666687,-0.0008428573612040094,-0.0004959617261061343,-0.0013321181029531403,-0.0006820938250759011,-0.0027108607816005437,-0.0008111781111766218,-0.0003751663716797234,-0.001705332897779345,0.00032907318399740557,-0.002077361693904983,-0.001146945108632685,-0.00019851990350504907,-0.0013626356197294143,-0.0008463725955247403,-0.0012357489277321904,-0.0016064109613318205,-0.00021099280222832383,-0.00038350373218457587,0.05420380606339059,-0.00046006801814930796,-0.0004410104251729359,-0.00001136711087380368,-0.0012686127471822617,-0.000621113467680435,-0.0012644457507523749,-0.00040352642357332396,-0.0003510899721324824,-0.0005818202494520899,-0.002011212231407717,-0.0005182501530368945,-0.0006726762638759104,-0.0007090117121314739,0.00024364974990540123,-0.00014166374006984136,-0.002747998211236744,-0.00047386773074909887,0.00009643389140240666,-0.0012862433455241768,-0.006435683520487196,0.0001294416328796933,-0.00029110360217536645,0.0009164581516713731,-0.0012368377915097204,-0.0018888315791831755,0.0001479576272956308,-0.0005697934108735544,0.00011358443576401056,-0.0005597837470774634,-0.0011288630880904745,-0.0007330646856823286,-0.0008430353518264036,-0.00048413898655636357,-0.0001886320348161905,-0.0012242546167357993,-0.0006025001139349436,0.0000819372329230096,-0.00029341327489950097,-0.001419828585469762,-0.0005468963783537692,-0.0008630903513466133,-0.0005425459989701563,-0.0007674663737205991,-0.0007120214233535462,-0.0011053234126060646,-0.0011391162804250358,-0.00001636700816993027,-0.000914178825453164,-0.000561852396755876,-0.0002902902045593115,-0.000540047240775181,0.0003347080986249198,0.00028101080652684883,-0.000945448184842718,-0.0012625133881479468,-0.00012200507550403469,-0.00042286875206830966,-0.0002925687963766055,-0.0011382649880815764,-0.0004049511296322924,-0.0011464884514156169,-0.0015092211390299523,-0.0012709216301342882,-0.0001653788103413371,-0.0016285148898358348,-0.0007500385757350262,-0.0025890010528780124,-0.0026152401690031093,-0.00001127476497363341,-0.000784688732917835,-0.000937932991940377,-0.0027181066921815756,-0.0019192648161655294,-0.0006278469199502505,-0.005073076600100917,-0.00027381688868523464,-0.00019738250507389166,-0.0008889058693717743,-0.00046939983041473503,-0.001348826583986034,-0.00011293751884288129,-0.00019027542251039893,-0.0007323614187228035,-0.0004092833969616137,-0.0009629461874582243,-0.0004806400284048229,-0.0021083444820382993,-0.0006543240883085141,-0.0002641490269830232,-0.0013239885997023248,0.00034741851049400514,-0.0016871552866495729,-0.0009270650184305176,-0.00031789991441323823,-0.0010850581899680206,-0.0006585733700289747,-0.0010030974919943217,-0.0012115912713931293,-0.00021909238331325445,-0.0003697661064090296,0.04325715024724998,0.00007027187690153681,0.00007960714924528764,-0.00001425548865620368,0.00018507644196516976,0.00007645852508840623,0.00019846235382724788,0.00006805651389773078,0.00007612779071383618,0.0000380944174094248,0.0002601534787787846,0.00002663541253706043,0.00009512390440811644,0.00009332433630718759,0.00004290457267667051,0.0000094581339649479,0.00046163245394904737,0.00010115452934920073,-0.00005831003087662274,0.0001864096398353036,0.0011994069131784073,0.00005281397543436818,0.00006737993697067967,-0.0001605140287704424,0.00017662668113532624,0.0003584290561337444,0.00001948478636178328,0.0001187023004171257,0.0000032182655501781,0.00011876287241502501,0.0001725096549173244,0.00010764904216395359,0.00019767168494822415,0.00006115099646882385,0.00004394219589108016,0.0002863498931746772,0.000120976826426425,0.00000009512993423128,0.00010096647350955467,0.0003340810124740249,0.00013303277122099489,0.00011483678765082199,0.00006613634288354452,0.00011950180304441914,0.00008099018714855286,0.00016147554571066696,0.0002114393506445407,-0.00005747643337370274,0.00014452601150948934,0.00004536308279426972,0.00004209063407448222,0.00005494551639484828,-0.00008806325888067033,-0.00001613747840380914,0.0001292869353924239,0.00021984602091404615,0.00002904791913784764,0.00013319746507043861,-0.00001821041641257602,0.0001795412925699871,0.00003526418518364058,0.0001842531980361273,0.0002213805779015423,0.00018318243130432306,0.00006172838219859602,0.000245232137245183,0.00013499296147543604,0.00041345434428637545,0.0003138345424949791,-0.00000096060413492839,0.00010142520551412065,0.00010711728660507866,0.00036653809417680965,0.00033527388392290197,0.00007095116065839245,0.0009977620576846326,0.00006728499459987468,0.00006071789018457455,0.00015009496883398163,0.00008326099993657346,0.0001477230575087254,0.00001944177036890069,0.00000249662660651902,0.00011144384504878729,0.00005254353681428309,0.0001724255870339314,0.0000646206609350875,0.00034243649784976803,0.00009184746084052262,0.00003131414990618263,0.0002474426091448148,-0.00007447915690199224,0.00017325422937830874,0.00015437071026354633,-0.0000316251647108626,0.00015200957614065476,0.00009980589127731197,0.00014411529771222634,0.00024538007565180113,0.00004356724729933373,0.00006709420911088076,-0.007022505010059588,0.0004652768331650243,0.00042497799795165664,-0.00001412625772418905,0.0013793620375113333,0.0005863149427675178,0.0013057840821628312,0.00036618041325044024,0.00035958822275052797,0.0006295895487877044,0.002128925004243744,0.00035380544006655124,0.0007143958166603452,0.0006844620925592844,-0.000265733385271537,0.00008667251676948152,0.002918524043325096,0.0004289255940133658,-0.00007321033818648013,0.0013840691371236535,0.0066808425815632335,-0.00006896348861108459,0.00029973892186345484,-0.0009312200612503657,0.0012897978998738643,0.002022079365905479,-0.00014160239620926226,0.0006820447114320077,-0.00016164231230922057,0.0005842716869467709,0.0011627381440097847,0.0007351500644340703,0.0008455740413610693,0.0005288087196315726,0.00022556774961864876,0.001299241464057455,0.0005618403822099155,-0.00012078544063608195,0.00045048454842992855,0.0013750221004357245,0.0005136204834202771,0.0008701394106355537,0.00048191777374895374,0.0007861657708938425,0.0007430992888274448,0.0011758346007557086,0.0011333796591548185,0.00000282081883163661,0.0009727232394276372,0.0006560987068782134,0.0002763524938711818,0.0005968664809849971,-0.0003161218058181589,-0.0002299674353260248,0.0009682071223251945,0.001260935482175819,0.0001268857075657288,0.0004704614722596173,0.0003249238302117136,0.0012062541613084698,0.0003659780117274588,0.0011799724557446376,0.001654574079986163,0.0013883361083556148,0.0001929511141364724,0.0017023101151345708,0.0008246677581023787,0.002545286446055994,0.0028340500636573488,0.00001576624026648632,0.0007809192979575478,0.0009608737134879828,0.0027555818114620148,0.0021698912261221615,0.0008440409079012874,0.005199275845920996,0.0002744833942401407,0.00021559742701629956,0.0009785508464010943,0.0004623173611307908,0.001403698032969157,0.00031686016580275344,0.00015820933760772336,0.0007171227541718882,0.0004099026154089581,0.0010876481881418403,0.00045065384447373754,0.002123990482933931,0.0006728625899222625,0.00030552427638072424,0.0013551337431797522,-0.0003157777773427499,0.0017029545217131716,0.0010114057755286035,0.0002245229334553788,0.0010749383527268422,0.0006841505253662942,0.0010277612166012858,0.0012810476371660588,0.0002325287976335766,0.0004594627610562009,-0.044914068057034615,-0.0002495929035938582,-0.00021983643637958457,0.00002081602601393286,-0.0006757845879678818,-0.00034182386670898285,-0.0006330588437818825,-0.0002063675601578267,-0.00020100126773521117,-0.00018382880446670948,-0.0009621819066651626,-0.00021544983482726005,-0.00037959603834761984,-0.000345112606454514,0.00006987948935282367,-0.00008417299647935376,-0.0014399442448692163,-0.0002885238107246156,0.00008593789117255004,-0.000641027010300853,-0.0034819700030486096,-0.00003175882527137477,-0.00023074028485699935,0.00044324062111508094,-0.0006129977656597887,-0.0010285518036148586,0.00005321468642603415,-0.0003060856014136937,0.00007554169324412666,-0.00028737774561298163,-0.0005388113085949155,-0.00037550014324976244,-0.0005188658720880216,-0.00026622241725203966,-0.00015640574980864711,-0.0007842832966537425,-0.0003566325763972215,-0.00001734552167066593,-0.00023608743549302267,-0.0007743780115170115,-0.00032574309583225297,-0.0004050006833971506,-0.00024723633122999804,-0.00040631061553118164,-0.0002965552559973056,-0.0005346334334033887,-0.0006516210931265024,0.00001801544375741648,-0.00046887370341103197,-0.00030837212192826323,-0.00012643682363994548,-0.00024026726516206376,0.00027041079784349836,0.00016029334120413089,-0.0005020102951618857,-0.0006633513236781721,-0.00007693776887547675,-0.0002947531460324286,-0.00006392749897029211,-0.0006276590937340341,-0.0001564368824323618,-0.0005650012898842002,-0.0007837820093183176,-0.0006526759583789589,-0.00010476370686729629,-0.0008193136055810202,-0.00036589939176784027,-0.0013587531590132885,-0.0011925142366114715,-0.00001036106413045902,-0.0003390511723547979,-0.00046405057639914085,-0.0012991538577028592,-0.0009837256602109221,-0.00033147190899406487,-0.002944780009592811,-0.00015748618320453182,-0.000149093218729343,-0.00048467632527974077,-0.00024761827407849873,-0.0005586727347683036,-0.00016297582110928863,-0.00010969543025142077,-0.0003550566182744949,-0.00019621573499534428,-0.0004975886513434857,-0.0002192030812056571,-0.0010641632450909212,-0.0003507941714253547,-0.00009321534970880943,-0.0006766794416819151,0.0002696994185810721,-0.0007334890049066049,-0.0005216625923694903,-0.00003260531869537118,-0.0004957078604736475,-0.0003688544747860023,-0.0004807690522456184,-0.0006560060781295357,-0.00013982575975266624,-0.0001976925883712546,0.022392180359851646,-0.00042124273698430437,-0.0003300313023600977,0.00002281370052131956,-0.001143107952467628,-0.0005451239811763912,-0.0010287742825189439,-0.00025700563437544924,-0.0002915511093785764,-0.0004933641610452393,-0.0016267495269157934,-0.0003655677635792263,-0.0005441671728930948,-0.000525127030484631,0.00019856939583956778,-0.00010319461830641888,-0.002303978833432831,-0.00035163010799658977,0.00012273089404785193,-0.001070502576274044,-0.005463473888453878,0.00008899379249127481,-0.00024068259445145072,0.0007650567291990247,-0.0009889476776043873,-0.001586426427580119,0.00008361149214029536,-0.0004930118123836539,0.00008921603518739208,-0.0004968749527407652,-0.0008864403760111142,-0.0005526037440867655,-0.0007575942968775916,-0.0004364249152752795,-0.00017328879946366843,-0.0011136086186480944,-0.0004864940610268639,0.0000803888081047395,-0.0003269959472932153,-0.0011051269420817996,-0.0005219816598274305,-0.000706440543814032,-0.00040819726115404534,-0.0006835811640583029,-0.0005655701357167816,-0.0008868942104179309,-0.0010045466331221084,-0.00007061665361679418,-0.000759215121739341,-0.000515155971496554,-0.00023784093192154453,-0.000474900565077704,0.000256302781629468,0.0002735999163856953,-0.0007860623915223225,-0.0010270243219185709,-0.0000796743684050757,-0.0003918624820074995,-0.00024279583989532389,-0.0009571821224966437,-0.00028645168849986526,-0.0009199185060646515,-0.0012353522603182896,-0.0010030224511926795,-0.00014235957563494924,-0.001306166901564668,-0.0006679956218768719,-0.0021674416637022537,-0.002101264703356829,-0.00003847559921491259,-0.0006091194523493239,-0.0007409046241322291,-0.0022081238159006177,-0.0015471172085067522,-0.0006602820407013518,-0.0042754778398359315,-0.00028673913140621067,-0.0001663719097866331,-0.0007773278696172589,-0.00038563586467059267,-0.0010271098173402317,-0.0003036989035880634,-0.00019907616630533508,-0.0005424728668853992,-0.00032742940370009355,-0.000802765890515732,-0.0003142605242478653,-0.0016977176867169772,-0.0005338705578881955,-0.00021343744890804924,-0.0010723077850346356,0.00039799894514930154,-0.0013125414920770921,-0.0007874940128423086,-0.0001653479371127537,-0.0008154955381522971,-0.0005437238196177283,-0.0007870136635831662,-0.0009585429328998244,-0.00019956079961353562,-0.00033022525341678177,0.03570424019087569,0.01843411475072082,0.0030362157561836856,-0.011422998580376775,-0.029825568134731507,-0.007422205095914189,0.015355366161561378,0.011335641937184775,-0.012072503067565004,0.012190254983085238,0.011961203418222531,-0.01331969695051419,0.007786822970289768,-0.008960190106310316,-0.03937620986203879,-0.0041705408407113195,-0.010231553551059062,-0.00373725395465572,-0.01279950541566126,-0.021215055615377423,0.011258104623255069,0.006283183574064182,-0.010744833862273793,-0.0035080760566252927,-0.004323410408595253,-0.0045557371637002485,-0.013133123563195797,0.009367705568668177,-0.009793303000113473,-0.007384677170938794,0.0014793750543940218,-0.011153752804332038,-0.02661530327691938,0.007894105652987817,-0.00788322837725705,-0.059210395349323715,0.007638874784851567,-0.014860423265389501,0.0046256059035305165,-0.012718388415140995,-0.006955485513604273,0.006748766931670781,0.022690717223863073,0.002330416575919282,-0.003489874262566473,0.015081683000891516,0.013563790437962192,-0.01078458681166103,-0.0007633613074139475,0.004821911339501936,0.04989803677467723,-0.00396675778022711,0.021187481596713284,-0.0030626949814356024,-0.014964088446007943,0.027656523871129504,-0.009089260981358411,-0.007370922086132385,0.011538706276963065,0.022031907515038203,-0.013283427849126677,0.0018710163040190323,-0.006032471967114404,0.02431133084171817,-0.0015595434078362778,-0.0011762186271817342,-0.02197696652791727,-0.004772814533417619,0.00024246119408701525,0.024779959038687273,0.00223942085501588,-0.0016380559579777117,-0.03823312389086412,-0.011095667155284093,0.0007707810914367563,-0.0021429189257644206,-0.012164383322406793,-0.0020554740097633614,-0.03196262155229541,-0.012846760668357474,0.005072075513021412,0.008326832942040717,-0.03865501205588643,0.00993422338095897,0.01261475627117637,-0.009692794736727517,-0.0035791876111536942,0.0011495280323011862,0.024571809069915178,0.004380389242643472,-0.004363370736685882,-0.003576223055131857,-0.004507790754924907,0.0009700698555562853,-0.022965800204370147,0.01048069766201824,0.007511386695014899,0.02767280407343054,-0.02166398385615472,-0.0012616377136363338,0.027139008814543026,0.03664082227477726,-0.0000710989421540724,-0.00006972672242137706,0.00001487192819631745,-0.0001948469706645969,-0.00008506645624394669,-0.0002024720826821125,-0.00005439053407273579,-0.00006816765852938605,-0.00003664485947473342,-0.0002510153138642442,-0.00004328077001950166,-0.00008319127945721633,-0.00007124540629736678,0.00000418716862788944,-0.00001191854777485803,-0.00045817413368963434,-0.00010707508929891168,0.00005226258602894249,-0.0001916648041420991,-0.0011493334980920236,-0.000044063584065632,-0.0000763577821202656,0.00015394177224750197,-0.00017001186681260398,-0.0003611301293666154,-0.0000124198327791833,-0.00010629121666102863,0.00000181042214935743,-0.00009995514249768549,-0.00015674638956049924,-0.00010680446240514174,-0.00018040505007269254,-0.00006418490174208871,-0.00005001785928913904,-0.0002774935055838085,-0.0001189331952524424,-0.0000180629370383493,-0.00009955301624933201,-0.00032155928034757996,-0.00013312111587981083,-0.00010042247272303751,-0.00005279054027805263,-0.00011915270578881185,-0.00008661224160249658,-0.00015772912822705016,-0.00020187737973033078,0.00005085144586738619,-0.0001384041010253911,-0.00004034855756649501,-0.00002534008913332039,-0.00005927962918772185,0.00009344341608353447,0.00004422615347519732,-0.00012993066668181433,-0.00022366141775586695,-0.00002669070572246327,-0.00013790077698541382,0.00002252588698886391,-0.00016813997006899422,-0.0000327857893058078,-0.00017911884144812033,-0.00021371266454328123,-0.00017534896938805318,-0.00005002431434618635,-0.00022862751035799173,-0.00012972677527094283,-0.00040447433659641837,-0.0002921463475278835,-0.00000465151946295198,-0.00008837858173852209,-0.00010361896856125207,-0.0003677958388420797,-0.00033070714389710616,-0.00005229062383848588,-0.0009494952549407075,-0.00006694871044443261,-0.00007105283867844423,-0.00014791069009782452,-0.00008195624332420254,-0.00015754690541638068,-0.00002971233366009637,-0.00000638759149378336,-0.00011788277003016782,-0.00005414200376052553,-0.0001582777203695869,-0.00005873624468130089,-0.0003363164190359132,-0.0000707557235019467,-0.00003734343059195265,-0.00022333170013595662,0.0000770945872070837,-0.0001584600109997226,-0.00014862916699528398,0.0000676679735909818,-0.00015808405490835012,-0.0001139434397684982,-0.00013141928890497085,-0.00024895117557360066,-0.00003579740869240371,-0.0000671902025357723,0.006768409628176741,-0.00022497908519895305,-0.000182787611872945,0.00000136151289264211,-0.0005675521025476175,-0.0002541110972893648,-0.0005211929693552241,-0.00018182806688355965,-0.00019464357740972736,-0.00017457950439029137,-0.0007730909592761701,-0.00015314650359065366,-0.00029718757965539185,-0.00027705237003510446,0.00003306241151518535,-0.00003523163179066242,-0.00119522281658894,-0.00022867749682043624,0.00006305153027343747,-0.0005154449020976016,-0.0029352418260519303,-0.00001256399595982337,-0.0001771868572853514,0.00035911903724943837,-0.0004944395606380814,-0.0008274943751409284,0.00000595392012462802,-0.0002399403021293353,0.00003503704221487649,-0.0002637911178500676,-0.00045816776821245116,-0.00030494932815278137,-0.0004539120145263574,-0.0002278626508166376,-0.00013658514021378407,-0.0006504968245839538,-0.00031359469771198237,-0.00006636598728294163,-0.00021248866007488452,-0.0007077037178863806,-0.0002886202273002139,-0.000336681026216288,-0.00020189140184637136,-0.00034075590138547466,-0.0002281193197104709,-0.0004333405089638837,-0.0005576831123499639,0.00003274697580292153,-0.00033427489973328697,-0.000164379928157031,-0.00010703536823804063,-0.00021187384271277175,0.0002101184709342434,0.00014493800155669797,-0.00043781596536813546,-0.0005419306028823747,-0.00002433533719993576,-0.0002531658845443575,-0.00006601530828393839,-0.0005334206397910788,-0.00012107952987121301,-0.000447110520154192,-0.0006233821916183812,-0.0005421597480286066,-0.00009646240530563641,-0.0006471368469272316,-0.0003415689784088072,-0.001107754844184888,-0.0009162223647587443,-0.00004460303127710439,-0.00029769398228499626,-0.00035514149736658873,-0.0011280451682533646,-0.0008941220904924247,-0.00030303067051997676,-0.0024314029740203974,-0.00014379171889357964,-0.00015423417694458702,-0.00039851508196177163,-0.00019829110744626108,-0.00048035306670919637,-0.00013061339511983026,-0.00013147169155022895,-0.00029795601581998084,-0.00014665381960362437,-0.00040609085480764395,-0.0001196435206177055,-0.0008808852807923728,-0.000278119191312822,-0.00008121354731044951,-0.0005628501131767807,0.00024226421401191454,-0.0004937776406299768,-0.000437874433293756,0.00001453193594702979,-0.00041529398830582315,-0.00026820881626448827,-0.0003961612323554889,-0.0005399954027149581,-0.00008399034256936895,-0.00016198860557654318,0.01852220799079719,-0.005990272724486234,0.017692714015447544,-0.08142932038248975,0.0028771207840095434,0.008370543322977368,0.04790613125532316,0.024158428681977692,-0.005046261422160678,-0.023261388167021977,0.004984609487053524,-0.02230663472968912,0.02833839058479172,-0.019527137039371215,-0.011263165796127815,-0.03314761485846432,0.12992757826691603,-0.03134352731957883,-0.14961107171427673,0.021567456028548624,0.016348723498883368,-0.06776173444917763,-0.04635791488150777,0.009185071525020742,-0.01143445502245371,0.024991404163163658,0.05074963855793477,-0.031676719877237934,0.026838668721512665,-0.025799452516804967,0.059446113362026154,-0.004842726800624119,-0.003874950534691551,0.014552606413624132,-0.052379341244094435,0.013910559074894822,0.03428629404264773,-0.03189425782416572,0.02001310727907707,-0.03814029951813241,-0.02500823180234816,-0.01479002950507703,-0.005453804748246917,0.014458835483160137,0.01090309814953735,-0.040717033843384855,0.018065815046760473,-0.011071080539457113,-0.007379575741276585,0.05569405107026065,-0.0048955067173758245,0.026881665065111537,0.0032151162234303255,-0.02715544459513279,-0.04652860276310995,0.008546163813507864,0.030961864511432742,-0.05668628671127411,-0.03247863027463021,-0.013471272503288676,-0.014331041763876127,0.010921936240453003,-0.004731961938175968,-0.059759470155580106,-0.00454171526066723,0.0010141272082649531,0.030981592002101516,0.09453644487397199,-0.08184004722210374,0.030590032269601015,-0.02032309961446267,0.01836977146779962,0.04361970672215968,0.01814883335401699,0.06003208205102786,-0.018611523057383825,-0.04174172756566103,-0.0519447060414086,-0.11355643803408251,0.014010465468520932,-0.018506737262730444,-0.038191430069797284,-0.023039524573030108,0.023288666520668366,-0.01037644873948772,-0.06178055203136924,0.022482491807728947,-0.007366183839743996,-0.040386835647200504,0.029473220112089946,0.04291976546692234,0.0734940008593462,0.048339744495221,-0.0034665438655273498,0.022733384334069663,0.03958275322313751,-0.05159220758992145,0.014551490755948564,0.034439864508487385,0.036370067846531115,0.048249642168010455,0.06562185309634193,0.000511345391523098,0.0006741764370504509,0.00011109225193698888,0.002109284104555659,0.0011208785108707518,0.002161176440266692,0.0006035193236632255,0.0005327784812348889,0.0012232340115182973,0.0034070576693451047,0.0007857625083368413,0.0011728207906465582,0.0010385924704767137,-0.00026538239122525693,0.0001785187591599065,0.004015120930311146,0.0007890510127646191,-0.000008201995825032,0.002156374400556393,0.009570177383907875,-0.00047787969327500924,0.00041409062209145245,-0.001123706648174742,0.0021002544320411986,0.002840951458042841,-0.00026338151287444477,0.0010688617856328233,-0.00023700603845085738,0.0006855253339034116,0.0018798079959450888,0.0010639831848276347,0.001243895032115666,0.0007544171270006924,0.0002184632718574405,0.001859829346762372,0.000797173060618093,-0.00001661309981223642,0.00043623427598288127,0.0019476584840858173,0.000567906171078864,0.0013514354710761334,0.0005042325093436798,0.001201406151660107,0.0011345456438165017,0.001857745365973414,0.0015587684551152687,0.00015701096688180657,0.0014048427770234743,0.001168856610488202,0.0004219553033607554,0.0009707304409393812,-0.00035513164917304834,-0.00009947938301654308,0.0013964057976995287,0.0019876173968176696,0.00020928663207547653,0.0005455637924969523,0.0004807694168825063,0.0019399151493706746,0.0006272192074042616,0.0018147937415043636,0.0025920216653769054,0.0020662087777124517,0.0001629982228834094,0.002856915111473257,0.0013057006263106964,0.0038775703261325705,0.00463878121066581,0.00003473222946290716,0.0011936912160643793,0.0013862708301177829,0.0043071890575469346,0.0033947381885979086,0.001508867619816028,0.006919389802034083,0.0004079871647412774,0.0003173391603077716,0.001471921971553165,0.0007014295087303743,0.0021701868837479023,0.00017159710425909528,0.00011374763764674702,0.0007742458430714494,0.000530634222190439,0.0017706053440620813,0.0008902308321107408,0.0032835235587461028,0.0011820176648364052,0.0004152995307902718,0.002127877805636821,-0.00013506105063616742,0.0029476889386241684,0.0014464695476444564,0.0004296603353073135,0.001791654548668973,0.0010215762811675183,0.0015461707792682434,0.0019346410348077734,0.00031244163863132534,0.0005728140718706379,-0.06808154063556968,-0.03943487146707921,-0.04287138189985626,0.04958197518916018,-0.00201170605660157,0.0004768424319530687,-0.00735688131183659,-0.01022209554113181,0.018990515053577555,0.012249875885279572,0.005436230004363991,-0.040098867491807653,0.07931799952823336,-0.034983734807669024,-0.004961174262034107,-0.045991814574983574,-0.1019712585641054,0.07672963786552925,-0.038914275111924704,0.006925877833758869,0.03584659544551068,-0.062396784002094356,0.028180525701337576,0.08377333219001201,0.03010501146771215,-0.10092998732567808,0.015513613311067116,-0.006199427250312176,0.0010112687240896555,-0.050443864661299125,0.015294155297967262,0.003288617633393608,0.04746683506489226,0.025469242704736626,-0.005240569956213772,-0.013165169107560937,-0.021940479475455237,0.002521454146425194,0.012240448809360652,0.06172705329852189,-0.015001987567141693,-0.044336125981969544,0.029678385283537168,-0.0413285217359087,0.031042005951140657,-0.010918052466051265,0.012345435210353677,0.00036605770296234966,0.14398096477375794,-0.035789037037530384,-0.002034737223320691,-0.0016543624171186761,-0.009593323170653785,-0.05285379458362817,-0.027891472523229995,-0.010210296277965292,-0.0057187099182835635,0.0038829905054693042,0.025349460947942753,-0.0041542949138614485,-0.004408624057879255,-0.0011164053821008555,0.00653241994638933,0.03984192050576514,0.028070080432839435,0.012973599571449609,-0.015020671170790045,-0.00024803416843151294,-0.03633850683921326,-0.0400920134310216,0.010569796962797943,0.04027535513070826,0.03379964133823652,0.09748140270558288,0.00002364236729020894,0.03271037649502853,-0.006474028844445678,0.07216851062099193,-0.013027040990059073,0.009862900825329174,0.05522595091715978,-0.05904167861545661,-0.03373431275688249,0.021563528384896107,0.03341197980949538,0.02563263247359826,-0.055061827450722904,-0.09319476331824397,0.04029006051909515,-0.030820884712470947,0.03910172935650129,0.14244180833263187,0.018211397627787115,-0.05645219937628985,0.00842103762063614,-0.02380777101345651,0.031030384929398254,0.001499740915836837,0.016413905246471003,0.009733459330341115,-0.09797135143179259,0.020294535696049405,-0.0005266210355142895,-0.0005161433800515335,-0.00013331236853257565,-0.0015083996205044912,-0.0006615300767113018,-0.0013638501105960536,-0.00041153437838135107,-0.00037977771912839565,-0.0007381932726598543,-0.002190517637615931,-0.0004380135149279652,-0.00078209259634579,-0.0008865893101249261,0.0003017303326030516,-0.0000900875522262406,-0.003026983099538384,-0.0004940151166516469,0.00006613287813630642,-0.0014681821655225043,-0.007077352492575346,0.00022877211699423605,-0.0003050821006872168,0.0010260436315171215,-0.0013971347497361965,-0.0020244605824655216,0.00009038974511939463,-0.0006514887927268293,0.00010501827297599522,-0.0006684586214706714,-0.0012970183485984427,-0.0007192051988477974,-0.0009800965695205485,-0.0005470394363032764,-0.0001756074027918578,-0.0013480191548057188,-0.0005898314785472525,0.00008133575049499905,-0.00031721447209410764,-0.0015178401862292604,-0.0005152645796501963,-0.0008499612707930065,-0.0004983600432700957,-0.0007947332862437358,-0.0007536623250089188,-0.0013505784596832009,-0.0013026897904055035,-0.00002460150418606375,-0.0009040180692903444,-0.0007344095385184556,-0.00031925659082156086,-0.0006122747900590181,0.00017302269896032527,0.00024895001522655163,-0.0012204508950890717,-0.001361320450258108,-0.00006625529418727999,-0.0004893040137997804,-0.0002835237826323168,-0.0012995526748928927,-0.0004937000135922484,-0.001278216163530256,-0.0017708405510897176,-0.001404176185388305,-0.00018478391396441277,-0.0018033448689089634,-0.0008685497244904799,-0.0028711379778734755,-0.002942219706659794,-0.00005914955730124852,-0.0009447703114674669,-0.0009180732026943062,-0.0029885186291331474,-0.0023427807759794843,-0.0008845139307651654,-0.005465086326046353,-0.0003501462966592789,-0.00023277810432326712,-0.0009900531048892738,-0.0005439050970843432,-0.00148208248922482,-0.00013944634183476115,-0.00014623602007526006,-0.0007666528288649556,-0.00042882303502192725,-0.0011531518619626825,-0.000512808292479935,-0.0024628839152653803,-0.0007320263108000147,-0.0003172218606991491,-0.0014665642905736247,0.0002642058049842981,-0.0018588273768621072,-0.0009646193437722186,-0.00034379116481799907,-0.0011719703680898,-0.0007399379075553533,-0.0010829360782951343,-0.0013546139826922433,-0.0002398735555546465,-0.00038642930716061734,0.04810434348926574,-0.02713159211873128,0.025626561018803153,0.015517208540538724,-0.025033884701627047,0.00775864900117499,0.04113413824883893,-0.05432207595184871,-0.0034986765634461062,0.0009535893484437014,0.022405117976627403,-0.005560884510059752,0.03311116357352648,-0.05343218100918789,-0.08887802272562183,0.0567919673400497,0.12175117512774386,-0.04643781222111485,0.013881056162578162,0.0028573709525253808,-0.01539036515090536,0.03985080941041084,-0.0058344471053368915,0.04198574052785757,-0.03084471712227432,-0.043197600653022195,-0.00471560112687057,0.04673015545786216,0.02853309206503491,-0.010801825521605603,-0.05429321466085192,-0.03155037827156366,-0.012167247228054283,-0.006349664377328961,-0.03116997825624571,-0.03929483648685595,-0.056716656682333506,0.0687364015742098,-0.14106554047429978,0.02794530599085126,-0.08252576639990719,-0.027309426450611827,-0.018032629934712618,0.028341732680006875,-0.01589937403127412,-0.028289130954673874,-0.005159846317753701,0.032193350144054056,0.02339429177040999,-0.013410989165437454,-0.08604248206505653,0.034508390939664395,-0.052153531752000805,0.009489541801164732,0.036875391304125406,-0.005214252748477424,-0.00945668546151026,0.02757969804604273,-0.03996758320512279,0.04111318544499764,-0.06286142827531825,-0.0192192689115804,-0.004048609683099582,-0.008635452944432824,0.026366849778857553,-0.06910729759374169,0.047787760544132,0.02351074418640436,0.021070749323729526,0.07276660639631372,-0.005902779401310212,0.01557167023674389,0.027326156137816707,0.05461668992583179,0.016671786045452986,-0.039822038607649934,0.020438244043456656,0.029163089656039583,-0.003826721919339852,-0.0022470263605107905,-0.007808924097833027,0.012669995338101422,-0.06425425995531531,0.019307954580814492,-0.03372738633855345,0.02109425107676197,0.07213457262516998,-0.07314562126365849,-0.03580584078049984,-0.030081187462536175,0.03078244053458181,-0.05892601188930236,-0.059641680705185635,0.01323136876761953,0.04585522962302304,-0.03389053260820721,-0.005571499788651536,0.021491560899842336,0.019681646758339857,-0.005566704855506388,-0.014636064087879869,0.20151707534248842,0.04066807301126222,0.04563393300759378,0.04934605685961995,-0.08038893721300559,0.0783106008357068,0.011673186919355535,0.07832300495569958,0.043537523140561606,-0.03371864830976552,-0.070594255275448,-0.010210764941342232,-0.012766220708628285,-0.0690877260191762,0.043431165316573775,0.008195590552870696,-0.09830165056153393,0.00996906190143111,0.13625783544896566,-0.09667815728313699,0.036165780750791694,-0.03831893279745377,0.1350144536799103,-0.04890542240160634,0.11129748682467176,-0.10313824270212989,-0.06185338376492835,-0.0033865992572879493,0.04635342827716638,0.042167699354118654,0.041600178626755926,-0.01947424779547282,-0.06889900552844555,-0.016782413131210434,0.032855745277894685,-0.002226646191590607,-0.009806345660593819,0.04778219128156085,0.01568259154769364,0.01617661709363798,0.08911588175475778,0.0037441153342906244,-0.01650029883667952,-0.0019886155794158096,-0.0605449241891189,0.04219673185077609,-0.014410616492248625,-0.01572579466037109,0.06762420391925994,-0.03537633875453647,0.004584389025017923,-0.022404962122172575,0.013849948074617827,-0.044760303791633496,0.046324410914735936,0.08745230663108414,0.0318896117278804,0.022851091248865717,-0.01786068162109259,-0.014064285342414917,0.0661728702476592,-0.009602796543009712,-0.034463335238693764,-0.10528501238081335,-0.10746969064278979,-0.071971354615543,-0.008162710574349372,-0.1202026846479413,0.06387465899041994,-0.07901039393153075,0.02151643137263313,-0.025169654448450693,-0.00796305865248159,0.019919205126809253,0.012564139736073196,0.029219918235681496,0.025410234724286884,0.04936514465549335,-0.0194054242040252,0.100901483116432,0.051428815124953904,0.0674340242127548,-0.030698988880664906,0.027077511323681518,0.07154552566631109,-0.028406660619046432,-0.03481209910257444,-0.008585830865819977,0.007855729649534456,0.0243595240725693,-0.04919725880510984,-0.07233485080121226,-0.04047913899933234,-0.0065317006571804495,0.00323678481174172,0.06429487851848464,-0.0888874061231794,0.02225412387900343,-0.024182545706668956,0.017564391520566772,0.029598469436031952,0.08596497706906635,0.00033282297417836594,0.0003248810231539863,0.0000099501939405126,0.000928673760766873,0.000368411086683033,0.000910248561385051,0.0002463580459518633,0.00026998134080746095,0.0002895792810294538,0.0013892042111915625,0.000315857081486527,0.0004914043119057032,0.0004665539243204136,-0.00007066407414308233,0.00008071866167512112,0.0020860602836337856,0.000321668060772671,-0.00009161752338002606,0.0009313772995782668,0.0048979536904634365,-0.00009294250712584737,0.0002468091709195444,-0.000629758577125208,0.0008741339294382048,0.0014271277585491931,-0.00009792276252603993,0.00042577104550441905,-0.00009848890765313784,0.0004318590360057983,0.0007571245609778275,0.0005379204323013259,0.0007034745384388215,0.0004187307807184947,0.00015838669852289976,0.0009936742550059564,0.00046078522971837335,-0.00006434750752355081,0.00026711146235588285,0.00105557448228315,0.00041595093312952547,0.0006553879006795383,0.00036906002249855623,0.0006018971851904652,0.0004490480989384178,0.0008084257133080983,0.0008823580105042307,0.00000156116527261455,0.0006060089257553583,0.0003966539035862775,0.00021394962086745926,0.0003606370354651356,-0.00029753990590258416,-0.00014549618820848767,0.0007316180339312346,0.0009656785931104998,0.00010342499864763085,0.0003443776189348835,0.00015779035141080328,0.0008166146157295111,0.00027009070713532063,0.0008164232833393108,0.0010745982086815364,0.0009248457775570163,0.00015913924344630105,0.001187726824311138,0.0005383869175825479,0.0019207474309350786,0.0018097333840431883,0.00007245287842342545,0.0005454038559906827,0.0006963813479996552,0.002024669718095008,0.0013505589663732023,0.0005604688892221383,0.003940255253171681,0.00020042978955370122,0.00017360395398193578,0.0006916735005309453,0.000283156796400864,0.0009689207768375418,0.0002235988845722664,0.000162614995462598,0.0004921215982586921,0.00030438607970281875,0.0006852695791202892,0.0003071174553697393,0.0015212985671579347,0.00043911775942083133,0.0001230759217757358,0.0009664908930863446,-0.00033760222672237514,0.0011639445374253953,0.0007113727296491041,0.00019346987390341566,0.0007162533697071019,0.0004671905309056789,0.0006856981148863969,0.0007774378906618374,0.0001821411844534507,0.0002912793694532872,-0.03172983334981809,0.028272759341008712,-0.031100262509045268,-0.008699910782949705,-0.016094967749849358,-0.06982192242542817,0.027815756550669358,-0.028316564665479826,-0.06467830317149317,0.010219236046091406,0.11623857656864248,0.10038992649486304,-0.07093938270060647,0.04159356120202291,0.0061359224382565745,0.025521980157262744,-0.18585832251386541,-0.0241707769310544,-0.04380818359016444,-0.0013541776882159233,-0.013699905136893018,0.13764722100089052,-0.04039919867731789,-0.17719670064213822,0.04823769485222801,0.09010199100436163,0.0693321973279757,0.08610256990304893,-0.03017111002129383,0.031564726711111726,0.035542291002892815,0.040088387256275136,0.12074504163686682,0.027065520388353907,0.02236757139078341,0.0690395999824162,0.020341823118908905,-0.07657159426113734,-0.055450062722003646,-0.04699011145026543,-0.0642723099396131,0.04346848746247386,0.08313181573086208,0.061240685293599016,-0.010932682673384538,0.03786152972143118,0.0467442558933441,-0.10747964899506966,-0.1292134762203706,0.06731247490094831,-0.005383681083989923,-0.04483471254718252,-0.0366920777640378,0.07731692016810301,-0.1057035307864734,0.03417905537460251,-0.01958123632046679,0.07076437847794258,0.013136642275596765,-0.008914243832106438,-0.017779314443809435,0.032716069303289984,0.010945269372455725,0.021074994190574358,0.006368334184837025,0.14939012895152448,0.017715758534446412,0.024946766282417744,0.016891117332009122,0.019689283048541648,-0.1762351308268096,-0.04327210279831937,0.051843560152303986,-0.10696296471859877,0.00017642945398903766,-0.04508615346123705,0.06547560643249238,0.005905588744670383,0.08603520431642309,-0.12449915838286926,-0.05525677298149428,0.05054705343132046,0.032109731249431984,0.02192058686031911,0.031464169442206195,-0.03321771051130405,-0.009672537613736688,0.08510376573895259,-0.003651717874391974,0.020330137148887453,-0.07453903069799855,-0.021131841083215343,0.039337664780815705,-0.03365615369865298,-0.019679491369806082,0.044112369353729274,0.020952357406019938,-0.005101417511261339,-0.08241339593132309,-0.026588125700603794,0.023617750878223626,0.060232890123662335,0.022556678578470653,0.01610060043212491,-0.014276313220925495,-0.00881556161356545,0.029138138187352183,0.013397608773833752,-0.0022210072552374797,-0.0068754657427290535,0.013359001356330544,-0.0016884595090605001,0.03487891925359367,-0.011506526085757309,-0.004360542951995669,0.009389249305400037,-0.004830650748110349,0.046360933924036146,-0.0075706666277896946,-0.00794969062921032,-0.0005100488167284188,-0.0025682601041096603,0.004624970477580418,0.014576230450034325,-0.002966280415340502,-0.027040372773043466,0.05770804140734506,-0.007684978124695949,-0.001518679679439653,0.002175298079225521,0.04801784391515024,0.04349226517947755,-0.009192104998016839,0.01942759868719692,-0.0025286516316106174,-0.03090767178852848,-0.019115345269133402,0.009114947906751445,0.05030096863794482,0.013952228605958319,-0.012679390728688207,0.04686280215937685,0.0036197574116252993,0.0059303401759869985,0.010849456977489708,0.033710765888846625,0.018430932837552785,-0.024542704712110723,0.03347756610338226,-0.026635115733739816,0.06533517396035962,0.016627670690510965,0.00835100257551693,0.01063168846362367,0.02908274212498887,0.02483069570733851,-0.0036124587560137644,0.04041978328226731,0.03299756057564043,-0.01553290732740724,-0.009815389823065937,-0.006688310691372657,0.00012462819453504123,-0.00023253451278550425,-0.014960196178702822,-0.006226245751934639,0.009827223033294943,0.016167117407552643,-0.027615515163514688,-0.002958746328509842,-0.016011637154512676,0.014401516022606893,-0.01810703457680605,0.02142557806024315,-0.01655229916770668,0.004829284847309402,0.012545467732290922,-0.011958153522617851,-0.028351778552909622,0.035073997892343264,0.002624622718176004,0.0019173266779134843,-0.01892667029536483,-0.010404613314988268,-0.02244244360899057,0.0075994276049396675,-0.0017479279429882472,0.0007634778428979654,-0.008475731567314026,0.005974570569592931,-0.019866366331496053,-0.030041525171802863,-0.0334590754030347,-0.018451158348518768,0.005407571836296748,-0.026109124350267125,0.009559163804655449,0.019807599192984637,-0.016470665478679102,0.026843742063425033,-0.013365403328050269,-0.010203303068563636,-0.0910193825700986,-0.042499468467852075,-0.01795329211951715,-0.008248444439783708,0.07213317586640383,-0.024962937517146,0.004180867423719546,-0.039143545085723035,-0.012767419588171399,-0.02624076540263734,-0.17762053312938114,0.006447546564762151,-0.031873371858789065,0.0764733802101318,0.08146970075616385,0.010675643319570969,0.2585076750139593,0.006269174257570767,0.01036302379119687,0.11387597720646536,-0.022054600246118206,0.03002209684833201,-0.03143904153294027,-0.005439114183011619,-0.07980687044013696,0.04849670913896133,-0.004385024200750025,-0.017076321566906714,-0.04275276958913578,-0.03254000304694595,-0.10815864599430815,0.02937899374356214,0.02701640906233999,0.01757588975688739,-0.013122859735462131,0.0428711379830433,0.018055290904519548,0.022380905238946657,-0.00465237702700892,-0.008465613119599829,-0.014884324642828854,0.061956860532918316,0.012275737431562175,-0.01985230159128303,0.05279878150146198,0.012301192343553613,-0.004980764838424093,0.003609170229482443,-0.09052695575144168,0.027134129662298265,0.0035768215176711325,-0.04335376874521565,0.02758524806704932,0.006212916462171547,0.016278523264424954,-0.037487256885123575,-0.04038859261572995,0.011707198778602509,0.028930634220083247,-0.010569879605041028,0.015090239476074333,0.004490853821031979,0.07089786491086982,0.10374757300706039,-0.09512768614932392,0.09805675441364886,0.051075082129270054,-0.001586851599549238,0.048649465810732415,0.00999668528070883,0.01182946171171073,0.10916055788725512,-0.007883877584196643,-0.022906111896405245,0.0019347368387630723,0.013106883643971556,0.025543200580719426,-0.09782849011645882,-0.01231657397941204,0.03155480131517959,-0.00306305665568226,0.00174614509980372,0.0670073457459461,-0.07098437711923998,-0.035056121807095865,-0.012956434178612227,0.09038074291948689,0.06082642799738226,-0.0320731981414563,-0.0022434866273486394,-0.022704594718616997,-0.08138862086131106,0.028022541764104653,0.08343100322570132,-0.06298816573507382,-0.03251496296775056,-0.03910666189474576,-0.03856690446661595,-0.04408584087414195,0.009953355444864032,-0.015170306925803139,0.040682846548582376,-0.023126485018410258,-0.0015268530410814875,-0.035749363822974306,-0.009412802313973127,-0.004330266555599574,-0.07540870852456605,-0.0027412763132786703,0.0017204607781334872,0.024112760797276964,0.08790032934766417,-0.012042279836996418,-0.025318418366228,0.028678819457761216,0.00781191013955488,-0.008820109523276094,-0.06278958287954853,-0.013132242587411259,0.029376599862621682,-0.05289379735720118,-0.00230165789110239,-0.03702500324957848,0.011005654046122347,0.05092034557185487,-0.037691933898208976,-0.024100960363870893,-0.07224922778994404,-0.010797795913174764,-0.017294126558604118,-0.016435220387332646,0.012860552438602993,-0.006193319147860363,-0.0323983580543939,0.049459092218802285,0.019318823687594112,-0.0367925815208275,-0.04452509125899842,-0.015887300784074496,0.07919930409360477,-0.04500552899088892,-0.03382933939711864,-0.039979316018971305,-0.02434023193150078,0.023135635049077934,0.04221076378985837,-0.013548753376286526,-0.06468992977121556,0.02437089567378553,0.02935678204764377,0.03059303902229076,0.0784189942354539,-0.0197296837674387,0.025435263216320555,-0.057961329771145015,0.07303462961765841,-0.024441817565916416,0.03489971087890486,-0.08880765140783997,0.0294641624957695,-0.022929113366963794,0.010243755992279882,-0.019199118246254032,0.011740417689816686,0.08882941122075244,0.05122243582298878,-0.01528925337003242,-0.03129529301499183,0.005095414745499376,-0.025271682824629715,-0.013886105016527301,0.045802944608846465,0.0007896935873559521,0.04288919546645894,0.008972828052737018,-0.037982391987758025,-0.0030034998778559175,-0.0165589642073018,-0.02893572900280614,-0.03622814380783855,0.01965602415782616,-0.013221306730171092,-0.013295663888398717,0.04665304858950728,0.028904362913397093,-0.028070731063017593,0.04104902101305174,-0.03363581133392767,0.023112420733060243,0.0644333560871798,0.015940727910188586,0.044571945739941735,0.007539201963956057,0.00469639457923366,0.018926085439642262,-0.005303129911300632,-0.011840194233896133,0.06105325828534352,0.0008072290721209822,0.02515039325945146,0.00833831184124544,0.030476006749615252,0.04032720090595206,0.024088804029135068,0.020027097223441086,0.019161412507933157,-0.00340697016517087,-0.00808601183845721,-0.01416786367351545,0.03791348806821521,0.04090016785113239,-0.012835036963990505,0.061615008086431056,-0.03818234017223315,-0.004267082277890942,-0.016007743112083,-0.03674191440353453,-0.00896257116500573,0.040031826215686905,-0.02793270916249534,0.04295747759372406,0.023037731808801514,0.012287943919702345,-0.002574614366602464,-0.03670465701065045,-0.018420245856895088,-0.0029523033832282524,0.06648783495341551,0.02732618234021584,-0.013782173298237145,0.01407038676882725,0.054954888664616015,-0.01919016606552185,0.00963570383581197,-0.040126470507331945,-0.046432440502107424,-0.02267379519436553,-0.04657515980656975,-0.013141762607696944,-0.012116743670722678,0.024942566149022787,-0.004147099596136493,-0.0010132120099152877,0.03287224172709548,-0.03308685945555913,-0.002913583813663496,0.014859867449504741,0.007251192160797956,-0.0006726918335603884,0.00615766401538413,-0.018761441183310693,-0.06418144571962497,-0.03494682224741327,0.025505917598580723,0.010565079228404514,0.0188769019736389,0.08222260903925241,-0.019485856743267038,-0.013699128171325705,-0.03182922110279194,-0.0006699872896248722,0.05745334871686924,-0.0072946685950399485,0.011957705142203432,-0.008622121565036793,-0.023508226135312612,-0.0021903118776738168,-0.06464977429172404,-0.025141109713722985,0.00023711944575679407,0.011746171478029449,0.005776959909035159,0.0025052589023460926,-0.024476484728998035,-0.02865395828983815,0.025664057444386205,-0.05822513739637237,0.02144451105484373,0.004009829133250285,0.004899149268111808,0.024200766657614694,-0.04630821492413342,0.012698477647143254,0.030500073448817305,-0.005792989641666584,-0.004797337123339549,0.015868164763690372,-0.0056765644856166956,-0.022466212686022,0.007143057220671141,0.005083505781997168,-0.013524427546067972,-0.005226984318489964,0.13251646931451233,0.01985193837396331,-0.03265653264071334,-0.021807829710627162,-0.024510636775752024,0.011790703223719171,-0.026854567959171686,0.021083242323396447,-0.026337547070736992,0.03585661109481082,-0.020393895125328815,0.007182123120147189,0.0029710833006371426,-0.0013932137292740163,0.07913610235213482,0.000295298245242237,-0.028058628827716273,-0.02243255031929313,-0.027655863019026804,-0.00932714055263412,-0.009491912758204303,0.016399597591869708,0.005679891685717575,0.04176727307589094,-0.006043646938935627,-0.03971563172174874,-0.028211609173414136,0.02456869212048736,0.05233495715299685,-0.0013104427321845792,-0.029916286034213962,0.007782714629077757,0.014121769087448053,0.06053165788060604,0.008944478389822902,-0.0051062038894564956,-0.033276825709921035,-0.05847753985965048,0.008289861552440141,-0.0519482098546577,0.022032192546698796,0.01820767770064105,-0.04589900986075457,-0.006516686506360107,0.0006838105323264997,-0.02080498052423747,0.025583998526446862,-0.045347860799727885,0.010366726155736689,0.0031391732000549673,-0.030792854071622196,-0.050757229278532774,-0.02495288133984899,-0.0284052578861969,0.009556093654971065,0.0387500801584532,0.010407839261606005,0.04453680632747353,-0.009501608332544641,-0.008307525847053045,-0.0009597218455835973,0.009773448071388231,0.027938845585519262,0.013506678507519724,-0.03786602007370132,-0.006150540153992059,-0.029850165194666572,0.034950240937076806,0.0019624590628941623,-0.03089822836102253,0.012361662965793246,0.04375596757464218,0.00005877931719991662,-0.012300927180290359,0.035896643739414535,-0.04763947085826596,-0.05242812473640694,0.028597750723594235,0.029971958688725736,-0.030108665063288808,0.026803095057391695,-0.05118958209531413,-0.047017269510125276,-0.011301731592849402,0.02843460342957083,-0.012461163195986991,0.00853381127559004,0.04536059354365453,0.04325709210893097,0.018265739769427497,0.02855809102613705,-0.02491730690753256,0.0033581155722248583,0.025964900016950468,-0.002921719873062547,0.00913558365921083,-0.001978998575049893,0.03234163220162444,0.011969701081653785,-0.0013957200099216866,0.07398125990053413,-0.005097327707064389,0.04041465565775546,0.0349973614087315,-0.028341011520068744,-0.009572018214413483,0.01613761034376407,-0.006977033835320024,-0.00885536046395398,0.032066859524585,-0.008729898390486312,-0.0433671690674352,-0.00013356147548787038,-0.00012904583188355067,0.00001335264326969316,-0.0003371736159889486,-0.00015082370499297038,-0.0003594064355680171,-0.00012828941167168927,-0.00013402425440194886,-0.00007890166494178877,-0.0004980276507989591,-0.0000285452604432554,-0.00020747997775499835,-0.0002068662461766191,-0.00001427442714957616,-0.00003434307071807108,-0.0008332354462724919,-0.00018143181712243018,0.0000574440834728158,-0.00034087945763132567,-0.0020841569055063177,-0.00004538975261008804,-0.00013033054616315686,0.0002640566115231622,-0.00031525920760005664,-0.0005813964629795845,-0.00000982718686550633,-0.00017579649374861427,0.00001563695960297244,-0.00013835158943854373,-0.00024654151936527114,-0.00020676282683618124,-0.0003840791994825566,-0.00014298910202557646,-0.00005954479020546925,-0.0004643202804565636,-0.00022444631008592983,-0.00003198158325248309,-0.0001510658727209158,-0.0005354358542827142,-0.00019744960358152586,-0.00020156838465240404,-0.00013260905659075018,-0.0002326368458916542,-0.00016517395070650098,-0.0002888267735647276,-0.00037032485219130483,0.0000789990491518876,-0.0002582859873202549,-0.00013526208006862508,-0.00007059083182740455,-0.00014804798147958643,0.00012084075586456648,0.00003825022998605659,-0.0003145674849184256,-0.00038922991251864956,-0.0000489823256731865,-0.00020691628621314164,-0.00001551431922993608,-0.0003529038452650374,-0.00009379108939296295,-0.0003075357949203963,-0.0004245212059982117,-0.00036020314013872595,-0.00009282804441196425,-0.0004734521149026952,-0.00019955810388871056,-0.000771514080299326,-0.0006203087880096008,-0.00000897093320710019,-0.00019528836302000203,-0.0002539340134895653,-0.0007171340861070341,-0.0006040635709939509,-0.0001835436381089707,-0.0017485681677261123,-0.00009847722593462482,-0.00009972573236232444,-0.0002804897300075161,-0.00012504147345077763,-0.0003275400363033925,-0.00009278639636094102,-0.00008938471927018533,-0.00020459438627024634,-0.0001097369398001875,-0.0002830117039522208,-0.00008708043046525582,-0.0006044941194244008,-0.00019998189416918678,-0.0000533888576956189,-0.00039636259680480456,0.00022583607716592327,-0.0003622655749333091,-0.0002695857417762374,-0.0000129379824450675,-0.0003172105258247728,-0.00019536136394078884,-0.00026680208647378637,-0.00042379479780032517,-0.0000522678263837368,-0.0001060511578206687,0.012762159200531814,0.00013455483132833272,0.0000923102056670433,-0.00001388979067744892,0.00031129503571220696,0.00013962803459323945,0.00031570811964323867,0.00011314087916644057,0.00013123089636109586,0.00006012716848432553,0.00042922233833961104,0.00005298163237599577,0.00014771283815172333,0.00014309308565418904,0.00000380642774615155,0.00003184811241590717,0.0007222504459028098,0.00015813204425406491,-0.00005978459318509402,0.00027152914156872415,0.001765935585291327,0.00004341637198933104,0.00010637262912309951,-0.0002270561832841373,0.0002808057597878444,0.0005105211292404369,0.00000427155334455384,0.00017475086588137628,-0.0000106703864081415,0.00015360559032651702,0.00021296889085985714,0.0001747058579571029,0.0002987581283388437,0.00009023413802431118,0.00007626769739862918,0.0004229581148735041,0.00019074975781590913,0.00002802854604210468,0.0001219995771477369,0.0004914791634522156,0.00018990488858255377,0.00017952147442117932,0.00010523277254013361,0.00018755873192908044,0.0001513736809566336,0.00022039707263812641,0.00029461729094766706,-0.00008955161528961449,0.00018467005960819097,0.00009917912113517406,0.00005838025446736632,0.00011470607842460001,-0.00010883257053064125,-0.0000759025178657572,0.00023239411119851987,0.000329208811945146,0.00003016801369827742,0.00019281461895070457,0.0000009097962610453,0.0003241103671261651,0.00005842328403811533,0.00025868038816403977,0.00035333966308391903,0.0003036202202099441,0.00006832155875006733,0.00036917897268719257,0.00017313454379224452,0.0006254915868067019,0.0005269354585928482,0.00001879766955278705,0.00017082540684311217,0.0001871876002655196,0.0006055759039473409,0.0005320758024870815,0.00015531467036312976,0.001477762399918214,0.00009792970413487217,0.00008359237755127239,0.0002241794038909582,0.00012576145483500874,0.0002475569911431598,0.00005136194820175665,0.0000225183917797727,0.00017022660254007824,0.00008274706148438665,0.00022245587781087828,0.00009890661337889858,0.000518358543663107,0.00016782034494514274,0.00004112812187289416,0.0003396852709635827,-0.00014125336970070436,0.00030936199546995893,0.00025156661087909714,-0.00000476953967504504,0.000249100164022751,0.00015841799801681407,0.00021909613176326797,0.0003568342643677559,0.0000665185368535743,0.00009399387237090702,-0.01074923404966673,-0.08404696318471118,0.06635296484821276,-0.053322814140504035,-0.10343369072137792,0.08321695519517378,0.05644271203874348,-0.05563771177949559,-0.025636878412219167,-0.08302445832547824,0.01244424589130819,-0.04889980336801143,-0.009011620564745665,-0.021364402535042373,0.07531754587457898,0.10432644360979187,0.04891875455400724,-0.09228373922209429,0.07956724532100994,59360.36460548435,0.022269024373190876,-0.10103314287095518,-5361.917711245767,-0.035655112406344044,-5727.6396774835575,-0.04006886445812211,-5724.589099662121,-3.0452511552569668,-0.06914501219921652,17414.06131798765,59877.78521533733,14813.531787105088,-8935.53314898864,3669.9710187422875,48610.891079848196,-0.040062155036430826,0.08062621079391075,-0.08147406158138562,2593.9467514962394,12628.400274907803,-9.24859785060157,6.151328577399045,2359.863731627102,1719.9740347520135,-5444.872208670886,1375.6710401823464,5709.187785965475,-17899.71638320466,-2270.295865171761,16142.869620951094,10864.240985564287,-20744.271531634535,16.504881877709774,13021.20025260017,-6158.756411629839,-9.655534788795565,16385.614447165346,-20683.15161133866,-0.9381358837492341,-11644.107332669613,-4130.717071856406,8727.968552127588,17107.198528777393,12394.595824682196,-26095.91709634424,-422.36772299999524,3956.2158933303517,9562.82661737974,-1506.0841424319922,0.5470902000712466,-5524.602656775137,-17502.892008122482,13293.629447584717,4559.2358718017385,-40835.3394675195,-4718.086637711721,0.5927260048977864,1007.9377806770963,-2083.889806886389,-13.370710056989239,-10180.145618053864,7083.924933080253,-10528.098635589675,-2733.383730491274,-116.2480502826705,-0.50521940707628,6261.6704196010705,1969.0554450971995,-185.7994547851505,837.0874319634486,1.4907976121295483,37.989330777137596,2960.6652728639583,-3660.640388748748,148.46127144706276,-21.02401765062631,-10378.78333644717,4854.074169642313,-12.280770600681642,66.62846550281203,-48.037182699775315,-14381.815560174196,-3840.069332029992,-2086.516213383897,-0.45337391450089887,24.473411102112173,5008.900259950088,2.2080015854556825,11.29869480822952,82.93432781240445,4639.749184849065,-29135.634183823317,0.11208089819262954,-1.325801728846956,37.043612238445455,-2891.577781547124,-1192.549911763747,-5080.942059093129,2064.759192814468,170.15826198518468,-38.079803255123025,-258.8448737756666,602.7804814628356,583.904679242334,-2.5213279321378907,0.4990303171541107,3426.256438428404,73.0896004848738,11.728904283976469,-6.732071511464842,-2089.413275455354,61.00819022555222,1720.996565711681,-2400.7182680767746,-1524.207277917912,-9.688279374200599,20.02372986517562,-2064.798125479102,0.10427537956386154,-0.024631563795961122,0.08436555383136814,0.03954319773548637,-0.08520834813281732,0.0703234531045085,0.09456009312383327,-0.024670246181623966,0.060307117037183625,-0.08222263482573479,0.07273849415984995,0.09021166943988516,0.08642907074825172,-0.0205008137561555,-0.09019663617659265,0.011954825642089462,-0.09798371549812518,0.07105230506904202,1689.0471818492665,-0.11039196241926263,0.10193128289353498,-2977.444403008292,0.00225350754902456,3077.1904746290193,0.007359806546171283,63.70875580390103,8694.649210153466,0.043026385569748304,-2300.565444097233,-7293.034493892463,1.9561859636924033,-7820.437802617047,-1.0553273632457096,-9584.184610710083,-0.0692355269815466,0.014894810403910209,0.06165866732759341,-15892.534648874233,35025.325898930096,32073.616818531533,-4546.029712450638,7269.428631545599,-99910.72330991,-21756.22638683773,2369.616512383901,-23348.313869368045,-14969.168302862368,32868.83249681928,22525.44198380488,51781.249184356224,40413.24206291975,-23428.650448826767,-26553.539316459388,51277.633053493955,38826.89884671083,-10693.24772157696,27102.86978239194,48451.14563651699,2392.6985324994102,-21847.47210872512,-18718.713329911032,67286.43119186116,1467.1666142867352,-26589.833797159725,-93356.93069699946,-20824.297654593258,632.9643280901286,-3.72742647992077,-496.2074266273916,10151.834252679697,621.5256543268681,32371.67237803933,-25465.36812832348,1353.1996542658171,-57529.28026101811,2190.134357538865,-8.088182248691663,5502.1185652011845,-2416.1522766776225,-834.8305048016607,-809.2621635910253,-1104.6566643864105,-1253.979822629155,6431.082384235109,-968.0438777512728,9878.908463309353,-24.712993941512906,-642.807096725997,-2897.130621126744,-0.7206096873505253,-1509.166492345642,-0.46920419116096584,-1.7631593860846693,3435.7190924522915,-0.8916875949203588,-5871.5161276208655,-1273.723578144802,2.3285385502774916,-5977.872819280274,7488.478331339446,-417.7304946698457,-3.4510177708060414,901.3382337613167,-1.1984409857455374,45.73801158785204,7632.353535621955,-1.196064936711257,6.57088732655162,-5733.603972229134,3642.4043763047907,-2.05459317604234,-1353.1244637075063,838.8726481695325,-320.75281075358953,85.30562494667208,-38.76560039475904,-88.62294537694876,-0.5726298662451139,-3916.968299092035,-2.6451558032054314,-0.7445821355869896,1236.1976110837777,12195.38200217273,-0.2548043959607071,-7.299972595008544,592.3455842358263,5.704797160885267,2038.6536070183802,-424.49797864552943,1.5503265985352104,5985.404591557046,0.4002072819681773,-1112.6752380173693,-763.4891865834196,-2.168619989781488,193.05952190916898,4.177380545274713,-0.009777844095786189,-0.0384667702432269,0.00011263180680589035,0.09536723849662831,0.10546223293403353,0.02373083727243855,0.06986652462074487,-0.09801988454976011,0.027909944459979522,-0.07418716703153869,0.0029530841205507867,0.1032907449411387,-0.03813933943762824,0.10698895061859835,-0.00005238612285916568,0.032561343522051034,0.08501919678535895,0.0951847866003116,44312.52885008742,-0.019429982859356397,-0.08081646034806061,-5355.021615795001,0.05613017187116232,-6312.512113565179,0.006831661577855489,-11300.763621901602,8636.23279408375,-0.012927179558645493,20679.47100731406,24823.635464646683,13496.139747756535,-6560.579395860882,9812.388571872027,20794.523119983405,-0.09457146185707273,0.04474349107172496,-0.4336506201668247,-8209.042238358878,53335.05897351155,15772.845296934805,6095.615848014998,-68.87633427489861,-29696.186425295204,2390.59981308668,-1435.1484783727074,-1972.8589460660048,703.4519783361949,10303.42407043151,42047.00939740857,7454.597373459216,15887.944515369363,3234.133663366747,-21696.95269852399,9307.513321955501,1284.8101805595973,-5374.216426137888,2436.9687919457624,3589.691766498318,1670.117340659482,-24988.767437392315,-41979.63719446482,26495.24229922374,-8169.108000446096,0.10882816184775665,-14298.934129356387,3874.903450056702,-773.5023440995072,-693.9495974854168,-14772.337436652564,2518.7720668714537,-2492.4568768230524,23451.473602133738,-18258.588233398907,3.357374775351907,378.3320457137856,-44595.7317937738,-4.052292287894698,-2449.6333647504925,-20.552435317351225,-3.131234277111326,-42.77359121428266,2505.286988960378,-0.38786776059636363,-58.639753347774054,-24.501109874962786,-56.95044892546427,5945.764589350933,5.22135241019045,16.17257562742,1158.5574163825545,6431.981312181536,-7.446258735191498,-862.655040042133,-6673.043725017853,-164.5105318611321,-2.1628471477437823,20.977833818102845,683.5291310712212,-1552.6388823430505,5479.941124348737,-2779.529081014039,-0.6406623629377649,139.04737265555207,-6.354526089287476,-301.2482388668146,524.4368582623882,-232.20583492132002,-2.9415128256371865,-55.18473154029129,-75.03353695832408,-7453.0450362321635,-7.919272745295359,-720.573365507221,-1.5822226334026137,6208.449805012729,169.23970337619977,-0.18147286236934634,-52.09743679991393,105.03396480920456,-2.187882585128922,-7052.400480834528,-3.196916506857559,1548.7884341511399,8621.274217450838,858.48887392246,1826.2029345529386,2498.5061204116805,19.45149961069926,-2.4689101902209103,-1375.7258636989786,6561.140161986945,3854.5741747304573,70.18025758414188,282.3046713544711,5.907636432467577,-20.906886468617447,65.37678589657524,0.019800791462026044,-0.04870767742289797,0.08389995538813234,-0.009373608102612195,0.09470907700747457,-0.005818816991582019,0.020603938221253178,-0.09227644389681673,0.03034705083523581,-0.10383033127755271,0.11373536781542488,-0.05416065853383049,-0.06699995037507644,-0.02466457318796584,-0.11307116920114374,-0.06211689985618428,-0.03954035307302489,-0.07292909745382722,-94856.26123477382,-0.11359237693476835,0.0731796417764554,2061.2042456283375,-0.012437568718505938,-809.8537265244718,-0.08504705615981817,3.5335797368227984,-62076.54104798688,0.017227614656428,47314.98243989623,-81782.6632662583,17840.591906081998,-5163.976823968398,1.6720466387687256,-766.5954402622286,0.09092320449923504,-0.01704511150526661,-0.03909446209069295,0.9692964042104775,497.9731771654918,81.89865977810445,1137.8798468965874,-0.7768416370065858,6603.755228303601,-3287.070321061382,840.9522557878022,4816.375908010472,5173.86445284675,-35.514038140663025,-1578.9159657122764,987.131439737184,5648.156190327237,-1164.6237536119818,-3161.4122921061016,-6851.850951900052,-3859.6475080533337,-3350.987045323361,8.755844586236654,12163.961555567364,-1923.7108006420153,1693.5608505070304,-6377.377953438679,1965.0836828602914,7028.954395552362,13829.303339803611,993.708268891245,22593.086753543837,9043.540496223508,-9508.074748794603,5910.0165909560665,2035.9743633301675,1105.8119709200507,1633.4161013623402,-1.538433719391063,0.1182928068909439,-844.4404595893288,-0.5853830620325833,-38927.74927722553,0.7337643210372953,-8436.41365216331,-0.09078935841518847,-2605.3625445316948,-1443.1768201869406,-1220.9950363541448,-47.07700045657155,-6.029525069806969,-0.32376078772144307,-2.17161618803193,1097.9068103547818,486.70601947811844,-6.785766367311804,5941.884447239841,-0.07332695218846176,-0.505144444028485,-213.88997703532903,3.334855988258717,13937.508528857294,-1.923960925992742,-938.114047588006,-687.6649482535983,-23.38513137497256,1144.7316152370856,1781.178907396061,427.01366065186545,213.73605474656563,-14.095064322748906,2.4868071484850627,-369.10607826969425,-3093.414363994197,-0.5630615509127388,-3348.5483784300636,1483.240738675399,1.3033848454141186,-0.7038566054446406,5.623002704214479,-1474.722868237527,-2450.613981020271,-0.24133360323561331,0.39943536047915884,-364.07598774242797,104.38029651048721,2.4408982294196138,2.5617431710180303,-763.8933261409665,0.09097827908036787,218.6018604774058,-0.4066907819029957,-1.4057073433982272,-37.32159986172642,-0.5470130793520817,-4.116365026402216,4018.893482628917,13.327389990325903,0.376287759584033,11.520541712254698,20.488581517999307,-8.51295572189924,4.0343060319730135,0.028695264382013908,0.09750933426813294,0.08234414930587017,-0.04080526249661613,0.009835565162347133,-0.11483267980301527,0.07889839597579622,-0.06144668594501933,-0.11691014098745267,-0.10457589816896962,-0.025410999044952195,0.05980168124832881,-0.046456435613777075,-0.024207102754153366,0.0023133761527834476,0.03832283674651259,0.10138172473779127,-0.08696407990155716,-14953.562345722232,0.07164696024398944,-0.003424874417644606,-15560.202850809825,0.009920030055901976,3782.144492432579,-0.01456662470757242,882.0187991420395,-4279.988783199829,0.05756376905064646,-1924.0917415976276,3493.757361131473,-10036.806490121955,17875.7203782663,-9023.301853776658,344.80454026439287,-0.05212595412933612,0.05969804500888133,-77.12536008363733,933.1641296651377,-2398.163205382798,-3267.5049377103,-439.62645603514255,-1302.5110751333016,33347.181003741796,-10251.986236629775,0.4828871014886167,27559.78836493284,4664.380312729224,-491.80106622687845,-27831.091516240507,-15818.224243634639,62748.524505193214,-2822.6415062155215,17930.872350006342,14030.781838015642,-32045.871840700864,-5860.0792383838825,-6524.127072173083,-12402.438974911194,-39247.468290404795,14288.138428414797,-1.6627653810412806,-47814.18012136941,5728.873655422168,-9476.944200458072,7914.333234896891,-3748.6378174640968,2944.5646906033585,1378.9854845739296,-22963.121449972623,4353.863115586123,7232.233546370048,-17060.163693366754,16932.00992007647,0.015538047175867842,-9.14608587561077,-4711.8140373684955,461.3873711256234,-45515.38648627096,37.574672984529734,-1.3238656381236127,-3503.672532222836,-2.3593593709462417,-364.1839499357808,-36.78085966654707,707.8526163396882,1.1347137475835563,-22.169266112386154,-29.2366194818592,-2756.148028747626,8.378929015677931,238.1146568352772,11646.86047212811,-451.7730049982199,-12.25186989359022,3926.9846447690843,-0.26683061189033286,-1166.7832560023971,-4.626970213641171,-3.559908578432324,1463.893562178268,-0.6253475810252006,158.55514441454028,-106.7319037650959,-2.0556272810651826,-426.71019176615476,-147.51646768420323,13.54673785748399,-263.33769066704554,-6.922665372406814,-4318.030278054723,-23.8135471893291,567.6967991099692,-1391.7490926280345,-27.078642572413646,2470.0138656457816,-7.294158723956127,-478.1739204318319,-1550.1718375847893,287.14499795272167,-399.6054555559905,824.5457231801141,65.3853101753374,0.8286870662323309,-113.61113089092974,150.58268837434144,-32.892087364996584,12.210053954345842,-3.0632291593037446,1.9924245995144299,0.5313963024171008,15.62045484331019,6770.913383265585,1.951088112130175,-0.10699122002400535,7843.705157452985,-1893.1746603697761,1.024697318186007,-0.008058703813564242,0.034680891512997594,0.048706093182462995,-0.10082132110711188,-0.0755933380259946,0.07548789584494432,0.009299933850692804,-0.07766747216838744,-0.03445312452073836,-0.013022759750192429,0.024964553538053436,0.0760926598100064,0.06513458176646623,-0.1093324171114311,0.008214536322272748,-0.07760150602172705,0.0434873152937955,-0.0789603521482923,14092.94598746929,0.05655902424250288,-0.04073912457593649,34428.51780954658,0.09511478746975086,-7703.303487875045,-0.10727579678406654,1795.1569290662815,-46861.87055043228,0.017989088455950764,20677.501464532765,15832.582050583433,-64711.74861159689,20637.13430406464,-72661.80788422021,679.7732002438968,-0.031974705471179525,