encog,BasicNetwork,java,3.0.1,1,1322782771140
[BASIC]
[BASIC:PARAMS]
[BASIC:NETWORK]
beginTraining=0
connectionLimit=0
contextTargetOffset=0,174,0
contextTargetSize=0,100,0
endTraining=2
hasContext=t
inputCount=36
layerCounts=36,101,137
layerFeedCounts=36,100,36
layerContextCount=0,0,100
layerIndex=0,36,137
output=-0.004552380449324198,0.0021938858983117197,0.0004638389165479797,0.0020290158664232043,0.0019185973855348187,-0.004851349162761184,0.00006683982202853808,-0.0015662412335185963,0.0018067228800535788,-0.0022896274126835616,0.004535003711393301,0.0043194980120642434,0.0036184468610602517,0.0000736198250275062,-0.005433665746124493,-0.002375630963656441,-0.005898997163997187,-0.003189750416307771,-0.06803564035671221,-0.00030732715177265654,-0.002400996713489454,-0.1015372531460384,0.0008736890759232776,-0.06447334853229306,0.0038907240731375706,0.39613572469681196,0.18185977703556727,-0.0002030599829504886,0.29420739961846004,0.05205024772599454,-0.030443430480364797,0.20237947677098167,0.09617465980084637,0.14968543463687856,0.0033109268154514378,0.0088991868074225,1,1,0.00000000000000000001,0.00000000000000000001,1,0.00000000000000000001,0.00000000000000000001,0.00000000000000000001,0.00000000000000000001,0.00000000000000000001,0.00000000000000000001,0.00000000000000000001,0.00000000000000000001,0.00000000000000000001,1,1,1,1,1,0.00000000000000000001,0.00000000000000000001,0.00000000000000000001,0.00000000000000000001,0.00000000000000000001,0.00000000000000000001,1,0.00000000000000000001,0.00000000000000000001,1,0.00000000000000000001,0.00000000000000000001,0.00000000000000000001,1,1,0.00000000000000000001,1,1,1,1,0.00000000000000000001,0.00000000000000000001,0.00000000000000000001,1,1,0.00000000000000000001,1,0.00000000000000000001,0.00000000000000000001,1,1,1,0.00000000000000000001,1,1,0.00000000000000000001,0.00000000000000000001,1,0.00000000000000000001,0.00000000000000000001,0.00000000000000000001,1,1,1,0.00000000000000000001,0.00000000000000000001,0.00000000000000000001,1,1,0.00000000000000000001,0.00000000000000000001,0.00000000000000000001,1,1,0.00000000000000000001,0.00000000000000000001,1,0.00000000000000000001,0.00000000000000000001,1,0.00000000000000000001,1,0.00000000000000000001,1,1,0.00000000000000000001,0.00000000000000000001,1,1,0.00000000000000000001,1,1,1,1,0.00000000000000000001,0.00000000000000000001,0.00000000000000000001,1,0.00000000000000000001,1,1,1,0,0,0,0,0,0,0,0,0,0,0,0,0,0,0,0,0,0,0,0,0,0,0,0,0,0,1,0,0,0,0,0,0,0,0,0,1,-0.004552380449324198,0.0021938858983117197,0.0004638389165479797,0.0020290158664232043,0.0019185973855348187,-0.004851349162761184,0.00006683982202853808,-0.0015662412335185963,0.0018067228800535788,-0.0022896274126835616,0.004535003711393301,0.0043194980120642434,0.0036184468610602517,0.0000736198250275062,-0.005433665746124493,-0.002375630963656441,-0.005898997163997187,-0.003189750416307771,-0.06803564035671221,-0.00030732715177265654,-0.002400996713489454,-0.1015372531460384,0.0008736890759232776,-0.06447334853229306,0.0038907240731375706,0.39613572469681196,0.18185977703556727,-0.0002030599829504886,0.29420739961846004,0.05205024772599454,-0.030443430480364797,0.20237947677098167,0.09617465980084637,0.14968543463687856,0.0033109268154514378,0.0088991868074225,1,1,0.00000000000000000001,0.00000000000000000001,1,0.00000000000000000001,0.00000000000000000001,0.00000000000000000001,0.00000000000000000001,0.00000000000000000001,0.00000000000000000001,0.00000000000000000001,0.00000000000000000001,0.00000000000000000001,1,1,1,1,1,0.00000000000000000001,0.00000000000000000001,0.00000000000000000001,0.00000000000000000001,0.00000000000000000001,0.00000000000000000001,1,0.00000000000000000001,0.00000000000000000001,1,0.00000000000000000001,0.00000000000000000001,0.00000000000000000001,1,1,0.00000000000000000001,1,1,1,1,0.00000000000000000001,0.00000000000000000001,0.00000000000000000001,1,1,0.00000000000000000001,1,0.00000000000000000001,0.00000000000000000001,1,1,1,0.00000000000000000001,1,1,0.00000000000000000001,0.00000000000000000001,1,0.00000000000000000001,0.00000000000000000001,0.00000000000000000001,1,1,1,0.00000000000000000001
outputCount=36
weightIndex=0,3636,17336
weights=-0.0003911381608898858,-0.00012772506663736848,-0.00044846026434591855,0.0000043495565088137,-0.0009736172934284263,-0.0011252556306137914,-0.00021404878096544785,-0.0005175307403007647,-0.00034360007324014095,-0.00016348655639101365,-0.00017286437935887613,0.00025047381394128305,0.0001750041597114966,-0.0004109932084019707,-0.0008003476908714024,-0.00028752603280036087,-0.00040446655925685846,-0.0007036861639526507,-0.0008351623330721561,-0.0007703050141720852,-0.0011999940571250148,-0.0005367761318921791,-0.000049189429545546,-0.0008286783024596998,-0.00041054376742784564,-0.0007339107214122506,-0.0011216396496037547,-0.0008203843633712784,-0.0008183378373311516,-0.0002620595946387171,-0.0012314548490358946,-0.0005328827790767721,-0.0004915217153286597,-0.001144010907622614,-0.0007263292779656833,-0.0005202148781329355,-0.0005197486044661728,-0.0008166527943856562,-0.0005342611235015172,-0.000654935709584135,0.00009034986681971415,-0.0009446427966926558,-0.000978497934293932,-0.0007064391329895238,-0.0003644570074140755,-0.0009299460928419991,-0.0006942047225035958,-0.0006701029712292005,-0.00041784623218651696,-0.0003149188897999932,-0.0002677551158024108,-0.0012875479363594234,-0.0007379329108923355,-0.0014799161560083208,-0.00045799049984153635,-0.00029205499668537896,-0.0010693523629229501,-0.0002933650481400559,-0.0004743145126609471,-0.00006982951165698649,-0.00002397980460503402,-0.00017983657266490725,0.00018984639678298182,0.00009112073119717634,-0.0007589985033125082,-0.001460552013801704,-0.0017568499386635295,-0.0004319038773199885,-0.0014979907250468722,-0.0010989038398938917,-0.00037929746719315727,-0.0007753658797061231,-0.0003632371670244427,-0.0007952960619406049,-0.0010852528731745159,-0.001130753086622883,-0.0014496218381662605,-0.0011008293270109173,-0.0012219266263756078,-0.0004836439954070731,-0.002075181799315337,-0.0007201032621785587,-0.00034031423465283854,-0.0008117081922158406,-0.0004228527228175653,-0.0012891109846979681,-0.0008151415345862036,-0.0008307569855963109,-0.0011416903535933257,-0.0005303935838274623,-0.0007787912148110299,-0.0008168985958610141,-0.0007375052323983886,-0.0009010049797212858,-0.0001740079958609466,-0.0015502073993766048,-0.0012208569819697113,-0.0011990723816847119,-0.0006161023660332159,-0.00048365141894095065,0.028203860957911706,0.0001761324877268573,0.00002201172873517796,0.00018164942577694388,-0.00000093703007391807,0.0004999933231035065,0.0005250173052967423,0.00009985946957764881,0.00025032538490088474,0.0001933920226987528,0.00003490536949754811,0.0000594537146363631,-0.0001345790805318341,-0.00013477310180942832,0.000192578281615583,0.00036809248236741265,0.00018511325849808873,0.00021206238960745608,0.0003317215443979903,0.0004257578922036534,0.0003896634566404802,0.0005443476939675461,0.0002482672350888205,-0.00000080432579636211,0.00042469143640480513,0.00021049497663635884,0.0003998457702545539,0.0005325408970306105,0.0003648731699503348,0.00041869656548223973,0.0000871590223669219,0.0005956517700786586,0.00026744095427640955,0.00019712822069851114,0.0005578651397410282,0.00036258535554825724,0.00021154378755833272,0.00028215155504130525,0.00041467157729884455,0.00028752222701565,0.0002859114929639368,-0.00012765837165211284,0.00047233975557437597,0.0004533575293131362,0.00033002116455105226,0.00016790641223120122,0.000402414125671165,0.0003458477043916093,0.0003124776851131465,0.00018426019080940124,0.00014202973948074154,0.00014393500634192027,0.0005946476183952081,0.0003551077489618904,0.0006131579874428222,0.00021630830086311658,0.00016359685548683614,0.000482446591899597,0.00007699445364959861,0.0002621557169768338,0.0000522003419542979,0.00002037284214970564,0.0000731730906137132,-0.00010050006167356463,-0.00001902184550803351,0.0003050304503835029,0.0006591601508106815,0.0008220132967770173,0.00023663032331947662,0.0007021824549475041,0.00046843008709132947,0.00018045063729576685,0.0003234888423699051,0.000136401720524512,0.000386446556008208,0.0004585998161790806,0.0005405195539043239,0.0006542491474493534,0.0005339964499214912,0.0005593196464821881,0.00023483936759755494,0.0009462312639052816,0.00039159336994342114,0.00019404765602232992,0.0004021337554854698,0.00016388182615734224,0.000638499590768609,0.0003918270651329533,0.0003473708742390606,0.0005556818950261237,0.00023948123530629422,0.00033220950201625916,0.0003444978118188878,0.0003381587114121556,0.00040779098763527906,0.00007682026081980849,0.0006855123813567514,0.0006047998592513126,0.0005566953909827132,0.00031867666064435633,0.0001643656348399683,-0.013138373420432222,0.00002542881528128819,0.00002746755001576778,0.00003131107532440363,0.00000356796112366268,0.00008302321868311892,0.0001015691674800145,0.00002590428705546439,0.00006654005591643314,0.00003169087796562747,0.00002096575355700723,0.00001309885199537905,-0.00003553578242199922,-0.00003004152463377876,0.00005179783927024759,0.00007154216760942435,0.00004917164120142769,0.00002270581432097636,0.00007198019512900011,0.00009982886236501622,0.00008684333548840908,0.00009880318173901762,0.0000561798979413078,0.00001007363412750675,0.00010094586805323448,0.00004458042679274518,0.00007168626603967304,0.00010753208227296394,0.00008419905686720941,0.00009756337315816354,0.0000350949169345859,0.00011717219645769452,0.00005193268547484116,0.00004182431733363661,0.00010765556370666938,0.00005563471539752481,0.00005065614773193359,0.00003559053156386468,0.00008173750691932709,0.00006685601982182971,0.00004775259879346529,-0.0000377703152579023,0.00009224953659865348,0.00008493469383061358,0.00008979279336694854,0.00003896592272766328,0.00010025378638185352,0.00007585116396136265,0.00008690569353272101,0.00004658769055660781,0.00002482514212177196,0.00004486908562531251,0.00012404938293358883,0.00008463545990331437,0.00013953609969900133,0.00004033748917635336,0.00002876658338773146,0.00008951846003392891,0.00001643957438685072,0.00005265491081845824,0.00002661271374478058,-0.00000029343542905718,0.00001385726577883533,-0.00002052033652891385,0.00001737687637762642,0.00005296031618604274,0.00013326449052950985,0.00016176401545607837,0.00004036744004138025,0.0001521002916122116,0.0000741886574170063,0.00004053682991172382,0.00008295110328443943,0.00003933052168537484,0.0000615853895468987,0.00011701711909673022,0.00013163416114216848,0.00011920126072371752,0.00010435472886652472,0.00011180375665090933,0.00006040327635902799,0.00019204935900153953,0.00008686314048492175,0.00001835806451549568,0.00010578823696708633,0.00002368362514642369,0.00015190047436869003,0.00009611896373271524,0.0000736750338770118,0.000132616600562039,0.00003436897437564222,0.00005631104368672012,0.00007118345412863251,0.00005363831289341484,0.00008709833838515305,0.00001597745257710479,0.00013672074165829595,0.00012370345287250059,0.00011718637635267155,0.00005332461426168171,0.00003884788330185207,-0.0027240941715479983,0.00013310968713838467,0.00004563821228206271,0.00016308288027020213,-0.00002134572470116002,0.00046142278333403676,0.0004938321496854777,0.0001034423079880262,0.00021883355187800367,0.00017207581443896096,0.00003124249239320519,0.00003986034893226353,-0.00016062349039885616,-0.00008718681146774005,0.00018880793410873468,0.00036852707902074015,0.0001725814238907596,0.00019125397564820663,0.00032827614509520995,0.0003888854530163434,0.0004074028879851383,0.0005034609464307399,0.0002414185206888338,-0.00001493265482108298,0.0003936541533090896,0.0001742545075270166,0.00035636332684138653,0.0005044012549741168,0.00035278100198966834,0.00038725756112623956,0.0000869783836238046,0.0005681126462894821,0.00024076137341911402,0.0001925621927828117,0.0005024910882743484,0.00033903438340422714,0.00023853475600081733,0.0002271435541510845,0.00037915747427843535,0.00024517160428177444,0.00026830129957816195,-0.00012669094209226506,0.0004504212073849745,0.0004193743115143706,0.0003334965768077562,0.0001431517703204172,0.00037956142961523894,0.000323299270463731,0.00028586425020594726,0.00018717782666939135,0.00014613422906607144,0.00013730469064215242,0.0005525839388826118,0.00034447536664233554,0.000604457262526518,0.000218268607757709,0.00016765807497645216,0.00045391527339947265,0.00008907345059850808,0.0002514047971271734,0.00006090139825760045,-0.00000047495897077557,0.00005879066397611684,-0.00016132684332361555,-0.00002466500752256995,0.00028876527193459053,0.0006351489143600801,0.0007576956524440818,0.00021284150981465787,0.0006606003543249662,0.0004167866459484812,0.00016641920945810262,0.0002930871290619246,0.00014379764234318673,0.0003468766346687658,0.000414285227304984,0.0005492322438654485,0.0006117347728320747,0.0004969438985899056,0.0005201954961764698,0.0002161912025209916,0.0009016739827162908,0.00035952407980441385,0.0001633084015985707,0.00041047498594495505,0.00013420857212384155,0.0005905989674568457,0.00039182344761476927,0.00034642318260405715,0.0005117638970291903,0.00012791161686656933,0.0002864220053082797,0.00035063993995437955,0.0003011294872874058,0.00037954763242864113,0.00005229229433897045,0.0006347781806537731,0.0005680096757081913,0.0005071986647392789,0.00029071058630380917,0.00014657377335247732,-0.012254197038269996,0.00012144651061187374,0.00002976869961942931,0.0001450743001118963,-0.00002819159736859147,0.0004358261416365002,0.00047459231691129395,0.00009264944379334948,0.0002406046555534732,0.00015327106121699143,0.00004273719589805942,0.00005270312178646307,-0.0001299900784228383,-0.00011200513147316979,0.00021084188691455533,0.00035306491393580393,0.00017412755805431838,0.00019109054402688386,0.0003019406402061594,0.00037250025500513143,0.00039212913474662945,0.0004695636302767349,0.00023799095374065824,-0.00000885878771668369,0.0003886047324698841,0.00017660829010041122,0.0003477659842767906,0.0004678703510797621,0.00032910788295059494,0.0003520642394317787,0.00007763766139518541,0.0005447446215078347,0.00022501617536111777,0.0001788618189195958,0.0004777883425787288,0.000325896686716834,0.00021277581401206748,0.0002239616972581277,0.00034871692988478517,0.00023366162892630052,0.00025711121089922536,-0.00011241855081284635,0.00043664791945174144,0.0003752192152355974,0.0002994382929671435,0.00012175557858418356,0.00036066328950188373,0.0003055216034334464,0.00028224957557007553,0.0001712766039021917,0.0001282989157644204,0.0001302703602645138,0.0005437471058057883,0.00033069011725017335,0.0005527967567296447,0.00021163915835635235,0.00013750046575294883,0.0004611714993935635,0.00008097346874694066,0.0002258039754041742,0.0000288294227238889,0.000006071804141288,0.00004859203236287024,-0.0001256599101094337,-0.00002457157242999873,0.0002547411686483886,0.0006076679193977407,0.0007365507518402574,0.0002120126015715842,0.0006171140314603757,0.0003814476775951365,0.0001581392820184084,0.00031263902375037637,0.0001272665487785319,0.00033603066265797224,0.00042420566709655685,0.0004947271271538475,0.0005625948559895235,0.00046800169216117235,0.0004950575861869469,0.00021120506856569518,0.0008450013972942982,0.00035753233336410914,0.00011047780682648119,0.0003927027173271007,0.0001303265320488662,0.0005732693874661582,0.00035440747167975385,0.00030560456261662615,0.0005164350602625587,0.0001939244074314895,0.0002990248536020004,0.0003130691322977411,0.0002933246512795903,0.0003568657099450267,0.00004522450246261535,0.0005920500524687808,0.000533458184487766,0.0004831537791859139,0.0002919808043121978,0.0001780670751281575,-0.011664890013818058,-0.0004558934726617149,-0.00015121190670983043,-0.0005459938155247815,-0.00001272449218957724,-0.0010407401077594247,-0.0012011195235864822,-0.0001807054600141272,-0.0005715365428225274,-0.0004218119182664678,-0.0001868114551364105,-0.00018028967888369482,0.00026511409514403127,0.0001803933138461689,-0.00045143846655432075,-0.0008526858672371271,-0.00033562115309306945,-0.0004880174356127015,-0.0007156054503762241,-0.0009461086555992824,-0.0010370668315037614,-0.0013270957247601242,-0.0005737208713066329,-0.00008647226279136286,-0.0009040220932498902,-0.0003893099029432939,-0.0008341947322118647,-0.0011936735052302538,-0.0008861056728055152,-0.0008446503366946969,-0.00026471547660387995,-0.0012848938971975568,-0.0005366664530833123,-0.0005344782434660565,-0.001205696339195347,-0.0008374794300759773,-0.0005643774530951365,-0.0005743568517001363,-0.0008353053631373639,-0.0005909449666856841,-0.0007437255074670544,0.0001127206358225048,-0.0010918172151183532,-0.0010552866592667004,-0.000841128093496922,-0.0004685214308219323,-0.0009920061704468467,-0.0008358074437846678,-0.0007175903217550817,-0.00041804395441597246,-0.0003327421111065658,-0.0002898763559932076,-0.0014367635196864297,-0.0007982492781715653,-0.0016234344449557936,-0.0004810302101426734,-0.0003252387254700855,-0.001150143965618896,-0.00032483554593204506,-0.0005045043983908025,-0.00009821266005051762,-0.00003965907771087721,-0.0001940210974750024,0.0001652677343656142,0.00011887928550049625,-0.0008298561506929216,-0.0016696938623296676,-0.0019227787517009972,-0.0004862765156989286,-0.001636303053715594,-0.001180877675264527,-0.0004001478057531435,-0.0008091521928344971,-0.0003921475252846324,-0.0008888985774007528,-0.0012597806467033324,-0.0012586074475928989,-0.0016385557225071913,-0.0012383363839607677,-0.001289803432504725,-0.000518013071511527,-0.0022639847280221683,-0.000711624977856933,-0.0003981044837302503,-0.0008446750599352261,-0.0005158953323408252,-0.0014058862343417848,-0.0008730218065576116,-0.0009618561374627143,-0.0012348786034443702,-0.0007514273091705218,-0.0008223186698533547,-0.0008869672120744114,-0.0008390417653134985,-0.0009772941185989498,-0.00026484396783767763,-0.00169978999839641,-0.0013637453261244783,-0.0013593049027623221,-0.0006981813008507065,-0.00047078134348667213,0.0310207336549655,0.00000883234358092884,0.000009024706203118,0.00001752597295411096,0.0000019615831700292,0.00001559004442039287,0.00001973097016927617,0.00001334591215560969,0.00000956906483440119,0.00000505824221386078,0.00001131935688116735,0.00000833077351780648,-0.00000219448228186505,-0.0000058190455239162,0.00001183999964823552,0.00001484466835103425,0.00000620941819724866,0.00000839248913886237,0.00001344893468770159,0.00001982197260563365,0.00002299574854545346,0.00002608961232904357,0.00000871233936883757,0.00000142180293240953,0.00001967418425283784,0.00000589206346401534,0.00002373334248864105,0.0000265674662344621,0.00001646914567840375,0.0000139686399516403,0.00001147968339685198,0.00002663311273606645,0.00002224684093653134,0.00000714698563246798,0.00002506382970617837,0.00001155474035431882,0.00001380366246508883,0.00001159739325586547,0.00002481403580010515,0.00001563529602265303,0.00001189911455962136,-0.00000242523549940103,0.00002745203461212785,0.00002377521227353654,0.00002464927127905613,0.00001549716754973051,0.00002658679736677441,0.00001880562487819259,0.0000172711506682824,0.0000084297170961936,0.00000692179863826704,0.00000972924427200262,0.00002103952497673273,0.00001265586570680685,0.00002729104688759689,0.00001510126486052201,0.00001078666081410661,0.00002049889075879021,-0.00000041346349112917,0.00001099127463609644,0.00000848415810643926,-0.00000349875766379897,0.00000531247051531664,-0.00000288751145080343,-0.00000110386925332321,0.00001909627691133022,0.0000229318938008504,0.00004212972429781353,0.000006219230522887,0.00003741922795915997,0.00002032324178812594,0.00000948882194814266,0.00002294092273005101,0.00001139614423868172,0.0000110812474716273,0.00001618529427849054,0.00002294086626926772,0.00003398405445977646,0.00002848716357499838,0.00002651753656634249,0.0000093960095521869,0.00004415957392519826,0.00001656978165292473,0.00000232107006877057,0.00001870485924894092,0.00001027217635999244,0.00003418414420738608,0.00001538323719077225,0.00001869620199180278,0.00003467006433814238,0.00001424366883904175,0.00001664710889949504,0.00001398873411499098,0.0000134267867222077,0.00002054249524675347,0.00001934466835940213,0.0000275308319389848,0.0000278950261502687,0.00002471274087724792,0.00000990782973700751,0.00001212307453908142,-0.000664193582211382,-0.00008764816962334042,-0.00004889519431876962,-0.00011558866868127136,0.00002618743835941589,-0.0003354153749349971,-0.000370198959722186,-0.00008302857673452993,-0.00018657001687291826,-0.00010538866790875066,-0.00003884318797852862,-0.00004097160456015994,0.00009279189996594576,0.00007982466674084755,-0.00015609696520647062,-0.0002891660337141827,-0.00014318191815564647,-0.00016748886510527125,-0.0002473976586505439,-0.0003002335580867654,-0.0002872763978102432,-0.0003682072145200289,-0.00019219182351625413,0.00000282988398327517,-0.0003187849564133002,-0.00014785491286642177,-0.0002717551080836428,-0.00038073840992358985,-0.00025606667545742014,-0.0002997311808898364,-0.00006650836912599082,-0.00041557601028897976,-0.00018583263561770705,-0.0001462429920164245,-0.00037118103964005247,-0.000251465582919242,-0.00016033594671591836,-0.00015542827094385396,-0.0002798529665905851,-0.0001895429154150718,-0.00020406781238137538,0.00009795533779718274,-0.00035836079985385476,-0.00029567838142340914,-0.00023998191056603658,-0.0001168447147491235,-0.00028078462083686175,-0.00024038500386797603,-0.00022390577770126528,-0.00013835624688084925,-0.00010555825871686916,-0.00012619618649202996,-0.00042125381171729853,-0.00027540329950833444,-0.0004190423285942178,-0.00014982334091790701,-0.00011425562298302229,-0.00035678753368088004,-0.00004907023510947288,-0.00018184421256802505,-0.00003257687908192694,0.00001337384508077348,-0.00002594487805788041,0.00010147517487374304,0.00000977311495396373,-0.00021735392440978664,-0.0004897944478700403,-0.0005688604471551329,-0.00016955037572457217,-0.0004950031414043476,-0.00026807190000895933,-0.00011470630586463174,-0.00021030036914823703,-0.00009619761596960181,-0.00021897387647829578,-0.0002926735428917418,-0.0003930782644915609,-0.0004611826996009828,-0.0003697040849870279,-0.0003920822075474364,-0.0001707787333908411,-0.0006784220686326981,-0.00029566001386734054,-0.00012242785359077043,-0.00032300838944934014,-0.00009362051422272866,-0.0004476058820734273,-0.0003134473205254188,-0.00024032127630773713,-0.00040810107878368196,-0.00013078691131978684,-0.0002312530168574205,-0.0002655789192360558,-0.00020212157742698493,-0.0002789031611300432,-0.00005412042882442917,-0.0004630948281071543,-0.000450462528839003,-0.0004128349737896061,-0.00020919062672921932,-0.00012295452991175287,0.009196184883031885,0.0001321849685572198,0.00002643982954814983,0.00012964911670402282,-0.00002299715794112458,0.000404447663606546,0.0004249000039766434,0.00007936657176223975,0.00020809574314737165,0.0001536459546085879,0.00002831629000785464,0.0000526049177078013,-0.00011795916849339232,-0.0001029551705161843,0.0001758816885124832,0.000328165292976838,0.00016912006580512367,0.00017223133442608333,0.0002940748695157829,0.00036030789253907274,0.00031978660300468326,0.0004327398241136116,0.0002024862971216286,0.00002053973571218884,0.0003637946192982494,0.0001682669549994274,0.00031598677025852773,0.0004358240225969351,0.00029651476869474235,0.0003381569973460415,0.00007276286194986351,0.00048373500298720863,0.0002014910221338158,0.00017061024795723693,0.00043253815382090057,0.00029152557536551147,0.00018189188205076828,0.00020759060238949436,0.0003496667935786565,0.00022531280850809934,0.00023887791538789856,-0.00011910078669424488,0.0004022986261616357,0.0003555347188230124,0.000264884319636,0.00012644829702682057,0.0003205271867022094,0.0002779994613738215,0.0002481272125728158,0.0001716566670885141,0.00012401851496544183,0.000126467425128795,0.0004894530602490955,0.0003069247615915844,0.0004945708227010364,0.00018228646386853105,0.00014382855314889329,0.00041891626203505915,0.00006945955758380206,0.0002131076647400994,0.00004307880451929826,-0.00000946315824573869,0.00003832494412583673,-0.00011308417701039202,0.00000166613747660163,0.0002588090895632665,0.0005563433031686013,0.0006715212812109519,0.0001870873169231754,0.0006003966835490362,0.0003473040031825965,0.00013831414506093305,0.0002849776119366296,0.00011795327984051009,0.0002649020635132907,0.0003637496238751382,0.0004468560129470692,0.0005485056215713939,0.0004460463211952312,0.00045717342579170773,0.00021566883475323506,0.0007918364787529739,0.0003301423566292225,0.0001456494998426641,0.0003539919921288186,0.00011646346265415068,0.0005237659483069696,0.00035302925850113633,0.0002898737519729441,0.00046539905047957513,0.0001609212307554262,0.0002701568592288383,0.00029445763714181547,0.0002449282363244506,0.00033012626157368424,0.00005938848267872471,0.0005635258783986919,0.000498515593513974,0.00046100415541865613,0.00024755256225200104,0.00014922562807903977,-0.010766989237516445,-0.00015986167813092145,-0.00005490779248766876,-0.0002011488116593426,0.0000277684018011587,-0.0005497881152701487,-0.0005714519649673871,-0.00011361227565263381,-0.0002452284218708681,-0.00016859726479373808,-0.00005855590320377449,-0.00006386297262351334,0.00015521076442163181,0.00012778159204536593,-0.0002087563590353743,-0.00039764459462357277,-0.0001605146397498939,-0.00021157628884985682,-0.000354725193022378,-0.0004430430951756616,-0.0004127391431603601,-0.0005737461089968943,-0.00027290185478570113,0.00001705474750365674,-0.00046365627799919274,-0.0002101834680201641,-0.00040372147789097197,-0.0005761241643831585,-0.0004207986076942089,-0.0004368227843612933,-0.00010587711872359473,-0.0006225988264527617,-0.0002831471305625911,-0.0002131135940437165,-0.0005688844034496635,-0.000410542030396517,-0.0002598785142470942,-0.0002905960747493896,-0.0004244322190333396,-0.00025898872453308667,-0.00033955450959110217,0.000156421701652308,-0.0004931569805461473,-0.0004929606171657524,-0.0003614904354787718,-0.0001475171928740829,-0.00043823815249695086,-0.000367391923242477,-0.0003216435568694642,-0.0002332998194071364,-0.0001509810874607856,-0.00016746564834482794,-0.0006497045957126531,-0.00035559356375571694,-0.000678696306725822,-0.00023790820209185784,-0.00017645804574891661,-0.0005486526802621538,-0.00009730721564776737,-0.00029428159084936615,-0.00009533768993302018,-0.00000397810134597827,-0.00005884253557710308,0.00010870891852524976,0.00003638556862809626,-0.0003263059328743795,-0.0007455835341290851,-0.0008661152776920141,-0.00025542683049551747,-0.0007769378400422457,-0.0005066963581676325,-0.00017408057324841294,-0.00034858696117750685,-0.0001433969650083857,-0.00040920375170328904,-0.0005009757881771735,-0.0005785322907370205,-0.0007180872768308813,-0.000564509781492193,-0.00060303858492142,-0.0002487106339359781,-0.0010169134914461576,-0.0004263798358363077,-0.00017056188776721468,-0.00043709330851200885,-0.00015207303805625085,-0.0006941994496614007,-0.00040561052549326244,-0.0004109860117737592,-0.0005982194524249531,-0.00027866204787032093,-0.00034890502264715894,-0.00040411566407198976,-0.0003280499191169614,-0.0004414647318522986,-0.00006087968420870048,-0.0007357367743266672,-0.0006730176657087308,-0.000580828567125575,-0.0003528708067508273,-0.00018303445858398326,0.014085279526205087,0.0004086269260678026,0.00012899467826932263,0.0004388379253247475,-0.00004292594824078845,0.0009882717227779063,0.0011381279951151121,0.00017939672577319148,0.0005384649327638508,0.00039370498504330624,0.00014580981035132285,0.000144814121820731,-0.0002280477873819217,-0.0001757931803510231,0.00041629455020378357,0.0008592722958305648,0.00029066100901816187,0.0003914498911051089,0.0006671027986644703,0.0008211757127478511,0.0008574402507587303,0.001211771187361838,0.0005467664837632481,0.00004888788559402699,0.0008453581590436908,0.0004059829467735295,0.0007489601099683433,0.0011097900018193325,0.0007760184992221933,0.0008100869673562001,0.00020402770727375946,0.0012477114954111954,0.0005308927467941782,0.000490211694948684,0.0011193308215824368,0.0008095458616341752,0.0005177308695931023,0.0005609801894201001,0.0008188776775261964,0.0005173056850819317,0.0006648255371008169,-0.000127530437508372,0.0009615366937870363,0.0009775394653724627,0.0007350942763428226,0.0003677633385882364,0.0009682032333824566,0.0007523818073281529,0.0006857167538296473,0.00041716567155469764,0.0002793451511534933,0.000274217050288301,0.001350165589787862,0.0008058052726731496,0.0014747752064549985,0.0004687150476212155,0.0003209957824402287,0.0010659941671503533,0.0003272906702580794,0.00047485810073354085,0.00009834708769161715,0.00004495549477642723,0.00017834828105407532,-0.00019209834102641276,-0.00007310380453033732,0.0007646324178666583,0.0015471618409056795,0.0018248801153813044,0.00048086165982880907,0.001516918146919294,0.0011100079749772611,0.00036761638617725426,0.0007365926456930257,0.0003318651034381528,0.0008062414501104579,0.0011593563060726274,0.001155038210887742,0.0014784745441456157,0.0011134459692194413,0.001212596384212425,0.000495178294195939,0.002094750193967397,0.0007245322798450399,0.0003785090687663279,0.0007859278721052239,0.00045512415741131256,0.0012969770509820473,0.0007863994751472563,0.0008866739167910757,0.0011491551619011483,0.0005946896786776097,0.0007391532448766431,0.0008472694170420916,0.0007804921726070685,0.0008940340484735414,0.0002323284377616353,0.001555898335147685,0.0012953791258228534,0.0012336421960842435,0.000663773680026959,0.0004216575993394235,-0.028649889832353087,0.00042107679755164977,0.0001102861655892815,0.0004010804025782163,-0.00000461381473321011,0.0009327955758596814,0.0010663126463369013,0.0001782610545719554,0.000500058977529085,0.00031587933165591224,0.00016311333758515186,0.0001415690227900028,-0.00017314265737818977,-0.0001324631110800956,0.00040507325316616093,0.0008192159278675974,0.00025091524145766863,0.00037732217724747785,0.000643440622855374,0.0007932801940007489,0.0008245959456211341,0.0011565610377719563,0.0004934894057946651,0.0000550424017491907,0.0008097671069179611,0.0003805480989050312,0.0007191544978714603,0.0010737404353581964,0.0007454768610259471,0.0007726393490745685,0.00027001995479422174,0.001176514537426697,0.0004692429390571757,0.0004526767570620615,0.0010583896510679392,0.0007182034952008866,0.0004818649405133667,0.00047115164602163446,0.0008025151950093526,0.00048392347087918247,0.000641492081955558,-0.00012911636528334356,0.0009085738846637363,0.0009352343540795449,0.0007391859009570038,0.00035059462443956985,0.0008912037522434639,0.0007053035198056758,0.0006507044698156054,0.0003940100563807393,0.00026616699237089414,0.00027395339303902197,0.0012904823208136885,0.0007871170019533769,0.0013955193546794072,0.00044438797331770586,0.0003260820026280901,0.0010309980574843734,0.0002743945931602575,0.00045136321091967515,0.0000888762305870295,0.00004393075256618459,0.0001675507244247561,-0.00016522886859561032,-0.00004673639147864993,0.0007650530539666149,0.001422821910863452,0.001720534105357127,0.00044020957876262127,0.0014430070421312144,0.0010548992842751828,0.00038404297916213166,0.000707248025149461,0.00033060878590325846,0.0007867621549801122,0.0010790894807621643,0.001143395497916806,0.0014272089761514276,0.001042362292650913,0.0011059099337523404,0.0004444845527917419,0.0020076185112298957,0.0006683695716837396,0.00033812205891696966,0.0008147819823829383,0.00041895479138838037,0.0012260434032432827,0.0007636628458229755,0.0008199939588301111,0.0011276858082333234,0.0005599071086916856,0.0007113545262742335,0.0008241715968876934,0.0006980951985794578,0.0008221736512631757,0.0001642103111344098,0.001481592474557638,0.0011981721218050272,0.0012182353689936377,0.0006094780985463077,0.0004169924993447368,-0.027241048103601603,0.00032089127928567815,0.00006428584481678627,0.0003752294616588531,0.00002427828540459784,0.0008417676238397385,0.0008767801817715385,0.0001669145391938796,0.00041765022696609743,0.0003363838003143656,0.00011178138010132759,0.0001284120372439237,-0.00016171116226367964,-0.000171720774518572,0.00032818878150225536,0.0006379427487053558,0.0002479666650618869,0.0003461241835381366,0.00056557176646466,0.0007043367279259601,0.0007356447003158825,0.0010405838577773083,0.0004394696161766541,0.00002628866730621456,0.0007006521293086317,0.00030468556164705467,0.0006066554849030967,0.0009276238680408001,0.000646341637873318,0.0006855958999208113,0.0001801097297206724,0.0010276300445476233,0.0004415249787110878,0.0003816670454886715,0.0009552539466471855,0.000644135612104517,0.00041625420786858385,0.00041697602915549264,0.0006936797807868348,0.00046866312238568966,0.0005420889758586646,-0.00012305643565932068,0.00080345099531862,0.0007979656048476697,0.0006172888179784477,0.00031190055971865943,0.0007595296383938259,0.0006406841299304688,0.0005246836365916636,0.00031625375768858473,0.0002297401739880779,0.00023821891451343463,0.0010629156694786652,0.0005913781967314577,0.0011569278504941637,0.0003791404981627024,0.0002869899643385456,0.0008579178625102176,0.00018965785233418061,0.00040531408478079267,0.0000952468524289691,0.00003271819875975768,0.00014110533411248582,-0.00013846659101621883,-0.00006778787936480826,0.0006354456628943971,0.0011762342785891727,0.0014498702779658936,0.0003838114327411763,0.0012567643767265632,0.0008823358497803061,0.00033428060976667173,0.0005842375527503813,0.0002732172210330862,0.0006910089304154628,0.0009101826156843162,0.0009358802425376007,0.0011826357579497815,0.0009096738971981165,0.0009757562997349873,0.00039490332483897364,0.001692397009765085,0.0006231622451843646,0.00034334211726697126,0.0006622777486213226,0.0003216999249585589,0.0010486868141793304,0.0006337804977010763,0.0006822157738532152,0.0009708162159583062,0.0005526034340781137,0.0005950937362968589,0.0006555449368767754,0.0005755654875260239,0.0007235819710147941,0.0001201812724903052,0.0012604914057548974,0.001028181735482202,0.0009735105866914595,0.0005694037075604461,0.00032479712001395774,-0.023253739586541394,0.00000799491084928463,0.00000202079903412149,0.00000851343562359239,-0.0000018067284900334,0.00001437551461920878,0.0000214702304680272,0.00000880008690849648,0.00000604106586380865,0.00001238465529940358,0.00000576518389068987,-0.00000276975090268627,-0.00001078279215841805,-0.00000565207049071171,0.00000440550380677405,0.00001555987817885225,0.00000391388473860746,0.00000357976540660045,0.00001831378006764345,0.00001570777712933806,0.00001693634745906993,0.00002569204404278265,0.00000933842373051202,0.00000157810485952608,0.00001705132712095954,0.00000204777832584889,0.00001586334889558263,0.00002046161761205686,0.00002256081942496074,0.00001731398961902424,0.00001193785072032399,0.0000259383903335768,0.00001873661707820071,0.00000902462608713258,0.00002161411777509123,0.00000793045289788004,0.00000891795423801024,0.00001239707122377175,0.0000179125608904117,0.00000988072800705678,0.00000810083305638804,-0.00000365133683179675,0.00001618239153898289,0.00001973879773697808,0.00002271386878200326,0.00000669212707960808,0.00001852323902894166,0.00001231473025469326,0.00000879732504691892,0.00000520796743625253,0.00000933105819684632,0.00000242571395553417,0.00001557814431907901,0.00001314194894475534,0.00003079264711541058,0.00000690043946931948,0.00000349804945294491,0.00002510699549890644,-0.00000300723838565611,0.00000961640197667144,0.00000580320463045599,0.00000145896169841393,0.00000645391637756734,-0.0000027656796457371,0.00000135421164819502,0.00001269583501881797,0.00002214313504606145,0.00003356451785989142,0.00000642094905868425,0.00002577395237574963,0.00002131307775292145,0.00001244637165718549,0.00001179299172207635,0.00001155724322208972,0.00000982742805283469,0.00001839185803076916,0.00001993754098133306,0.00002969952588032958,0.00002264786506555411,0.00002452371201562962,0.0000065064702907529,0.00004576809436201869,0.00002084844376500039,0.0000090813549946345,0.00001597292062199563,0.00000341004130710554,0.00002349085537691293,0.00001890489458240567,0.00001634195307646621,0.0000327187296900155,0.00000346720367683068,0.00001560434712226826,0.00001448608416916019,0.00001238592194396609,0.00001247187486788954,0.00001108641752398785,0.00004121281524502801,0.00002915757383998997,0.00002504491484080763,0.00001297322008547445,0.0000044215130704586,-0.0005792623532634775,-0.0005372483235810685,-0.000162630872157511,-0.0005271750981580911,0.00002460254868122468,-0.0011418750815711401,-0.0013370445046154466,-0.00017797034557196946,-0.0006698111003836177,-0.00041289231406076474,-0.00021198478120568043,-0.00015370765998359297,0.0002076193039282774,0.00011627208318398993,-0.000509280163410543,-0.0009395313373276343,-0.0002843106082576103,-0.0004689500349864177,-0.0007765682088174912,-0.0010018810192684534,-0.0011574662412999468,-0.001417583857262088,-0.0006246114368342651,-0.0001402714016166147,-0.0009636154709992035,-0.000511631177964167,-0.0009281369377531942,-0.0013344502886700894,-0.0009416616493750519,-0.0009462112794873412,-0.00034642650856039886,-0.001475791124836875,-0.0006015692792928787,-0.0005849547180070855,-0.0013346457840994735,-0.0009515266958019523,-0.0006271643614294987,-0.0006413973886903071,-0.0009402710535608516,-0.0006875092251001671,-0.0008061087671598124,0.0001378590064309389,-0.001160284337005117,-0.0011732162488653118,-0.0008892488913841671,-0.0004983831842424821,-0.0011790256742520006,-0.0008728867678097046,-0.0009466409440520538,-0.0004684911264474874,-0.0003507214300400652,-0.0003279293775669762,-0.0015629088132285483,-0.0010029511708584203,-0.0018053521443376938,-0.0005534519410243911,-0.00036460165254300535,-0.0012660472176636481,-0.0003813557117599434,-0.000566768932550301,-0.00009629416959967551,-0.00004219974142214176,-0.00020655306327771784,0.00017073192804193554,0.00010394815281663527,-0.0009559628868130939,-0.0018299537453511793,-0.002190475461370766,-0.0005805691415474424,-0.0017757139990632123,-0.001347911417477823,-0.0004633293746012123,-0.0008710781679456338,-0.00041537493978726297,-0.0009829096227126676,-0.001335675829140832,-0.0014169739267723195,-0.0017864722721060231,-0.0013331472513807131,-0.001415879160577355,-0.0005674119289036646,-0.0024845289339721984,-0.0008026014877689963,-0.0004609699539139835,-0.0009908752733648384,-0.0006073266532514201,-0.001525867010701574,-0.0010137696673866083,-0.0010470115055063423,-0.0013680980534101438,-0.0007969302926639795,-0.0008966014250653226,-0.001021135139214925,-0.000943175705312438,-0.001102219978874037,-0.0002597391322792455,-0.0019120659353231472,-0.001477639157940091,-0.0015427219137418965,-0.0007207283234695704,-0.0005568944741849936,0.0344112352960405,-0.00016282951751282239,-0.00004312114073152749,-0.00022259060295384792,0.00001580110572223094,-0.0005749496494267342,-0.0005946897615225597,-0.00012513729405171523,-0.00026287441355635986,-0.00020588920245413777,-0.00003707173546098768,-0.00007050158524902322,0.00016730172997152907,0.00014333457250662512,-0.00022227410444931934,-0.00043953211343194214,-0.000169821304022943,-0.0002274462737783812,-0.0003940847013421049,-0.00045438176233708475,-0.00045559567398458965,-0.0006152868732423727,-0.0002853328833519249,0.00000833390343355575,-0.0004770377475910373,-0.0002019037274522098,-0.0004424962031827693,-0.0006147368691555909,-0.0004518077289339925,-0.0004489368926680816,-0.00011306075719616179,-0.0006784601500962091,-0.00027589506607118527,-0.00021980897904776774,-0.0006123176116020273,-0.0004080241337112364,-0.00027134963718762763,-0.00030963687349655304,-0.00047115319316692113,-0.00028821735961642947,-0.00033409845050481256,0.00012615306135736659,-0.0005524835236150769,-0.0004900110000781478,-0.00039115320176360716,-0.0001696650274685484,-0.00045998088873514637,-0.0003915802713048496,-0.00034863990748241374,-0.00023548036824738738,-0.0001640569460110888,-0.00016578973353070515,-0.0006865469842110102,-0.0004002339498749023,-0.0007596587729236126,-0.00025116318817861575,-0.0001918592635242678,-0.0005800766219214259,-0.00010141474188305437,-0.0003071486296919014,-0.00006948094289045243,-0.00001613612037045449,-0.00008719392968550225,0.0001901167546645091,0.00003286476528798762,-0.0003647979735702558,-0.0007871132387879934,-0.0009228637680305666,-0.000253009340151954,-0.0008091518750828403,-0.0005440216438013417,-0.00020491330227859713,-0.00037534479831020364,-0.00018085752363765744,-0.0004316324170307895,-0.0005407275851505528,-0.0006070789345679008,-0.0007661438763057408,-0.0005895932900367719,-0.0006461377462734889,-0.00026237038676024427,-0.0010821888338673363,-0.00042731462931031386,-0.00015998256606233473,-0.000474276732691828,-0.0001930096293904811,-0.0007252727480973058,-0.00043849723786476417,-0.0004226379667696476,-0.0006215301605503633,-0.00024822943196383215,-0.0003773008814643503,-0.00042466373745418814,-0.00035147736365677033,-0.0004566378151728885,-0.00008454238477388617,-0.0007906716319284666,-0.0007119967590481095,-0.0006220676108422294,-0.00033863095522349717,-0.000234607337080461,0.014963888941491638,-0.0005672770180494207,-0.00012578734812206948,-0.0006539538959437067,0.00005823968318691946,-0.0012040130887016553,-0.001466152200186356,-0.00021758603659206835,-0.0007467738546623716,-0.0004917571865439262,-0.0002363258835925414,-0.00019439403211429313,0.0002974324788663552,0.00021886692758773797,-0.0005932012062620551,-0.0009682707024439615,-0.0003410583331724462,-0.0006627402257048645,-0.0009033223497512203,-0.001105091704271707,-0.001270778988862171,-0.0015959486692288987,-0.0006931114831027374,-0.00014691980807307294,-0.0010684672548731326,-0.0005561463174459528,-0.001035167665764929,-0.0014382975515771289,-0.0010679522929879805,-0.0010210506050121334,-0.00042198892536477633,-0.0015993966043901984,-0.0007031078904809001,-0.0005854918086939218,-0.0014915684178119144,-0.0010579960126495896,-0.0006837377395195641,-0.000719407616523514,-0.0010632356081884179,-0.0008286107445059478,-0.0009259513304259602,0.0000961080017514801,-0.0012983745239883296,-0.0013050986229636015,-0.000990409569588601,-0.0005544764036501802,-0.0012525019405907401,-0.001011046517691786,-0.0010080596922176547,-0.0005447747684143955,-0.00037564535547564905,-0.0003477348129553257,-0.0017229804218742342,-0.0009475627653731691,-0.0019697123991956104,-0.0006193544893160259,-0.00034830367907712515,-0.0014051939884076145,-0.0004419680450525253,-0.0006032497078325597,-0.00010023899163959826,-0.00010805382257207235,-0.00022532285739129245,0.00013800126991967522,0.00014194975723077441,-0.0010157307942248385,-0.002078928961101249,-0.002396363275585147,-0.0006329152868675165,-0.0020018326588832564,-0.001507644007902028,-0.000491467701512056,-0.000973998311630833,-0.0005279767118303271,-0.0009941931058056856,-0.0015433581930973067,-0.001474897857351211,-0.001976518059207396,-0.0014712914928788695,-0.0016112263998460095,-0.0006301478682330315,-0.0027603623403521247,-0.0009187736190983002,-0.0005146834886033771,-0.0011115458448215504,-0.0007178171635412037,-0.001720705627606815,-0.001088648387269167,-0.0011250783210138263,-0.0015244385943110094,-0.0010175952994361422,-0.000993949622219463,-0.0010827011542104703,-0.0010757246085155688,-0.001212913075435708,-0.0003613466218859582,-0.0021542289921402625,-0.0016522246585501368,-0.0016488067204309773,-0.0008310894340183952,-0.0006198664899842616,0.038231690937354436,-0.00025176375634935696,-0.0000880821386950177,-0.00035070135340202864,0.00001539883355053312,-0.0007528342671197659,-0.0007858150808757298,-0.00014733165164413473,-0.0003715952233866168,-0.00027727864172950466,-0.00007032917346210809,-0.00009691428129331435,0.0001886112720387516,0.0001463053591677051,-0.0002654895460033075,-0.0005665782370066434,-0.00022900133618535188,-0.00029757519523578637,-0.0005080646152259849,-0.0006204723645329716,-0.0006157205268451794,-0.0008479587593487748,-0.0004033689143516015,0.00003414497749942707,-0.0006299964229020329,-0.0002650126606001366,-0.0005308122227937332,-0.0007943805829698854,-0.0006027823043072342,-0.000598142877768145,-0.0001631324442469298,-0.0008923508528742328,-0.0003832814042451589,-0.0003382987784892983,-0.0008300811983914621,-0.0005545001594885375,-0.00036701822177820386,-0.00038898594725493785,-0.000619835732194028,-0.00036353317005543727,-0.0004660231524708678,0.0001243621824275982,-0.000722170943583863,-0.0006908852282072088,-0.0005115976558434217,-0.00023899024193387098,-0.0006567928904812048,-0.0005297389423733861,-0.0004626778085583983,-0.0003152768324624731,-0.0002107595016918166,-0.00021022460311360069,-0.0009233902773197747,-0.0005214719107851906,-0.0010103459140762328,-0.0003452845621520564,-0.00023181332065094404,-0.0007547135781761573,-0.00018690085796426288,-0.0003770978594136423,-0.00011194256213985515,-0.00004098704455644704,-0.00011831571874679878,0.00014986466840276688,0.00008201264735238527,-0.0005142616912797146,-0.001059061749632457,-0.001243461372530822,-0.0003467279821981237,-0.0010744075914338404,-0.0007529231023687085,-0.00024453156112961124,-0.0005065217333659723,-0.00021853777791676048,-0.0005147137239554912,-0.0008105602461100786,-0.0008318182014958381,-0.0010359882054698905,-0.0007928138314842404,-0.0008544049729029922,-0.00033988683963143325,-0.0014536708094139723,-0.0005591497847304026,-0.00023036902168740517,-0.0005894365717056118,-0.00030666426063363566,-0.000921558362652561,-0.0005362919476268223,-0.0005944251567509249,-0.0008612625233360571,-0.0003762602739553667,-0.0005011103804985844,-0.0005925638738354909,-0.0005291802653406974,-0.0006232139381091467,-0.0001743767360563469,-0.0010846432905839527,-0.0009444736063382699,-0.0008248614033869712,-0.0004944695366358865,-0.0002527378553092892,0.020149297192014966,-0.005739379571330634,-0.0012106774191533052,0.025924623971464677,-0.0026612031121685756,-0.002336852199893148,0.015720100335011276,0.007032348872176014,0.001405893721194211,-0.03206061699354246,0.01959006616285237,0.039993359439579386,0.017597520313821995,-0.0015628063197803733,0.00029208557670609264,-0.014335386528326402,-0.0016521130021313573,0.013292318137624558,-0.010807554358866866,0.021043835970484846,-0.0004511338462699076,0.003270718617063908,-0.012055692318058987,0.0007972340523289572,-0.009641174297612536,0.013607033368313978,-0.026212675624796813,0.018160694220599776,0.004514758870108138,0.007579825482514361,-0.0006575961813240841,0.026471456082470007,0.019156208360795356,0.015273770204521833,-0.014723712385224722,-0.017689603984565868,0.01877149029083797,0.012843999811280154,-0.0010137673813994485,0.011946863441261174,0.004898883720332274,-0.014360654081347816,0.02236093658112799,-0.02001664230835805,-0.008539534495526028,0.010528502381314654,0.009929307073488092,-0.004733377690504522,-0.019692582509090308,-0.016737563552242624,0.013983587659704666,-0.03686776554046216,-0.017547833465498524,-0.002536178821337287,-0.004371638909398738,0.006632146514198074,0.003421428287375562,-0.05360450612766742,-0.03538618398636471,-0.013943313294607223,-0.008052503672913446,-0.0031544290482560444,-0.014264463855842553,-0.013884746735237707,0.002197978170677892,-0.0018049261499507442,0.015003010593687706,-0.009162595297523316,0.015877915384887403,0.0022588394398363847,-0.015784806379096853,-0.03162227648739422,0.002935433078412465,0.004194025775587341,0.004810701109385911,0.0029726312482194622,0.01889122289112419,0.027080036682825007,0.00936516546415579,-0.0021104799842014046,-0.017952483115257892,0.008326816190102018,0.007695710527764398,0.017886629704254843,-0.005813681066215375,-0.006082287620511148,0.002636732480606868,0.003552006668378654,0.00026857710546188883,0.008644463560476765,0.027244013489957582,-0.01429364453594114,0.001918926107809445,0.013473212893822726,0.0242017963706804,-0.02977587677790978,-0.01795823404289645,-0.010732066553455728,0.022244259433325475,0.0007681873086879313,-0.028705630592919706,0.01479008086879159,-0.00000824988793865848,-0.00002139253398113902,-0.00002375489150357105,-0.00000888588309161407,-0.00005470324137256392,-0.00007336464330029751,-0.00004424767892108096,-0.00004408761093364114,-0.00002439919228764434,-0.00001145077298985756,-0.00000387745305889001,0.00003090911777605732,0.00001450992445492614,-0.00004443694497778477,-0.0000484702558986603,-0.00003414135802991242,-0.00001235144557051375,-0.00005385769723171287,-0.00006270883420845513,-0.00006326420488195709,-0.00006675408519732418,-0.00003513980142164696,-0.00001523797785868089,-0.00007018605869398142,-0.00003147513382545474,-0.00004433032083166258,-0.0000679848524912376,-0.00007694707603171789,-0.00007427992040214312,-0.00002789952123802879,-0.00008115063417063778,-0.00005773966363388024,-0.0000258527659424087,-0.00008348239492985051,-0.00003820201376943446,-0.00003994524918306328,-0.00002068242631425245,-0.0000641565072529017,-0.000047491791231255,-0.00003592562580781072,0.00002724258507946854,-0.00005612117613745414,-0.00006531972313816513,-0.00006829218794289343,-0.00003103509496066009,-0.00006156959863768208,-0.0000537812801973171,-0.00006211145281453018,-0.000021069329503793,-0.00000476575352430546,-0.00002737139222641693,-0.00008185693046602851,-0.00006310630070375189,-0.00009854415192814267,-0.00002601413517781579,-0.00001656092201328129,-0.00006605394875137478,-0.00001940650427601385,-0.00003536373184448323,-0.0000209261757754113,0.00000411478891986603,-0.00001562440268008932,0.00001059097649996933,-0.00001011482819622578,-0.0000427730264589573,-0.0000942857991649809,-0.0001128317479156152,-0.00002927748355016438,-0.00009922028097448114,-0.00004574446730282803,-0.00003163703233614488,-0.0000651116754595575,-0.00003252282848519924,-0.00003955081554746905,-0.00007491367201932186,-0.00008683300703964839,-0.00008015749430969644,-0.0000741080470859991,-0.0000741258512748227,-0.00005099263828251549,-0.00013026870713166654,-0.0000552627944820737,0.00000131570955208563,-0.00007664377355613135,-0.0000297642093224063,-0.00010093816731649508,-0.00008366753584410505,-0.00005715090661869755,-0.00010498507302016903,-0.00003586104033600995,-0.00004226744987007893,-0.0000514478174148074,-0.000044407646387818,-0.0000703680118554156,-0.00001630890123577538,-0.00009636628650530558,-0.00008480503873123901,-0.00008757278415657002,-0.00004209307588259603,-0.00002243713063790756,0.0019362175087472553,-0.00018869463727952713,-0.00004829833854799821,-0.0002045231982273411,0.00000461554391654306,-0.0005618574326845493,-0.0005656921099773634,-0.00011120975772024588,-0.00027132987867979554,-0.00016615174142289602,-0.00003959578332305101,-0.00007949141317368529,0.00015439570569947302,0.00013214085529803107,-0.00021685607106132235,-0.0004239287774927809,-0.00015563479984992748,-0.00023940268031640894,-0.00038426602689228465,-0.0004555124489840891,-0.0004702601343523291,-0.0006304055734287382,-0.00029151442155218735,0.00001122589284923885,-0.00047023436620319503,-0.00022590045550616655,-0.0004419534777820385,-0.0006180749789365073,-0.0004137925379586243,-0.0004539276619631983,-0.00011665344398155279,-0.000631864663112338,-0.00028311583049886734,-0.00021421718716816844,-0.0006343328246767011,-0.0004153797560255651,-0.0002526258459762281,-0.0002867268509417315,-0.000462642335534381,-0.00028948678794132426,-0.0003493103868522716,0.00013324327023559815,-0.00056407378355221,-0.0004830660615369631,-0.0003732491149824603,-0.0001613659160169465,-0.0004500216035014766,-0.00037801934875176244,-0.00035015899570788267,-0.00023586545059553387,-0.0001722680831537276,-0.00016246069345953685,-0.0006708980808374944,-0.00037094666355956643,-0.0007334106547902816,-0.00025163749493700753,-0.00018879002384364617,-0.0005905524825533038,-0.00008817527751567425,-0.00030934487898525066,-0.00008972277200165319,-0.0000274085639526283,-0.00008696058304533485,0.0001307135711425519,0.00003519195032630585,-0.00037102925034345835,-0.0007864382231656688,-0.0009175286234726918,-0.0002423648199057711,-0.0008151686543853506,-0.0005413134229184907,-0.00020960280456846706,-0.00037367835153296263,-0.0001837366426729963,-0.0004346249395638957,-0.0005520094556282044,-0.0006095445295243234,-0.000759278769953472,-0.0006146338037020531,-0.0006445321547842741,-0.000265700852375698,-0.0010707729087182354,-0.0004487196176131666,-0.00018563767768292329,-0.00047022406335967476,-0.0001954256829741124,-0.0007366070308169582,-0.00039779742862946376,-0.00042242439802209187,-0.0006210936475867305,-0.000340355780156328,-0.00038353767919197435,-0.00040651076866341456,-0.0003466960427282469,-0.00044352189212329917,-0.00007438890833250586,-0.0007945161329047309,-0.000705013378842755,-0.000615963009233094,-0.00036166254140908565,-0.00021506371485732203,0.01492508928868468,0.011089645200272833,-0.0029931620201123217,-0.0205192846802413,0.02675110659281923,-0.000630384256304924,0.004728647608204956,0.01212028979887378,-0.05116032713113721,-0.00383549918123016,-0.02931920203731053,-0.018469334288296696,0.004770347709527816,-0.007764330366302889,0.018079391347045757,0.09996248737294205,0.0590202958003175,-0.03004147512413699,-0.018637482888796714,-0.07884017155632314,0.04077139606700055,0.04999009859288825,0.03403203609275525,0.01167191190990731,-0.0473588161899654,-0.04469469496261961,-0.0076686604508469525,-0.05027717617457518,-0.02638165307599282,0.10071194971248089,-0.03645147042003684,0.006495854909735755,0.013121073780550664,0.018852991535200106,-0.10402868634623993,0.02531577749910767,-0.029560363187740545,0.054830004253237585,0.027731363457279477,0.007280110005884254,-0.0009774594954266146,0.06306689260518902,-0.049769188354953496,-0.017884648547858567,-0.02041267574665026,0.03938859489716935,0.02036868994159311,-0.018690641760103432,-0.02514950735991467,-0.03498587900742191,-0.01729609998617596,0.06344312933340844,0.14109037024435572,-0.037813932351169914,0.006264466866722505,0.04321184095754105,-0.012483231078793938,-0.05589267289022074,-0.027780502580641832,0.022881388346254725,-0.02966117316645527,0.014192089324875316,-0.020356411887385215,0.018648304331439398,-0.01577297999750975,-0.005963227533633239,0.05625489396508452,-0.0358556039149227,-0.04760205446644359,0.02641137665575648,0.018339389279362604,-0.05936812795480334,-0.02764408833021235,-0.0546782699491787,0.02230364103724406,0.08061991488684228,0.03250891886247309,0.02819764918423146,0.04092747008920349,0.05245780880169681,0.02553358267759871,-0.0002927908956408442,-0.023802794813446413,-0.028910870826902007,0.0026359771617995094,0.0018512338268122533,0.012976068545159047,0.04868761602057472,-0.048388110025315546,0.024059288617523763,0.01476847871068118,-0.019455840707465467,0.0411093662631215,-0.07575022182681876,0.007162624331490294,-0.010918093837784984,-0.02491518640308064,-0.02756300077669076,0.022516047772053096,0.008637553471768599,0.0024938458654312355,0.035951212527736275,0.00007374626042623224,0.00003839799376267831,0.00005725023996150865,-0.00001189155903392742,0.00018095592085017796,0.00021948614211782228,0.00005226715981215755,0.00010707701194714487,0.00006530232619865978,0.00002850409673302404,0.00002249589121014838,-0.00007232966270322385,-0.00005260377573884197,0.00009753521464627641,0.0001329513744025735,0.00007413990718781276,0.00008268089785199202,0.00013111541020160563,0.0001861715230005731,0.0001756396534129233,0.0001919599926465873,0.00009735318795687801,0.00000399949248789281,0.00018708952134884705,0.00009650497716061025,0.00016067049662635882,0.00020953991134880064,0.00014559016706996913,0.0001630182118813895,0.00003280891614138809,0.00022971905302955766,0.00009143081848205986,0.00008396357611858109,0.0001912872437691375,0.0001507416310792891,0.00008604813599083872,0.0000863689025405168,0.0001805816851276506,0.00011491666888222796,0.00011886603116058392,-0.00006694777827888826,0.00018267785867227,0.00015711949640442608,0.00015530549287802556,0.00006303070029336289,0.00016568372162199086,0.00014367958930133187,0.00014499639304106946,0.00007482299410452321,0.00004254493218277934,0.00007757260732841894,0.00024037429730290125,0.00013374159569022771,0.00024317198688822558,0.00008308410320998012,0.00005427613935811209,0.00017939797633006747,0.0000244728871817128,0.00009253919429233132,0.00003381392272872911,0.00000629729123176766,0.00003543170800781764,-0.00004029800006856924,0.00000776065428595641,0.00011548444374563802,0.0002742204793835345,0.0003248232878684703,0.00009714252463184414,0.00027915456758760587,0.00014909012741188025,0.00006949270125946753,0.00013178744408116395,0.00005077452365395102,0.0001368033688792147,0.00018826230364750085,0.00021643550027997355,0.00025714900554641324,0.0001948383776558528,0.00021696900974426054,0.00008564178775417942,0.0003704928106831683,0.00016512955941240623,0.00007374104196749842,0.00019095630930758653,0.00005245479842796359,0.00027201165490105137,0.00018687514636327545,0.0001314164874483738,0.0002278105842942922,0.0000793200746364759,0.00011009352579064674,0.0001452029577181257,0.00010351550457771578,0.00015185775963256167,0.00001984145816269806,0.0002705214554905568,0.0002447910081616926,0.00023618025868524722,0.00013002874000662265,0.00005164271849501487,-0.005180125550712629,-0.018949783082418657,-0.047853231723327005,-0.00961935387451179,-0.021050827493139482,-0.007855781091004809,0.02341766279135251,0.024125979336732054,0.021355546736306172,0.0013896053047657746,0.04586938820664145,-0.0041216508634599434,0.017123724657614418,-0.0416063384545909,0.03185584290893399,-0.008335048702326266,-0.026311070063927945,-0.042077814495796284,-0.03763560746314208,-0.010028510017493551,0.010333665079196037,-0.002116192943233638,0.012469613767919826,0.00176571560070679,-0.014438844694941123,-0.030218035414651945,-0.038482550896926176,0.034864543103291644,0.027347264667708048,-0.05649007564452517,-0.036657107196696216,-0.03246733887559023,-0.00478965857522595,0.012433309992726847,-0.030191470982417565,-0.051697629164756474,-0.009763642854012015,0.05819949509949351,-0.03461795668617896,0.011233244273479341,0.02726229417079925,-0.01728081832237188,0.03737697600802762,0.03641806165301743,0.06045349596281253,0.012138566710377456,0.03689979189155082,-0.04252337077830572,0.011919632840327413,-0.028001779018165522,0.07034931942683147,-0.0944075533140618,0.13958590043718977,-0.015018212940251185,-0.04827581281809785,-0.05417037576282555,-0.029833106917899328,0.03345243019061296,0.04415566524604081,-0.023084292127905658,0.06035216065110951,-0.0668783336974292,0.02665465562997948,0.05265934911904713,0.05142151985270162,0.029812620908335224,0.012002718321917918,0.007736369575585146,0.041268270369710924,0.03235286652192902,0.028048965929681167,0.014691046839686247,0.017613571708637105,0.006119921357733665,-0.03343776895274336,-0.04757420038868702,0.06349004532567837,0.018529233951672733,-0.0146820411439418,0.0657140552542959,0.038217786071408584,-0.01300794889998821,-0.09500039131115405,-0.002172762513689692,-0.037438671609167896,-0.02306197080339046,0.03457268998209073,-0.03083488555304452,-0.047333120537681704,-0.0038718089734418003,-0.0025096947708537305,-0.015172952272934765,-0.003657619475420684,-0.01713472848633431,-0.06047999121980103,-0.02999761023753638,-0.009610266267083575,-0.039222018129469946,0.12177275143228426,-0.01276604982294509,-0.025815489028946214,0.20307144122849316,0.0003207734556753825,0.00010933105278457193,0.0004267673722112346,-0.00001376139415906144,0.0008959464859804026,0.0009877788831022638,0.00019730227237349648,0.00045399555171745417,0.00031159339424427935,0.00010008113742632654,0.00013823784483919476,-0.0002150552247217255,-0.0001601177765198216,0.0003566338561588844,0.00070156106686136,0.000248371374302125,0.000342682058885804,0.0006006703113553729,0.0007388458878342562,0.0007616580351224169,0.0010656897737711104,0.0004729595221033675,0.00002949924227494137,0.0007392429870004514,0.00033844742420333367,0.0006660238784068237,0.0009698220785173673,0.0007277154794632482,0.0007067142074054965,0.00021662857243154955,0.00105740562604712,0.0004491300927282218,0.0004465422524110359,0.0009915954607086692,0.0006689481305731582,0.00044246034629397726,0.0004405136403036054,0.0007248137130040878,0.00046854772693543165,0.0005723637410534354,-0.00010305734674116395,0.0008319933165569078,0.0008520111489022284,0.0006565151355275572,0.00031034240089726137,0.0008105025064018029,0.0006757829689777576,0.0005866783320531419,0.0003713878632800934,0.0002457685013950899,0.00027945518792683123,0.0011614833085580646,0.0006649722619773489,0.0012885686520958588,0.0004185778523096937,0.0002623016708417497,0.000939364520358049,0.00023672619967108819,0.00042315641446780513,0.00011102635548718109,-0.00001213498540796991,0.00013904057032673617,-0.0001361432955807932,-0.00004094871746988028,0.000682056343880293,0.0012784640759470865,0.001498094167744687,0.00041249687657388785,0.0013131677718995205,0.0009426056336009373,0.00031057991740219664,0.0006469564916891698,0.000299937141875952,0.0007018880081596383,0.0009424364557619403,0.0010142553002245131,0.0012764264608486006,0.000956524148681924,0.0010496574583859024,0.0004260834815114239,0.0018008543712609464,0.0006460832246427586,0.0003027896153641506,0.0007251106468869217,0.0003870201803558521,0.0011450492017102357,0.0007034914284753836,0.0007326372644053453,0.0010376999253700432,0.0004533469381873183,0.0006364414439743156,0.0007467485023880496,0.0006505467323916345,0.0007895138171514614,0.0001525340370744434,0.0013418901804643061,0.0010989135374317753,0.0010480624820751803,0.0005940512666937997,0.0003632417769426336,-0.024783547874110058,-0.037229401804771335,0.007511927359917071,0.01694298873705757,-0.017789029113196037,0.0029588036992140164,-0.04028354136793051,-0.007677075073827215,-0.054297169804549975,-0.006704474848710179,0.018643319589371637,0.03561091688415839,-0.027856407168116992,-0.0005100058745957126,0.05039691038192242,-0.09824875728212498,-0.020432067530813308,0.013072148403755594,0.02170744849723611,-0.013848737238420762,0.009921498958259315,-0.012153468771829726,-0.007998436842074439,0.006285677211156539,0.022977441265177666,0.015240194944609601,0.016960083521013084,-0.04694463088398729,-0.018110604916938944,0.015467394710892084,-0.008302518001611341,-0.048309829362974906,0.004918239453936192,-0.0045281635369651485,-0.002384534527051415,-0.0022570351338771864,0.02375114637533925,0.08891257450432218,0.03236758777928468,0.013922968713386394,-0.0057336093152389935,0.01579448714244787,0.027892304552913555,0.046986190925109104,0.048398380338250224,-0.00045312582527522416,0.014984437869870937,0.01594171697514748,0.05558578990483646,0.04102540925234184,-0.08187031608544068,-0.03299237743473471,0.01157726941806593,0.014239383157770506,-0.0367091476782483,-0.017855271048007534,0.022817038746164777,0.057969689227504465,-0.04615645956276182,0.012801698776335897,-0.01855916015640979,0.02957482000067869,0.05283485988834854,0.0446443397669983,-0.05713438395641382,0.02922116911586514,-0.0058615979900859755,0.011271806199353408,0.014006013055848846,0.012125234364520579,0.0014551625271356687,0.03282106005489095,0.03002892874668734,0.013806956266578784,-0.02533181174249669,-0.04855269655479934,0.004862581345424537,0.003948355586830144,-0.010904542725497414,0.027038381624234133,0.01898408837352981,-0.014873981928847382,0.06112889984190863,-0.0025524822827032462,0.029271591051127244,-0.03717441341396192,-0.026910442562117012,-0.014762222231274198,-0.007710089281766284,-0.015590090929896154,0.022477992223179553,0.015077569122831105,0.07339986938501153,0.037865027409794985,0.022993147702408276,-0.02221114266775405,-0.03396428141091574,-0.05214369694474331,0.027775293872020275,-0.028607916743626585,-0.013750455431379077,-0.007616237761581747,0.030086749182868588,0.03737805095040132,-0.028241954168842356,0.004278396374946375,-0.007569568641070511,0.08654790088412737,-0.054121528555733336,0.030563399398958507,0.04919422967395554,-0.003962815856429231,-0.0030825035972872547,-0.01631766218689731,0.016702910869187414,0.02317393099562325,-0.0454292498880293,0.04491914125059703,-0.04273687485592089,0.008047611958677633,-0.012375878745077375,-0.047202291442458036,0.04622639422737059,-0.021215594419035554,-0.03607515471407881,-0.06280977856140746,-0.008925982570134761,-0.00629538645665333,-0.06709754501662178,0.024394343562443667,-0.023375091267494007,0.020398451522331135,-0.02733915377225508,-0.029402952657250576,0.04695526016243505,0.09910746556375254,0.08038344449231272,0.06136089387967517,-0.08045245303373387,-0.0008934671621266268,0.02806189396426391,0.06298000521465383,-0.005091078369822303,-0.008754204583347037,0.024962330485155067,-0.030816500087662273,0.029484508656240898,-0.05210190292691756,0.06982790201970601,-0.0693762615374781,0.04842314957572389,0.06704991677469574,-0.05409559835511534,-0.10528046980029114,0.03127679013156032,-0.053850131448260126,0.05627925640212287,-0.14354719367096,0.11691561478785559,-0.06620539165643223,0.041095938886268564,0.054645343128922816,-0.025538781537539967,-0.02853428055833464,-0.009912073900209392,0.0171841212653258,-0.02342903572848941,0.07460687249499581,0.04236091725449947,-0.01662370412728825,0.006761170745993045,-0.02468757071609781,0.03941510181514749,0.011339288289042597,-0.04925541897668104,-0.002663843630430159,-0.029436669956054814,0.022846832562600856,-0.031990842230109236,0.032696147442302634,-0.009496395878497321,-0.011728589613157498,-0.038562702389821193,0.044323320586427954,0.029727535910006018,0.04257580814942559,-0.014197234439758106,-0.05029860667823894,-0.028626476326053203,0.058645455713344126,-0.0807891144859093,-0.0828241443918376,-0.06502314998150123,-0.09557589813699556,0.01811008269918839,0.011550292274145484,0.07298452379956077,0.006985772256558511,0.041603376425125675,-0.022485926693371853,-0.0035100801823707735,0.08879973266118084,0.04478108795868324,-0.00001286276747260384,-0.00002000212412155048,-0.00001967331320459936,-0.00000035584420154365,-0.00003845310427155667,-0.00003605952296969162,-0.00001920832002655631,-0.00002572285594717928,-0.00000537067919184906,-0.00000534754846783105,-0.0000063806537508122,0.00000909391397368672,-0.00000511704143868516,-0.00001856261148075104,-0.00002924939420727591,-0.00002800124432656893,-0.00001991821617182125,-0.0000242324772041284,-0.0000410398717674336,-0.00004362392321803633,-0.00004301715332424791,-0.00002006320462610664,-0.00000302461620277309,-0.00003057870546826853,-0.00002037863734220527,-0.00002832907809867977,-0.00004303641573388178,-0.00004579572953467517,-0.00002752198083842552,-0.00000888116350736492,-0.00005230069456374463,-0.00002918940242435973,-0.00000546707466996262,-0.00004311772076981451,-0.00001707456608252024,-0.00002349757108528716,-0.00002766484447700857,-0.00004104434000620669,-0.00003310630953224228,-0.00003209471541125677,0.00002184379271809662,-0.00003324716600348907,-0.00004154638352169361,-0.00003289797042082733,-0.00002481508987662061,-0.00003995818058664832,-0.00001759567348330984,-0.00003335952361430809,-0.00001120796193623882,-0.00001508893441182837,-0.00002090648894710073,-0.00004711233284914064,-0.00002802829685327384,-0.00004809959936518144,-0.00002833313385400216,-0.00001734715370494877,-0.00003834685921424819,-0.00000825266115571641,-0.00002551053859435956,-0.00002395758538006976,0.00000436619476923363,-0.00001443416730660238,0.00000297203738277647,-0.00001145611626095144,-0.00002934036081221989,-0.00004881513105411078,-0.00008439538530510074,-0.0000062178502381149,-0.00006080683629656916,-0.00003251131870996534,-0.0000143346763473957,-0.0000295378773777598,-0.00002758834948474188,-0.00002656126552054607,-0.00004771280645984449,-0.00005103649373602992,-0.00005429910052121864,-0.00003898307240023829,-0.00003921521613909249,-0.00002794184975209307,-0.00006780186049455985,-0.00003786967210157499,-0.00000777228799379716,-0.00004287222703509396,-0.00002029470412615116,-0.0000657384057754633,-0.00004028733499421196,-0.00004251077104372371,-0.00006313692588465223,-0.00002585337754991755,-0.00002097788897714726,-0.00002182530301186454,-0.00002805492964509408,-0.00003730922791594852,-0.00001275403268124915,-0.00004488390420528952,-0.00004990820875579998,-0.00006128754244614718,-0.00002178635259097615,-0.00001284761263008416,0.0011441140734848201,0.01890070367599121,0.011533544336337907,-0.006423339957186637,-0.012249232098442885,0.048149621020754915,0.011585909568487308,-0.016055407899138004,0.09516125920589873,0.002603482050509407,0.015215679762885532,0.01901915894816375,0.15037699586603753,0.017193211741365597,-0.04019678683902695,0.08418637747113633,-0.013686875415631615,-0.003169046939522668,0.021303969094526184,0.04076299091738392,-0.0353226987405166,-0.015435496391984778,0.02065246856098009,-0.01364672642381794,0.13070582651542428,0.04936557454726173,0.03233339389056596,0.016547399260606364,-0.007265212537416884,-0.003615581216928518,0.002934493156834212,-0.06971297580176439,0.027374561755325957,-0.023993614636996303,0.0052710983195134835,0.03966508741796696,-0.044044950217127246,-0.0938920389748929,0.046923059153621466,0.024843065686427523,-0.04626166417194294,-0.05050616090433543,-0.003460424479864942,-0.058762534711521874,0.00007240195947183986,-0.028983472031987246,-0.11093560525028559,-0.01665662156394662,0.0051217876459697595,0.034959273373504705,-0.004773247940358184,0.11828517927945287,-0.04796406578283284,-0.10701671366598309,0.03959148429764731,0.009984643353594135,0.10792251182944367,0.061704019767925035,0.004085631752751921,-0.04327456585443042,-0.017487946272552554,0.01488856294694885,-0.0605937818091339,-0.09621809542790613,-0.07676045676011689,-0.06652846226601608,-0.0172070620381052,0.023648959231833796,0.024295790994423368,-0.05506126110980735,0.009901855762691663,-0.10113083399712121,-0.011994138448835658,-0.07396912142347212,-0.00911368852830591,-0.025714338172747965,-0.04415041699705187,-0.04985323694109763,-0.05821438516431178,-0.023013963353397244,0.01688865142832308,0.02579469949976342,-0.07825346784713652,-0.014010402679201141,-0.006995232996269987,0.017926357146945467,0.09489126764545684,0.01994946144833724,0.07034038519407124,0.04971198585071796,0.06673071729755722,0.004263373775779004,-0.04643378246920287,-0.0072614817695565706,-0.0197142866988965,0.009903117258701898,-0.0071866917939245704,0.03729990824419576,-0.09729026712846948,0.013973204594914941,-0.00310169530801564,0.25583447579766566,-0.0027845800679025677,0.030659169654153478,0.022041070741821253,-0.011988228710746318,-0.005859872074096372,-0.017949285090282343,0.004770826576534648,-0.014834248925332673,-0.006278408925740349,-0.01069408697335705,0.03153955209208368,-0.011815686978515769,-0.014585865870352531,-0.02228667016282558,0.012505378799197818,0.00779415085545487,0.002125386278550271,0.0053794154071419905,0.016563274698985445,-0.03283468010969717,0.019524359800285933,-0.014926544512831543,-0.002355471848255867,-0.009975289415508182,0.0509804683338334,0.0011806012716710412,-0.010190640779066392,-0.009861234691191113,0.0190020493203415,0.05484495024039278,0.005729736201938978,0.0022869389963041603,-0.01896637760736049,0.012513762293975293,0.03857685550108083,-0.007559997782343197,0.027917978884478247,-0.006493885805330448,0.0027837294508225945,-0.005108241069798723,-0.02377305317655991,-0.013183895498635734,-0.015728347154280568,0.0036183345559857453,-0.018630508039734456,-0.004298352107740048,0.000211426318593932,-0.00038747503070533565,-0.0038488419118848836,-0.005334114899226987,0.004666213982774105,0.0489072360735433,0.05489414201167467,-0.00013307824573705732,-0.002570243920595382,0.009398041265642143,0.013635321780022394,-0.002298376587317991,-0.015216465106607431,-0.0006418322293568903,-0.012931459937084827,0.0015677847844092299,0.005144800850847471,0.004974697793044143,0.005744495662171168,0.013089682285628368,0.012004743943936037,0.01768440712871105,-0.00727970688984821,-0.010578165796528002,0.01014063932911264,-0.0032820194929604,0.01975411177495416,0.0042494941279872175,-0.035568305878283586,-0.00309662394355257,-0.008390161747030203,-0.014341766137114577,-0.02167649773560818,-0.015667984901761852,0.02370178058130428,-0.00024616409494120935,-0.020687783842950048,-0.01773607826112118,0.01187986788388743,-0.03538561390585505,-0.005174856515368885,0.004239336261864576,0.03743438936018165,-0.039944038896584634,-0.011185393026333585,-0.015001506662996843,0.009679924958181815,0.01621042905893118,-0.00770974937976274,0.02959475532461299,0.0010684215776540274,0.00891036701041234,0.017394615920011892,-0.014068354697661644,-0.039636528632984024,0.026549935472241753,-0.02761778533648261,-0.04246302747692847,-0.031210437752110926,-0.01645466666161685,-0.03293887780417537,0.010944332344714267,-0.045006284547842564,0.004059700735895599,-0.015799661421665497,-0.03985645896015138,-0.013164449953515348,0.020660134050242272,-0.022567073789829237,-0.037365022218945707,0.005671335997522752,0.028369165689362676,-0.0022520758819158586,-0.014810321627736961,-0.06170605740052162,0.0038146554727628984,0.025964002362961806,-0.010642347173307169,0.07393727409621689,-0.09403537939764245,0.09409808742773201,0.028685459944624018,0.032073552942697106,-0.028024192994153655,-0.019686743347015402,0.10887086804076472,-0.06474489100050168,0.01768309101834826,-0.010003663982712532,-0.010232131576658933,-0.012928737754248158,-0.008868148347491812,-0.06846574745448843,-0.002975696590405131,-0.035645873783116656,0.06323610485857316,0.026836613116618228,-0.03312787482314194,0.022381146913089144,-0.027977397460361875,-0.0512892990581186,0.045559651245975566,0.05835235518168875,0.0037382858905249143,-0.030184120274577238,0.05745793519069828,-0.031888416952608016,0.015440388217078022,0.0099456357512706,0.012631564989438394,0.11408085764606472,-0.08379918164321701,0.04798747028560152,0.07202936703699422,-0.05382539672572624,0.04094117221913179,0.03371487062715078,0.025208045378043088,0.03924979840532507,-0.06572610031847839,-0.1147214154577312,0.03464039911856217,-0.004032407869476006,-0.005256727904895395,0.013429477938589195,0.04055762303909745,-0.02499103063828526,0.019228149747618026,0.03377675708395412,-0.006930789659383865,-0.13381256899472024,0.05205096293745348,-0.00953164367829785,-0.022685025548850893,-0.021731353098121173,0.02531230278076861,0.03014759319126496,-0.04544002719372889,-0.0113465087305758,0.07746759882436109,-0.047167860387911674,-0.01362757003189288,-0.004981103530759131,0.008881337539093006,-0.01396395064926474,0.012298824786007679,0.03537753760543888,0.054386043998761506,-0.02766352906414571,0.030129953743389472,0.05437582326678067,0.04943426249230815,-0.011478045443789551,-0.06720227777646941,-0.02657957088458475,0.15450852969583656,0.018166755057302326,-0.004783606376555286,0.0029946924158938634,0.02265920542317692,-0.007773846142973222,-0.009003544376198231,-0.0029708130911632645,0.00143319705642433,0.029262817076331365,-0.0008355751068834673,-0.00675358571743504,-0.01565800542129039,0.03276371872372255,-0.05025343556225266,0.00006279946188204141,-0.02314444750067593,-0.028697600528436465,0.0022882028029764063,0.002899753958912597,0.0652360400197323,-0.022587337305003386,-0.032105224799820864,-0.04406660168568293,-0.046787633015152555,0.06608838715808044,0.010331123048027245,0.016084077738641598,-0.024648035489871465,-0.03192628276785872,-0.06987133609039553,-0.015569545067658945,0.02472439800335179,-0.027085469430068246,0.055158852771495744,-0.022184570376940733,-0.001068364462221707,0.003095670328548461,0.03799158212165915,-0.035579698429021527,0.013925028897414319,-0.03317204473993961,-0.041917329885527606,-0.0024292037866876824,-0.021393749645105466,0.02161964637076081,0.05302118212127476,-0.025079279119075655,-0.042120131040609445,-0.03285080261103994,0.09278349625500347,-0.04706277004629664,-0.10584023194205788,0.0069582245442779975,0.07671995481541656,0.007599890269010989,0.017870195032995265,-0.05252183259302648,0.08161838541563363,-0.020732807930864818,0.04554861438240187,0.027144056738446835,-0.006720599066163683,0.041476459870182905,0.020771898934947863,-0.0278463780724044,0.030424460070691293,-0.022439454416428167,0.008691461212612947,-0.037797552476718996,-0.0486738372798068,-0.0190646194586003,0.03281127593007377,0.03478489322226187,-0.01746041652114897,0.036112665887290445,-0.013405072753983198,0.00032942737814347517,0.06260036330270448,-0.032334601867896745,0.015487534362872302,0.0661897723133927,0.04790009958509836,-0.07244817749352324,0.001707046371509825,-0.022702875074144174,-0.01771692923941252,0.014074983581037153,-0.0007776387222446206,0.014600265905801147,-0.03992251658197314,-0.005309800759418132,0.07198655149254307,-0.010469400515604937,0.001989293308165334,-0.014016515874345464,0.027340640649720586,0.03536125063674948,-0.020047182761885857,0.07157886442629421,0.005501152934673855,-0.04826095274837055,0.006171935605916956,0.00667395308750378,0.006809617872533768,-0.00397356054823006,-0.033606101379873084,-0.03568561605183905,0.00544964598651617,0.019022867560902715,-0.011582066614759787,0.014336519492558132,-0.028889940455857636,-0.04749782441252183,-0.0491616425757168,-0.012043369083031817,0.014396202246765973,0.010102375050485612,0.0007086640974240913,-0.006588791374933701,0.005840811787152599,0.03708522051586488,-0.03395419797407891,0.003476440609743777,0.01820851985807205,-0.01167335344356389,0.0021652199975488954,0.006900722970511969,0.09407775333655341,0.00765986405502007,-0.01128627762013736,0.00581699254350768,0.07098447733676189,0.001621843765513405,-0.025767627957023233,0.04588060140251443,-0.04821119878179417,-0.015707701519481566,-0.03994202092706145,0.02561711038236582,0.013948007996178995,-0.025487831892800773,-0.03559208652611736,-0.000554932970084413,0.016048823739933132,-0.009632151810731066,0.013840074107052937,0.04674259714954265,-0.0023428070241752223,0.0413954589381914,0.0033855224832175443,-0.07901523999062386,0.013094899551061264,-0.05285269343791967,0.04441382251303969,0.008017220517465083,-0.01964274018212801,-0.01670705702513556,-0.028001399991859372,-0.0020832409366082195,-0.0072812869491382555,-0.00801116218382785,-0.014879031778672157,-0.004102207345490246,-0.07762011810947758,-0.06383397924176896,0.08356738947121253,-0.05557957204675026,0.024604496276499438,-0.013054132771347851,0.014755270238039785,0.005796180115917231,-0.05046271432309473,0.060324493241261705,0.03895125575680523,0.012097176443633626,0.04220404392691476,-0.0032179661543543544,-0.01010145262403946,-0.036650918345396064,-0.003665275478437042,-0.041804401592863985,-0.020958935714368205,0.06408738856205907,-0.01904008306686237,0.0160203957914741,0.003384148773235849,0.06616794034337875,0.013820042142657177,0.0006726923384539843,-0.020155304318238733,0.021403580317342012,0.016622716232562416,0.01859894402255375,-0.0060677746643839955,-0.0341399469593597,0.004993157984773873,0.03326294465532301,-0.024401442597521004,0.029505791994622263,0.031941302913578856,-0.005292161269100569,0.027117911708318166,-0.010333075349578134,-0.06680105908745369,0.03876112460383331,0.00022285244722795012,-0.005474073277587326,0.06019243975788822,0.0014524177440207121,0.01243170180268871,-0.006073767960138365,-0.017487932317690878,-0.027830350109322673,-0.023443928499376494,0.01732203371370556,-0.04144839261148009,0.029405375185338242,0.06420298716699821,0.04990938347422777,-0.024317844350682464,0.007182196323094561,0.05221944892218756,-0.01642163162340756,-0.004128210734026801,0.027168528336822248,-0.006151250902234773,0.017058111525582356,-0.02875605077370544,0.018146627233947204,-0.05390121564542727,0.02380650968756117,0.0016546491550485786,0.006451826036011527,-0.02407305914414196,0.009356648599387656,-0.02572473819004179,-0.05780919519985087,0.006399041938461827,0.020281174171850224,-0.004834395245556266,-0.02686225002700846,0.0053331137638466435,-0.01421135915068379,0.0019099506635960942,-0.0030094142035169136,0.004127768174760389,-0.009158140761597686,-0.023440824659248297,0.013527319928509411,-0.033264184432987134,-0.05333361680966969,-0.006714409459109848,0.0340547903824479,-0.004127797808533337,0.018704446545935907,0.02037090234791867,-0.010646347786283763,-0.06541488637112301,-0.04698542416571317,0.008025812359581157,0.023653447290924515,0.025646321263324636,0.007956778515420445,0.003774966400979007,0.0015088689668933135,0.06335653951246678,-0.021720472977464954,0.005635451638321719,-0.006996885134392147,-0.001908984326799056,0.0017589954244499708,0.017888010121092174,0.012711674157018219,-0.010047203077724215,0.01674739521820482,0.01118874653171035,0.01846259019235468,0.005723087629257561,-0.03248453664969989,0.020317754542408122,-0.008122219345734706,0.0024506590845459557,0.017691620139862984,0.006528297838374528,0.11336352050317297,0.010613696664323182,-0.0284606550165699,-0.04133416288643078,-0.0013554618988937935,0.04038207600294133,-0.017362381203452203,0.0008977025974781572,0.04026871464441288,-0.03709723008859926,-0.02634893829564043,0.021407111011190385,-0.012950085342249281,0.032395508217032624,0.05095926927884511,-0.0310723034225596,-0.01313666683924458,0.006174351543214979,-0.022577072860210996,0.00029835793431525235,0.00006861687486368521,0.00034584789081359074,-0.0000010481867093706,0.0007831696714906861,0.000832701065389148,0.00016042265758928336,0.0003847894995381434,0.00030983336106950706,0.00008724317578337842,0.00010478282358426715,-0.00014879977242171965,-0.00014991428867323624,0.0002972180708175428,0.0005736624288803141,0.00024082815249961843,0.0002893761331746973,0.0005192421215932523,0.0006687701885882179,0.0006781191002362457,0.0009037790827375942,0.00041484868224862787,0.00002007119282518899,0.0006483418468329045,0.00025922705606175783,0.0005375313732421017,0.000836856188457228,0.0006209328127779302,0.0006371119213519605,0.0001635837810010721,0.0009555236771146266,0.00038302114421638064,0.00038281717360466957,0.0008478121552265701,0.0005913889688460646,0.0003740730917921432,0.00040154809799989677,0.0006300295566392399,0.0004185057332023416,0.0004993751188566608,-0.0001265371954080137,0.0007084426234725506,0.0007110282551969975,0.0005474018757302868,0.0002563201333169896,0.0006649572344323376,0.0005657504467686495,0.0004732218957971716,0.00033984267061330076,0.00023916482556575849,0.00023064111194863305,0.0009791621285978353,0.0005623041700549758,0.0010959708951777598,0.00033855717897361736,0.00024019783909435318,0.000749317656039084,0.00018814893798602632,0.0004107703234436256,0.00006831169776585214,0.00001505838770007335,0.00010559339427195486,-0.00015808076921693272,-0.00006115893493938788,0.0005319712311698438,0.0011102267786325597,0.001321247282123507,0.000357002941895673,0.0011489638431340622,0.0007945803536899416,0.000273372735061308,0.0005416064923425848,0.00024082194247166373,0.0006432320306551362,0.0008116759221199781,0.0008734103062422959,0.0011374385535938775,0.0008217222360042766,0.0008837211909921041,0.00032860480572764153,0.001525601603635415,0.0005788364945168091,0.0002531548873149039,0.0006423989002574188,0.000301916354392473,0.0009732441113866998,0.0005682905831214117,0.0006586910616138541,0.0008837569649937312,0.0004902591687028092,0.0005408246238501496,0.0006199632173010457,0.0005172703911235482,0.0006416821229268168,0.00014081094919985766,0.0011655439418336948,0.0009373544253733177,0.0009136014615308594,0.0004984125280707693,0.0002957532678670301,-0.02122951031482694,0.000886127915788792,0.00029845682504007077,0.0010155567777474955,0.00001511646113254334,0.0017711825527240224,0.002285258383353675,0.0003191348214842976,0.0011534566005347358,0.000823688471151676,0.0003828399982122548,0.0003049881856982826,-0.0002962664384179104,-0.00012746478281969897,0.000978713656606162,0.0015511625451060072,0.00046820612401384356,0.0010027545330222984,0.0013033369077349857,0.001636247073281169,0.002011480069308075,0.002333753079965786,0.0010728973402556125,0.0002781643822413458,0.0015524683930608128,0.000858083763319377,0.001700355648920236,0.0020308873247246824,0.0016414788391723905,0.001526220126495329,0.0006291865285645375,0.0024686671776257634,0.0009830796195876071,0.0007648413254162325,0.00229769315869931,0.0015775073593787422,0.0009505607729795937,0.0011286768871533854,0.001496836904189519,0.001376792415154364,0.0014326865104419616,-0.0003098232728444772,0.001920678853348367,0.001991134397313192,0.0014868910192700488,0.0008460471627942753,0.0018445317283261485,0.0015013715983930704,0.0015137268575892652,0.0007678272487361629,0.0005883817256154818,0.00048617794093533916,0.0027348458756389325,0.0020341021344638882,0.003076995718348833,0.0010424687964376662,0.0006841829558376049,0.0021337803648458983,0.0008074672739276412,0.0008339344246877757,0.0002066309039472954,0.00020395388316296834,0.00026398820395633326,-0.0002328111459470281,-0.0003454247589326554,0.0014639218868512177,0.0032669937595550353,0.003494438186900118,0.0009884244509108131,0.0029777901662262564,0.0024674786991584793,0.000695577883201561,0.0015807068774883793,0.0007900962751889817,0.0015249684456070127,0.0023074961957183678,0.0023040956741761905,0.0030660890231134948,0.002101815408984481,0.002350848473779441,0.0010466135835176516,0.004299369008563596,0.0013431051932081696,0.000849860399307175,0.0017674840865066922,0.0013091912126934895,0.002499287961238247,0.001635508618100391,0.001724226896864847,0.002337370626398969,0.0011424337430384127,0.001572513008456468,0.0017251598298846122,0.0017121572576151503,0.001852895684721108,0.0006620468525951519,0.0034862812208444,0.0026003007520925578,0.0024953968552431805,0.0011663219483775721,0.0011749834047028768,-0.05878414701927819,0.056768581581310026,0.09093899278249934,0.09267290481215325,0.018948675817385595,-0.019264466668240075,0.10454172198343817,0.0996186021212243,-0.021222370680659994,0.017646849796366073,-0.005341513560623105,0.05775184354034113,0.07382012356148156,0.026368758288988776,-0.0923251837030289,0.1098008203824984,-0.10790714996993078,-0.04621278602394008,-0.0298395135406348,8335.237529508051,-0.054906945187484076,-0.08392772177822848,3322.0565261224033,0.05983558146576256,-7055.2120483704975,0.05471799428532053,24191.070183309737,12669.371707228083,0.01854116586214543,4493.190763118701,17390.262486859738,-2367.589913805326,-5148.889671793497,999.8393031650622,-26712.14727657216,0.06514481466206969,-0.10318506177746899,-0.2687366992123801,60936.27603709265,-56713.39472400329,-36570.34608566279,-64999.34566921887,-71760.94155320401,48876.51739998177,-41791.67879386292,57641.25755938473,-73273.60163230935,82607.95519871863,-29128.80149667055,-59786.712616584104,-51457.21816451803,-43432.51396111172,67588.861938266,73919.30280851682,74276.63114894688,51992.85922636413,3540.2732386225325,47204.9043938446,60836.71926350128,-6586.086911033869,-63232.01481454664,-12761.304978131642,-51419.72814556946,-24772.55402756124,-5772.422699502828,51004.01001559051,-31860.236120479323,79.72463805387908,-13390.416648185737,-540.7804766659812,9045.16451443266,2953.7259275776983,-70315.98992069087,-70128.62086601247,-49670.0041021172,1191.5518516734674,1.5154185584350568,4.779853854909246,-0.7142596263883559,0.7055999565301332,-2.4701167142884257,10135.013845835027,99.04946510849449,-46.779697213397206,-2.9341940061379166,280.0266813955039,-7281.146540813566,-73.27130629097748,7953.635064833686,-0.5756039611845091,512.843748970575,-0.25433160629668994,-0.5241330830299576,840.0670931874066,0.5661934240412775,1335.783053011705,763.0701875926823,-0.02645748922594025,-7.936295705960886,-8.900937278276764,-822.3836146458385,-1.6144025354029,27.004476934797317,-132.4469905057601,-0.2545129752179364,-1876.501064436685,22.722154464606046,-24.02593317801634,122.87542950950981,-3096.904316014394,-49.17231506112099,-4626.664880528901,4189.687076420073,256.16292345164965,32.96520304823107,0.38952534530261174,-9.205381675189999,-86.88433089376106,-0.11432923865840319,23.67107930698703,-8.892222445292406,23.849264983452592,11.834378655212662,-8.776558567965496,55.155588803661765,-7.4012414292071265,-0.4701540652771386,458.1219213473331,34.474283695338855,-452.75745620850563,-0.14334775589244145,-18.18542533232388,-11.118374777468908,0.20284271455636058,16.442490235236967,215.66812831627948,-5.923932236999293,3.820463109933634,0.10607658373535184,-0.06865570416466182,-0.06119391892697783,0.09206515534256099,0.03800138866799538,-0.08393935722933414,-0.1093615075425419,-0.08172715067164918,-0.01775407312731879,-0.0623843987303529,0.12088313078618694,0.014153713679396804,-0.018837174267245807,0.08656966490909195,0.057325074221289185,-0.11691229409390927,0.06200734598434517,-0.04552966074831393,38693.89842114659,0.006296204156471052,-0.05037611252991342,18.097217099340764,0.11666475755956252,-28474.406100149994,0.09165175200063914,1143.1569702413183,31485.625534364033,0.06484312097853841,20828.16679695693,33186.81677250084,-5276.359588389682,-1682.604886667615,12179.767759901855,-51949.322225616415,-0.08531846159457229,-0.10981506186503227,0.7558561317965554,20435.821646176573,-11018.375777559735,-8403.534244541153,-17615.129444551498,-16277.261080510149,16835.13551789647,4101.842570884275,14435.350833813023,-14064.583157696696,21720.714390908022,-3489.544603652868,-16699.356410177825,-19757.516552022513,1257.4587074758117,35884.438743200044,17587.864987904457,23926.30291505658,20276.143900972056,-19685.439562134176,-749.8377390651976,16938.151412131676,-5587.516465502325,-28863.52549200333,-12371.187122864872,-9474.091535004449,-17711.94842412178,-7350.826797816977,18011.780875905064,-24477.295739584995,5578.32727836217,-578.3755604352044,3509.571165438818,-15184.399990229978,12500.684794464485,-23578.072923803196,-16417.41659787601,3591.687975400007,-41847.5810592911,1410.3868028521504,6910.906607978666,0.33023953167327935,193.13696523069683,0.27873572321065526,-16.888953067725595,-0.892015127021104,8864.865760146029,-1939.348709357053,-6764.497749967938,-408.8658638437458,0.39875427824678833,6449.32786737746,-29.980978155519598,44.303180538523094,-2.919859027637114,-11.272710342265285,-856.0908570379647,-1126.599148865448,-0.0891842273959749,-33835.99918309226,3444.811737993934,-1141.7249643078908,-6032.994091604065,-0.11969140200929032,-0.5350653874707647,-187.15849509244057,31.883013919809517,1833.32405221979,217.8070515159745,-2727.009217832432,-4.697411693373456,82.29931975705458,3.4136912383908915,-3686.1400991702058,1.4566025898765271,22.300179073708367,0.19091565085978074,3797.8040575875843,45.48156220430315,-38.22623887142473,774.6867725266427,3521.822021881424,9433.777342458778,0.015185612863139221,15165.23859002579,19.35618054134469,-0.6097639172674331,118.94472169741836,-11.352779708493967,6.296752864045173,-0.44028186929372765,-204.85670582892098,881.5553790680377,-427.65727247127285,-10491.451077002333,-1387.0761876452268,-29.03881223723404,-103.63325551974414,-3203.8617333033994,-2508.985388362973,0.6357536379792522,0.08947832992385751,0.04679092251243642,-0.059597413158773795,-0.024446025747540026,0.021136266339607253,0.0277866171272136,0.005920109770288368,0.09491463653220804,0.039111717759038836,-0.014589786941670166,-0.014779014372625736,0.10115217685017443,-0.07063024112485199,-0.07075631095363968,0.07010548321736308,-0.10252785203813192,0.10960230566677777,0.06553362913805312,-97881.7346076418,-0.1085291050764993,-0.07163320698832726,11713.773578878578,-0.05225337235555905,2365.696504553528,0.025209791158582816,2723.659278427425,-2418.567539599131,0.0017877357302233162,-7787.477030697356,1656.9202792207602,-2029.383837728225,5543.676729815474,-10857.88034110232,-16332.426451904355,0.09512546870432528,0.10453677433958375,0.0004201888421522614,937.3492053710601,969.8084802931103,-761.8677019951559,-82.55480864402718,6993.617562066491,563.3931504750456,11927.081124868935,5445.343964060347,-4795.159205876033,-17006.453065270154,-16791.952363719975,-16890.898709089008,-0.20017510433081637,3569.0433862744676,-3238.4041504807196,-2518.386877539018,-9697.474883206283,2494.930521212478,-3227.4230074241304,-1158.569824972312,-212.57436694984028,-7576.3492693951775,772.6787244470408,-5646.424247296033,10055.892905512112,7187.685574776669,-4558.798413642889,-14455.420621738884,11624.770577611178,-1087.2628048209015,3695.4433230135423,-441.4427627895714,-3620.557647155488,3642.133674362515,12161.677882496473,-8583.332902967217,-5844.944236540044,-2429.110179769533,-41267.715575336304,-150.46191101792664,-1939.2460060246597,-3725.16781723602,-4025.3257281979,-3838.2350194935393,-1515.2648250734853,241.22607156941964,5023.193177807176,-2.8281019949135726,-4490.924838923169,4.345585421196321,-1418.903242324218,-25.85594812342694,3204.2380874935234,6.321044489259575,175.15851205931594,8853.437669461004,-820.0127731208476,-2.007522826974685,-3472.4734802801963,-0.8459709990248567,9.195479190270254,470.6728445048235,717.8565602073812,-3060.279620658313,-54.76009675488867,6706.75484075631,-2198.3754988746377,1277.8696266803538,1200.4499746871597,2367.663726139908,-1016.5555243419867,-1.006324876170884,-171.0053316252533,85.38910284345661,-21.110484584950523,268.63622277715854,-56.92152788428683,-307.3804449993711,11.758359739955447,-767.044414085782,6.880374580899477,-3023.820032752081,-79.01109238278849,-0.6043986916992475,434.3364764598034,-0.6263208161207593,28.074205913166416,-3931.2889099636345,20.712654767347342,-1220.0290716929198,3922.29747396609,0.994942101093536,76.28057727146442,-41.52080043044639,-1576.904690645666,-8.033065930773848,-51.69320422305563,19.642630113135183,5489.058263460919,-337.1929660908582,0.07017258178821946,0.06365706602593109,-0.04313640212733551,-0.02169921997105951,-0.03965422355250468,-0.03499681784859781,0.09055618866816777,0.02521910433067059,0.07957763314166141,0.05449783661551745,-0.02794112740856093,0.08355175761729386,-0.09850173357363147,-0.0061168054522440785,-0.014355407060776006,-0.1025544966587076,-0.03531127743548123,-0.07853117752258101,-91182.5334026846,0.01854385828086772,0.004345460557737485,15796.683883170324,0.07060835400701715,849.8249737390852,0.038507076401675965,-19.212284374034503,-4949.991271928711,-0.0955135475926623,1496.3964644334053,-70799.27933136364,-7.052978429262296,-14078.955732185643,-3.186864640942453,-3070.891997123378,0.043808949022260235,-0.04436427260863186,-0.7034358613189384,-8399.191651563011,8591.890970950692,-4009.6124639846557,-13512.123537154312,18520.303710966324,-13030.923887873287,-27840.18941849775,-3390.4775336550547,-9692.309457263606,-4254.41166595922,2013.3065858156501,3260.056022112412,9538.119696040141,-16802.721207806546,-12836.666904281323,-2048.570626938248,6652.919214271129,-5500.159432988167,-5767.791442941117,-3612.6272330503175,-11884.168818701637,18413.174644806393,-5343.793779984475,8251.747891107125,-2058.9856255475834,-18952.20064333901,1857.5285055374823,22988.591617305945,-29226.964069632093,-1148.579250282771,-8741.34341342984,1674.114731204576,-1644.5742257250247,-57.61503866562911,-9111.050204780684,705.7988370648222,-3765.853495382173,-564.1890575635172,-1580.5302830391247,-55184.14597565736,-16.933049080287383,0.37220895571407037,3.27559075159933,-79.29630589863827,-3.146594393899252,-2.464505571840289,-6718.440774599079,-30.77852177516825,-1.4190412640233871,415.02304981593664,0.07531270484718952,-1.6183997665054128,1176.509556087224,-0.19052557768728026,125.00167908785907,-183.49456029714338,-139.05489739131673,-49.043490031855676,-751.2271305093303,-1.7541921783573977,-862.0779100446262,12692.802086278742,-2.234609135747136,-0.39263322070560835,-2.5214227350890948,-8824.193990254935,1215.5124895334686,-1702.5933212932591,-1495.7521010916269,-1351.8804176928675,-1466.8625336254513,0.5040770095173109,-1285.5082124949781,1820.414841879362,6857.933621999106,-0.40911373435665893,40.96885543439567,-6735.876928026781,3371.6548206108914,-1.0791735483996963,-446.01387816609866,7154.141033771023,339.1260765849724,3.779570584396353,-8775.72972503418,2.2110970614269423,-1.8509502779059708,-2116.960724078803,-1.2388083547935085,14023.33623963249,-0.5982383797075513,-104.71660339298418,-3.088225728602894,8238.155917632665,-0.8956286938708364,0.6088065751313163,-2186.541215184942,-2.7214235422615465,2927.2058572177075,-10.583071749012285,-0.035855697917986575,-0.10232531448509236,-0.09574199294252875,0.04652596735859147,-0.10202449026456502,-0.08820789061520613,0.08041691157572511,-0.09834811716270497,-0.09152354142560963,-0.016150103458508158,-0.048677731602582944,0.10826078765526771,0.07670359539927743,0.08388724616697883,-0.06864389689694855,-0.06697292960979435,-0.03527903720664903,-0.06474172756723576,196927.52354122087,0.09940000679022115,0.04091345939688704,15223.424217400556,0.05483801610960239,-5090.84026891894,0.0991335355369551,-1.5941734770614595,21604.597900365476,-0.06245559069232994,-6490.460756361346,147871.59000978447,-1.0594250101458025,-5940.931671988697,23872.876211765764,-68785.14145624738,0.04661735536475217,-0.04721174766861269,-1.207273421576987,-14395.062221899096,12072.175960309596,1876.5021087947384,-271.85687875577287,-920.6185698144121,-23377.352652431975,-2707.543192479335,7510.1747719882815,59.16614465089849,17808.754567151707,40281.44619590339,286.31409577553956,6947.493380955675,20483.284411951714,-9026.343233389402,4565.259802300832,-20251.126521701364,-6754.126489587208,18450.354839338113,-10831.522644193314,-7054.83403029106,8803.4404270687,-12948.311739679597,2016.4674358586772,12940.737697785817,4407.218681714839,-7342.77583011732,-7715.686541534802,-32707.981568253694,19.915320277887112,-13639.373685545164,-25888.652678802093,212.1256440363382,-6762.950734349056,-19723.39917267801,-5985.132586775413,5344.8882863818235,-0.830769422863753,2.313069443283349,3251.661774830614,-44935.05239786709,684.6528701124817,1205.656795467106,1798.8443392003076,3268.9039256308392,-511.96348067229775,-4.781736729158353,-4.851739943653658,-2137.0173031187214,-2444.0364898173602,-14.66895565651491,-3.924633900229948,-1.9641837033846639,-1.6232701633736655,-1.0731211625283394,181.0451990502669,-2.0644578288402076,-1382.1147106004505,-1445.203256267874,3.991609033932674,35.86239575041824,-8970.561997122466,-0.05369873401304742,-0.6081366841376342,8.859688305971021,-33.52309436632089,5.86889687269543,-1.8038656695445712,32.25355627530079,-1368.1660277958947,0.2695679625361616,-1.905202997050665,4846.4141115668135,6679.77580197073,-7618.684497133943,10.320160276815859,-1.2410694982198074,-21.156160215139206,6614.897164932772,4.484635083591672,3449.6650174507736,153.54682365817965,-13.73753676760647,-6.324529837617458,0.03400892420579809,-67.80330664581928,235.16287159329477,14.034237397025107,947.0087057573251,-3606.953102125589,-2285.384820504804,-17.19271689365026,2150.540349240663,-0.6383981121326755,1113.1977993523717,12.941668081569992,-619.0927706189836,-3.154334309827983,12.21380392737176,0.6209500206634314,-0.013691060785794504,0.07891524892135729,-0.06405537160073982,-0.028950104437681097,-0.07035768512204996,0.06251494156686305,0.027907871788914275,-0.05990642405223915,-0.1136476234094678,0.03660991526165214,-0.0007186197130416945,-0.11574683210011774,0.0681899726338132,-0.11159676695567836,0.0895203030194462,-0.049337980185187806,-0.11559525776910204,-0.08522446008071256,1985.6697187437624,0.011300487404084904,-0.08441742662555603,-86330.13040388335,0.0533215883594865,27633.197125543775,-0.005568489931737066,6254.765550593019,-39244.42181004206,0.08936529535796485,12712.81206819633,-29757.474722399464,5547.719540049929,-8410.845894053997,-16849.30108901639,94231.20178884143,-0.04076512011473671,0.02162068304119042,-5.252656417582236,-24736.109152884754,14577.554175898778,8550.703251739578,26972.83286732433,29025.48716528567,-35882.79510695183,13393.324679305004,-31892.983507146633,18052.068609103324,-26356.054663446423,26404.682132331593,56877.72670308186,22936.612909296975,17697.03856254445,-34562.56252785041,-45534.389227536,-50472.63580124918,-37813.98403443445,2418.3145257614574,-35948.45610837389,-42200.99566303333,810.1541400392346,36794.30633378994,1901.3466698329976,33076.76553775398,28524.567718020837,-2030.2782782250406,-33908.9841328163,-8592.922430960285,15615.154508910953,-19360.180232371866,-722.5287172476691,20459.925599284616,-21335.87447451752,34998.761825849215,49936.892829812896,-2752.8682068476096,0.1941397513436676,