encog,BasicNetwork,java,3.0.1,1,1327611173522
[BASIC]
[BASIC:PARAMS]
[BASIC:NETWORK]
beginTraining=0
connectionLimit=0
contextTargetOffset=0,124,0
contextTargetSize=0,50,0
endTraining=2
hasContext=t
inputCount=36
layerCounts=36,51,87
layerFeedCounts=36,50,36
layerContextCount=0,0,50
layerIndex=0,36,87
output=-0.026759860165678856,-0.0023492365758680314,-0.014725169547162215,-0.021060577565184244,0.018737967939436335,0.034706548142416555,-0.013886535220372753,0.0455878017522872,-0.025485880762055185,0.016330408272564517,-0.004435696201432859,-0.026509550471102393,0.029976440169283386,-0.017603428316540225,0.007246670184387322,0.06039985896815922,-0.003986585033032591,0.007193651757535308,0.01240891395156933,0.0056421122743161994,0.6343767134483906,-0.08845445933546935,0.15776664537683627,0.21938949428197507,-0.19710363325611568,-0.011611626710954377,0.07912271167784976,-0.15212365072846448,-0.046169587511850255,-0.13489820445322592,0.055359061870408316,0.1878006132972997,0.181189111911497,0.009719169300652933,0.0041477452918149554,0.0030018276170868663,1,0.00000000000000000001,1,0.00000000000000000001,0.00000000000000000001,1,1,1,0.00000000000000000001,0.00000000000000000001,0.00000000000000000001,1,0.00000000000000000001,0.00000000000000000001,0.00000000000000000001,0.00000000000000000001,1,1,0.00000000000000000001,0.00000000000000000001,1,1,0.00000000000000000001,0.00000000000000000001,1,1,1,0.00000000000000000001,0.00000000000000000001,0.00000000000000000001,0.00000000000000000001,0.00000000000000000001,0.00000000000000000001,0.00000000000000000001,1,0.00000000000000000001,0.00000000000000000001,0.00000000000000000001,1,0.00000000000000000001,1,1,1,0.00000000000000000001,1,0.00000000000000000001,0.00000000000000000001,1,1,1,1,0,0,0,0,0,0,0,0,0,0,0,0,0,0,0,0,0,0,0,0,0,1,0,0,0,0,0,0,0,0,0,0,0,0,0,0,1,-0.026759860165678856,-0.0023492365758680314,-0.014725169547162215,-0.021060577565184244,0.018737967939436335,0.034706548142416555,-0.013886535220372753,0.0455878017522872,-0.025485880762055185,0.016330408272564517,-0.004435696201432859,-0.026509550471102393,0.029976440169283386,-0.017603428316540225,0.007246670184387322,0.06039985896815922,-0.003986585033032591,0.007193651757535308,0.01240891395156933,0.0056421122743161994,0.6343767134483906,-0.08845445933546935,0.15776664537683627,0.21938949428197507,-0.19710363325611568,-0.011611626710954377,0.07912271167784976,-0.15212365072846448,-0.046169587511850255,-0.13489820445322592,0.055359061870408316,0.1878006132972997,0.181189111911497,0.009719169300652933,0.0041477452918149554,0.0030018276170868663,1,0.00000000000000000001,1,0.00000000000000000001,0.00000000000000000001,1,1,1,0.00000000000000000001,0.00000000000000000001,0.00000000000000000001,1,0.00000000000000000001,0.00000000000000000001
outputCount=36
weightIndex=0,1836,6186
weights=0.010914030098491961,0.01067551276252691,-0.017821904728462713,0.0039530556542116775,0.012055647919931791,-0.015696038385579068,-0.00576213783902617,-0.021868051594758058,-0.002322522921303268,0.0044195543626265885,-0.003289006533143704,0.003444019486899518,-0.012703101974915783,-0.011342141527661269,0.003547528633428146,-0.012361637829966552,-0.00534666823510815,-0.007875279075253351,-0.003891901777241331,-0.012722488184424266,-0.013313943148635663,0.008862090832288002,-0.00022873142950708485,-0.0013716777894120045,-0.02052936939403617,-0.0026809694656643383,0.014500481285799846,0.01415674167623066,-0.0030678686026396635,-0.007100454097647239,0.00789602715909075,-0.007654243354321073,-0.014192172154225538,0.0037170885047733667,-0.011063285529679188,0.006682249650498976,-0.010111083469696336,-0.014427659683017176,0.005893542800031319,0.0038361450076558824,0.009442659836007568,-0.012172225292042782,0.0011065340588786003,0.0002161259335729343,-0.013117414093603758,-0.0015594526937966705,0.003692594587147321,0.015746033232880704,-0.008338260185204989,-0.015442357748463833,0.07435865291856184,0.007457619279327476,0.013943790685009111,-0.007705192264851641,-0.005972565238384691,0.002737741344792571,-0.01640912815816601,-0.013388111053263423,-0.010100007579266991,-0.00967092744620193,0.007546673003790707,-0.01923751574791076,0.0006778148537289346,0.001993160338151876,-0.0013178011001455873,-0.005342754417409408,0.002578445072543608,0.002685015031701473,0.005320291556227514,-0.008333382408987646,0.018678732794275378,0.002616686609930364,-0.013996929709654925,-0.002106596603261525,-0.010115347388168234,-0.01573773679665958,0.0029594193765116214,0.009128277514299654,-0.0005505795621555606,-0.0022423258584782905,-0.005807547006304011,0.007937833723587372,-0.027342068326314074,0.0062958012612092384,-0.00468729605741092,-0.001467658365750408,-0.0025275078450857883,0.0016004440112442715,-0.012491138969671068,0.0027595456871529057,-0.00156652759484951,0.012998398606496448,0.00736361822456587,0.007100440288623246,0.008237742320535013,-0.018987579256910556,0.010805598502419557,-0.011034874700614681,-0.01969557815792099,0.008728319879319777,0.0094991112640574,0.03584412659463381,-0.013588738517094594,0.007390251587944076,0.02104199469328979,0.012416949176241419,0.005950472745447241,0.03531544955365646,-0.016724413347597264,-0.019659432877925615,-0.0017617583403652984,0.02236579339740249,-0.008034843372269989,-0.013099711466037266,-0.007995183362850938,0.02930586649369949,0.0189414378810703,-0.011676572236265871,0.026114733607876417,0.020412180299909096,0.0282625047521416,-0.011337624752932112,-0.020698761218348054,0.02780740697163734,0.003919872143875344,0.010685806002028795,-0.022081502644747963,0.006396065939058605,0.029256070373136597,0.03304906863884915,-0.0017685247001918514,-0.011907294845041477,-0.025357122996796263,0.005870944982317665,0.007919364749505131,0.0053524352104852985,-0.025599709049905075,-0.0032225312681446894,-0.01830889463352726,0.022413900336389476,0.004102929671949226,-0.022193441903291172,0.007229682789322782,-0.005657662810885015,0.024047458198122564,-0.007762476440358053,-0.011032149896528077,0.0016656605791459356,-0.0029935656830903786,-0.0012870297834481777,0.00784608728918019,-0.01776689203699992,-0.057099225284784255,0.008359201112043252,0.013141874099939176,0.00893767476488442,-0.02305659513968301,-0.024607530691695887,0.016782248158516526,-0.004083387845448088,0.006742498362679416,0.033353127777744504,-0.011628486111226789,0.013115255978023106,-0.005369992748800936,0.012840346563154312,0.013427317699441733,0.014629244436981983,0.01810513031915731,0.0030123275653239083,-0.0076126852061541815,0.003392088257710394,0.018327937143911746,0.006743239750093935,-0.011146322140624877,0.004870718223632704,0.005238132463598651,0.008554114853068787,-0.004401566525606274,-0.014540515508337305,-0.002216770876469351,0.018026459037921157,-0.015192397790225971,0.01342261606431865,-0.009686813421597062,0.008515283487451064,0.003113907075820697,0.014623157452638275,0.003173959607842284,-0.0024472921330285077,-0.002447357768523932,0.02660712141377418,0.024555049871011973,0.0014014192494901981,0.005837318703594856,0.002950807860722874,0.03685849581152863,0.006874039116478638,0.003892854066414792,0.00592138014124033,0.02787975311391437,0.010977011066241112,-0.0012718470353365512,-0.1289161930983408,-0.003962370433655294,0.0073890139185026306,-0.00025857989438152,0.0045833639270648294,0.003796135455734786,-0.009772775493748507,0.013261087671478442,-0.006428227324450854,0.0021295995021625522,-0.0004613252881889612,0.0032078238517941958,0.014923332722864292,-0.00900465125055049,0.012297276293980777,-0.015456499879743816,-0.002256209271086792,0.011250833664432663,0.006053558720762883,0.002935674134642027,-0.011102756351790902,0.005903754965994565,0.002709964515456792,0.010739016503264781,-0.009943620362034613,-0.00015271699947557712,-0.0056358589495873225,-0.01871455165674976,-0.004188137434659758,0.01729047069503688,-0.007996181991230663,0.0005609056343248801,0.009455603256236763,-0.004824240513118333,0.003339054473882294,0.007061141964530079,-0.001185522741222313,-0.00946994075057638,-0.00997434851671322,0.00618951642788551,0.005879085146672171,0.005464095624204548,-0.019839410262147097,-0.004209006008544358,0.004373073206083875,0.013884262704545824,-0.009714534380610007,-0.009285666962055886,0.019650006443716537,-0.009116764402584927,-0.020521185606495438,0.010997859545384854,-0.006595570479323533,-0.01325720204530573,-0.016154719274542626,-0.007168716975949531,-0.009922841893856995,0.008634271633845057,0.0015870123863258008,-0.0045173120772580054,0.002103867703282858,-0.000739312352949912,-0.005719003189642857,0.01800512661914991,-0.00016809372000879284,0.005663903104973231,-0.0111114522358987,0.00003479362103766634,-0.011208739376177586,-0.036292428000534255,-0.005639729529431274,-0.005556876829143504,-0.0020014060622554697,-0.017891347833249766,0.003718710155946338,-0.014700769490631968,-0.011181985549681823,0.003073988175519963,-0.013648567036438217,0.004503200784544789,-0.014990977945959971,0.0002357920135381086,-0.019282173530784822,-0.0016399412060627704,-0.009957486798425128,-0.006863617590951958,-0.018705701457527927,-0.00919592727238427,-0.01702995026910002,-0.024154176382813603,0.013195413835426138,-0.026158258518149503,0.017097100502061594,-0.016216580138757836,0.0003935591740593528,-0.005176492041825188,-0.006342427113037863,0.0030146271472633397,0.0011395854127031443,-0.006831395189084884,-0.008827730940146,-0.010831473628620749,0.15996745997266526,-0.017331411068003066,0.014623747508800803,-0.019421136562706564,0.018650881412509146,-0.009377268855547948,-0.004102611870659038,-0.004513837296273172,-0.011780574192929941,-0.001207970177578355,0.030815859556153038,-0.01684471358712964,0.005994111535224083,-0.015530999111982965,-0.008466206212733278,-0.013004160324580748,-0.013230877636283212,-0.029177827710117725,0.01422144073727803,-0.0101307765168885,-0.036822069262643344,0.0045472479657035995,-0.00002163843562591987,-0.006700963977733896,0.0004635937857767106,-0.02207402722545585,0.0044889029929498945,0.02364509240671055,0.014788590399192387,-0.009581603737593062,0.004650238029124233,-0.00008545926603270479,0.010042318586342988,-0.0014710139423569496,0.015273305178006027,0.007719826560537792,0.019155721703010865,-0.010213777918657813,-0.011291529588494945,-0.007056899203200246,0.002116121238691383,-0.00203338639638364,-0.02004840628296769,0.003711509414682887,0.0024975012306315937,-0.009200544443393032,-0.014177668268112757,-0.014737215269269282,-0.0013606155337502212,-0.001222638877599285,0.00524182424357053,0.06588906402203527,-0.002649327180450398,-0.020979100578894783,-0.03561345493281289,-0.009072911590393105,-0.01628804093143287,0.01676811565920883,-0.015040488103021046,0.003030317175204307,-0.010206038212841962,-0.008119863540150336,-0.01625874544345792,0.018452938474589804,-0.00028002787962530453,0.011140534912084528,-0.007453673977101834,-0.033155068347573154,-0.023129530356838873,0.02231407902183556,0.002730288834232441,0.0012914878454589034,-0.04470852889308689,-0.0029198599524491143,0.015287606145693236,-0.018150489396502784,0.008298331756126558,0.004146449716597344,-0.026819305263989977,0.0066184212940819135,0.0024234652808220038,-0.01616303918831209,-0.02917278627331685,-0.013255089548955844,0.009071160896860228,0.015497012175449215,0.02731114210224838,0.026105495145267766,-0.02356992920284823,-0.018130677276334772,-0.01749730499015406,-0.02441841375490917,0.008270905508923985,-0.01850592107894257,0.007357549970241963,-0.005564943773604361,0.023199692856716258,-0.0048101057603071986,-0.00020041862889414502,-0.0257582290809403,-0.027327309847625922,0.051761387230135875,0.09464615196077036,-0.01653957077515976,0.010861951122260374,-0.016042322556040777,0.01301329617172253,-0.012633971357668927,0.027396412810708166,-0.0013990855680687253,0.031959532102045225,0.0004620249274151375,0.00931169320205977,0.006664086030940314,0.015395318495674114,-0.0028441511139425104,0.028093720597823082,-0.030306971455126678,0.030057743252850752,-0.0019420238941169358,-0.03882769926350943,-0.014427552456092016,0.01342092100497344,-0.004443679842557649,0.0006181491994223434,0.014608631529432247,0.03842846290149518,0.005770629376600299,0.022887201390479308,0.027692639986243384,-0.0050909558758600254,0.03249024368291029,0.00631441391027331,0.0054355372899389486,0.030940145995673178,0.019258720335565204,-0.015323902286785271,0.010452137569757252,-0.017711829014013424,-0.012293701408956312,0.013004768427975289,0.014922810163127803,-0.03837211140343027,0.012979363420997668,-0.022857023840678177,-0.0022736098933886974,-0.023171740343145363,0.01994216022820427,0.005382771432639775,0.02287348595425674,-0.006532544836402861,-0.029331924342908235,0.010110431689351286,-0.08542318238183504,-0.009570384395675223,-0.014619952519145553,0.025629748163083426,0.01944624689304345,-0.016066500559509665,0.005582001527012028,-0.000949015961272059,0.027713638416856437,-0.003193008418508208,0.023045613721011715,0.006681796207323871,0.01813009406636352,0.009574724733226205,-0.034192200841570417,0.024828241882898866,0.008832245639229972,-0.007047291075635511,0.024141724392238342,-0.004006636725196491,0.01760084852090843,0.0014751700099798048,0.019035273561707425,0.004980384409874759,0.013206722757751027,0.002665239120284249,0.027839401331345763,0.0014496963665105226,0.009826971651105956,-0.005637904776903303,0.010983540251963905,-0.02223283123500635,0.020821547157988105,0.023737035955259493,-0.012723100720455398,-0.0017910839194011901,0.019853937786416986,0.026161116404061383,0.030276964541236757,-0.02294610197611011,-0.01292684623960206,0.0053203081290278745,0.009363212064595077,0.00785223277649657,0.006053799529427053,-0.005559272582350024,0.002374992992363785,-0.007019449876329063,-0.013457940436260345,0.037725548072111904,0.00912413041541297,-0.14539591979375693,-0.010536531117960928,0.02302685270806836,0.021291528729398067,0.00850660562604788,0.021620662573387465,-0.018617795911515723,-0.024817984725819284,-0.0035646117589128957,-0.014005852178539514,0.007356025037504456,-0.018948241513312387,0.011134258513925504,0.007662459930244849,0.012589412414859582,-0.015225794435830236,-0.018314172078726976,-0.010773859447552459,-0.039753277768659626,0.010987776600553539,-0.01895272913481123,-0.02591029103501079,-0.025488332673711832,-0.013373633683373931,0.008617632414117888,-0.012335214295176308,-0.02553226550404094,-0.0037342784982147175,-0.008722218606434918,-0.011467567476704367,-0.0036693540414726358,-0.02012182485462131,-0.009947279592758351,0.009159585697736327,-0.003608256155488629,-0.004132499542765462,-0.03475399773531658,-0.017415031398681988,-0.00859327311704089,0.016324798806749568,-0.0030604571994054426,0.022689875813591255,-0.010120049911561882,-0.005384124497372644,-0.015296628392160712,0.016810140332423305,0.013071632722055367,-0.010066547601059312,-0.029152588012097566,0.02382761624856204,0.023281609324805552,0.1100581807294849,-0.025002604358208145,-0.0057652273932487594,0.02753292862451843,0.0018609984743501926,0.004656482369898572,-0.015277225018910033,-0.00688721547565158,0.0015808920004961016,-0.014197214857933828,-0.025426424101414463,0.0021036117061676253,-0.015261572146501248,-0.014799160477366034,0.01266838378070026,0.003059435082937415,0.02630031164449935,-0.002226522637318586,0.022803106503674817,0.012251584038875841,-0.01589812562600618,0.0005591433592412404,0.009146746295945923,-0.014392256419050849,-0.004633048170280371,-0.0004304609965595821,0.014034207742986816,0.006748997824129543,-0.012647818552920296,0.017448000542173527,0.0009118890766792226,0.018837439362239628,0.01761068672017707,0.008494413724189976,-0.001864464931824654,0.004902521592168069,0.018512012438731063,-0.0030355422537803917,0.00655250966709795,-0.0013962259259917465,0.011368719400554606,-0.008896338843885312,0.01240263267254216,0.00916491643256031,-0.025929251706708473,-0.008840019951193236,0.0010512689601802198,0.010688924750295044,-0.03155048360052632,0.00012988999315654206,0.015539617546960604,-0.03528648210473716,0.0011732839337206132,-0.01627536115299161,-0.011809341868281415,0.008379060745209832,0.002401060003777826,-0.04097633583721644,0.013997888808431194,-0.0035152827676076907,-0.011362534604081478,-0.0006999131669158602,-0.00046886385623127536,0.034151725529803764,-0.0006328479502270757,-0.024456483009364968,-0.01321947078645753,0.012728836678273105,-0.022231756321296335,0.007498939743075563,-0.02189286842544779,-0.010384783752363347,-0.0047636192305771305,-0.012896914791165247,0.0000030685749896328,0.007882007406045579,0.006257835231803898,-0.017682260635098975,-0.011878347875488162,-0.0020724435049125634,0.0005215381791172459,-0.007794498623228146,-0.0038182938832223407,-0.005979433777341929,0.0030794838208565802,-0.005482891537044461,0.009628008342052725,-0.0157060417051887,0.00953071277208436,0.007875300724323239,-0.008062435737350082,-0.02339433126639038,-0.00036513988842505,-0.023283927304093968,-0.012927465639964983,0.0012292498746326842,0.004936248187771456,-0.01830679868012512,-0.021944725840945898,0.0011462884497587373,-0.0023120983565359044,-0.0062673206688445325,0.13015846886481136,0.0016316849173353108,0.024228861385536572,-0.004770884426165489,0.012698739115298516,0.003064478614152642,0.016038065972578078,-0.00274386248112528,0.0021357642710397896,-0.0069006068518024126,-0.007152041110511439,0.0012517428952624867,-0.010913213624830501,0.005327291497866529,0.026439486643361872,0.0031981179054009143,-0.01927049414765983,-0.012287073532268485,0.02027464516689954,-0.009449256523425842,-0.009156383290432184,-0.002228740504502386,0.0075263193447335395,-0.02148499316289178,-0.014720400958357801,-0.00874662433518261,-0.0135555676294916,0.010687645546116486,0.020636262548804733,0.005095053760224598,-0.004555459220214371,-0.002971423230836022,-0.0011774388069488559,0.018391985187430206,0.020893903382396762,-0.0033998959983608133,0.010522264206587743,-0.003774585754723159,-0.0007829322250102712,-0.001965372747228403,0.01714755513122131,0.022158753946231145,-0.004373344382491864,-0.00972039185492708,-0.0012512479363871608,0.011234678892635838,0.017175432242953065,-0.018027478466386627,0.012243823270934649,0.00025562579790537826,-0.02850653829983222,-0.01857892562654325,-0.014868476974993865,-0.004184561977458589,0.013645016341015991,0.008116584111704349,0.001858790384222856,-0.009908329635130192,0.004448021955465632,-0.004317026169629376,0.003938633323510097,-0.00725375993661411,0.0050129350200005425,0.02155281225546493,0.0006575000270589497,-0.009009027792380627,0.006108377239922178,0.023080554112665106,0.002429108674133237,0.00460025896643239,0.006546079121256526,0.02259647035152612,0.010702862944036221,0.015319518143719834,0.006737678852886103,-0.014734246520832866,0.032009764756910655,0.0014418265521228138,-0.01600622607848971,-0.010719064253499805,0.020693638611425036,-0.009077862368431031,0.012108519940377252,0.018712756904906716,0.007176476389666766,0.009900066129740405,0.0044595669899413415,-0.003460749976116764,-0.0032330504944342677,0.00011146575865223499,0.002420962122621406,0.02643194064205252,0.0009135589081656715,0.016537457532995885,-0.0002687627896686357,0.027245480682293922,0.009354480775199112,-0.030999136394314595,-0.00685307597331854,0.01143172130076582,0.016443157690168058,0.001473455383056755,-0.11656805945991665,-0.003951726653392372,-0.007751084509830267,-0.0000695017419564038,-0.005842627713285975,-0.015408897041701121,-0.026260609101574392,0.011710785662913456,0.013917337774539072,0.00160061489445745,0.015257750960778513,-0.030406150158010466,-0.012364403901730922,-0.005342003789693464,-0.0067427450056451585,-0.007945783526512191,-0.01146976818003115,-0.02360636984582332,-0.011068019223588594,-0.016643017028664366,0.0023044300976451004,0.009702786968090099,-0.024348231081482923,-0.0036260986279944437,-0.0196159842586797,-0.0034739005444563,-0.011974855003786155,-0.004095059781419708,-0.012291824927402096,-0.0014033787820331785,0.001465820181600799,-0.0037805246847202214,-0.017493831503010756,0.006734686532236449,-0.0084917647897185,0.0009259622324246916,0.01999396660103469,0.01898576513507859,-0.028128526294814923,-0.029662362243718772,-0.010872517179848693,0.007482972136615528,-0.0019410117557135498,0.011135520789556593,-0.011316403470719417,-0.0036497059413953393,-0.020385103981920005,-0.03341656291274883,-0.012179663597419423,0.002251989389404521,0.01531555128930923,0.1566023731427642,-0.01007355912864294,0.0006849856863564583,0.006995440865202768,-0.0026171746372076485,0.009725579643644991,0.02304786406737678,0.003350550064520079,0.019196568560737034,-0.004021689165867886,-0.0015496089864579143,0.006222548522985281,0.008110276837744458,0.008843470019484486,-0.001990459824170862,0.016520967311344694,0.005747576240076578,0.015354473102509597,0.004347802981319923,0.018912507687595722,0.006816352952241435,0.008389978251465603,-0.0036959066745778845,0.015757562419961204,0.0015978220585952747,0.01142496708788991,0.022328072954248605,-0.012979608017597071,-0.006507796177589852,0.019595948648024535,0.0166655344794304,0.00478908641517302,0.02153155694418184,-0.00017074781512120665,0.0003161414185474638,0.01846516518054598,-0.021428740001969107,-0.011083926690835504,0.011477658099419242,0.02083003378471036,0.0005107403711043424,0.0034269534910456724,0.016538966483991408,-0.004900958968156471,0.021076264788748446,0.002135803804019816,0.010623304404922974,0.03051059797631958,0.003124149650554449,0.014193327982540716,0.013875082284599495,-0.18747202967908086,-0.003429337548129115,0.0015573442881026015,0.007965329205287428,0.010853545401900866,0.018593270725612166,0.030443837648434863,-0.008300980904972777,0.018863118900217756,0.007810148535169229,-0.003948023643580451,0.00635526095679186,0.008191969297601015,0.017226635394074596,0.007921195042392193,0.006868056149957726,-0.000797823748785498,-0.0062741961193825595,0.01785179705010907,0.01351179225540852,-0.01617883449298541,0.0038748664105922406,0.014547032889184339,0.006813935783366462,0.007999517761956683,-0.0062627001505556916,-0.009679298142925796,0.015250468107293885,0.004011739442284933,0.0019061268216292438,0.010229384218161677,0.00007879431367065913,0.014178739672847492,0.01651848072088414,-0.0016491727036321432,-0.006777337029098181,-0.019821977412164758,0.010801505871435866,0.006763776027920928,0.02770034668547291,-0.004291706319075561,0.00943577453365845,-0.0021911589063532346,0.0069708333489588836,0.033515753523635346,0.013159131166468238,-0.002106131698682995,-0.0008736683935085298,-0.004430068841963658,0.0076230097855686345,-0.002233580510182363,-0.12510520511774903,0.00032699398043281233,-0.014383507677113043,0.004973893153345588,-0.012148805165419609,0.003819525527586097,0.016160200053591464,-0.02389141873799299,-0.014798220643444049,0.008520593662305585,-0.011528230724902049,-0.015234237890940373,-0.007642805957884742,-0.02136330279115477,-0.012357518720624613,-0.01021153274572755,0.002283903994122076,-0.028733310353736576,0.00017992123598982077,0.007888256486928587,0.0071020053253426875,0.01667195232833885,-0.0047775548453647095,-0.018712559949287916,-0.003736715144543059,-0.018428852663327725,-0.007857549111143019,-0.013149847891609933,0.01176149822581619,-0.02803299818709344,0.005414588063145629,-0.011332294044422011,0.007996845095569152,-0.019433835182084632,0.029375285470739768,-0.00781442401692976,0.0007655962920612797,0.0011560939187678294,-0.013023245523052394,-0.017003088413235796,0.00831923726698041,-0.00023811539521491373,-0.023970291251579512,0.007502625555996774,-0.030441226174385952,-0.003965969446340316,-0.009029216797210748,-0.013427612241515521,0.023651046601505497,0.010195505799379043,-0.028803351937848384,0.1338215759086419,0.009676266670968017,0.008687381258704016,0.02185300948501201,0.0057955725218711805,-0.009488502067137144,0.016061254267782682,-0.006304800373936848,0.03069598532670686,0.005268676579551154,0.027756065901639728,-0.016004645368762185,-0.004866169525435087,-0.004322945751239302,-0.01330754592090024,0.0015964553665811282,-0.009389612198211328,-0.042075195025296254,-0.022827357576123114,0.02128456877512534,0.00493013400993058,0.003706375673229365,0.008528295219462903,0.034314192472078266,0.0007429204493008289,-0.009022272656269615,-0.000530493893375471,-0.011481607167804,-0.021250916200390376,-0.005989155314033731,0.015983757731975943,0.01391986895671733,-0.0062533112035795735,-0.0027607462414767203,-0.007582837898762219,0.004655408415097086,-0.011555721825625587,-0.01037807288919163,0.009880566833157313,-0.019201248650652498,-0.002094712495931624,0.00949233502497473,0.00245207808014302,-0.0007799452016681914,-0.00047103694805555304,-0.014273992110164372,-0.004615497465556901,-0.000656300832270984,0.01613978052603559,0.027629265090198158,0.024143570505191506,-0.03802842982976028,-0.04875057262363441,-0.0447142012872062,-0.018006806303895832,0.10236879438147126,-0.013713976212058427,0.039350835308657926,0.030945363549200113,0.007248031926328023,-0.05469648629037263,-0.004457923532625888,-0.03767319389749415,0.020124204130014867,-0.0022818819798598716,-0.029803156057649095,0.015856863203023663,0.022232949234968567,-0.0014292014165892923,0.04224783500579491,0.008954642952699673,-0.04172500547003897,0.044444300446398695,-0.019066839567155717,0.013733671472257417,0.05772291170999865,0.10384656392430791,0.06526132478485461,0.06665412215459754,0.030505339390517694,-0.07192266674254782,-0.03498974341446578,0.010518526768722197,-0.028197265805516833,0.004082818354044636,-0.015078634453275562,-0.004164084710329918,-0.01657778704901798,0.017476492093653144,-0.09024711533980938,-0.03469061379323806,-0.01376002179840686,0.03922418929522918,0.09894144607185436,0.019907804266707164,-0.12482364772992234,0.011456127560694675,-0.015868119168456242,-0.08764236898713507,0.06866656107270327,0.12853901685490882,0.0614703674101,-0.08784326189911833,-0.018696971119546515,-0.0014405007985147347,0.0766131599028123,-0.009825482035881336,0.005380657605487906,-0.048392703072168204,-0.06747304393025913,-0.006641678575635981,0.014674243462337568,-0.030230854034639675,0.042376011421434844,0.1318711594551449,0.11202148485669187,0.03829345353238188,0.007105564748484566,0.08410197067673927,-0.07592783847375431,-0.0008822920645974161,0.07313373596130943,0.0352987515686463,-0.1293882476731931,0.03053316758277324,0.04644155728410986,-0.0768260493271971,0.08313867942694841,0.00297567744454862,0.014750244331393195,-0.05752950102693448,-0.009752836772574896,-0.047031364752688286,-0.006780189521813406,0.08332300052213822,0.12270413767963115,0.05602217534840489,0.016805836227983297,0.015467414060708654,-0.06405730301330571,-0.08608408955873634,-0.035996406939146956,0.034457481846456195,0.052049019339462266,-0.09418057522335696,0.03406512619055913,-0.02635978421137275,0.01742342457024332,0.11777574554480887,0.05247025179067111,0.04427631421775643,0.04076095033178551,-0.08853051409387519,-0.06760694719134623,-0.05458265643521735,0.024331077108766665,-0.013937890995634332,0.01104126510541912,-0.0303689708427797,0.012341444166580852,0.04682969080436872,0.042582663248349646,0.07939537697781288,-0.014238097401347032,-0.09400011093163659,-0.025965742468657467,-0.01589667438026686,0.050613361667187974,-0.05959556397016026,-0.010175672706711625,-0.01873768374136142,-0.04560882227409773,-0.015902527736562026,0.022840970747969667,0.04548540398112926,0.02291467120853877,-0.0036621784008588963,-0.10305041379799464,-0.003293243580349458,0.022550799575171847,0.03428754865323221,-0.0032409173415056734,0.0014737559694604865,-0.08559372527706738,0.015982058276084718,-0.013225481139334784,0.020427170342517464,0.057119495463683084,-0.003994344525331453,-0.0028877674375061635,0.026860648193941218,0.031081515814496707,-0.012284926725885716,-0.014864751274317845,0.09082034941925408,0.05187107821327075,-0.004270584471665699,0.09018723774621544,0.0391810157588082,-0.025829006085733866,0.07078331258715181,-0.025520298057695963,-0.0013551989239814373,0.056461687264954805,-0.09800831471694489,-0.0640732619485711,-0.03609429321586678,-0.1158539225046274,0.02007140352147048,0.0673758859479683,-0.02258465062732274,0.10213142655765563,-0.004396821245838011,-0.031892445736735664,-0.02691253327091713,-0.05625188426884316,0.08064649771624571,0.009681613082175898,-0.029278862643278065,0.02878304024683137,-0.0030636972635411435,-0.03581099434625942,0.028281839419192146,-0.0263580068868025,0.01322017255166098,-0.008667483169712427,-0.03529460794625796,-0.009339363297484306,-0.06206235920992947,-0.05317371570190957,-0.015719930210728657,0.03234825221186389,0.07592832372971418,0.005320956854557226,0.02075363738434583,0.0004157363875811716,-0.0007760250985698529,0.08021759928760229,-0.09925064800011699,-0.03160562967769368,0.06273715067837385,-0.051422445885094134,0.022630904028907085,0.1489179495786712,-0.016541168976992256,0.04324241938940506,0.02893207003133592,-0.025081061593252872,0.02803242079745532,-0.04157418662702772,-0.012464098282946,-0.01952149759260771,0.042633605411390545,0.007561741080345472,0.14161941086817129,0.016910547616899776,0.05749514341255158,-0.0316923706000556,-0.029108932783510136,-0.09812624685097676,0.04900557205870623,0.07369809982639561,-0.11733360087808024,-0.13434454572693894,-0.006946504674510428,0.0368322751627518,-0.07390505404893981,-0.046827915206900335,0.0683193835728447,-0.05823834703775118,0.008807800270687184,-0.0006813892863763225,0.13348134636635695,0.031201292059171878,-0.11449456103881886,0.007612115619334385,0.008038883012040723,-0.07104077289172162,-0.002574061463206644,0.1892419411058707,0.04491244741511871,-0.03882390121068228,-0.02235336872800254,0.04165154480795672,-0.03754539834239891,0.009354618107620267,-0.030295069787685633,0.008882541728462008,0.05000190351967882,0.020322695714935484,-0.006899037622217484,-0.03926502536620833,0.027029134050275263,0.028662827643286974,-0.1231363222254422,0.09578364156215083,0.013471952882711493,-0.05757433056981525,-0.02877888148485097,-0.026852667016541085,-0.03222181681945773,-0.015887626640290243,0.019625959049108015,0.04039930772975706,0.02576664681650373,-0.04769489556865498,0.13056956893955124,0.05388303189313247,0.06306078660098322,-0.06034286298740248,0.047867425248320716,-0.045992104413436076,-0.11733944380811748,0.038033385972927096,0.06069531656432048,0.04777152255586417,-0.03871736808067804,-0.0447241105909899,0.09763999499196736,-0.012933741177448003,0.05593950778253303,0.07737161667306473,-0.0034260524163236146,0.058231717644930604,-0.06059220951963156,0.0013265758982700002,0.05731517786068475,-0.03433169136383092,0.006950083394499979,-0.045849848045052405,0.04560787692869544,0.03926710309807872,-0.025363410319477874,0.00647079025972337,-0.049072725069374316,0.044643750475569004,0.005792518584839594,-0.03241388303246325,0.03150502867989539,0.050554138031822356,0.0848446935387721,0.029181960297892013,-0.0032542157586552193,-0.00812572077836641,0.03635593989148588,-0.07647164500372022,-0.050351698367143,0.01016614799152485,-0.03401796601814021,0.09942241124327383,-0.00012188401659782843,-0.08379132050060165,-0.004496655701225212,-0.003783383130698839,-0.007172410117778112,-0.10947263269147876,0.0845747251442793,0.0127672971226748,-0.0029251855144660083,0.013508794883086928,-0.028511721416888413,-0.05217749800235365,-0.05392079367964684,0.019647347437914083,0.07018647499367948,0.008301136836410495,0.051819912445830514,-0.0573617183501034,0.04650402243672107,-0.04066985746342383,-0.0037922633642295494,-0.06751413097940355,-0.04719458580188834,-0.005430952445596644,-0.029149906493422157,0.038417537056201025,0.027573585433867898,-0.008013924304097803,-0.044169082024243606,0.007351234270768499,-0.05901065266960976,0.02480543821353626,-0.05864891195353681,-0.001746380050074718,-0.039821526066397106,0.048629917299932574,0.016718327035633185,0.048630376426170796,0.030255623071286684,0.06524669131591067,0.14097559287929606,-0.0018605831942548937,-0.08423994272498228,-0.1028000882515165,-0.04634642215776416,-0.004881772359414938,-0.00023570749610103204,-0.08639190386651031,-0.0006162577443511333,0.11606351338414442,0.06897234582037438,0.038946011902021266,0.021443994915665773,-0.03629081236595671,-0.009054571376210003,0.05521310424361511,0.009243924382508449,-0.1341727082415418,0.12918928552599693,0.017324910325539112,-0.028297431494366015,-0.031234229511190068,-0.019182407399037444,0.015076170992863923,0.0062291043344633,-0.022628561404741,-0.017501346344431377,-0.05089842201960141,0.08098925233229469,0.034673186217629506,0.08465690741520668,0.06833706058538548,-0.010183901580078928,-0.03247982126050265,0.04573933222601853,-0.1363236697670989,-0.04964147392213207,0.07052349784989596,-0.009552581737950358,0.07603875317556752,0.03226976754933457,0.009720107719109663,-0.027774959231015132,-0.09487041204453871,0.01877918175701059,-0.13470370443538665,-0.06669656625320261,0.039418508241530904,-0.01583023238877671,-0.006106702745623972,0.02923331405968235,-0.06014658232949773,-0.02581043586003646,-0.047417739923607385,0.021735684530159317,0.054682802715859055,0.03473457448875382,-0.07725081303713292,0.10797576223124271,0.008179708554295123,0.03976142343990807,0.013072802984327678,-0.06651849713729079,0.07133244707268609,0.08036495148523669,-0.1454048505271714,-0.05270204387401025,-0.012537472685529126,0.0040318606225763325,0.15301094899041892,0.04483607917895077,-0.0016800494183459526,0.05451962960061595,-0.04353767128845069,-0.019766484782690708,0.034067352863872566,0.06404031132129802,-0.013359015893145355,0.009913628063079686,0.0075328778033030425,0.09349204931703402,-0.006683041110239144,-0.04167030652980015,0.005315616588888018,-0.036715724759576476,0.00046658880466205003,-0.08873117230857401,-0.08542524794684468,-0.049583213458954535,0.015589712271012936,0.024381478891787045,0.06810180681753203,0.04504124594109867,0.015270362300576839,0.005500200727133912,-0.04378373588854034,0.026564731279925764,0.005622653670576538,0.025661184904618637,0.03623142290580792,0.03961994842307283,-0.010463109613310286,0.021711599539609362,0.09577053090743111,-0.04146539643251825,0.08758879813481524,0.058965981402949286,-0.05173729068864156,-0.01977511953707384,0.08828475235807683,0.07072537104294596,0.008099902275172682,-0.037390132577145574,-0.005857673637047345,0.010636738284486505,0.022431564241545885,0.05745931902995209,-0.009936948880637281,0.03807373450051165,-0.029843641604887595,-0.11932347211647702,-0.03674049397811764,0.08254714560735277,0.03389105086163145,0.023227362322804253,0.010489458874771335,-0.016664144479583483,-0.1384981994890828,-0.01701392023118216,0.0004125592420071461,0.05444520321645846,-0.0728211702053286,-0.031145183825974754,0.00317066674172936,0.04666434993898771,0.002313202954919222,-0.10657381608601915,-0.04808424632687723,0.010285267040819194,0.017030821549444013,-0.06362522217956566,-0.01987723157133836,0.0033332083762076265,0.08849304969751615,0.05489679362782771,-0.07903751213759085,0.0006038514774378367,0.03652845108350213,0.03889185469546762,0.036920117328792544,-0.11598618669914387,0.0037197065455819183,0.037615372935973564,0.009777184690314938,0.005695109690853006,0.04986788308359177,0.05052430999309197,0.2238538353356804,-0.13551014884797866,0.1287558844256136,-0.016927749570648812,-0.05314160877427012,0.028677329919186326,-0.004247942958600477,-0.06621839593352613,0.03820840418029981,-0.032247377030795665,0.11647283787254044,0.024734539076929272,-0.08298039191814141,-0.07771926838843102,0.11536607010074534,-0.09197111766297725,-0.0025406402937056868,0.1332580758660285,0.05867393049097608,-0.12286329452501128,0.03830020748406731,-0.0546565237734962,-0.0200233379723094,0.018609718356883586,-0.011904452660113037,0.007806532939546314,-0.027125575282361515,0.043374344029315774,-0.02657297994717648,0.01878629169412703,0.0063734426956378295,0.023650933621768927,-0.017259803407887842,0.024475800698482687,0.02908689542962329,-0.03705025703318433,0.0009041096255837249,-0.03059085018126059,-0.04908091852675766,-0.0850775847957741,-0.021930524113564026,-0.03302522935060221,0.016153328876406442,0.007309108868275093,0.005180257235645418,0.005398501809396523,-0.04832956138648083,0.07638608044217622,-0.016557731948598383,0.0732424365154034,0.08718499068743887,-0.053540438881873924,-0.04516784871850225,0.06669433771014226,-0.0743313065585483,-0.04730282453757835,-0.022411646024745095,-0.03825135469145096,0.005467939952255354,-0.014521149156590682,0.023180431567944575,-0.08339744656495839,-0.004101241424010248,0.04748902543303945,0.004719241182656821,0.18180886365825014,-0.031342097721444494,-0.003993994434394539,0.012075970763396726,-0.0019191486981190954,0.049603998756799016,-0.06496786834133746,0.03611028150186643,0.038040446494198146,-0.02325490471835908,-0.02662746429961962,0.011257158347716827,0.07174700825291215,0.013434594684835809,0.03934936573293105,0.027216735626375946,0.05141361744623042,-0.019381738034243177,0.11237847002630659,0.011130523135919019,0.02768077771466766,0.049923255812312356,0.0036042445026121432,-0.0709626448681488,0.17562563657788943,0.0759812080434175,0.0055317028396427255,-0.02098230512565521,-0.033100344998595994,0.005251201083266272,0.10813197704007553,-0.01830382906911245,-0.058884977025939825,-0.0549384193090427,-0.09257547904654166,0.05283655928055421,0.004926004501331402,-0.08445445125784433,-0.08865595993346904,-0.023076248736485786,-0.023006573185565114,0.0010861508153426243,-0.033504869601941656,-0.1519921775077308,0.1799966474624651,0.0732269654303147,-0.012841197359946698,0.011688625788103238,0.07708932518270165,0.0020719103503880477,0.05693907648970147,-0.13559465741952925,0.07932196053519974,0.07259018910561398,0.02021954081984323,-0.08036898954874455,0.04606604746619969,-0.004777007984454497,0.051467540153692745,0.03443364128157053,-0.11173942607904534,0.13454433783267036,0.0005655678831895248,-0.05383647823156756,-0.05360928893371531,-0.019581899445545895,-0.03611594164986044,0.0834083509923239,-0.03579472784554286,0.028732866171123892,-0.029959967132619312,0.0825610647562058,-0.09494298941673068,-0.008902773883289855,-0.0009466961037154248,0.009172961840370288,-0.04995418686240508,0.020039018717494004,-0.02568915966474655,0.0012038696153049797,-0.10605319303560758,0.05038906149116502,-0.052861864618870436,-0.04822156518309066,-0.015487760916847,0.03444961854037275,0.04021910249501912,-0.0004942394041320903,-0.009663442763021548,0.058657542445226536,0.022733392073232227,0.03936847886369158,0.0016486286027268375,0.00865825389252801,0.1130054117182895,-0.04601074128562136,0.007387875094809327,-0.0031050888722799507,-0.04343959504275371,-0.0003417589800069644,-0.04910256664588276,0.01899734931569801,0.057666180554896654,0.009059099351380604,-0.0013957847951113374,-0.009888516090370548,0.01256771002823388,-0.020623410816920637,-0.020122357903102205,0.023075873977297955,0.021649640419343055,0.0056815572075604006,-0.033075200958305837,0.021884385808661706,-0.001417273026261488,0.0034976642805432494,0.007033205920928449,-0.0011944826195758903,-0.006769643006521743,-0.024150996100304353,0.013922027642081529,-0.022074285142912004,-0.014244949841066768,-0.001695074984985217,-0.01261241152896954,0.009194051437291262,-0.040621875255787365,-0.013282982480957075,0.005951511467516318,0.026457826645649968,-0.005152294991244651,-0.0016486470079380639,-0.007984281353469314,0.024331770097748288,0.010500530268952207,-0.02110879718740966,-0.005715343989074936,-0.027504789211531124,0.03048893748291852,0.014401143659645886,-0.01083397255972422,-0.03455097077521927,0.004765734641814061,-0.009511743094813289,-0.0205800295175205,0.0023172918455586994,-0.013141555499388745,-0.01158650761795287,-0.01289493378334478,-0.030756479513719816,-0.005416346810565537,-0.03131830736913426,0.0004970222464913614,0.1304271822170207,0.007603877831424252,0.016646132772970588,-0.0016126738999677531,-0.015488645649243703,-0.007416234684619647,-0.007326524897790564,-0.0022282282492456233,0.00029134916415865655,-0.004025463922983818,0.01712225676818652,-0.0011341501551301778,-0.00011448520589436636,0.008538567325599322,0.03135824081076533,0.013773438949547946,0.010741078971138383,0.006610264057418279,0.009682056343017456,0.012357546694555972,-0.00021689913639291755,-0.005823358217753007,0.006098082965846883,0.0032812882586992797,-0.016936548973583765,-0.0012819139413309715,-0.020577115762940506,-0.008293058582635729,-0.008962065178394072,0.016518820140469584,0.007731112348419076,-0.0021392122657963443,-0.01961915512475606,-0.01672460931929168,0.006573198327397138,-0.008210836954264257,-0.004619188643352449,-0.019935041827877253,0.021117754548899074,0.021112754539507894,-0.008165450334947581,0.005827648893081362,-0.003313370710904114,-0.010036448898129683,0.008133671021588112,0.00958670837710226,0.0075475080000137204,-0.0048800504022057795,0.028362290533962258,0.028885372867632188,-0.015124559527344948,-0.035970085433135006,0.014991602530729092,-0.010824894596147204,-0.002873078288062192,-0.015484738307555293,0.001627849447395983,-0.043689999248294004,-0.015346131294825172,-0.030148082358582146,-0.019811008342976243,-0.014398022554553918,-0.012863926532053038,-0.009046061971261694,-0.009604092577474075,0.021536967230203624,-0.017370790710854355,0.0011015266166712842,0.04117367769771435,0.008989554493235293,0.009536736686660408,0.004189029468447845,-0.021616597407303397,-0.013187018273496096,-0.024259724781001902,-0.015792185419690342,-0.009610386005343363,-0.02249601535419598,-0.01584646630206234,0.009173166747307508,-0.006130223103472645,-0.005891986435865555,-0.0027439759031326508,-0.008149651243486194,-0.027421365498117183,0.014468195872510836,-0.023370328999465756,0.004520760251687857,-0.021514982825465323,-0.008221351893280743,-0.0070322547623370875,-0.006877133660143034,0.008454835461502497,-0.004601169187050286,-0.020264335625131163,-0.02800384164234875,0.008846136407442862,-0.008453558148680654,0.006791518323237095,0.022428597808374952,-0.004678707129579063,-0.015926689552453147,0.15785074497753068,0.060582796236026006,0.08778122871869652,0.1234726808067777,-0.12787611220520714,-0.03855086272936883,-0.020419507695293816,0.09515080687338388,-0.1397695083690983,0.10301405487550408,0.04275752874294621,0.02864400128206694,-0.04690932535005345,0.026889634200022636,-0.02631192943042198,-0.14031391120791417,-0.08595294424607554,0.0844728132300883,0.1062552328829249,-0.10049805684537864,0.006889536041798197,-4808.925915577384,4311.554540261067,9888.874139258058,3.4994543593945977,-1508.604996926101,-1267.0121207552336,3808.8760104856206,9066.257005810881,0.22081761116951368,-14.561976732551079,-5.006649518481242,-4642.575136752755,7.168241337361198,-0.11344209704371973,0.028212004722645942,-0.07373966500852426,0.004292250672140409,-3733.003264875261,122.57633014401414,5485.04350964654,669.7705700829255,-2805.813173060099,1605.7420834976344,-6361.316721324768,-1.0055091695803127,1670.8324217546456,643.6291176021698,3829.5803145437844,2323.331478457939,-0.023660889843780675,-2627.8969740076136,-12.228986689358562,2150.371097064119,5.16735016151896,107.03807484413876,-1.7229936926802651,0.42521806718284505,-3463.655897639703,-5347.915090196049,1779.9269805074355,-690.2901252407416,-31.60628485394606,-2291.7303599596594,1112.2669934868436,-1.3799894283374137,-6.300499075735403,-0.6037916379335162,301.6774885306547,6466.030766260898,3397.597352091201,0.8643875905322274,1361.385995263416,2246.953457969216,-12623.482484337292,-0.11013735262449893,-142.38942238309806,37.76324156714939,0.6461028854469566,-1.9780314671596926,-893.4284094389033,-2096.6200900421054,1608.7057093180933,1.6377317921306576,67.92603616249237,-1090.9439325315761,1449.9060262960838,-160.08662038468827,-0.09531208429156049,-0.051302017618652454,0.10629792866666218,0.04517812830220933,0.04095594733465127,-0.09500843820817353,0.08366552783298666,0.025735357192876084,0.0413346770836018,-0.03766628065701803,-0.09405091987419482,0.12301356793206461,0.02095477163793308,0.07144576403512976,-0.06709362126863096,-0.0856602452580531,0.06719701477983049,-0.013725825966950458,0.04560346480772695,-0.10210628359545522,4371.02355121673,-11465.26453434394,0.02557369248998159,-0.04765974004003404,9769.373984723454,-1282.0717359954285,2070.848219956337,-2.0956464100024266,-7344.068815103714,1836.8224478132422,2.8816470947544395,-8.956491992221983,7677.032262044337,0.07779093614805745,0.09441702929069253,-0.0773355825405834,-0.6154427675401762,-293.57543667113936,-160.2185797874044,258.3397916392789,30.08482418522021,2059.133575017861,-0.050851897576770944,-9.047777730362196,-1.6921543295681882,-79.9620130944775,85.07511437536479,-1807.7647070749279,9844.899714058685,2960.8828701998796,-3593.6624990589526,-52.6338037242638,14.583849885272683,4009.4868178548536,36.048309165756024,-2344.55825390453,0.3911997246271779,2684.2072448566255,0.32201588860206387,-3539.5940206689247,-5974.146503160982,-329.6053980055021,0.05187410621289207,-2132.0135126211208,0.021837540083575628,-4798.654150011244,-2318.975060023849,4632.398597486184,-9275.617131828682,-1717.3799435329734,0.018052176001124208,0.4318487619042461,-0.05814250928058919,8.363928382246225,-18377.633267998866,-0.9151020477521442,2.5712884545420702,-0.4660547542159144,0.7399081020035944,-1.621782512670171,-1.8643233760628486,-0.5974036623308377,-0.8607055980668323,2145.352796151298,1.1273166979406315,-0.4810479694566917,661.7477376644775,-0.028180565651714975,0.09050315137440874,-0.13477198557760944,-0.03210669904941621,0.08391201234072501,0.10552151654438462,0.07813930231839998,0.08127515873917861,0.008889477433853175,-0.005037761450500716,-0.09257832115772821,0.09179247763060552,-0.09971395201135039,-0.11432448123280671,0.12664151214097444,-0.08370072162245795,-0.05068221670604374,-0.13957959170733472,0.08446239460860915,0.0069861851408811754,-0.506756516095599,0.5117930188905648,4002.418183388314,-191.66711258408637,-1.0451406253485274,25.978672774669313,-4157.809487812511,1908.2992822993594,0.3765831689739924,-2.6604080227233298,3367.9930094757615,3780.3339618967684,-7636.452198102867,0.13891085407846898,0.10200210130531344,0.05366141527086071,-0.6625210635315048,0.15785835744404225,-1357.3451933289596,-45.31033245904941,-100.83588793891639,-3.876541844803819,-1285.6019190946602,504.34612494780714,8292.53973436059,771.9802595387015,-1386.692184606164,-326.78476234134433,0.382039219338377,6.4826041615819125,1231.1502774963126,21.741600990333197,-1.0338834171685418,0.28774739209764927,854.726514772002,235.30365541701337,-916.9278956133487,-2.0975180838136818,1373.6559822189133,0.022703307391598627,-817.274537425135,252.04328871189986,0.22100226651405008,6276.110689156914,5319.422253060918,-1094.7054588241283,6637.664154932245,-7714.55840298236,0.08657629451885408,-1288.2712315415558,-2181.654076349718,-807.7212855045638,-977.4955240308936,-3498.9235342595134,2.1323488790015213,-17326.177721533408,-1488.8784411254555,-3.361785804628115,-0.39964489120713936,-0.6450943675607975,-5.931094399641006,-0.9272539146741599,39.098173913356355,-0.6345131779581858,-0.5306218684017827,-1.5217590750902943,0.20775331257835947,0.10982127156272148,-0.0011073496586515514,-0.09281225987451042,-0.11125333291459864,0.11272017778072935,0.14687936973705001,0.12806159843142967,0.10613016236811984,-0.07651136346155042,0.11223875023377625,-0.12103738819220661,0.09465823560886025,-0.08757978666945436,0.0883899952557917,-0.05746036801922296,0.02487737237812079,0.12628661051649176,-0.0936331714698786,0.05266181664455013,-0.1387549303139232,-1.5015242327214944,12411.273706545517,-1429.423283176114,419.2396359369776,-2078.2315904378493,-8873.279659990145,5.057806826309622,-11437.523308861742,-3290.716057409901,-1.6265100442149156,28.629959003121353,358.15772784852646,-1774.3745498759977,0.12309098020316336,0.07172301679692285,0.07705129866913649,-0.4869738771042719,254.03095554470005,3268.778776379105,-1704.1214631930175,2.7309994572885548,-567.1027792331017,5988.485152671672,-0.00775932257190566,5303.642384915323,-6153.228744438094,1129.6930176348196,-242.3481619646186,438.5699462651101,-7579.443789027989,803.2152415313541,-79.56801204742156,1236.5472808814432,1.0101419052953764,2719.852214124063,0.23498245203347842,-8.886202003038594,-1104.2857426183382,-7129.497478010491,-661.6642734624467,5445.588257923444,3525.6780781276893,-0.4070640729683312,9.520501468408428,1125.1774768816801,1353.5424574203698,-1192.110595142257,5245.1038203640455,-15.939293405031203,-2328.4371203702744,-769.7951297435902,4316.792889455559,0.1094470773790218,78.73002247397392,-2.214065830676528,1096.318633190654,-13086.163869666072,-471.3405534499962,-1.0801699019468152,158.7749010264984,-40.584948015479256,-0.6038813194127018,-11.656755937017884,-191.3924654607515,1706.5797858382825,-0.5581488515591563,-0.465510337129036,0.12585733003979027,-0.13704606523394808,0.1286275474156047,-0.05127117111955793,0.1383627918686687,0.02516197121391001,0.09501276380454757,0.014893068797639498,0.04032371358201929,-0.045199180360057864,-0.10333093116740498,0.041426945427994064,-0.1125003263384713,0.053679544410690457,-0.037668733117677856,-0.11402660221150047,0.10657638622161388,0.03181241792011091,-0.11366930863323646,-0.10192429122788384,-132.81333791676647,0.5404680943868688,4554.303838544021,5.229549837810648,4155.985313131722,557.7317772453067,-9345.733644213766,4830.459068758259,1924.7992379632126,-1.3880599171823063,-1.3293426380297113,-0.515595899443429,-10943.143601010528,0.06143054673929748,0.08454712978058006,-0.015028694007951347,-0.960681247362943,750.4558831344673,431.70369270004977,-7002.009454082611,-69.86615506615152,-44.34175136243058,-1753.7863888515901,-44.301031390701944,0.08162811376823534,0.13207929874959573,1977.937146753511,1702.7354374158974,-0.2746515432195555,-2349.79971320591,4713.537364753101,1.5212243989259289,-17.241865358371015,-1.1156871681751417,-4.6323971191698865,169.30083688048862,1710.3789681997077,3405.0298768963344,-7289.447072510766,-0.33887412614576773,1061.5988445759301,-3753.471714997143,1742.813985761449,8710.57992142559,-1539.251576207194,-0.06723364124406474,3.1151598515097483,-11617.178461984136,-294.2862437925124,-3775.552959784945,-2350.887838351838,4110.059359128688,96.3105886617719,0.22427045650166394,-0.736353186253306,-1.863688909550068,-6.8195822882816515,-17666.791312067027,5.738657280099238,-6.320642222116091,-0.20669848067209118,-0.6636969481981632,-25.030728049677865,-506.0102508579761,-3.2540916766837467,-1661.3777138825596,-0.4363847173588792,0.12612330175887515,-0.0074334581808660665,0.024831824612185152,-0.07379537307934815,0.09137515612452571,0.08609188674172573,0.1298387732493993,0.014919738387409818,-0.06274187135751338,-0.061105353404324776,-0.014795884853396214,-0.017077070353076953,-0.09745896172695873,0.04338246784582471,-0.10979846228244391,0.09839012807898466,0.07562879424395882,-0.12438006282967234,0.13722510598397428,-0.01814033337392645,-69.36233887497859,-0.13622842223175222,-2417.291760567088,-6.039298180875235,0.46491278946629266,6206.830814821572,-4764.6538072381,-64.91012445179099,-6.574048824595442,0.034300643614880624,-18.893540379674814,1240.0839250132858,1303.230307689085,0.03292638203257074,-0.10454792846110308,0.025336148489882183,-0.45992352070369075,-2579.5971769660287,957.9362110927683,-114.65262220883443,926.8486018360161,1211.5703790718544,3298.494516659667,940.39899862481,1019.1078755402098,-1181.7622680044553,2528.1103316639983,4416.953161195464,2454.2978165191507,1211.2954242767055,-2049.9358726369705,-1019.6136342934004,2748.6590367040653,-2480.296325115283,1205.1495277346514,-232.23078750852008,-1324.473188943315,-0.14008382797265678,6426.619770729439,1034.003006483097,-171.7187635724736,-3585.6698618870755,3419.2916600128992,-5866.322399379196,-5.1327277815943475,-0.10537922445868408,6199.989107886909,-0.06165121317335514,7782.799050048365,4195.03669927922,7037.262653880774,-1.8842447577374106,0.04324331717669122,-0.6136303579525976,-139.34009832248825,4.182055555976761,180.22947857968404,-1.3357665714832372,-16619.98141287674,-24.63113378239958,-2.304238450264381,8.790228192208534,0.603252337475983,3.3852783800877164,-5.750771743989758,-0.2588303623010647,3.761507498221505,0.07014396717346602,0.11054883385425761,0.0028891271193777347,0.11353483233412487,-0.006661926013570131,0.06547308401177246,0.11387116497587858,0.12383664158258482,-0.11693036152243383,-0.03834435294184506,0.0867295686083773,-0.0436062979001029,-0.05308568318829948,0.011600056264228546,-0.07527744970317153,-0.1327560316026198,0.04088310038237494,0.1048245224892203,0.0418627948689241,-0.1309826177355735,-68.95292546513595,-2247.3679378585925,-2.792909413890031,-2059.33848370725,-2318.9675147104476,-19928.111522547948,346.27417391599124,4.011912057528105,1.2038284458056947,5530.0337039042515,-8446.531310194005,0.19815230626493757,-1.244238712043715,0.12712099077510505,-0.08069521107306193,0.1331369067094284,-4.1029624065650285,-312.3642450116423,-17.230753307537256,1298.373195543174,1.066074289623635,64.23032129851693,112.53519449594275,-0.04151458523308767,6542.878099895556,0.13698416354970738,4515.7015475006,-3951.2018417802465,9397.754167622017,-1104.2019475152993,-148.2645467520748,997.4222588509575,-1191.1977120113545,1407.6140524633884,0.6782275253927972,82.96439623794716,-5220.587024093746,4.128833988795741,3491.291306981196,-72.45249700661918,-727.2192342050859,1761.0609268755911,-782.6985687806983,-973.9421798309984,-0.5737820701777223,-16157.829636311233,-1748.5031568606225,870.6667608464435,-2532.7576302256844,-27.51336102887641,-2443.3277502005426,-22.314516500701078,1.0042139638648775,-1.9003302054918787,-3963.931529296228,-655.5831927881226,-0.4472070393889953,-2.2313658363904523,0.24644445549408286,-23237.827090993807,29.558828741045236,-1.4860522998075072,-0.6909914248402456,-23.025284902893592,-0.45549742513046604,-0.3323795952187959,1.3879046712967587,0.025955426959533564,0.02513836411655756,-0.11002587094828281,0.0792122468255912,-0.010862026746016808,0.13349039665640608,0.1378895940367986,-0.0895145005535042,0.03698541309156549,0.059574397162931794,0.05387288557590456,0.0996925391191521,-0.13893177705357326,0.05167439806516914,0.005646975285237488,-0.08312079488190992,0.11208664003473162,-0.09800982149238177,0.007159596394970363,-0.05932495488850118,-4642.368691978945,-0.13315001665754958,-13.91419982271366,-7.575153957234723,-7726.259661644759,42.26744279761442,5609.971074916425,6750.833127077551,-1730.9114821886499,225.90530846669074,-0.7246154883967282,-8373.297524112915,-19.456984183200166,0.10589066952973983,-0.01351416505822399,-0.0580427596057274,-2.0375077397659602,0.6324252407470217,-350.5525718863512,3848.659179445024,1498.7220349609743,-0.09741592676198996,127.60735792937766,581.3395328646131,-3551.3350673233663,-160.1826115787109,-4.288788848838461,-101.86639413240763,-2796.2566213585546,1.431823798161237,-1534.45303594515,111.85633762228878,3510.67060922966,0.16211522002619788,-49.23503761582637,2047.1978538048959,-9355.46330006139,0.5875744683695351,3841.2887179864624,0.26978263192938207,1785.7874570374956,-3324.4695384991132,-8.897449120696214,1920.176157139076,481.357282604008,-1255.5498457065864,2317.7336778897757,-793.0477397851923,9344.237893140998,-3614.127669305415,-60.55765822825038,-67.30046966837989,1601.7178323306814,6071.349348034335,99.16365288484809,-3.3014071110601524,0.25960923657780005,-9.599978717417889,-1265.3770623604728,-169.55795745540428,-15681.913026505868,-0.9890942833039911,-0.523569102294063,0.08716316045400713,-0.8502458642850641,12.359156279509856,-1.1828933155187187,0.0759862851105973,-0.11062801585606186,-0.003426327302850792,-0.06290019486006446,-0.04597153159796823,0.10712449440434198,0.05064615998744538,-0.030314160451798213,-0.06865242731815155,0.0324913729525203,-0.1426093071166342,0.11559838769492446,0.06855202119633869,0.004332336677198223,0.11341647779768783,-0.07941079250664752,0.0833943626458239,0.08771205989467823,0.1279642217475426,0.03962475109207712,19.823219813757483,-5328.156707208678,0.326161584520194,-2094.314704232673,-0.12883491490066806,-243.74449343856045,4456.0952314485885,-5873.388897123766,-1836.7832016560574,1724.7237868804948,-5501.056279062846,-0.5844322764876239,1.899970179738628,-0.009550522601984192,0.09464219518110482,-0.011992819576510726,-2.3581226465444822,0.055846861744863016,0.7950821914935458,-0.1448375010271622,-814.9001031958113,-0.30817757361186043,-6704.175173256575,1083.423484736988,-700.3416352854292,-553.9884863390156,-1.3665495978802693,-0.4294756387095556,-1703.6904146358072,1.8750131650748973,-248.77085855382867,-0.08563793342237257,-892.0560980366122,49.52482378273602,-0.1257630067581563,0.4997877696965819,-1.4473657468432999,0.022848744980025777,-238.54735736534164,-0.10930879885306491,7110.29153808838,3266.001855460554,-5882.350852303832,3562.6277633097275,9.411896856239725,-27.87141197328825,-2560.572873950137,4463.761000714626,-9124.611922321832,1789.590283075976,-1.0124117715944985,-11.879592125754295,7.526394042577017,-0.54680954254459,-0.9744511851355608,-1.1241760736135304,-1.3802729359094694,-1527.21520049147,-7.323338975913723,-1.4405132542860108,2.426448991318637,-14217.422647818647,-1.3045860615676181,-1.024820374353734,-50.918623532882016,-22.675455608472173,-17.93036289412673,-0.08642184876299322,-0.10780173038904858,0.1271642883561723,0.057839012926491525,0.1342927906903881,0.09556303519873487,-0.12349986374377796,-0.11440950144997994,0.029970612453103822,0.1286734143250132,-0.07752140353678708,-0.07929874748107979,-0.061978538181147624,0.051369679145093654,0.024428494348617148,-0.13210929532159757,0.0472096488085651,-0.03278718958196304,0.12660323816088895,0.09667117518511933,-0.6919539313794064,-3.530575797276509,2855.8413880510893,0.09733472807434275,99.34267660269505,-11054.113398258572,-14899.458815520786,6379.98435594064,1.1084766024291428,-3341.0742566191852,96.07102141837849,-1.3474875975809113,-0.15035005031265306,-0.044006884355726625,-0.10893604621894663,-0.019388867306965415,-0.5709044505331398,-1075.0414589556858,64.80151854810451,-264.0877949118029,-4724.246837979439,1.2202565084191894,209.0635038548795,-27.76273430143429,-334.9520134807125,40.770539551305575,-1.018178250174671,-0.6567417816606334,2238.8377639545547,40.42870110680011,70.8069945886438,9.45815948832359,989.2713913429328,-1289.578859780255,0.19797950781641185,26.201454741440042,-1279.471687669692,-0.17467280942018124,-17360.169514105175,2596.6689657669067,-4094.7028849290245,5076.567992962725,170.2522234111246,-218.80600592568183,-7.374509321613621,802.1726674564467,-0.942756488660489,-450.72957848412466,-5367.513278660494,-7271.318893085692,4083.285200974523,-1.8695771763955842,303.15663879558923,-13.336933073704214,-1.670813666694251,-1.1286641769448094,-30.788164772791788,-9.901690857674444,-187.16951468144327,-0.42706550487705686,-10.428993573984043,-24.780002613944596,-22261.339717971645,-1.0766293197841903,0.5901524343641261,-2.5343315240371704,-0.42370348014610226,0.07992592225527734,-0.040842289398455696,-0.05849788945039625,0.030372220100065763,-0.07911211801549714,-0.08093520165474807,-0.03580791427901838,-0.0288672901868089,-0.12996608215592298,0.028299672761625906,-0.053494829555619024,0.1370630166975671,0.043130661976534444,0.05576295922038446,0.09686235819372822,-0.0756293308144336,-0.09713634284420916,-0.05721466401213906,0.07909798772997256,-0.01758005785156255,-1.0554087353882413,-37.63068207844268,-4.35235867509755,-3564.3325767014444,-1.5759104069088636,-10385.840781821864,-143.00385871774492,3946.9817705894193,4324.358505745853,-5948.309060365112,-304.1912395262282,3.5879520206145235,-59.0398528201265,-0.038832678712628306,-0.062353028137281434,-0.13759818262490267,-0.8815409639517932,2.236673258971585,2261.80283593578,1.0153789574164274,-328.74038792339695,2135.5063155399234,0.8633990422926171,1227.6116363938165,-562.926719530769,0.18356444569560365,-0.6839455000788227,6620.230371388598,-4922.145071910872,0.6785163334221619,-27.764174353761636,-14.833169265882173,1770.0642296324595,-6549.242169090746,7.03756318637598,5691.533920344898,8038.8371097073705,846.5481267697365,-6578.437198259403,1684.0073897181537,22.89474728797338,2926.9133131299723,6.182280775613312,-1925.3506715024037,-33.88994702655834,5938.017867894418,5661.729631822156,-10174.278406844425,-0.08160141318333838,15.455500879227332,0.049303720177326066,88.11497516821349,9121.371443705357,0.7198111236434576,-6.48828569963819,-0.7542855463794488,8.301261324278146,-3.190079495340623,-0.6865412941099338,-86.59779562156359,-1.7698905469670343,-0.44332275198099586,-0.8287906113500555,-22333.706311525642,-0.6306645704466223,-10.37720440112812,-2.991733200527673,-0.12079236767412987,0.017442173187262565,0.1066493345700874,0.029634468829669806,0.026194259133948156,-0.08855475994620723,0.10627828276372381,-0.030563873596914783,0.011064918503086458,0.10720166324590988,0.08004193818902806,0.02690424499985086,0.02429246893264142,0.0032026276171468627,-0.11986028604489611,0.03939198698769996,0.08933062415645984,-0.059345179604648204,0.0912896937813421,0.12590625618738752,0.038476935089822584,-0.2891635476684664,1503.645668194857,32.96963484528097,-785.9235542632572,1232.7130584278766,10550.170281180464,156.90797312207897,15698.494515696471,-2.043603835496251,-477.69109218150663,-6.38724396079235,-5894.894085551305,0.09360082534554953,-0.06215889151553045,0.07975346092850737,-0.5460526821560203,-129.10246580815445,-16.55096009895751,3808.1550093295277,-2.917602214172092,-1593.9814702136712,-2341.781072557163,4988.960874857193,9.456457528138282,-938.9727447753214,45.61491964522229,31.824468707554875,1.0467900185705925,-731.977173116992,0.1884259125167216,0.2507052388957562,0.5340081408147803,-4085.589890621939,-34.64636734759715,0.15239012315867292,102.96728392778394,0.03440977529941416,1081.7318351101164,0.7803074146340808,3436.018047133351,-2664.220245575443,-7212.970284240092,14.528037876807009,-3255.9804168560754,0.014461117629776385,1092.0031876209962,0.039345212595735216,867.3023003505356,1541.6685143925145,-2.945369421282277,-68.20479000944647,-0.007475481711777038,-0.24387347634721537,7.355923793072176,-0.4140708097560472,-4.166047854870627,-7.979504467296519,-990.6262366997624,-6.975857653457052,-1.7669363540328935,3312.8564641485527,930.999370031494,15.859900831253306,-18117.595401891907,-0.4642622816992796,-0.7876990319615279,-0.0043095254021171805,-0.08030564417438643,0.024034074510060212,-0.03568516696035953,0.11691113559455354,-0.11188278984334206,-0.10032567645109829,0.11820946170295224,0.023467289241357325,0.07007428661810672,-0.08123776781184619,-0.027648958806816122,0.07848724617386368,0.10334223979066885,-0.07287678865789539,-0.10979928680121016,-0.0015853473017941426,-0.12723819401227487,0.07656880514948697,-0.04838938060152275,4.027627897019088,5073.944298611144,12694.236117683478,-0.36597743485183115,1.1015090117937707,5222.429546058176,-1399.5800151405583,-1589.5056219421622,4723.881010839052,-561.7540269234785,-0.31691685925206325,8.368820729799024,-22.376969994429633,0.10728263181416856,0.13974360058079352,0.12051466023517607,-1.2866488674495702,1.321308179227017,-14.486146410670521,4.047526370166529,-11628.608800604454,2493.81482191128,-0.1867299458353129,3594.1570303234894,4813.72791714784,-1243.6279760565596,-2025.186164199974,-1312.8091501766846,2199.6351296269627,-354.81543210466873,0.44328768312002015,0.16987995840687653,1659.383761252281,1275.2128273045507,-0.4793710595670811,-19.881821247548874,-1306.0521793412609,-4257.67216610064,-5024.270834725391,32.33492568677261,-0.09794874086144911,-6696.94478582112,2946.340270438099,148.73064188163332,1229.96931739673,72.4336063095209,39.71334808786559,5742.798702712694,4.24684681606678,807.347487262571,-276.55469860395544,-0.9121278339789,-0.15597584032870399,-0.4780485594993823,-4.621315416878134,-0.9736997842339222,-0.5316376368072053,-0.3934942412713355,-0.19001128193348524,-0.5111781628291778,-0.018071837150822816,0.14685470342536522,-1664.1354248763873,-0.5118528069034185,-0.8439601934530185,-14114.33981232774,1.721284714255409,0.025025770189208953,-0.12482838703291681,0.08928999370179082,0.13852025684740524,-0.044485069656862344,0.04396535985605625,0.03536893597127933,-0.10417411070946722,0.13085644385717668,-0.0024955885516503434,0.14971554636432202,0.1352981671153319,-0.0165946708036037,-0.11616561132884153,0.024162477596848857,0.14748399438889867,0.023019005010837142,-0.08461609997551295,-0.008662986190590223,0.1198957682608856,0.6162561782914742,-1017.8874774409738,-0.027831168113148886,8719.893794647693,0.06554043813275987,-4460.923534952305,0.5547510520943284,-11.379440059022619,-1119.1219791879198,3383.284884203908,4311.638848480618,-5.346858991699644,-3142.530112152294,-0.1178848898335763,0.047625288175118026,-0.04672269602455798,-0.6502108752492545,0.6227113750947315,0.36556504546912855,-3.829775859890005,-510.9138408514471,1.549462633688664,905.4839264567371,2657.144097671898,-176.34102068248848,-3227.7021089551627,334.39157916429883,-3.2237928997582532,2186.2717131380323,-417.47261257206367,-462.1158947934606,-833.8202738086965,0.42824231259451934,2.132892065994539,-1046.53539071257,2.5167970801651682,-2165.0066724910407,1727.184040658477,-1391.6942439959944,3186.9588338527196,3508.3248624931834,6353.2218547628945,-82.24302152004088,1190.8326951308768,-1311.3908718148784,-0.12429801314282395,-8107.370808059883,1828.6522908206496,-6.8023392624910395,1373.6746122313423,1.5509975017574156,4769.032811454596,-0.6345780707037059,-0.4848903854617304,-26.086533062065474,2.0600483511176364,-1.317843510219225,-0.7021891646989471,-0.6948553372902557,-4.737825237733243,-0.9089834966288785,-182.8943506728407,37.45384009368937,-2.2376580146059974,-0.027844222044683946,452.1642414817612,-17697.034305526246,-0.06371571425035369,0.11453488709504854,-0.00645909710719215,0.009095088472877336,0.11559582694451705,0.03607350442573768,-0.12932734387458422,-0.11764148976692787,0.04770077934000874,0.12263179850881657,-0.0514820069320884,0.09947849769475037,0.1091026020521937,0.10298598453500357,0.11410191350510454,-0.023851411701868233,-0.03704336300864229,-0.13189355441990777,0.01965088959993726,0.0972201470933376,521.7919971988204,1.9674771838651766,-2900.769913728333,5580.865251384924,-23.73957622584991,-1.0560308186051297,3.126895264471705,-550.6038136883659,-1.8237167263319236,-7977.481659332284,8093.006554917265,-0.1342633385157488,-15724.17060606127,-0.021266826805999638,-0.10882350390597871,0.04618042214172665,-0.2595813910783879,322.5816009229069,-17.446596550408835,-12.183988489128359,4220.114524641266,233.23037393942607,-74.06802949075579,684.3099002499972,0.012424121855931013,0.2692378466187509,-2625.520750227179,-2495.3426040141617,1242.3776058968529,40.048739506382255,3301.189847153528,487.75453277985036,-2780.7572326864356,-744.2816013415124,-2299.1245915243485,49.33546053855712,1828.5588847036468,-2197.5097378061187,2445.8333372542934,-706.7740415387017,-3.173526149156055,543.5397266257012,-4187.493324688365,5472.732952590009,3567.503377846697,2229.8245961204166,-8156.619410867648,-8221.415224647757,-2497.224761967517,-804.7622767805373,573.0383060355326,-363.6188226123406,1.3970366981193076,0.11541674941177864,147.74579636117534,-2318.484313669539,-5.255034317252265,-0.907184299779388,14.481355804555308,-2.737651044554377,0.031844983773392614,-0.0450873666525742,0.39206002619595487,-4371.399870031487,3.224470976126696,8.285518276047679,-1.3063870920256708,-0.0472844517424347,0.05829340682611161,-0.1430386450158824,-0.018989412081791775,0.026995789832453834,-0.030110927886902287,0.006446715723815817,-0.03600604042996347,-0.09061527661120769,0.09876112084272785,-0.008094031247112936,0.03808924228607287,0.0906139469205295,0.004674255861782138,-0.003379780743702762,0.10762062025375577,0.011212064950068695,0.098878893310013,0.06001446511412487,-0.15697875608137682,0.6638758747198521,289.67581884195033,2382.050742968693,-15189.17959655965,0.6183263403566036,-233.42701249863865,-0.8558312687187408,4022.543101427621,62.33750459138326,-5414.540370869025,-13840.67862379287,-0.07197762767179827,1461.9952780111105,0.03615641116270899,-0.14908979048097373,-0.0509951014716565,-0.18467784755198885,-0.6858518446807346,-1.1218029448814388,-55.77629723290422,-396.12823393291256,1.6364290044605216,1208.0496348637535,14.32915128512662,4996.541618761281,2.0322711796168096,-399.3929495795608,1808.9943896262885,-6.36745711393532,1735.9536308016245,2.2019638293072497,-0.013174984791261451,0.154540895521484,13.888240104253349,0.8009061963918358,0.0046887268300817315,-192.33862434089005,-1314.8037921530458,-6940.9425020795325,-3649.2269969480435,-1530.7460907609684,-658.0207918213429,-15.514096296777566,-7.2368869250655,-1.451992697867942,4.305515725880923,7758.291336982438,-2020.509831804514,-663.3333590353458,-9039.826588667043,-4791.5278682314665,2449.419811732453,-14.277275222112808,-0.22667978727039925,-4298.7494723740665,-718.5133649306042,0.1950922733040304,-0.46880764249022566,-0.23343502381468131,-0.0447828179203712,-664.0111843305077,0.05147398502733667,-32.58157412441338,0.38005833119050525,-0.7997052039129828,-0.4073620932728072,-4.560554444328227,-0.030274519109016747,-0.1274270828808212,0.11160174700434589,-0.08984774493693143,0.06923264550851366,-0.1378584541338116,0.08230805556892166,0.08400976378917316,0.05823082946296944,0.004104334921977979,-0.07685127277987851,-0.0016394978570322264,-0.04918002035939552,0.11599106989433945,-0.11915172346470773,-0.07640365213167284,-0.01593161189733183,-0.06473924412224916,0.01716944721268333,0.06827089162265704,-51.259528929511646,-16.665312033172512,-3.1253215941049635,-0.7622313428390916,-2054.384439582155,20785.15610501609,9216.649556863895,15.627079120169972,-36.845848472186766,-622.7203104335364,-6.682080060913207,1938.05807278139,-64.04456467085154,0.03900093837909705,-0.12380083462488116,0.1288025803546898,-0.6496272509827162,0.04570806660730911,-0.008778250768330057,-506.01536114672564,370.8504660353515,-3.653166368893231,6562.625567507803,528.2208953404206,1.0970109055538697,55.46120318954086,-31.980216764169917,-30.838332061616033,0.1891514037760383,2913.825203767149,6.011423902639238,-0.21802149499711104,-3104.2359246908504,-208.19382122796807,27.89348471611678,-366.2732452317247,491.71184146646357,-758.7663404166015,1866.7173000974808,-6902.641422590374,494.1130270903473,-5386.108063028703,-0.3969465419935988,-1024.7542070829645,922.4922333774155,7007.006934439117,11386.479708279589,-8228.031268498182,8639.203566818356,-0.008792429383962602,6091.080803078423,-64.30586084684252,-701.3179981614247,-69.00896808321335,-3.171998513181894,-3.2178311274877203,-0.731819982385018,-29.828333161952933,-0.76744926213243,-845.6327318228621,-5045.377534987157,-5.430889019154744,-58.81440786305707,-2.167246148776343,-2.0926293626504635,279.68001097159015,35.81810412161292,0.06241819968929621,0.10432339163074464,0.05466471747565146,-0.07570059312901928,-0.055510371489125084,-0.00536832611934824,-0.028550065073671162,0.055717340413598215,0.03612323921673156,-0.07616726541220832,0.13840189721565238,0.04953254005298109,-0.0949571306324547,0.05182119414067619,-0.15048437685140473,0.1153152202378603,-0.06282040280258522,-0.14749771615635293,-0.04811843364084444,0.06204613882936265,11898.142381548907,-0.5956488033184919,-3326.287154642342,9066.991153711751,13616.599959313447,318.363108798258,-816.0457275194624,-0.12908245559159498,-19214.334509604956,-33.24136672738432,546.3358577177951,-302.2172538007077,1018.230137116921,0.054367492240791536,-0.04147433926887729,-0.07140028508991224,-0.716883220903448,4.087423922817294,4.558862924620732,13.156196206890492,-0.08308696846042606,0.058481344441983066,-0.4649302840302516,1204.813504249474,-5.058740323106805,14.013155285814415,-1.0133258675277714,2.9528863736670643,5.714006128851425,-3515.873735794464,1121.47823996412,57.986648210757906,-2.3248149759798453,4041.1736679344426,-0.2565253349825668,-2.197824492261655,355.8521806807276,-0.1412763357583056,3668.7669600775216,8182.021830469468,3001.3531942697086,2.6807369276990958,99.90970924335873,22.53251078311423,13705.66691002276,2744.744347801833,-9585.081352923857,4618.850039544385,-6367.390398255136,-3.131836092904571,-2220.8884736526807,-0.17580716230387883,-6415.055145594864,0.6317599471375945,0.18971523986721242,-1.2634386498106405,-362.09577308462764,3.185056992879448,-1.2285404636693777,10.720472921142573,8.8109135996102,-0.4100103507442434,-5.840761973950955,-0.6201138849047947,-0.39195582778235455,-0.5988079956382899,-0.5136906964171312,0.09734089004779896,0.13814005231454338,-0.03356674303756083,-0.13938622922542956,0.0609522688230851,0.1304283515558913,-0.04992136574332594,-0.07767775060310252,-0.10535673012364825,0.07326911113656326,-0.054397225114901124,-0.04154461478544046,0.03015680080178609,0.082179922851704,0.05421970905166903,-0.02554717785028278,0.04765017576746254,0.014653742117844374,-0.08159967980334314,-0.08714984034119007,-2.984092455096409,-78.29225130152318,1500.655251471537,-338.25510465252023,-1.5808829507209192,-15914.903127401445,541.701888548894,0.9694587452175506,17426.133261831947,-275.8376773973743,-277.17818959583633,-866.4392540880513,-0.19491516259499794,0.10186073088890948,-0.05002423889833574,-0.12471683479509896,-0.534669005226296,-169.26881477254312,1.576284098696869,-2.2349470332269936,4223.180493814256,-474.88316278089525,-470.2523110717919,-2958.1534043083843,-3956.0105566736606,2383.0354252150673,5700.854296992115,-1222.6694446379245,-3.304485601651136,-1808.7098153525965,-4.860851529029214,-1035.0589604578322,631.5186477882685,-391.93511387519953,-1.3827599788367682,-0.1193328479726629,-3360.143511654783,64.59197733934408,-11494.565535148386,-2774.738212244395,-0.07465796325969999,2773.992971101365,922.4169484412862,444.3907121010974,-12454.211543681808,1.06194118688661,-1472.8547956064497,-6356.968015760968,-1435.9952090051663,-392.01559678781473,-138.15224393918461,65.97255533696097,12.518585941799133,-3117.094042991174,-2.144161522985513,4787.834906065714,20.371579474269844,-1.1403100520734464,1.112168183598268,-0.45777382403811073,-8.122030862711032,-0.2279615575925962,-1180.5238010125854,-0.5763661712517367,1.3132402417402103,66.82574282535832,-0.8409424688786333,0.07363186019243699,0.1133574351699461,-0.012558698330782029,-0.01374337657232296,-0.024762819648822758,0.117029033690027,0.019068269625888905,0.11671164626369995,0.061500326129174755,-0.01544828282550792,-0.1211979767653291,0.149530738976187,0.05768527352800474,0.1309591832289179,-0.07183901502210768,0.14372996150223397,0.034298732590004634,0.030955191006067778,0.1197075029208641,-0.06411372158848876,-4.162762862103834,-5074.3710071722335,993.8538831853969,9004.350459346282,-3.2717607553922172,-1.784454965985494,1518.7862501472184,1590.103757217098,-1202.5519660779528,-1207.7980440183317,10395.0556898441,0.7766756809883366,-965.6865405960755,-0.1483309374494672,-0.02937111589163473,0.09758883979466022,-0.10129945618549425,8.24917625182496,1.5477805779811664,-3.5314189462611294,-5097.146225863934,8.594337180035431,272.4218160130142,2232.2244781296386,0.20752329247704437,1.3681006820176536,-14.264678935607407,3003.7151511425504,-28.631020409582995,3.269162696268662,-265.42924298814125,-1017.3368227904058,3697.3442057370976,1058.4624356053473,4.417957424398772,2343.6054497247833,2.2864138170863475,282.7962182203518,-11300.544255938707,-0.16179773275842968,-638.8940754082716,5614.280973267475,-0.12329883139836433,40.93196299768881,-6.8160461980408416,-1.7746405088729802,-9726.298307607178,-3869.2124366659623,-2907.0071971676816,956.3871052292004,-3162.9408128839946,10575.829815531046,72.46486157476171,-0.07572168657347153,109.58336458653852,532.2110690580083,-1.0944301077647038,0.17327983913423903,-1.0258964675972964,-0.08616296086272876,0.19060607648963124,-0.12458789928684177,-4.800238838673983,-0.5249222478663713,-0.41525701451147407,-0.09656827814762169,-2.553158450625992,0.0025493387364865453,0.10534590005642501,0.06722978161915627,-0.13682392321729556,0.034061973474963834,-0.04213888895050002,-0.044427064086608896,0.04569855297548985,0.08236225435941336,0.049584530775185556,-0.031684206193748905,-0.07770309033562382,0.14365888111109937,0.0015315919451685993,-0.022546331083587206,0.0011848669076645222,0.044835492686065646,-0.03639812336742645,0.04454183783012812,0.1387119338309521,1191.9419172939147,2499.0447679008353,-2016.7122016059873,-2155.054680928094,1879.2932758798222,5.60748125422052,-2545.0617761431085,-13430.589537852818,12986.642144591724,1723.6076487722637,-1187.8458520810304,-0.680766445877297,-13499.110601923043,-0.1117147233709388,-0.07198482092453434,-0.12274573718237519,-0.20809180490295612,0.3932407192483255,-861.0796340931444,-0.06075464264104695,-1852.2684763103848,55.63008683612626,0.34908734310971645,2.3699345892348456,1.8283456705833172,-3135.748056828218,-2914.143070704546,-125.36550247759075,-96.78289857091376,-0.398178292475129,2288.2408851893497,2.6893494292656017,-2266.6030229652174,-2288.3462726911284,1.1556115884220763,16.98889509248108,4345.469655188337,-1.2864124031044992,-1525.3505518811194,-7.458939287768395,1879.3401539840827,706.4631548260846,1.3083749176579267,6508.550684445211,-1452.9054930110487,4.578599382983482,2523.82068653859,2.54346751175523,1073.7793555844808,6381.0206730656755,31.983673224806143,0.9135688308801585,-1238.3321999127995,-5493.69937388444,0.6994243671797274,-0.5897964268020471,19.303764806296265,-0.11404843443857361,-0.06651394417110003,-0.1281341640465654,-0.07097374557804845,-1.6182639507109158,-0.04107249649138047,5.056572932643007,0.7478755337688597,-0.10536064464381023,0.11544269728443367,-0.08997480084447039,0.06532157482952732,-0.1105461119154245,-0.03860117118589508,0.06530552901714787,-0.03282649305722088,0.02120270615042085,-0.0218572347701191,0.0811647374232418,-0.05849264815292836,0.1351711080411394,0.0906105074386963,0.030633215535367204,-0.03203376643058903,0.082303875758787,0.011146079740446619,-0.044998075793558,-0.03213564136349778,0.002793914625340134,0.09748114146800912,-2.1429967866558663,-0.5080976010750506,-0.18045326585606405,0.5760810271825001,-1670.7846827380156,-17884.455543174467,3047.9932469081555,-0.03350736784604095,-209.90287449865417,7308.541677316523,-0.8834439200927128,177.93858487929228,-0.9400039168847641,0.0007555477825974895,-0.029096978663846956,0.14363665495649885,-0.2598801390020138,-2.8534576686234088,-107.72874925927769,1806.3423515811728,3957.749410863832,3262.13143523724,-2146.407794725583,3011.6933922976164,-1038.7949233764423,-2829.9378015732555,32.773501230583356,8.790855257823042,-2699.8961513470394,8008.133565910408,1226.8268598211766,-44.50020543023687,7.4339489870602415,2074.3361043915315,-2728.6446826235447,-0.5442191215229659,-5101.43107058192,236.8875577481836,5107.414931706297,-2679.1279019016943,-6468.625399413243,6527.210530606288,2.2659135742986507,329.11379409123947,447.3764793423264,2008.9014694818582,-4415.013706710964,3522.6669999232167,0.5336376146430544,-418.0840869962159,598.4319476001331,1.528087909514738,3.7471183965572763,-1.3134085339864487,-2.5615270464506095,554.7958874277851,3456.4312641327897,0.9313737040559728,-0.09198023812943276,-7.433300274732477,-8.110240080117023,6.821768993296536,0.3151533104359926,-33.238719459694025,5.856433236592213,-7.733422292465023,-65.66064636030703,0.03264425317488805,0.06494644745129985,0.05706566271173256,0.01916196144023415,0.038915761304449036,0.10878918879609532,0.13321705399596023,0.09401042579322039,0.04381139607089506,-0.12533876070071703,0.13930927198220686,-0.03343138339288518,-0.0210320985559348,0.10168068119962309,-0.09516968723899119,-0.012731680574558465,-0.029995185729396592,0.007556491166145844,0.12137638455657901,0.1278483018668288,-1146.307559547088,22.80403867191907,-0.8084405347261366,10398.853587503603,-40.522463825834244,2903.2947699690726,-7653.467169350096,632.5191649488302,-0.596938057265478,6343.418381464619,8210.774575135529,-2771.0481094251954,-0.5136545602066103,0.04312234233681636,-0.009611207746411502,-0.023782967343438134,-1.1489895074879641,219.189062445297,7.7909148008387445,-694.2035496929391,61.71712987469245,77.7090210193185,3063.3959675509996,-245.0410997414996,10.448838302288738,924.688529737,-1.4308589712988742,7.6591099152460504,-1.2858448736165158,920.0030553607738,873.5856402663663,-758.7482896085401,-1.7324124374746672,0.061948975127075145,1098.5454971320655,0.0805718245088228,-607.3978167821678,-4.465922899874865,865.0133776567463,-363.7256379872822,-58.36845164989856,-5857.727838669591,-141.28875095118306,1082.142155903195,3.941118763237729,1193.160485728281,-7232.2366702498675,-101.79515893050903,2945.746338820649,-1874.8623341316297,-30.127004468376914,21.664981493448337,20.302559312616026,287.6952626870525,-1121.4545680316119,-0.6519472666626807,80.12991694260941,-1.347317019874376,-0.6626879239717298,-2.946538969518344,-0.1640425208429453,-164.53886564327175,-0.708519284021155,-180.36547641386838,0.4303182669601275,-1.464185945464272,-454.795917204541,0.11239150102042413,0.08935761215941737,-0.03334504047496572,-0.016289013335500847,0.10159266064189182,-0.12320261456223139,0.030755050926321897,-0.09720275943136097,0.11252860611713049,0.005665154676618669,-0.05178684609678286,-0.06354881491808663,-0.11739794422186618,0.032444677083575325,0.002047465453130804,0.06084098424559748,-0.05896399023162323,-0.03280773168339745,-0.04385279134722142,0.07346349005155917,18122.40144859755,-6.626330386536332,-10663.130103952943,129.68265148877546,17060.4062954575,6700.459586612903,-0.8983462267234684,1.0011875371490264,25.788887711862063,-7.268531146851532,-873.5798112414745,-7.961476472394029,1.6963520877498794,-0.0810364477450844,-0.10956664994121593,0.0679158774358509,-0.7086968938893304,-22.94789534651403,0.2894354888858179,2.3241245676972966,0.5308292258180841,-611.3943805963272,-16.99205093118295,1876.4083238151616,-1234.1288561041276,-1884.0933556236823,0.8078950360913834,-4406.67924032543,3051.3208160366185,-1179.6389996427665,4110.0766684530545,-756.0237714970061,3.6695130429203746,0.21197594843468143,-1463.9057255297953,7.487256260190955,9.166528017188227,1.0799350944697976,3779.9991101714245,382.1281904374582,3560.0125700769395,-2616.7477592678665,-0.6189504549570923,-16.020724388510338,-453.8994268351832,-2193.872254092437,-5525.341134110263,4720.0258977869435,-9166.94518187511,1335.4784825700526,-30.546576041707144,-1.6191284300864321,-26.436531792142738,35.89660504389879,2153.874323489731,-0.35013207862486073,1.915243554314465,-1038.461632077418,-1.86202448231563,-80.51980050672434,-28.43418003554782,-2.3352408501472675,-0.6492066642050337,186.5517569266537,-36.38282668340095,-1.4757693282190267,-0.817242932201048,0.045103878380797414,0.11626620791380453,-0.1073565737194495,-0.12468424336666407,0.06507515784014614,-0.012635854117015222,-0.0048383263554846725,0.030317160613734354,-0.0909507007478835,-0.04920180642940111,0.04791826306976493,0.10952250579699191,-0.018775856448562337,-0.03263039324304489,0.1396705903596625,0.03790931824626817,0.07572874429392983,0.014217899634104738,0.053432593962658724,-0.01910698246230319,15656.536743481442,9872.877210380084,5877.646271641662,-8623.942168635453,8467.909439998215,-18.331585658886866,1.7660404597315338,-3384.5000655741983,-8170.849539066316,-1.4262029510263987,-3776.032277739986,-16.418832551092056,-3.9132403167235923,-0.042990109224356046,0.044328723629746776,0.07197607771229696,-1.2075549397817837,0.41797345106697215,-5.089060960746321,-2253.6494869533035,-3125.4251804828364,0.15398844972359957,2.245402813598292,-1993.4711138866492,-24.517016586487625,-0.20401267867280198,-0.059024231780681904,193.00908264541462,0.6529153408759347,2.0234954933730114,4110.985724853805,-2489.24464166162,-2.5348913721041186,2307.6749406912877,0.3228300846352711,-3.6642224748644727,-587.6219801118986,-5699.633857399016,-131.02902363354195,0.29879175450120404,-2542.5887785254436,985.0984491426478,-102.71172093473913,8.480406720530604,2855.79848617617,-0.9306295990944211,-0.0929129255110553,-1078.7953473116854,-16670.04919221309,-2150.617819691197,890.6452496422966,889.7937835598738,-51.52386691147507,-2093.4959783311306,-2.4719155396310106,-0.4349355115661594,-0.41972470941643464,-0.12881801070272828,-1250.3746376982208,1417.033986589095,-0.01768549735400911,-0.5861954759995588,-0.3002662948665025,-2.5308933200665993,-0.31263751200374956,-9.341913295118198,-0.2899758874645806,0.0103068817202388,0.03590459218099073,0.0368612405187176,0.08925907839062779,-0.0713121136318249,-0.06535318215319572,0.04529056668596247,-0.0046760718752583445,-0.033451898444104254,0.11578909251921228,0.10625333122190962,-0.031651106094856336,0.08437814435364419,0.023008060488060596,0.01308350060428316,0.14649118778184758,0.14184256332055978,0.11807722404745809,0.01806948903339204,-0.02122731316079218,-0.020122845892783868,11640.968927769078,-1.0917065289145864,-4.680220580638177,-13.204842831154368,-2.4171407988023756,-1762.2526074979753,4194.3209774446905,-2.317300296415766,3.113047729058723,-5.017833125751422,-16.8853501780895,306.96771844310837,-0.06488804774277201,0.06651108744460309,-0.09816980307562137,-0.4933310397290844,-1657.663498541131,89.32935857886457,2087.618839742321,-3698.90545421806,203.6792261928493,-706.1778793341691,-4445.8270694776165,-3081.1363400927094,-69.32255628746408,-1517.2829000855313,0.32568989376060775,-8193.713001184602,-480.4921361759503,-267.57012130264366,-1369.4924620980441,96.38917841070992,-2.286329618879802,-378.1299975248618,8.784083373869974,-868.3339306366777,-223.44430042056928,0.6408169049732617,-829.0828758308402,8.097040572567684,4453.370683895606,-0.1179003059087918,149.73753330011638,193.21094829215474,4317.350610632085,354.15856064928437,-12.547457996154217,0.7122393213695305,607.4965824299022,2999.3578329156385,4762.24041286735,1.8121082223355631,-0.09108752161505554,-0.24240572551718606,29.12337392790381,-1.6685088482239374,0.04751378007244699,3.789839256508652,-0.1127846691276244,21.573789162876114,0.5671183574866012,-0.21579905008926245,-0.08784409485053893,1.29247922530418,0.15924762020440314,-11.66969291053851,-0.052647172047054935,-0.036111153104761866,-0.13003365181790025,-0.023651746964834797,0.026605321887135054,0.07254465881951135,-0.13919546820555523,-0.05389498028239819,0.06575637861700806,0.0026349668085499565,0.00564555302186315,0.0026374609578754624,0.12932262134221434,0.02053265562753414,0.020187697560930834,0.12942954394805964,0.10760363302402881,-0.14450150581984175,0.029700269546204586,-0.04419871237941128,-0.7873844046071579,22768.028801474044,2079.3111891556673,-3022.363153967738,-33.32320025816785,-3.773350095444034,-0.21774816251669185,-3516.282600327553,-6648.830913828961,13.975549267503858,-2946.1324262825938,-1.7502801509081982,-1.0921963175197955,-0.09609952430250207,-0.0891936408719027,0.09099022709820559,-0.5441934322334795,-3802.7745255789764,-3722.6267899204813,2.8111769426974402,6.6225116866864635,0.36739814077428373,3.9519228105462214,-4987.56850670563,658.0685260754834,-48.946219226324914,-10.972725117423698,-14.930586824763362,-1.7521618200707216,5531.072648014371,-1.609212108097901,-793.6569500136179,0.5923771851453518,6.2377198238045395,0.21088507491897335,1.8335636836821636,1457.5519146653035,-13395.114260431203,-4219.637045434964,-0.3298766167389244,-4416.70246690907,0.5373915302164377,-0.3532412331856013,-6.870533890724598,6753.143758424284,1519.6455566913428,4197.277647768511,130.93100195495097,3704.9533785279327,-203.9264579193518,1587.470500730366,1.2083567610957548,2561.19658661099,-4312.942972335666,-831.9871222559507,-18.851582810422546,4873.506066529058,2.4064638335710797,-0.6797776653611565,3306.095535686686,-4.674669530153371,-0.8031218512384687,-0.11337792348112895,133.54502725215065,1.3316121062075998,-1.0422324409925852,-2.835081515130335,0.021464567529413097,0.00016009943343774633,0.13873080366843007,-0.003961916234012692,-0.0828652480598099,-0.02590447742050727,-0.06758183516026647,-0.13144398819376363,-0.052031217678056366,0.11015817540446035,0.13889219281133666,-0.01044641250677388,0.10554209120769295,0.11417934130989646,0.10389184744350585,-0.11864278295756728,0.0627834767664363,0.09375528052130032,-0.03417075345532323,-0.01362312562092838,-2636.9296743510527,-1183.8460940473326,-0.05059147267315613,89.61877996658386,5.7630283203263755,-909.4447097534804,-399.70079779298595,-4111.143400403096,4857.103607723764,-4.568326481202522,-47.16651340298705,2.2927478875730323,-339.9585238437175,0.008727232192582795,-0.06859168808327293,0.003977413581090348,-2.727350035778925,217.4532208697377,-554.7960208958519,-182.9500756552874,257.40994970906945,609.396696255952,56.52830938367754,190.51336172832976,-0.057944454963849555,0.10184838904931828,0.08163631976787032,2.8592356387739915,-2497.4048921744075,20.081475458383384,-5.543211589922357,15.588725120410281,-1.5128670460723959,121.55144775412893,-3392.1838996731735,119.77291080240967,3.4141967341931814,5707.536196463946,-2.1189466920579565,-5339.80281294035,-0.3143970931784897,2691.3076421266096,1505.2938208938276,926.2922422611795,-5574.099267875987,3.587697387339099,949.3222527158994,1024.7229450643154,4.28797093117438,5870.36008582307,2679.8955752190896,1.1792970672542213,-744.7694041997867,-18.066105338419593,-1.7966924457005125,-1.8780889450357108,7.18625469130519,-3164.0478749766253,-53.40940242282873,-2.8604576801277646,-1440.4879441425207,15.28158583435565,-1.3136697514753433,-0.8685167387295523,-0.803486216117364,-381.45230751220925,-0.7860801021487793,0.11738674835321972,-0.02939519450075217,0.09887767410071967,0.035106763533307675,-0.00687240192264495,0.10719066520769956,0.09331378400280928,-0.10782726911723507,-0.049030007169436514,-0.04016441868407966,-0.11328807029628155,-0.1351169974389202,-0.07067692587813693,-0.06673496041826692,-0.10088797490256692,0.09839890090810625,0.12546885708655092,0.10521335321575409,0.05088624830817559,-0.11034138516846612,-2759.981646066659,-1735.6788289046185,207.08168616261545,-0.9404976381764638,-2606.6030031669843,-0.13841541020347878,3497.0677615947216,-13533.971049312557,6619.771859864895,-1.288229517935763,4.166112346750896,-3570.66317319221,-21.2901082975864,-0.009681567259238019,-0.08070349777176293,-0.024356212587038725,-1.291609329915397,831.5011477884196,134.3434286489643,-5.927574520545058,-214.60629728010844,-332.9531594994039,923.5404377352256,5231.568295934144,-898.056038565072,-2892.7351371470268,-15.167380390030258,961.7369071540965,570.2777633526875,504.42874581136346,-0.251710089753268,31.354274131264457,0.9293250936970276,-5762.86021666288,-4.662680817333777,68.28289444361124,1252.2693556994475,897.734586990904,-2563.4067151292184,-7368.1621696853945,137.88576176282675,-7668.2203971599365,2873.6825066790743,-30.014660924450595,-5248.086947231084,0.9406419034546003,-3.411681292570962,5280.5957612786915,6722.153053444609,13063.774346197213,198.4343345799412,-0.33020861872371265,-2.5878148130181455,1.6454717569869781,1935.461761086789,-2.0520464087305412,-1103.534356652169,11.157878266161603,-0.2991613546906497,-1381.4099650702587,956.2990445729471,-0.667069092837094,-0.6973846021308701,43.764901292305964,3.327789796836816,-14.477032544109946,0.08352980883932061,-0.005197976310454429,-0.12749871140612126,-0.10636425987770991,0.040054307111538505,0.030321776248961603,-0.10463911163954943,0.0031918266190634793,0.10060267665435656,-0.12278600618195203,0.005514562487814685,-0.025577946691598796,0.04652533317156314,0.03850748093557378,0.06639323796459887,0.11196083351362442,-0.11589600422866961,0.12415240910763582,0.12129415730065163,-0.11464726313822557,0.11979223675804185,18.107144604792996,-7780.188648183568,-7576.23364796242,-921.7491136526768,6349.121150669116,-0.3550282765766012,0.13584124244888604,-2022.9155378654093,-4009.4483015621286,2196.6063397677626,-1699.0600380598212,18.59430863199216,-561.2578684776561,-0.12653928690074667,-0.08113537231266135,-0.1250565246721238,-0.08540220832196654,1776.9749348713406,1539.7146584766083,-167.8011793694046,0.1928573988360816,-1.8323991576625662,886.807383950896,-406.4791259133848,253.81271411859214,1743.5711394555929,-2094.406866406412,-1.420940020730696,-1894.429484304461,-2615.5135004742474,-1.7589108995793366,-1.7357779072812538,-7333.475774831881,1727.1147276531135,-215.57394811265382,-3998.535839814012,-2056.197868536908,1268.340113231169,0.3835616360286795,-132.93874461735027,-2024.069413395171,905.7294942971389,-3933.9276474551266,311.62787176116876,-37.10034399399604,1654.9825959027244,-3792.021260925669,-4117.353392733749,543.1070851178525,1689.37903125233,-2530.3293661124985,-90.42786222411999,2103.5688785585876,-0.18790007188782745,-11.844837190511614,1006.2657677082005,12.200697552696123,12.841623180036269,-2.0745878902637362,614.5910134865941,68.69297821629861,5.96515565546433,-0.6542210805594367,2668.3987376220407,0.05893361562446163,-0.3259695372258816,-1.7827811806404126,0.10741320487056932,-0.09826638105747992,0.1155225574443897,0.07765895805628442,0.029114177859337457,-0.01493143793924156,-0.012761616450552795,0.14071873171257135,0.04903055804508943,0.0006555882414371878,0.0015340547999336623,-0.007218759803976415,0.13373306813966684,-0.06552550520991504,-0.06111038484729202,-0.029855474517284163,0.009097483925731854,-0.13780925657593784,0.06178270964740252,-0.08460769983317853,4.01627926650432,0.0700350710032322,0.9273112496442711,-2.3822710382229775,2818.6372023509107,-10358.246762034703,-2897.681395548202,-6335.82380791696,1286.107245080405,37.10799411141782,-451.04384936761016,2751.0605332176697,-0.17366042657689718,0.07752037864513445,-0.04635126182836192,0.09722604678712167,0.03660817094489143,-1470.0102985340384,-54.32478503542689,963.2263347151193,-50.80016896041433,-337.55355048111505,-6282.394491475042,-766.0721901601138,2730.5986496700325,97.21263430839991,78.73932413907694,-381.5452893311873,-1033.4808452232128,18.095720232439213,-9.31408830270697,-3432.374785877551,-175.671012033566,-429.9456258902197,-536.3854823280373,552.3199201006624,2.7165401341514963,-1.5716133539342831,-4.572304796566221,0.38785161393310436,-2428.440570689164,390.75698172057815,10322.681941922388,-9.376945431935278,-5417.064316152438,-1616.7576672945072,213.5051997775281,-2579.765979386386,-5802.667702787769,7793.117090847212,-1841.7216514767854,44.58947317831641,-0.1174169175731156,-545.4712514249287,8.469073999653597,0.15393780938567156,3.251409797929169,-386.2518890201962,-15.372575087223352,-5.460555678655286,0.11927377579505198,2278.1179921624857,0.13242641996523422,-0.8142408792305573,-0.7724867056321884,-0.34237705631975257,0.4518183840432237,-0.02198958919633707,0.13649186474032926,0.00023978446169344643,-0.011234066045432001,0.05799141923293583,0.02534784967899454,-0.13652358400516612,-0.010393004390132628,0.016062129536171015,0.05836108192397063,0.05908195192319623,0.005419306393933326,0.00016809287586957958,0.020652039687308592,-0.05120691999257228,0.1135178086887697,-0.13216878611582802,-0.12282851767521166,0.09087707746735552,-0.11777933293611949,-1751.8844050962175,-0.7991613206055995,10185.644726003367,1101.977526265228,-151.66943694382485,-717.4038079352083,11.196820858863022,-1803.8572854224255,-1124.9095854523619,-70.32119103466637,-62.47245913981757,-865.9239187511073,11007.386857738891,-0.04166363558713917,-0.02612804009273787,0.056652646878654095,-1.6523096421116803,0.17262006771597074,0.04080270128851936,-1426.6887902020064,-2.471528983200407,0.24154883002020106,-5416.639851512798,983.3933298339091,3405.9710229057455,-593.5638278775134,-2502.6311646842582,8719.915537208059,-0.26299113228953835,-3.3943717642527758,-0.16157866778920305,333.7131380059584,53.479783251643305,-4329.253454208501,-0.4268178537980335,0.2260548201244121,4589.685848170623,0.09377367977361771,-3444.759709627772,7884.7148441680765,4288.119700938675,130.08693420039492,5334.502132022236,-5.074074685735053,1509.671876732353,0.13319812999366265,-5526.9892312833435,2.2434528837974175,1151.7481443819074,0.31225750161923194,-6758.190801537767,4730.708755958419,-0.4671372143249732,-0.43370044297035737,-1.5442754948119355,0.9562828847937119,-2.0880309464044218,-2.843171169843734,-2.0156640210879146,-0.9330318141266543,5.995136501338356,-5.528921496268464,0.4254991291913224,-4.034729998742794,2.4534645277357545,-1.2863388981402057,-40.995738244715696,0.14113329759699728,-0.10952944902757773,-0.13559755579120997,-0.1298052449648126,-0.06814145799921674,0.0394881555235162,0.025662745294396067,0.0008373604455394752,-0.1301243940827958,-0.12317582361799363,-0.08297998632519604,0.01773472321183684,0.13796822396152414,-0.029379234061826975,0.10185037178516206,-0.01288622978375095,-0.013446630984581693,0.05559635105332413,-0.11469825781243874,0.009304851940693273,-8607.807433753012,-0.7671405274548917,19377.22082879309,57.74324049597462,-6650.1066274028235,-0.4857424953591287,-0.3190426652880814,-8137.342447115457,-9867.311344369604,-319.0905262698047,898.9357162829172,4408.98403684518,4.212952266742635,0.09048150576187611,-0.11680091655140888,-0.08016919839059049,-0.2819193573600084,-0.17085432542547438,-40.0255314805348,-550.070308344469,5.484658075996378,-1064.739342907035,2511.5924672703372,0.6729716834261015,-716.1196411089148,-15.478293317945518,-157.99545295334414,0.13030077769599482,1.4125265133638465,1674.4361169004549,5.586289651559739,0.34346481637969084,0.06854724876804452,2310.766403057607,52.846788111205875,-2.8246436608985963,-158.16077940305502,-11.0119534698573,-11259.31437011912,11.8995079460495,-4417.371546058905,2.6993771570902183,-2498.4654352158764,883.4759513581355,1570.3521899558546,16.754815986627342,-1737.9159470231343,-9094.268739333613,3551.553031143679,1033.751451848505,-3979.646279844345,1854.93755208532,5.7609710830608964,-0.9708968893320875,-187.08441747241153,1324.8792162060067,124.01786004984228,-5.921745860406926,103.07411269625143,1713.4789322100683,1.0075520714856598,12.784217473445901,1743.0914677248504,0.37322102410140157,0.04392653690174064,285.38223553174566,-58.85398405872179,0.12449299104538901,0.04862970398098462,-0.015973065292062237,0.014769595812612113,-0.007347554105040618,0.058816469868265435,-0.14250890549228742,0.060834362097076246,0.10860483388856816,0.0367228832762924,-0.019430830391332914,-0.13205433895804813,0.03174194204609595,0.020406215490878992,0.13883783167348498,-0.024743370145758167,-0.10779064690326892,-0.05068168274427816,0.09426597760851295,0.05646742069588149,-3524.612100105676,43.25524130350287,6390.977697987088,-4.72978999635433,-6817.038725765313,-12.569625885473942,208.4646029901245,220.27537404600474,-843.1429162245449,12112.797105806134,-1.8765840040510011,-5139.713037966116,-13444.238345770143,-0.05787694883023239,0.05657546980837319,0.08798842616909425,-0.2859436034548216,3.370990626798117,79.57647043319066,-922.3304001462683,0.04449878142309733,-6.30932598334254,129.93660507417465,25.36675813703963,-491.93402628644253,0.7527795184507039,606.442641093165,-152.8300963405436,-1387.1504523113683,1662.748052566206,-2941.137752845394,0.7728009002062219,-3362.8818875628826,-450.32552598054167,-2.6398399754646373,588.0391495107252,-3889.20943869958,-725.0357595694998,-1518.7429912960145,-8812.454247211715,-3482.3417235484,0.03145871671325335,3.1832077802270935,6515.384443999015,-647.9796258096901,-9177.200048406028,-0.4906832412043149,208.1173628971672,-75.29512930744704,4369.474103402869,5.608030529201207,-2595.1760720185143,-0.043590600356187226,-6.0905730038443195,-289.5685256749727,-3633.8885648051423,-0.3505094607731781,-0.08758707319719618,-0.5421907009609763,-2379.3905898152475,-94.46041315847457,-3.4583839223263575,-3.3552679788973,14.396851284703663,-14.919862835081974,-0.25519995135014323,-0.20376464986776732,-0.04202694607644532,-0.08366650464402868,0.012352408118416232,-0.048442939867054745,-0.14063914086553886,-0.005782832573917812,-0.14132083239237223,-0.09341497477056619,-0.11145564482258903,-0.0009077444666244581,-0.12012329364670363,0.11655072154449109,