encog,BasicNetwork,java,3.0.1,1,1322783830382
[BASIC]
[BASIC:PARAMS]
[BASIC:NETWORK]
beginTraining=0
connectionLimit=0
contextTargetOffset=0,174,0
contextTargetSize=0,100,0
endTraining=2
hasContext=t
inputCount=36
layerCounts=36,101,137
layerFeedCounts=36,100,36
layerContextCount=0,0,100
layerIndex=0,36,137
output=0.04457236051844456,-0.07624455015396414,0.030000548492850037,0.02849400037687767,-0.08051823128827901,0.00483250072679868,0.060326412834055904,0.01826525922101612,-0.022256612936823197,-0.09902689087319205,-0.010313036334744733,0.019182624111641747,0.014274438059732414,-0.020999367710658398,-0.05271565177726517,0.10851123616531627,-0.022650287268872554,-0.12040697991085254,-0.008985169220966732,-0.09632380528233472,-0.032394492939977856,-0.08786550918625495,0.061397639698621095,0.5034579064400445,-0.10481436520081028,0.07009274918390707,0.47884008932255595,0.0562408216362789,0.07446484666731448,0.46291993535481885,0.06957678245818215,0.060841393908031415,0.10742273967608121,0.31568915944153997,0.022200598968786955,-0.15133458012523737,1,0.00000000000000000001,1,0.00000000000000000001,1,1,0.00000000000000000001,0.00000000000000000001,0.00000000000000000001,1,0.00000000000000000001,1,0.00000000000000000001,0.00000000000000000001,0.00000000000000000001,1,0.00000000000000000001,1,0.00000000000000000001,0.00000000000000000001,0.00000000000000000001,0.00000000000000000001,0.00000000000000000001,0.00000000000000000001,1,0.00000000000000000001,1,0.00000000000000000001,0.00000000000000000001,0.00000000000000000001,1,1,0.00000000000000000001,0.00000000000000000001,0.00000000000000000001,0.00000000000000000001,0.00000000000000000001,0.00000000000000000001,1,1,1,1,0.00000000000000000001,1,0.00000000000000000001,1,0.00000000000000000001,0.00000000000000000001,0.00000000000000000001,1,1,1,1,0.00000000000000000001,1,0.00000000000000000001,1,0.00000000000000000001,1,0.00000000000000000001,0.00000000000000000001,1,1,0.00000000000000000001,0.00000000000000000001,1,1,1,0.00000000000000000001,0.00000000000000000001,0.00000000000000000001,0.00000000000000000001,1,1,1,1,1,1,1,0.00000000000000000001,1,1,1,1,0.00000000000000000001,0.00000000000000000001,0.00000000000000000001,1,0.00000000000000000001,0.00000000000000000001,0.00000000000000000001,0.00000000000000000001,1,1,1,1,1,0.00000000000000000001,0.00000000000000000001,0.00000000000000000001,1,0,0,0,0,0,0,0,0,0,0,0,0,0,0,0,0,0,0,0,0,0,0,0,0,0,0,1,0,0,0,0,0,0,0,0,0,1,0.04457236051844456,-0.07624455015396414,0.030000548492850037,0.02849400037687767,-0.08051823128827901,0.00483250072679868,0.060326412834055904,0.01826525922101612,-0.022256612936823197,-0.09902689087319205,-0.010313036334744733,0.019182624111641747,0.014274438059732414,-0.020999367710658398,-0.05271565177726517,0.10851123616531627,-0.022650287268872554,-0.12040697991085254,-0.008985169220966732,-0.09632380528233472,-0.032394492939977856,-0.08786550918625495,0.061397639698621095,0.5034579064400445,-0.10481436520081028,0.07009274918390707,0.47884008932255595,0.0562408216362789,0.07446484666731448,0.46291993535481885,0.06957678245818215,0.060841393908031415,0.10742273967608121,0.31568915944153997,0.022200598968786955,-0.15133458012523737,1,0.00000000000000000001,1,0.00000000000000000001,1,1,0.00000000000000000001,0.00000000000000000001,0.00000000000000000001,1,0.00000000000000000001,1,0.00000000000000000001,0.00000000000000000001,0.00000000000000000001,1,0.00000000000000000001,1,0.00000000000000000001,0.00000000000000000001,0.00000000000000000001,0.00000000000000000001,0.00000000000000000001,0.00000000000000000001,1,0.00000000000000000001,1,0.00000000000000000001,0.00000000000000000001,0.00000000000000000001,1,1,0.00000000000000000001,0.00000000000000000001,0.00000000000000000001,0.00000000000000000001,0.00000000000000000001,0.00000000000000000001,1,1,1,1,0.00000000000000000001,1,0.00000000000000000001,1,0.00000000000000000001,0.00000000000000000001,0.00000000000000000001,1,1,1,1,0.00000000000000000001,1,0.00000000000000000001,1,0.00000000000000000001,1,0.00000000000000000001,0.00000000000000000001,1,1,0.00000000000000000001
outputCount=36
weightIndex=0,3636,17336
weights=0.01795348111524346,-0.0025824596966898066,0.007564455549169834,0.03818226245053345,-0.010406869022228118,0.004639508459741232,0.0018254485334655306,0.0267292819603731,0.023956336877174,-0.02748125741741839,-0.008389206090228881,0.009866755460739,-0.03356240012405733,0.022805017885073806,0.01582521455751789,0.013481368084184715,-0.006180039794599037,0.007214662794460078,-0.014845193076740813,0.04003781237998229,-0.001166989521039228,-0.06193403489315744,0.00021233590494343157,-0.022417427597389038,0.01776231168257356,-0.0010404028174357842,0.03276624170217009,-0.018189032781427694,-0.033845211780867086,-0.0026531310941396145,0.0007804470611651155,-0.007598596131618905,0.0004759827123905902,0.01977411579997721,-0.014564131036379728,-0.008712838325734615,-0.03237666754085228,0.021085244993062042,-0.00537761736689727,0.01731850243534097,-0.011452564757452665,-0.007297250216582219,0.015293808125404573,0.027275264347516256,0.019921827902410164,-0.009891918649134388,0.014504977737621555,-0.0003188430187649135,-0.020832140334179503,-0.027832862940149156,0.056709640223947776,-0.0034597508383590403,-0.03913636108180642,0.04442575870572361,0.023695477647840656,-0.013257919050738568,-0.02966046228817372,-0.017953045459209567,0.003812893483485797,0.023037032468630373,0.007785821615392825,-0.02150204584452197,0.00740399458065373,0.04679486177854196,0.029165244098943464,-0.04018687681957133,0.043244361130653025,-0.014686559817530559,-0.0031463204443765978,0.004417642712018909,0.009239155074159608,-0.010420623972920727,0.0024625063756595197,0.022465771179348993,0.005396737456122305,-0.009104502674429011,0.006978620205628491,-0.011450038055819206,0.017755594707486538,-0.03309456057581953,-0.006716711470893818,0.03301149864929456,-0.042608369700464166,-0.008485958501967634,-0.044806355055043386,-0.006488205690222024,0.004137050186658982,0.017359803100776203,0.007655456754213671,0.026651575615261713,0.021997152338506427,-0.021140348299028625,0.018296317290596692,-0.003982112621711732,-0.02257124878232313,-0.013722891850828716,0.00871472855347783,0.014528181125522954,-0.014632864043853083,-0.01179680333457921,-0.004745755908950292,-0.0021668993712607803,0.0016713180120002853,-0.02619255328236656,-0.00838828543698666,0.002837911211141656,0.0017043563064506053,-0.01332012955411,-0.03750120101377355,-0.002863128844183633,-0.021636256831260373,0.019232717300862158,0.0007011193640899284,0.0044220183523567035,0.01688318631372716,-0.019201125243211617,-0.010551948889322375,-0.0029673803912629647,-0.0476309636471331,-0.00325646743859262,0.015205127096317876,0.05208910341581441,-0.0025103795181846715,-0.012885584068421599,0.0037134339794355413,0.0186313148008454,0.023661845171471574,-0.026677699889949405,-0.0021274638267316675,-0.013706096528882248,-0.017770396185562115,0.01860099092060707,0.0006995088641670142,-0.009154464112411326,0.019885967239145194,-0.014823273795878654,0.016193629247749395,0.0038589966546773865,0.0042619182781197685,0.02157281196593732,-0.0083155299531051,-0.006545196385017211,-0.006055816183660685,0.011922810688662631,0.013854779071555115,-0.02759011864670299,-0.006651038963710095,-0.005315994905089253,-0.00813030242849531,0.014052599149785539,0.006307855514222343,-0.016300313506287425,-0.010206820411971431,-0.00649283302856854,0.0015615684192445385,-0.015955271563611498,0.025913123298157804,0.004461968843299246,0.005785650526576227,-0.011504232937669478,0.032795930477994256,0.009188207535248018,0.03972830345358267,0.0332787577885284,-0.015559547327842342,-0.005835245668154191,0.006428546993272953,0.02912241956120763,-0.018614004190505597,-0.009298588853600924,0.009780956007876507,0.013235319442673905,-0.010166189592420825,-0.03226280087025508,0.03147518208002472,-0.017055779701444982,-0.034482755363061245,-0.004693641043481976,0.014965249128601366,0.03727458666835123,-0.018168989630289283,-0.01977794699031709,-0.015312748816970935,-0.01478050557578213,-0.029609845188392648,-0.015068482558224627,-0.017726335107429565,0.008616974773289598,0.02012416457435064,0.04734649275267095,-0.008071417465393737,-0.020603044408456762,0.025200588565427923,0.025294548837530222,-0.00011471685606687649,0.01872282680831771,-0.01313249727605395,-0.014551116473074987,-0.03490684133050159,-0.0209377602004345,0.005044550245084076,0.015239980280254148,-0.016001114112652856,-0.008057980181799089,0.006061646024424698,0.017097215633611093,0.0030093843413387146,0.023335381697524183,0.028670608072422405,0.013841497749292593,0.03486941791445306,-0.01451207874823679,-0.025318101492524846,0.023331438567571923,0.032230119499776014,-0.0037499339413538967,0.008151392426250794,0.01068888040175111,0.009085283901761576,0.06251614883784842,0.009501020674829582,0.035460430195563615,-0.016770736178203415,-0.044578027545650226,0.027583823350454884,-0.0018288630423329466,-0.0301571326180249,-0.018512067279613968,-0.007489522065300639,0.03220405440101546,0.00935401809623645,0.038613284638555616,-0.0007955334138791459,-0.007180225095305164,-0.025286995342415994,0.022562839210043716,0.002040868174753706,-0.0068158898087710695,-0.001860340681112627,-0.010058153045874856,-0.0443827134737923,-0.02472339379126826,-0.007014275076862382,-0.02669626058329165,0.002888621089671498,0.03838683958831015,-0.025910037748822407,0.03932606998570203,-0.0006237761144806376,-0.009492519856202707,-0.027890376883262024,0.0028786574982924483,-0.025999132505484045,-0.018333571439048013,0.026450082889803384,0.039202375873944664,-0.00003031587353992475,-0.009049944428841068,-0.0042056117768871585,-0.015055490136500425,-0.033256504092167,0.043389088216566146,-0.02251765679444759,-0.0032415168385744055,-0.011959420095125057,-0.03813228333332578,0.02056621939200511,-0.021497357941376968,-0.004065002488049476,0.029938065390485838,-0.006605055866882738,0.02002379131000038,-0.0134736824973401,-0.015974062124161446,0.016038547352531525,-0.01874991568252879,0.021891884328768867,0.009573778746431262,0.027565441259155454,0.007580675728694422,-0.04348954762064072,0.010002626371445392,0.017578186085590402,0.033912861686098646,-0.00007562546667793796,-0.01875385917462979,-0.009189507579468322,-0.03406543391350861,-0.012652460805296542,-0.0021824934227707773,0.0069041653316004046,-0.00021026700607422574,-0.014635257858889354,0.017742114357395082,0.005721122641414567,0.0008743737212942351,-0.023956180076299537,-0.018315889358392578,0.026123729060493976,-0.0011328439929461464,0.009635535069133153,-0.004258995977770657,0.02428154549013004,0.01247133588915032,0.008007753141670425,0.008706683309213795,-0.020120200748372757,-0.008616990453750466,-0.004794529958548444,0.018104801238195453,0.007268194291434372,-0.01600054412067335,0.01053737620500089,-0.007583316959943178,0.02902662184463618,0.0031588024572837,0.004108223679093493,-0.0034705408740405906,0.019121840358800688,-0.003242129704818802,0.0031128211472674023,0.03502809968694599,0.021442847797518608,-0.008307083672169606,0.000883380694092348,-0.0070002939968724755,-0.026845541698478012,0.013685901113028363,0.034785115410265015,-0.03812817058512393,-0.015486863322766888,-0.0151730503661795,0.017871309577763346,0.0022253804476503893,-0.008442970046691521,0.006335513304086487,-0.019659148848333634,-0.015426699932620845,0.041246028918876465,-0.003133046073986858,-0.022475223318965055,-0.015903356483773206,-0.01396802101194537,-0.04179318832534802,0.0019233847842983801,-0.0002254570910634247,-0.013869802479905604,-0.03888857436369871,0.016623706956050876,0.007682575727380918,0.00317626796073637,0.0057582131511130594,0.01607002604894639,0.011874534067549673,-0.0038375504412291508,0.031445897872173285,-0.013230999400103763,-0.024135630449719506,0.018024336033361513,0.024749048516112725,0.001394103980668815,0.014470970219718401,-0.029871052853912172,0.02108320153718217,-0.032090708630940164,0.004143189322261663,0.024682560230698453,0.013678367044934255,-0.042413176997363175,-0.008753924399740091,-0.024314882823439042,-0.018699131751633118,-0.01701985857226969,0.02073587610184191,-0.00624404942281127,0.004610334093743873,0.0017608089632599393,-0.005820976838093932,0.01911888645121439,-0.004623652875786638,0.01831391319039423,-0.010818415346679891,-0.012305588599702422,-0.03235986518588768,0.01208925888712167,-0.006766168133484294,0.0005509188445682508,0.0025357205593797725,-0.01666095715951849,-0.005428700812378176,-0.028204495887535617,-0.0003210999783757998,0.009318027238030236,-0.004854880138132904,-0.023873316329304225,-0.00943232637643141,0.015416462557252094,0.025996834560002735,0.022901257290537748,0.022491094903196004,-0.00890013772373808,-0.02667396617223616,-0.00020979095602814785,0.04414431626514446,0.0036699743470425847,0.005074953131742321,-0.005366952162087407,-0.006364137312802602,-0.0014047688465346918,-0.014484208485147802,-0.008247346241058755,0.022147063932241095,0.025350051550784725,0.013563419742218493,-0.00980685740685737,-0.0008396571882085405,-0.023166304793181765,0.011473074873166884,-0.012833936635938882,0.003161275987572875,0.006426186558184555,0.015662990849179142,-0.0010307207378720505,0.012727435814427236,-0.015929387036699827,0.01403087782404323,0.002928454632535393,0.003557681599131658,0.01741062239873569,0.007046059390690317,-0.016851945171510705,-0.0069360670076767045,0.0004809956520723414,0.011546177301254104,-0.02365528071002689,-0.00762759520265987,0.011856460216328713,-0.04656881477606093,-0.017203827811768536,0.003739622461966731,-0.012187988166516093,0.005110572513968945,0.017172392044518814,-0.004593562709448773,0.009019282222708608,0.009382280775498094,0.008661227557225776,-0.009015737559726355,0.012487849138968393,-0.012699284053152933,0.023379429511908266,0.02801804602885459,0.026257370887578894,0.00047462442154402374,-0.022011662292131244,-0.014392348978257289,0.004459835443425665,0.0018033231778978387,0.028608784485013358,0.010542114809987272,0.00938974507728268,0.013682329641251182,0.004964206466287658,-0.04031297104423533,0.02880998383820811,0.02042053268643149,-0.018726783728761628,0.02036993309815462,0.00017267836849824903,0.04990039402010062,-0.007378760518659891,0.0019396454402882352,0.010932595883866102,-0.006287007958800362,-0.0006254691027741707,0.029699341223320345,0.02230690574305575,0.011067648152158452,-0.02172108362394766,-0.016766805383802166,-0.000955981410218657,-0.003362647954938767,-0.008671903136949462,0.0008910786187476142,-0.0014922542082913086,-0.023143987517936945,0.024024958637366516,0.014086161357743975,-0.025148183204010122,-0.014635426958596987,0.0033327711049212345,-0.023620784483327495,-0.014778527426560098,0.010320796931595985,-0.0020171430664483753,0.028437750135904015,-0.029606549935760784,-0.009279250520657055,0.01514532727936985,0.005946939370032935,0.0007397637749530756,0.014651516276216683,-0.008194412657524866,0.0013546560897286278,-0.08536614622866329,0.008820158722429881,0.005062806293618943,0.001087791782938816,0.006324419298525799,-0.009455127246735143,0.009228560171431276,-0.017085505111126192,-0.022775311062691646,-0.012173933439760674,-0.011370825140080707,-0.013560629331914835,-0.00400775904044204,0.0025171181825979117,-0.004342278584914104,-0.016845428977990774,-0.008235549289241965,0.02632678184850485,0.010535574067168034,0.014137428401041265,0.011429726524473336,0.008107773447002418,0.00992384967674909,-0.020365547785262863,-0.006976372427769611,-0.031588636349884264,-0.020462242882437004,-0.008874869060243474,-0.001290813945645309,-0.011230614180080778,0.00046410471609700034,-0.00007964918576818035,-0.011814880859959832,0.028486120979796525,-0.030717915503661913,0.013253447581964785,-0.0011565967246507285,0.004020199126839122,-0.0025773308394491544,0.021131202554115134,0.0015357446063119647,0.022670877276845403,0.020263580561810237,-0.0033262919778514503,0.031488232819792634,0.03687547271720121,0.0001579689628227834,-0.0004759732977978619,-0.020310507988171283,0.003913289317307311,0.0030319911228688587,0.013692790107819514,-0.0042029144183290176,0.018389699244656003,0.021517967386494155,-0.02943085727359526,-0.013950409678336122,-0.003384533370186644,-0.006258619453169659,0.02776877502082751,0.007926521768796544,0.028936783860636164,0.011381849137098915,0.00947476531752553,-0.00205642714489013,-0.008775085190190757,-0.010901940476462627,-0.013320579488535579,-0.00884374897653263,0.014450494187454673,0.005129518958808522,-0.002274120080045016,-0.0015836829932145149,-0.006246007218602153,0.03102725164232727,0.0011306297985548626,-0.03522393564749435,-0.014976629660628344,0.021791704597617808,0.003829613469308795,-0.009748534840909814,0.026266356694794508,-0.00648408157335764,0.018485221637177158,0.0019514439279071808,-0.005802333632339031,0.0036324559965921627,0.022202851527499165,0.011174082738066344,0.00987030110150299,-0.019257324970432387,0.05569114094774552,-0.0015614928200077516,-0.005700214571580894,-0.024055494488466896,0.030544430099954337,-0.009542074919712,-0.015674904275278123,-0.004652424330568922,0.024693841296584185,-0.01686260961901797,-0.07861258282425429,-0.013342177851102678,-0.023095025805149036,0.015142669219260562,0.009400018893239031,-0.020068265883996572,0.02369954806366304,0.05409403028104353,-0.008468417847345694,-0.018518602135199968,-0.008270055405902754,0.011282388843019157,0.028029674396860497,0.0008649998440144767,0.007559908966332361,-0.022184418263623235,0.0059444141712456265,-0.0016047836081432094,0.043765791842015976,-0.006550964690789263,0.00924412233797248,0.004000600678664332,0.007598373050597873,-0.023126893926439643,0.00043457159407991213,0.02655142312204838,0.0021925752294411293,0.0041987298119252805,0.018291944384697827,-0.017822726258461825,-0.020773890561486184,0.006348844670231301,-0.002683816828273182,-0.0021193770696821233,-0.0038856748487307935,-0.020792399039840717,0.03403991951489565,-0.03870219483980858,0.005945056860784809,-0.030155537923958278,0.02010017605150825,0.06475042479409707,-0.0064176563054936745,-0.009943642767590494,-0.02881529213792004,0.01301109337833749,-0.010876573662596933,0.025496261221412925,-0.007294292598754452,-0.015391698489920213,0.014769186806908474,0.023823620946047983,-0.021305606371088533,-0.029900656958922984,-0.007317691644655124,-0.011110393897248686,0.005089523789483369,0.05712861152962293,0.01897470466866362,0.03474610803754415,-0.03300230118998721,0.011909279389031186,-0.04040004801890652,0.0060757399877131085,0.008493941875494347,0.023361861540928213,-0.004157638363812219,0.024762092891084348,0.016602996797830873,-0.003931300114248016,-0.0009585939999769721,0.05027990069067446,0.011366571019972217,-0.0006470019662465479,-0.0034293785489403934,-0.04779139373454909,0.024829397743990827,0.03618894431659843,0.03598544618607737,0.012075573175565442,0.040306397088784245,-0.007915386860903942,-0.03800045353959914,-0.0009471364178870652,0.04717880584933077,0.0458445679365058,-0.04829011351201244,0.03383015636360701,-0.00867002954905424,0.018196403714526615,0.019307899176002084,-0.0024042261432359025,-0.0017678044982679427,-0.024562884252548104,-0.011921949780675633,0.0301691642481455,-0.004585383135948631,-0.012158159267189791,0.01841424788278968,-0.004616362265749468,0.002268925640823836,-0.15440809516249465,0.0008407067038028145,0.008282594504488656,0.012718385321022567,-0.006152290741286897,0.019408185766522857,0.012066821522328979,-0.023013836018582586,-0.015847762693750257,-0.002795214793643668,-0.01688814079706503,-0.0031932184877884805,0.008639145180078134,0.0090809749841875,0.010146507003218376,-0.017324148380356737,0.0014655835154960065,0.0027952580875982864,0.022296654449513974,0.020627746483887297,-0.02193495697693944,-0.008242175041506771,-0.007751947670304449,0.007814943123904497,0.015810915318071706,-0.004015238678726155,0.00589369261938356,0.014640128079932984,-0.0021079111249261828,-0.016464413166972985,-0.003571400709091361,-0.01419575205986889,-0.005140942253226947,0.004283604511802912,0.011829960176173776,0.006512637094803362,0.04411905673339169,0.0047145061384822416,-0.009610758542357904,-0.018932740367356173,-0.006389828974839088,0.052937529786090065,0.005458211571931989,0.008775145358413389,-0.0166118802848054,-0.007652998375991794,0.013300090338536812,0.011255554212547163,0.009660387838932935,0.0006264238748021401,0.011215913505093074,-0.031390915764784116,-0.005062503577401405,-0.006081288280159,0.009143302567935479,-0.0030444572520488804,-0.02613321727238753,-0.007992776340322189,-0.013192614555561321,-0.005340725744244585,-0.018287076773443746,-0.011945241990018883,0.0018782940693959234,0.002746926483721035,0.02774530975091254,-0.027238865803308476,0.004262983436864695,0.030135357364025166,-0.018176993650509437,-0.007004259653846362,-0.010861015386380166,-0.014191515707321488,0.012163198470419993,-0.005602417787696076,-0.030023439072546093,-0.011218923328186164,-0.00415365313809318,-0.006413940687894104,0.0026875290042113155,-0.004526647368368663,-0.0017297767488775404,0.01775290484694824,-0.018277426747158012,0.017686371031798123,0.020224864725564708,0.017917524362465416,0.012716882975589925,-0.0074160550549200194,0.0014466330610723385,-0.015874337493848055,0.012203279538504256,0.002397646220764094,0.00798023923775073,-0.009542067108227156,0.006872981081321053,0.006227900503959848,0.01107285196572053,0.0013668163581978519,0.011366259676691698,0.007098341865299622,0.004714789124998765,-0.0320618111886082,0.0025523587440580116,-0.01947916959866727,0.01710246606797277,0.008033190670362667,-0.02835824255509576,0.0006853878093436596,0.035201176240636387,-0.00491815860875023,0.008216041267590828,0.03543103288369497,-0.0015185040163661308,0.026700972535406597,-0.006066866763322521,-0.029858067065171426,-0.01775150859256538,0.01083984246122062,-0.03095638192108752,0.01285427528084137,-0.01278481755925095,0.018836636158214834,0.016603201066129485,-0.053826522263466146,-0.0002120092301938286,-0.012878991090925882,0.003057129758438768,0.0021761951197259368,-0.01766282614613128,0.0028650739272923042,0.026694264880165866,0.02725407373991776,-0.021143887280258268,-0.0024563246101330337,-0.020771664148211254,-0.025625021501615986,0.02053672988814619,-0.03963387367121021,0.020440079371507214,-0.0088894718380428,-0.032905679607810476,-0.0012560765249712991,-0.00924156524270079,0.016003762972115743,-0.017617598680334037,-0.03205042334412671,0.03363496453586885,-0.037452994156233065,-0.0506005886488643,-0.00976246094699469,0.00500262019730538,-0.0082458285830405,0.01091242025900452,0.002988617834417197,0.02068484034333103,0.03946050714046342,0.0018029731486412235,0.03257952066904348,-0.033152269911026114,0.010138456508051783,0.014082348095912004,-0.0005238541680095455,-0.0032196879600894512,-0.02580403259885044,0.00848322236101788,0.03639402831211133,-0.0011534240145185935,-0.002953558194671036,-0.018878163554180316,0.007739487518879886,-0.04628654458037403,-0.0042784845896685665,0.008416461474779535,0.00698440906578219,-0.0012589228640145754,0.027336586939016395,-0.011925724339764233,-0.009702520176559638,0.018172140606569187,-0.0048331456768050205,-0.010380869961117124,0.03602498516073162,-0.025957776964815386,0.01474436134950974,-0.006104352193562414,0.022864171057474802,-0.014156564251886173,-0.009315114395465828,-0.02362600585337445,0.05871408405076823,-0.012091217557794546,0.032547960321003835,0.0009637504480964695,0.028163471579463646,0.013146553551454068,-0.008998401763867257,-0.009076350597426466,0.002266381985708113,-0.015965881155745883,0.01307109458542543,0.017061413637806614,0.0022065134031800365,0.0043437874512870815,0.02118361834150395,0.016458886060819418,-0.0006885783075714452,-0.006301613276435121,-0.012101106614935754,-0.014416113030229043,-0.019247246237113998,0.025732983420618177,0.005156099789658957,-0.024027864722611578,0.008143129804708004,-0.025699230231486955,0.005770711315345125,-0.025357795175148173,-0.003501708431460363,0.0005019497815189178,-0.0020834535848661367,-0.019726834531671972,0.010359498270705453,0.003298936673970382,-0.011537395071674094,0.0015712267479576988,0.02972882396358151,-0.01256857518690605,-0.019133662639334713,0.03458135305535534,0.009379346721299415,-0.004410512945351974,0.001326974427370418,-0.004284341829863158,-0.006188003501011231,-0.013727173544580595,0.004784992551162769,-0.032946762516977375,0.010563966020530844,-0.01797132761525047,-0.007757556782222233,0.014799198140241207,0.010731988349057378,0.0016439476316323215,-0.006951641436307281,-0.0037745579161222375,-0.011043590367638027,0.020920182318319904,0.02450478657848631,-0.045384020742368233,-0.005371651308888341,-0.015764792480313497,-0.0008214192025418428,0.0011580970143653592,-0.011066771904989852,0.025367023973697448,0.01378234728170048,-0.01864017615383485,0.002182577372493634,0.011824009395706995,-0.0010809144713909734,-0.01185189282608998,-0.05055841034442117,0.025675431770400634,0.013512831201029989,0.01962238119261885,-0.015487985895491286,0.02469121157007298,-0.010709669911838311,0.04576625716315427,0.04355294984903534,-0.010672144208399617,-0.017278382163032097,-0.008555687811296727,-0.003765455189348591,0.006988640204242383,-0.0004667797094026945,0.03673811021930436,0.0018615749959177141,-0.02043793878507374,-0.028081812966231672,-0.006641251808682532,-0.01083863301422774,0.0233307707395353,0.008149720175665827,0.0227389274617022,-0.000610193302892151,0.00432372182056268,-0.027720421339478142,-0.0003617414676277938,0.001491834148359139,0.003106736697061557,-0.0013788694217864567,0.011613930295710312,0.002963932328749105,0.03239529830901599,0.018258298651234708,-0.01490298721978141,-0.011167500613783327,-0.01198091001546778,0.0039001178653980534,-0.00919151531004965,-0.0013793463267129363,-0.018053802700753532,-0.02808374427196948,0.027220879257102273,-0.010080614779652618,0.027906739309849216,-0.022379418841173594,-0.0007198981485908322,0.008998732521631,0.0012602325379578439,-0.029393063219652096,0.0029124062860423827,0.0007239983232883017,-0.0009197147044840713,-0.025882225714084484,-0.017950667887704556,-0.009565540552859256,0.005541708729716353,-0.02144617589576324,-0.002575573668642875,-0.002268758941240598,0.03254752639284911,0.003710169117318348,-0.00044691950302905574,0.00031383458177867605,0.01699374540443594,0.014333178664412994,-0.004542022686596054,-0.005634265936973646,-0.03022870633624838,0.0238899637438721,-0.017426558816330765,-0.029478050326954473,0.004370289291592243,-0.017031388541975064,-0.033352945529841006,-0.02109599407234576,-0.0026882257225389907,-0.018185839732664293,0.03884318535341777,-0.045088826380296945,0.018422808585169443,0.005967773350525897,-0.023653325304542647,0.0007503707329130339,-0.002249947215363733,-0.0016916454400403773,0.007051335159317806,0.004374335426246467,0.015840022754209315,-0.013842197031518722,0.011312900678896991,-0.007663623329411025,-0.018325330934450684,0.027130059877512016,0.014601295372314135,0.021376887383941355,-0.001456176552835745,0.019440560847513538,0.011573598923610415,-0.02523105296162113,-0.004583854966050489,0.00000548624174721025,-0.008494929273392694,0.0029701341682263935,-0.007301471155071175,0.027263260331928,0.020458154822995442,-0.0017203254592425843,-0.019119967634340106,-0.004963150166586759,-0.006130922216338259,-0.013746112667554763,-0.018273504081255623,0.01797304349930835,0.00950793094420986,0.017091767191392077,0.002200704333262439,0.006542689513242355,-0.012164558529054391,0.0007352551751561332,0.03494125202151109,0.01261938634801698,-0.00908621541532638,0.007938642064434374,-0.014237845996207418,-0.004661626205695364,0.025037209883652142,0.01861057083422,0.005240623840712566,0.024474134570385577,-0.02415775143767881,0.03678073971760262,0.007691550563944287,-0.01187762062523436,0.029760597286967224,-0.015289855222694078,-0.03904837175148085,-0.03667195946467961,0.003461212745536723,-0.0018019278490963957,-0.0015270495880313326,-0.024326068741065684,0.021780242471384912,0.023814222452108336,-0.006581475994220896,0.004595389670384037,-0.0067538451782219976,-0.023142663414852858,-0.01397596492051912,-0.02300672369367093,0.018361414273082684,0.01392984282616924,0.007820483730361295,0.03057269637841516,-0.04469000251149148,0.0005367642191373812,0.0048580531063433545,0.019564873085163043,-0.009467147206357942,0.007338633202602359,0.022866033272169694,0.014601478815330686,-0.02799943159488642,-0.021286689338747177,0.07373363145553853,0.0279556908567683,-0.012486411094282173,0.011197183387244326,-0.00796124629543225,0.002161870616226953,-0.015986900311877536,0.02637242365811987,-0.015774794637234267,0.014335664488495579,0.006086600557104475,0.008987248974479771,-0.027006695981778336,-0.023496414508006692,-0.020845745342365104,0.014819503668117151,-0.014702067017072057,-0.009734572128322586,0.022875819745145586,-0.05749751970831594,0.003766980267616952,-0.028519244612953142,0.022340747101573726,0.012565331125260749,-0.05127962766623165,0.00291328304940554,-0.011272847297194447,0.011817939307234454,0.0404943157447718,0.01974377238862321,-0.0020549509558333997,0.007926596949077283,-0.017312901588403415,-0.015842009460313777,-0.01187020607116621,0.04747796399763462,-0.04349356750789146,-0.014247849603165346,0.03188790485811807,-0.008134800482706,-0.005531961729346299,-0.021035140648519284,-0.004503376504167301,0.04987792373240433,0.033503540652413816,-0.032293715052232635,0.02916357746054941,0.055256355272228205,0.008322978899488624,0.02958221900872027,-0.005517284360358034,0.017823351607473004,0.013943395460166591,0.001992458159795951,-0.011988309661611822,0.022133838837073795,-0.007467828810820887,0.014886915572537539,-0.00017016972281733186,0.020157056449363397,0.022999259386604354,-0.0030234980267975853,-0.04963641385570841,0.01643274867852567,-0.027905546299129065,-0.019747794253659714,0.02353663021842343,0.009330013581529331,-0.020719632914255715,-0.021152956546083616,0.022473440382199627,0.0037148536081908125,0.007981631660958194,-0.03251694724695986,-0.01577301555585425,-0.010569436537646183,-0.03938783219626532,-0.029441411525796626,-0.012449279996793806,-0.018388954629545096,-0.007411882516856848,-0.039228370496184876,-0.028020840136592458,-0.00783026203825769,-0.0024523882273711863,0.005287983665046245,-0.022716678228651983,0.0031167310040178193,0.020757537468687186,0.012135901392148417,0.021667721526532284,0.023042751880830256,0.028818657584585208,0.017313858220613376,-0.018366709865745616,0.0016752213987131141,-0.0007896158607181124,0.0012146875795672313,0.004394395288530114,-0.008887449146969801,-0.023469215831113423,0.033622443803076725,0.014430810544412717,-0.029812875079781326,0.004663057560719936,-0.02855402967506746,-0.027265921835306767,-0.028353912508799258,0.03631354998418332,0.019465930204350543,-0.026466741274218716,-0.020594040040583645,0.02366031759755661,-0.023209625365647336,-0.029069941315506158,-0.03223850052753715,0.008974518817013343,0.0234230113357413,0.028147439400339546,0.01816260363887733,-0.024911325731702627,-0.03563853550022549,0.028821437199377214,0.012664303216809818,0.018970131811272786,-0.0036674727191080684,-0.0003671507079078,0.017397216091363285,-0.004788357104762092,0.0101701975547613,-0.014245827513845486,0.007665999818786147,0.04772152404562216,-0.004315571897134417,0.01329832864066133,-0.009917784094477975,-0.003255581253699974,-0.015509380131897243,0.02832681190972306,-0.0016946693350039013,-0.01099548075615168,0.018992882500608103,0.0221729955912428,-0.025360921947233026,0.007383846084549242,-0.01925051081887665,-0.046861195420835854,0.020536907170390355,-0.023832044532586465,-0.012418852967787592,0.051874590540252806,-0.029335581841300952,0.024145485432393334,0.015113294066255391,0.008822066836350864,-0.033109441566015384,0.02977873862312538,0.012293681785521227,-0.026044787513117163,-0.007063167725226226,0.021478859780436912,-0.002962862174460136,-0.03708860924565585,-0.03709877129244597,0.010987913441462048,-0.009920336925131302,-0.016034843631554663,-0.03234902159062188,0.004798340088303324,-0.009311803858024213,-0.008545952497230206,0.0068459713942408676,0.009831882399335015,-0.011981473667770276,-0.02335362061640739,-0.026876941416330822,0.009169866423870108,0.0008162107805621133,0.01966023659352738,0.024101940340962913,0.09866875781964568,-0.004894789709364977,-0.0055412814448289665,-0.025029525866696885,0.014691711108252667,-0.0186487817483279,0.0007819043963364858,-0.02160598812266145,0.0019354623693876676,-0.03449416734323603,-0.012407438683982676,-0.005936992473222262,0.00846998685432076,0.018167366224423873,-0.00627542614292481,-0.00600550409323571,-0.027021665715011866,0.03312800318529389,-0.008675877034188876,-0.015733539722330804,0.017794987679466752,-0.05162475729746256,-0.009692357426604134,0.017018800444943017,-0.010993236137884863,0.017995148145929757,0.007095183742762321,0.035975768797205654,-0.0009639947760927857,-0.035582481233511515,0.020086477130854766,-0.03461129566996613,-0.0026382694605733715,-0.0008028141531878568,-0.04142553340556946,-0.003050723030498162,-0.04126993599925717,-0.00874302700173464,-0.016517823700532088,0.07027651201234619,-0.0005835200778162478,-0.02613054280443008,-0.030416866565434922,-0.030578606958835065,0.003604709922438781,-0.01701738003370669,-0.007303302654493235,-0.01017172699076772,-0.0015181758185883888,0.020190687350300544,0.007018936306342676,0.004733269259652283,0.0107383427012771,-0.041715149643749935,0.050649134824369293,-0.004820379032039306,0.004187660561968588,0.001897888629736097,-0.012289631652896468,-0.02754260243844154,0.02551183955144277,0.04547102567843532,0.011651376541075955,0.03608998605353527,-0.003915161487384599,-0.009505647753247104,0.015569264851589215,-0.0004155085195144017,-0.03400280423046649,0.006742666129337841,0.022729053116900003,0.005419283368166644,0.01785724843685221,-0.008898368244173222,0.022620895302145987,0.007504520842801307,0.00549096002844014,-0.006353900184658835,-0.02578646155992617,0.027963921987843365,0.013549314183220588,-0.023940870128216787,0.010397587562892436,0.004654370579216148,-0.02416006821428618,0.002922710544059174,0.005019323725352826,-0.017816311663383752,0.012653621567527343,-0.01399018692133875,0.021146676690711907,0.010895568654510373,-0.02149260418543736,0.003910147740430183,0.010450103564627692,-0.0174250906957022,-0.008190257040124325,-0.009129540848783434,0.013509249945400217,-0.03318830274712177,-0.012544916141051772,0.07929428541200073,-0.0033302055220968563,0.038903757582418444,-0.00813679063120463,-0.009107803315314798,0.015757645081622255,-0.0037594582812593143,0.004559227364736443,-0.03162093185741681,-0.06541338827558785,0.015189311806368141,-0.02916564952557687,0.003316045590004763,0.002688209148018072,-0.004296131311165146,-0.004990916855483945,-0.05120368613684131,0.041793663261665746,0.028764677898249748,-0.014829185469746625,0.023550727150400772,0.022097064997065204,0.04726715256885557,-0.020951635617657116,0.026728027507435588,0.05346175050472751,-0.002398272772367314,-0.045941409509356435,-0.006535650029097187,0.01897063383830493,-0.02389834207957239,0.003509177608499393,0.013003867571695183,-0.001460886994333397,-0.002120979155907966,-0.013433410401953332,-0.014129748550122834,-0.04436199444954014,-0.0021749136313380687,0.09070317361395379,0.0030420002327393,0.03977276128494071,-0.018374700082290748,0.0009866396875772606,0.00996164968663811,-0.01455897844868957,0.00634976456367177,0.005885011043066386,0.027196015129142805,0.008992369208679449,-0.04253460319598152,-0.03152092786184429,-0.028456762836947078,-0.026035529442449693,-0.012287218217513957,-0.028257445158531798,0.0015343828829539462,-0.0067738050475233975,0.02242106819268028,0.01599160347601685,-0.015041072422492387,-0.021074648089302206,0.0052909510301231396,0.009790574426732222,-0.007544044565792719,-0.010450104697334714,0.023942271236444296,-0.021260803691761976,-0.008564548913888019,-0.06218765643978758,-0.030123148924955198,0.06808589267715622,0.021168777994667765,0.0035003441590380734,-0.030745945030301813,-0.013542956358519325,-0.041105492530509546,0.007404383895201149,-0.004444611306351998,0.013151636188038546,-0.002829021493210561,0.02230411963885741,0.03110885389563789,0.008083142201794482,-0.000489510823696846,0.005125925837106682,0.03757752522743987,0.02467825827770792,-0.01762805846817896,-0.012731990597680343,0.00039402226505142596,0.016592087884445137,0.030809184687927038,0.007106817900008399,-0.009376337259117785,-0.024219713635757683,-0.01968507653661019,0.002475347181256052,0.031929795858082644,0.02747765443472551,0.010980359267841883,-0.0003091441885031633,0.051211629300451304,0.03797062435934371,0.023568913615469853,0.004431639272625175,-0.019411238907778253,-0.0024138215393618113,0.0010841852227077365,0.042675143856555985,-0.049528454423263354,0.03840897172116332,0.00787180245430423,0.04185056154112929,0.00823259824493079,0.025303182261517537,0.016139045161945847,-0.05945890844766311,-0.014811199552880313,-0.018415790386490577,-0.004418673877144742,0.008103065072496213,0.03066177722305595,0.005784613785202133,0.012966820325166427,-0.023642506295789,-0.008064646228077534,-0.020964098394877725,-0.020089666479945128,-0.01620739727195776,-0.005342886930280388,-0.004181559635935202,-0.035711175725170866,0.004489295919008046,0.0011499143275905941,-0.01608932491589327,0.0010114088955844491,0.003049213535901408,0.014238260872131148,0.016589602522242702,0.04521837761194593,-0.009174903094263316,0.01707636247161604,0.02872510352443083,0.00977412662064144,-0.021698944374711433,-0.024848630846278225,-0.03028348032219507,0.02720108993233597,0.023471092953144108,-0.00300871463461098,0.005837881476850598,0.02065645808468627,0.03509545910650686,0.00587357263770156,-0.01411023116107762,-0.0015328105050779388,-0.009722487464475751,0.034865917014174824,0.0034816991078216236,0.024933979951458615,-0.0020157193024919816,-0.009680385684125617,0.018770702030540612,-0.0012642163133588283,0.04019934411303926,-0.012416909338640439,0.019157927853684444,-0.02598420028963456,-0.0029197680615146555,-0.0180860843393371,0.030149025978299698,0.03405480995527295,-0.01824328428079705,-0.004465331050975396,0.017773615423393882,0.010991346532455827,0.00922043584770128,-0.02010559033412531,-0.025950914115291202,0.012428766906794432,-0.004304126736586774,0.0419144002092891,0.0225806221436612,-0.01767818047761674,0.005861170371957688,0.001992337097891758,0.02713488954273707,-0.008617193614943307,0.022694506166375833,-0.01750037724580309,-0.019109503774162533,0.006785155654449039,0.006533897912195293,0.009933555551065827,-0.012173038107287995,-0.008718474738427774,0.010126236270079221,0.0008780620265556429,0.021055791701975995,-0.03078701824208704,-0.018667628246281723,-0.12611749564586452,-0.018762523571803625,-0.0019507648227936485,-0.0011157651259012524,0.027894266732004323,-0.007963971061748025,0.0046501368439496125,0.009778059559960105,0.025845955312756,-0.013757197464152252,0.002184261114698514,-0.010319284621774437,0.0066475421384610735,0.017368192844327203,-0.01930022443735945,0.009314407134743834,-0.023192451427392992,-0.006980932421677501,0.003145393177970652,0.008732223961524337,-0.0008226518760150549,-0.01603449601745181,-0.007123605520384276,-0.0036246190074201894,-0.0007594465254066125,-0.03417658698037917,-0.023704210597206538,0.03061587613479674,0.012601856400296332,0.0008983054692310469,0.003415818176954781,0.01205899753216926,-0.008859844513113115,-0.010849984971025458,0.010783354407280236,0.02083933592092008,0.033865156038827886,0.003799914407588081,-0.0009198733264689029,-0.03149707504904137,0.005346355214397284,-0.01362759790002088,0.02111492445668648,0.01532892774015335,0.01047873570869376,0.026522704879668662,-0.002846294572413827,0.01626371837443247,0.002381435783738093,-0.02344108912630941,0.024362658311515902,0.00799723597002622,0.0049759313075339005,0.009592432006909153,-0.00303632251851689,0.026949261965131102,-0.003372092643132241,-0.0182036548833088,0.001889279902536429,0.018843369293501368,0.0007275176124189931,0.02478988795354917,-0.022699971144177843,0.019107819433394138,-0.017606551735039333,0.004327186176041339,0.008333459667058556,-0.010711498556278747,0.007360640673311385,0.02256927714891957,-0.005058434169526049,-0.019955425989008315,0.019033950035858106,-0.0010810116219983974,-0.010298700319157956,0.002289921847594425,-0.01839399240520953,-0.0012081594428443542,0.005433815856285612,0.038300757136069875,-0.01048512056037416,0.014333538962511935,-0.024418627557569048,0.03816105857962502,0.014746158538136952,0.008526175044565558,0.005160269585085053,0.007524846927635206,-0.011955719944577179,-0.029116359778203413,0.016000922162330136,0.00242658354073571,0.004960854915276571,-0.009274104584081346,0.0071664314701311025,0.010238306807461102,-0.004414065592504626,-0.008896315880174067,0.00610696111829647,-0.01512486803342608,-0.0024099553122207606,-0.09348737528319756,-0.0034819710725312444,0.012915731500529172,0.008853299662475647,-0.013035419833414738,0.012758856146565332,-0.012038902845427022,-0.023205565388973847,0.033104839373152777,-0.0017116033050274902,-0.008427380777475122,-0.004792377468760811,-0.001611733782441277,-0.0002460240170395933,-0.015063511822246854,0.022269605681571058,-0.006826584452078498,-0.018000207309145436,-0.017459659782240254,-0.02424770544657802,0.014760323318467052,-0.012483930590508207,-0.017979279558521293,0.00835799618984231,-0.003505695536393585,0.001925559563183961,0.023020412238871198,-0.031034919555616512,0.02090660608633651,0.008257055750473129,-0.025310534923302437,-0.0032821197539303726,-0.009205849958796815,-0.01118056070898796,-0.028053990035215078,0.0013325535937881896,-0.017565336245580328,0.0182755577463975,-0.0055768961722314995,-0.015139397981872846,-0.005213608538337809,-0.03647219577598871,-0.01229100050079415,-0.018715508723661137,-0.008000189850287732,0.002243042614538998,-0.014083570053427847,0.004879337188232474,0.009100356643680675,0.023301357754422984,-0.009421642272001133,-0.00045238468696791534,0.015576091574076691,-0.0003739801711515288,0.0013032592089871292,-0.01849778269628973,0.012735084038860782,-0.012454160058674918,-0.01106586081270173,0.02740932205866618,-0.0144038452355219,0.016854571495812983,-0.01309055896110645,-0.003538037063099717,-0.0030066535203449535,0.007772847770643703,0.04358323224377414,0.016615149595679092,-0.041339018337644785,-0.01315950154464589,0.011853635362506177,0.019186728232523608,0.010690523943853215,-0.006055373709337393,0.016769251047050113,-0.022759266556434225,0.011291200662795401,-0.03388010205706879,0.0034366713300414517,0.011369804726812139,0.014660605243624334,-0.0034076444320830326,-0.0008643969145420995,0.0022032109347868774,0.03623349797792277,-0.012422606739876822,-0.019794786874288855,-0.006741447296201519,-0.002696078711601821,-0.0011312238733792023,-0.016804917119156285,-0.005482694074681037,-0.016792321165688337,-0.011538225333783092,-0.002808444674726478,-0.01370379572228767,-0.0072227321804558264,-0.006301509143937764,0.006572819578959907,0.010406714552827937,0.016122621150111698,0.06654209092975828,-0.006409495175259013,0.005941975913890196,-0.01798496389860026,-0.009722630256283123,-0.011381332322908016,0.01947738042068546,0.012832611825573808,-0.02707034180604705,0.025048299414189085,0.011550810850748766,-0.0314947478443115,-0.011445077492130161,-0.007277128453526841,-0.01323236145858705,0.05448635354161509,-0.020771429678027982,-0.00971583913217035,-0.021147038005364462,0.04215519950753257,-0.005040060366576505,-0.03575656703166088,0.02986703210504292,-0.025533544734265144,0.017647616437280782,0.007348197286281394,-0.012985387003737294,-0.025843946762400243,0.03248656793591701,-0.001031640469397478,-0.0022339208094421066,0.010378796087193639,0.058849067578382624,0.03443142681534653,-0.029762464392208487,-0.016299960234096512,-0.010336458835227097,0.0283152620821246,0.01999426555766789,0.036901452997361014,-0.0006088016379463783,-0.05754468615417063,0.004920076602392637,-0.04339397601545705,0.03265453936223643,-0.028951084959681374,0.08186374728646938,0.018436000634684164,0.004488389756460374,0.014177299945451471,0.034998876965296376,0.03273988347923838,-0.043097851626606974,0.018601956603053513,0.02503562911281236,-0.032178386345228745,-0.0015816335164023597,0.0006268184372293759,0.003314389224966863,0.05076652621939398,-0.01595914411202131,0.018204342917203613,-0.006414890947694617,-0.034767721289266605,0.04131623693502008,0.027901022043512268,-0.07227687620975617,-0.03157934809315463,0.005795689745959091,-0.014073124805299589,0.0012048107379708651,0.015631249819838842,-0.020120891318717683,-0.02485366488237632,0.00431381307534529,0.00867660890112432,0.020867748310445466,0.0419172124870025,0.02186581542608951,0.009299325324631928,0.022919513420440303,-0.025286890909934797,0.022902198386037055,0.03959459303019129,-0.026978982466635243,0.03957359119612631,0.04904939903883512,-0.005445054150899168,0.005759301018045199,0.003957999568451524,0.03429315268232009,0.009055738068894599,0.004283336381822167,0.03126531121120111,-0.00786661389861204,0.048529030294658,0.018380159668937152,0.005063951983877893,0.009166097005037337,-0.00979636795895693,-0.03119035646801331,-0.21645606046440216,-0.008958045799743878,-0.023950565318186262,-0.03146968075580173,-0.004832530123674156,0.0012200954124240084,-0.02773220823696127,0.010334653836134265,-0.0210822423004832,-0.01695602685220816,-0.054670903775854124,0.0016284392820233526,-0.020722249993651215,-0.006376273756631308,-0.00524759109107015,0.0077479856862493895,0.010742836613949248,-0.013563069415180838,-0.02141824000236724,-0.002436860425294933,-0.0008067401149859791,0.018022852655475482,-0.03238492770454059,0.006075279625919984,0.009738505154649784,-0.009545536225148381,0.04076754890113757,-0.0076936447052022095,0.03742034119510902,0.017712698316914695,-0.024885685247479607,-0.024160027338237824,-0.0049821772931766505,-0.0035331855115771256,-0.02809602108242759,-0.01465504915209626,-0.027075737766570126,0.006096876093680848,-0.022398933885472518,0.015698145504921483,0.023072424935350392,-0.036366542389437824,-0.0076393382468286355,0.006623750962143177,-0.029582957405231255,0.06361066781754407,-0.04890115334525691,-0.013987939296281178,-0.026078659257681023,0.031514625223279254,-0.03090845343639048,0.045012836644331415,-0.021837310531442562,0.008669911140240202,-0.007341369030962128,0.010185112661637486,0.0008286496010866608,-0.0032991629873290254,0.024066054250738326,0.027001296461597876,0.014386829137567957,0.01574242122476343,0.03214412237881997,-0.0009240044825209608,0.021822367226902107,0.006834156462933312,-0.03283793702904658,0.03768847154840315,0.003838855761908852,0.010929349936744636,-0.023613000343028795,-0.009811970957527583,0.03082642181634191,-0.004750846678161874,0.00278154236685465,0.02048790823534617,-0.030906674610765437,-0.004982764495605462,0.0038618863616658437,0.02363679867898804,-0.025642407973021863,-0.03017662487793561,0.035266258649778254,-0.03781448195282876,-0.036634218469803755,0.010515835935636271,0.006082452736026658,0.0378518301624659,0.02520508031337329,0.0021362492441989343,0.016620412067106523,0.03673877528169888,-0.012195915209848697,0.03840573383292963,0.04007797215135023,0.0026925119754543474,-0.0073996520643998505,0.030241234476816658,0.01385216387745721,-0.020039588478146343,-0.014218261651375203,0.04205999574065359,0.0056233041498491496,0.02188869391157823,-0.0021784164203359226,-0.019898024082136093,0.008642465986545018,0.0004132219841644619,-0.010690918495252498,0.01636947259931338,0.011406333397395876,0.01371053568361201,0.017218916136805155,-0.009558209919266562,-0.01611806949953242,0.013026405896440009,0.0033792656433292542,-0.006638627344566926,0.007420430367614329,0.003883213315635837,0.014523893505377267,-0.02087511426499414,0.011637812327015197,-0.006129674230045895,-0.007634254787741425,0.0030277963433578323,0.010539825967306776,-0.011199759221281663,-0.010835858445198703,0.002818466328643491,-0.01424045588327549,0.0014435477933417771,-0.0013045305123888826,0.006430664204575861,-0.011162558841999792,0.021995193803149918,-0.009833327386658328,0.015339576076434757,0.008358055984416935,0.02283738715204813,-0.009484035184516635,0.02057049635233754,0.013608249378830825,-0.03017145331181562,-0.005113759593001663,0.020388818176241334,-0.009910349916654654,-0.0044275784178750026,-0.005913419330428877,0.02429276828994546,-0.0176524886957948,0.008425196455940677,0.01820510375290823,0.018313242902115497,-0.006756830933506415,0.0075830299136304445,0.00958103645718062,0.008651980468501757,-0.01125842062246343,0.018019853242704772,-0.013030087684114774,0.001037372822262525,-0.022889924860039563,0.009365797466720364,0.006022911322684713,0.02099672389987431,-0.004249886391260404,0.03334915096166914,-0.012136161348016369,-0.017183654943702862,-0.00035886540909440916,-0.0005272961856375109,0.001309999553143135,-0.0012235714114505393,0.005727719966723828,-0.0026479971795323677,-0.019526441649317678,-0.03217650138609067,-0.0006851778129562396,0.004732903809201018,-0.02460794576297029,-0.02537735247433617,0.000972640626079115,0.00024160625515124963,-0.0012489337591355856,-0.00000415843136261234,-0.020666612395567392,-0.005150210874444363,-0.003964578052559901,0.00846032643045544,-0.005444181789781526,0.037597539609555405,-0.030708007642494213,0.017548024137006433,0.01808100360880888,-0.003592248862223065,0.013590922229961389,0.0005679508969289068,0.00013170462635762021,-0.012911819024696748,0.01765362233545259,0.007418382736460094,-0.07252123597660674,-0.007680354620693394,0.03947911493717444,-0.0576567799529049,0.032850756033109926,-0.010013937333824732,-0.007061100259984029,0.027963602465193912,0.00999120860239913,-0.03429668606762654,0.01842058004285465,-0.0130337841027044,0.00482375110966678,0.03645609844727387,0.008682721299606637,0.037061862014499125,-0.012512709362518642,-0.0020259826070179007,-0.013955736305110272,0.0012381026299391942,-0.00946873404247327,0.01593198655436133,0.002654061941264049,0.012155776168088,-0.0037819107807475776,0.04265889931339169,-0.03110251792453021,0.022321778931470686,-0.006836389547043822,0.0027502849068808985,-0.002875499292586573,0.019245094670132724,0.010194502392561821,-0.010314403202997782,-0.012117887562709966,0.010180844729023756,-0.033857599331281046,-0.023923042118384683,0.020492339180152894,0.022322867640050228,0.03471769972456098,-0.04511245332777713,-0.0351845200648696,0.005587077631778986,-0.04081389197991324,-0.01570880305906347,-0.0500295281718207,-0.019498105865200583,0.013517587287303918,0.02648747753771778,-0.03362237550960161,-0.016557359020276226,0.019424645068931365,0.008231627061794812,-0.03490326005729001,0.018920787974341415,0.04454514007657652,-0.003077726538318728,0.025619445776460227,0.020998241146723325,-0.0038122497939325367,-0.017205593266936176,-0.002551971596489527,-0.004633604687954731,0.0027331289381312554,-0.04463275578005388,0.004442411981812773,0.0017547047006186347,-0.023128764402514903,-0.03718736819990988,0.025567819484591692,0.009589717358864916,0.0010841284234555434,-0.00494672280902828,-0.018156893767069388,-0.012010627867158345,-0.01888180505571342,0.004381833160874461,-0.03552140454556037,0.0007940801393739549,-0.015130954865161762,0.01861935834368777,0.024901253908454952,0.025037644129290697,0.006142739520295723,-0.04837650526513357,0.0057219840891435765,-0.015394535194395705,-0.017318758601232914,0.009974522721048996,0.0005392323138780887,-0.015978159894219114,-0.014425629528303101,0.01304950612963794,-0.018416345016730205,-0.017993564192244613,-0.0007827623915750133,-0.0425601935511019,-0.011862141163920056,-0.0066390598618181135,0.003931232862762641,0.12091237465520453,-0.024062106558025955,0.005371123851615654,-0.01045346387323643,-0.013999542197516045,-0.006128800288853583,-0.0016608739696291647,-0.03624758961226406,-0.0018272957677455154,-0.03588412411858535,0.02918878738475963,0.0324036224448691,0.004081509969400564,0.039916199712323734,-0.021279010214288987,0.010733617009358591,0.011512320142209487,0.006037461460819224,0.00885697646295292,-0.020102821150773987,-0.019080501527948556,-0.005240557590978055,-0.02344016299793835,-0.021759632654162017,0.02766197485743972,-0.029428755460080933,0.00439589402889262,0.003564626429316465,0.044739418007696735,0.007391800922630037,-0.006558545854122438,-0.008625445429298098,-0.009509632212760851,-0.016372766236209542,0.032027687220205894,0.03631181942947398,-0.03080613713929575,0.028946679302584096,-0.02098843208036653,0.021806607671404427,-0.013654090332713314,0.03232546185455268,0.010427550728614484,0.008104689083746851,0.026839542472113256,-0.03543115831982827,0.027867485281099974,-0.013103687794073976,-0.03637451140840253,0.018455985365918724,0.014784297315137545,0.013054839442878876,0.039667933233477344,0.020221786690136696,0.00048656353493248613,-0.03254061190568311,-0.035711611973158086,-0.037314001141864284,-0.011455445218324945,-0.002486729636377867,0.030748830579102344,0.006876346168594248,0.0007485670971457111,-0.04578159890827681,-0.04956411410264262,-0.01422521113241991,0.01176703711642719,0.009231155695161327,-0.0032419533438444482,0.009355440156430589,0.010922443208765432,-0.00041295225996684207,-0.03982030938008921,-0.0036959889208487543,0.011291873688265446,0.01738539278527488,-0.008308931556101353,-0.010515657063480439,0.008028480121908982,-0.004623686414276471,-0.024976349163418288,0.014060395610457929,0.031427102406713134,-0.052510421407376495,0.00026745145877050616,0.015214277529818621,0.006900487493528937,-0.010650912677210266,-0.0029808812014780702,0.005023247958885537,0.0014628360668134945,-0.004456708402237448,0.011658146526025509,0.012460504221044999,0.01060399027035486,-0.007749313540570552,-0.014219944538163802,-0.000821389177166294,0.010459740812338783,0.0469488861565585,0.018986645309994797,0.00024024102914886253,-0.009448196857669303,-0.09196492599818999,-0.010799960702906012,0.06263133567567081,-0.011888152225709759,-0.05346094226193997,0.10788811567835765,-0.05125314402308699,0.034958109939357496,0.06294976922530961,-0.030472494071780067,0.06238896899565981,-0.030899933052233385,0.041178018220060515,-0.06075689157414803,0.06352959180713758,-0.048410066386626815,-0.057265524070520074,-0.03204173923632619,-0.04001869923760369,-0.015841399423863395,0.031710206199196844,0.011456179038708771,-0.004130386138182502,-0.041267902958691434,-0.056907398687323994,-0.010963893723264699,-0.03179677979981747,-0.05004841825932044,0.03790269244265585,-0.028504395600410872,0.04128458541986652,0.020353562983983085,-0.0477952333721331,-0.05218255182401478,0.06267439992617614,0.010694020975379439,0.019262757483279196,-0.1040782859036127,-0.005754669391932198,0.022410026520977185,-0.04573342970012731,-0.045820498933239424,0.15024994147709744,-0.09333299775075224,-0.02450019140480957,-0.03330963414501459,-0.10089198539936708,0.048006392215331914,-0.08937145523183015,0.04247962195177309,0.015154333746275289,0.07756298466441018,0.03054478980454557,0.02030440226349335,-0.04567183424189909,-0.11310915113151623,-0.038023523230188046,0.028575183466918255,-0.019928968942460604,-0.006827649753892579,-0.001458432121887078,0.0045586370032805554,0.08427032874901884,0.005634748652625374,0.06119592614254817,0.03619776883782685,0.020193265645615913,-0.050378813457261064,-0.11174085391717038,-0.03689469604202683,-0.10584494072450483,0.05450734184209676,-0.08502639027155673,-0.022359729168013397,0.0031489150058356236,0.09096581537475035,-0.028163855922119223,-0.032653211189171125,-0.07066042740000755,0.08991502254069506,-0.050032775989482504,0.014393473283798855,-0.055234128280957404,-0.056691549187687394,0.043678143501723755,-0.03411947081652137,-0.09582273651150813,-0.029400378327530077,0.06030737882618104,0.019827386784253304,0.023040571841264446,-0.037402011231424045,0.007482589876149556,0.030104666808353543,0.022950172781452175,0.09083373983486762,0.02302940256386329,0.03753539952263257,-0.003266902701636372,0.4044205837749151,0.00707141814044404,0.014325143497914559,0.008110976247154095,-0.02983832827463006,-0.07611780091849465,-0.09330892516205185,0.21785980038872066,0.046810220798059354,0.03921577165856241,-0.0035525625270893223,0.014465154477509306,-0.1227731144032838,-0.003960254927214623,-0.006407220112633077,-0.008292438941721748,0.025629061682253075,-0.014932170231464245,0.028669912889423076,-0.03203950791728619,-0.009069797097206183,-0.06762786521790251,-0.04936062860109276,0.017704573307393206,-0.07384569552901098,0.05251921537619917,0.06037115712546262,-0.01898010643062717,-0.013157641597627766,0.04850113026758355,0.016596347404060262,0.0268845674760029,0.0682791556779539,0.00002590566420171095,0.018715096846377323,0.08238348086283077,0.021584445597159583,-0.025522907496131092,-0.06929031693591554,0.04723125124249548,0.01635050517076108,-0.054639552171245755,-0.022461734906356837,0.02540209666989975,0.0033538468098164597,-0.010910043895851257,0.06415591353463238,0.027847939054251255,-0.030704375914050133,0.04035009448496323,0.02569726688481914,0.03129490198806347,0.038218725090374,0.025293598650914947,-0.0023905048052978834,-0.01999333574133083,-0.012259057351450988,0.001481146748144153,0.039978599679499356,0.06128352618763023,0.02199087722077002,0.027298863148060255,-0.0014565949513748527,-0.02620438283635447,0.026566074308554417,0.004164878273970143,0.07931069754185581,-0.034088878739971164,-0.026695975268627905,-0.009338207215788498,-0.004880884372952007,-0.031337561519555246,-0.05584903030082173,-0.011328441483584901,0.02396561536101625,0.05184671778438731,0.02810382510947817,-0.07683915471946431,-0.01907184968166558,-0.022476481852807283,-0.01849242975244663,0.026347466555742934,-0.10613752517614415,-0.05982167115618447,0.02158981644010837,0.006447173097606099,-0.04198450334182603,0.03664714397193214,-0.01949968724373964,-0.0013427533566032713,-0.032782184119936754,0.029174418218005604,0.10012541268260325,-0.004221551672049049,-0.008447338740640771,0.04723259544299532,0.0015961190535839574,-0.016116315954479016,-0.003456426649028727,0.040470340409010916,0.029610567759148016,-0.07209922654949226,-0.007972857654134465,-0.003436964581262067,0.013737949363251949,-0.15224984122394367,0.0027086209050671706,0.12404724489532062,-0.04971424180828002,-0.039259287641478326,0.04094935149639558,0.007860065476431663,-0.023257860719675835,0.007947068421952835,0.068291581995995,-0.0032918282752701787,-0.018491280916852967,0.15145687159457258,-0.013084407052060897,-0.01072817141151806,-0.002974161452733993,0.014875213266322547,-0.006703623995040003,0.0073347780113014755,0.026600625093077652,0.05195758770439471,-0.022132070778281537,-0.036501535938341885,-0.03142118883843762,0.11953360368862812,-0.006808285059789894,0.002294591968148134,-0.030224528724539356,0.005842356892798533,-0.03669970151026436,0.020569427223513615,-0.038856497975191445,-0.04940980126657198,0.03223545726882836,0.07893807567026502,0.06695729849848418,-0.03743601244808143,-0.0040566064600742816,-0.011799527860546475,-0.0108074693233127,-0.03974994624879257,-0.08544350711039128,-0.01564403748348576,0.02613964968924602,0.09590861614809541,-0.08946392113896577,0.06500265403096438,0.008098174364618255,0.00020357834326895874,-0.06798946578026807,-0.05561222662599079,-0.012187712309824572,0.0336751273137808,0.03239209640815048,0.08574190154062335,-0.03514293436238008,0.033110719543947294,0.015692372290273343,0.05970057308519072,0.030046684111474008,-0.06614769892402733,-0.020396191418454713,-0.02043190359939218,0.011147985673729568,-0.13465369448148473,0.037621747281221814,0.07990352010316691,0.013482208163106387,-0.04981192671414193,-0.03212575083048493,-0.009256085109983317,0.08090041434929451,-0.009142127870521103,0.02864755112130249,-0.02338415197453039,-0.0168226032544996,-0.003236165640102948,0.07090966012932923,0.006207604550748437,-0.032140952229498816,0.02740130114548192,0.024079487846215886,0.04054582328618037,0.04150000516055668,0.09388328623581299,-0.032444779913196664,0.014292976088054273,0.04076493594880768,0.09370361948587533,0.04178036267009713,0.0343964640297415,-0.05009915635299251,-0.007492043466177213,-0.1494361820643044,-0.07464690278179376,-0.04204391301339615,-0.05204790104251228,-0.0897134055189436,0.04771358541130633,-0.043094614333831396,0.10826217434734725,0.005545913701019053,0.0477595966279738,-0.015086241007234154,-0.10557399957376516,0.09164051016333603,-0.021522894962391053,0.007920717622666702,0.02524832570797649,0.08213057405526947,-0.11830601545271346,0.008638539042067303,0.04422150805230349,-0.008446991630936842,0.0046742736492682594,-0.009796103588463743,-0.03109605963400328,-0.02622300051706198,0.02732527494235427,0.0005910517345767427,0.002864477182663951,0.04564062643953701,0.0009431536146916292,0.010129031284734578,-0.05772757085278322,0.11876123083323761,0.06914687620898327,-0.022387171115871494,0.003936430994917343,0.024024843221069726,-0.015681124625714665,-0.0002474949526485473,0.034258592395651696,0.04109156045169093,0.036830592877715014,0.09424645901063089,0.0951897159251245,0.006414990451873151,-0.016015534986404303,-0.03173473455475839,-0.06262466715561311,-0.02358004578244301,0.03800516158622619,-0.04040449482909055,-0.02115328224725538,-0.002771636243095319,-0.00398349756929928,-0.03380593150580601,0.02231739474405463,-0.04107886161377391,-0.021744503918335243,0.041101737783838986,-0.02969038929584757,0.024902717780285334,0.01750127820487788,0.005095693416258382,-0.0386357113754731,-0.031415701493615895,-0.04431490594610525,0.029610356833330524,0.040695127698823545,0.05652689412878767,0.038262719139247364,0.04273335927880678,0.022440909881090293,0.032630220606719246,-0.025279626092228624,-0.009075390436080438,0.0043392928035104255,-0.08215803027572208,0.024588838820108178,-0.06366877531363414,0.07911860220698519,0.034248247262580064,0.09050203564274337,-0.03615657186469305,0.10595132589781751,-0.022593520575021706,0.037411392760873484,0.02024513504632649,0.006880731594106334,-0.05399600653366196,-0.07058881671506402,-0.021721221088982282,-0.025305733619139598,0.06640866897371774,0.016736511419306384,-0.037364218343370684,0.03999895374293301,-0.04561145959372793,0.05225257523084514,-0.05508331572517101,0.021996207330911698,0.06566553659323092,-0.006882881987512742,-0.03381049761196039,-0.03042800248127422,0.057757022476441315,-0.17511897119161016,-0.009961679689976658,-0.0037917554899758463,-0.0011913265354027303,-0.010323346172756856,-0.009990886321770597,-0.019104452453132317,0.0028998782955781165,-0.015060160461622302,-0.025597184543896135,-0.008038041295745629,0.012369116350177128,0.0149134039642465,-0.015460014181402346,-0.011170378537161041,-0.04468234282140416,0.026042505770497534,-0.020246935924057952,0.018484180644942373,-0.011438428804103751,-0.023410646246601826,0.011381097275740817,0.0138054693791152,0.004286686223717714,0.0034875727781523377,-0.0089034788128245,0.0017605468768535201,0.003049509443565394,0.0018542316111169722,-0.031864261736101324,0.011993095752644714,-0.006578893267052253,0.011433404812166105,-0.0024363326892824365,-0.01109780977720553,-0.0019178567399227365,0.037494498577618926,0.0026205462665511406,-0.017245263591752057,0.006113606318675347,-0.010181534741382883,0.03958630420501951,-0.019342054748050046,0.017951160387876555,0.015790337073670637,0.011122690290180655,0.022559188327372852,-0.005115460320340567,-0.0007783183361889237,-0.016820264287721508,0.015784048335100994,-0.004750316385296063,0.010001994226036296,-0.014383840087518817,0.03234654195400358,0.04140952939608491,-0.009186453921249083,-0.014103883225075903,-0.015264012100779621,0.0015734855018852433,0.00847155829257177,0.001668179705289774,0.0008767465485871223,0.03902909851244292,-0.004664814483596005,-0.019240833673341416,0.021641320348428937,-0.00889857432173711,0.005861114395892662,-0.003063305277978152,-0.004146592011025818,0.012427155867128007,0.015500878394626428,-0.022964264401245525,-0.04147812412060532,-0.006203762403645397,-0.008247115101421567,-0.012304758114993384,0.005655029399762514,-0.00992756514074374,0.0010194383362847632,-0.007455421296741152,-0.005516537783527179,0.0008576212502858266,-0.003554142949699657,0.027603004179416253,-0.011066543123340628,0.0037143104951365643,0.02036974150169031,0.0135429538176482,0.04440710973645947,0.02789509005990931,-0.030762126674169287,-0.009183244371049072,-0.010155627387689404,0.007433530551148066,-0.009017865852914215,0.013613855276854587,0.00822863372790054,0.0034867448031942823,-0.0002727311235548085,-0.004401343358836615,-0.05633133252519046,0.05299399482702948,0.0017164941756962078,-0.02756549538813659,0.05037794857002261,-0.005748491715744756,-0.013720566114977135,0.023354058239640787,-0.03913261697744219,0.03811568542564405,0.015001141137323676,0.08418670129567209,-0.021632646824675503,0.0003658941160215036,-0.05047420687604995,-0.02695573530069232,-0.011198491864097868,-0.06406332897995257,0.029046535680801202,0.03374002776047121,0.06265265304615049,0.04201500258586312,0.001289928226240962,0.05955078136133429,-0.05454377418351964,-0.026522662111524875,0.0643738920480936,0.012881700216335452,-0.008068064982220737,0.025104154153771537,-0.00885065469151686,-0.09860122905015174,-0.010498994429814888,-0.0009643267297157601,0.025047384989677787,0.04381385960831835,-0.06887741602833626,-0.02810734078526451,-0.018879653744453766,0.1029250901288746,0.11191738936519546,-0.013889561152818863,0.037537898915082975,-0.03505467477001048,-0.021788367600721684,-0.03612454703503323,-0.008533925541920211,0.019428918572165544,0.035989648294015124,0.051892824221835124,-0.04890426378477282,0.09380156910640726,-0.06648371346199201,-0.07753967741328395,0.0018824950686371449,-0.006197794487847416,-0.05998255541993701,0.0031459671789675,-0.0018822794405265368,0.0050670883991914065,-0.10356917299670108,-0.02138276403224688,-0.026801221886063455,0.019643745871312145,0.025838632096592637,-0.008279375262193947,-0.009102116380650418,0.02562964529775653,-0.010007029240361957,-0.03239993257721816,-0.06522398473725194,0.14006225908908035,-0.12966032366060087,0.1258010406190018,-0.016044263969719662,-0.05844191478940738,0.020014384462806935,-0.006226020204013982,-0.011067222987934416,-0.004023077353010572,-0.05709493925828787,-0.008643813265803789,0.014545845840043928,0.022983449746148524,0.049174005920101106,-0.030643592509204946,-0.12319927587845819,0.0010451752432385835,-0.010458008032390402,-0.04306099746663302,0.06946245034245455,-0.01846924059550386,-0.00786400452975247,0.04025361121492302,0.04921224152661291,0.08486969855198424,0.046443742666399106,0.0502124032635281,0.06296493985872186,-0.0028912544330261633,-0.0006203024246910235,0.04753327433773684,-0.008520076039248193,0.009357344818906186,-0.049054568438617295,-0.03804429904311301,0.00797415369599581,-0.05563693595294087,-0.038071317693607984,0.009011218432781293,-0.06381308098650505,-0.040613255269397255,-0.0942056984654444,-0.008379279426932248,-0.042121126400730534,0.025582676586137068,-0.030362554778672675,0.03206380938358812,0.02630862625576662,-0.02402340332347241,0.03684117545239161,-0.003112571715627228,-0.03083359835888186,0.02059435803000939,-0.05424294623849956,-0.00910771892432789,0.062070980410459276,0.011993858705029203,-0.013769747464660621,0.013134889780037493,-0.00041162883463097033,-0.0004792324102897588,0.07354100452234258,-0.05635327987138446,-0.05407753132103807,0.029808861593732635,-0.043468952172055986,-0.029958413991439985,0.033422760117131654,0.0385513575176796,0.0010194124401667437,0.03017099095214835,0.025795884156724642,0.006748656978732389,-0.03322492480243779,-0.039946614188152665,0.05000057548311878,-0.02235667978659512,-0.04916527710745754,0.01946897594868704,-0.004112020829592344,-0.016590512701910778,-0.013739401184943191,0.023578354215586933,0.017448035667650845,-0.013494603230817925,0.012330772098851306,0.07903735619526152,0.0037953751611561394,0.0368295948138631,-0.0008696776144244643,-0.017823632400461944,-0.02264255517713131,0.051858597844579114,0.05317715403254352,-0.04669443026883938,0.05666893060643244,0.018232516195254674,0.04335150662482505,0.022107469439023624,0.02163545418246481,-0.05369199105065381,-0.003646431119524643,0.019312257339899972,-0.019682721331547803,0.022347763555591305,0.010473096298643673,0.028998998511672622,-0.03764377565438094,-0.0047883216070537795,-0.034463358244608534,-0.052120433992179624,0.024209019842944116,0.02465757478833285,0.0018424786345549438,-0.037350322977747014,0.006530783385768624,-0.0493920392184249,-0.05102880327454745,0.011358028681081432,-0.0413195044020471,-0.01070498495123806,-0.024202018059746852,0.005368585294644057,0.06892218412890212,0.021018162269429364,-0.01973026529714089,0.0764821871457254,-0.014005107676838395,0.007254686039163289,-0.018773921419733185,0.05229521185509677,0.03994219496528532,-0.009818414450310857,0.02057501569580525,0.002942964929284171,-0.027789004214153163,0.05008926250641669,-0.11122302362072341,0.05429454887625691,0.00007220020020263066,0.07025099621159155,-0.006676375266915017,0.05053687584504856,-0.026733391994928447,0.038025455505008667,-0.00006183396101278396,-0.08948330882971908,-0.018348123538324403,0.007516062631971872,0.011940660847667924,-0.02297424688879723,0.003812847075834149,0.01214937094165447,0.017594580692581054,-0.03561183149048491,-0.02432163726726845,0.035770503740394304,0.020528153279633313,0.021771114491547696,-0.011682033313156622,0.03518497338101613,0.07272197711762608,-0.08865080242789672,0.04267512379328369,-0.03780782860862771,0.08728485309172568,-0.051090131786820064,-0.050565184422164726,-0.007554540157838534,-0.05065852588213273,0.011730548576735137,-0.050318769561503336,0.04810038010511835,0.00490498932628461,0.031424611438717796,0.0893859302742165,0.0023725475085431664,0.006074836532293584,0.016657972267336892,-0.00703758308797785,-0.010331882274899284,0.07982314104303248,0.011167537124227701,-0.09507516599311487,0.0686664732702192,-0.0070293141083835955,0.012207430807339745,-0.02007030704205874,-0.01708425610234193,-0.018241176727327654,0.009977629852891228,-0.0038171032356064923,0.0447587353309826,-0.048699165571787474,-0.04150266802541303,-0.024602808207074865,-0.08719969675577711,0.020909684177474516,0.034032826713348084,-0.08890738185203428,-0.0022304538099255714,0.03057292024325762,0.04571037241009285,0.031087137090229762,0.031336523245907646,0.03604467290055785,-0.010864387844475963,-0.09020769963020438,-0.0057738997082561905,-0.07932129938918438,-0.019301735954542192,-0.0004622224948345261,0.028832589649493885,0.0559650623604252,-0.056686356078538024,0.05371346980206295,0.005069844334988106,-0.01878003026492287,0.0006920858006228992,-0.03170246572249883,0.02358318595706026,-0.08112282665559706,0.047417489361624605,0.04265705402940527,-0.020109262163507297,0.008158390813836198,-0.01696131312973984,0.03166657802218445,-0.03868203740637975,-0.05310163620507684,0.011911481732424229,0.08491133536872338,0.06524334752521287,0.047467696788764745,-0.008614420381315888,-0.021989192887775552,-0.05889563410983757,-0.06307603826200484,-0.038463236045546294,0.05704136409682128,-0.023872309813432285,-0.004009492883499891,-0.010880383421647974,-0.0556900713209195,-0.06207543675661866,0.006609102617919206,0.11628702092774083,-0.007368985736718303,0.05428526133959075,0.08025166466740154,0.04707679298584232,-0.015628784921526983,0.013419821931407068,0.03157759969380833,-0.02601101557763474,0.01511914605216914,0.003791305214262236,-0.01933168146844144,0.012229317293151751,-0.005311660459029471,-0.019537532296379063,0.014297285782322233,0.06964789301866246,-0.022337969747010397,-0.09067721816892092,0.04027361695408515,0.0007246336447815911,-0.020573174605236447,0.009938176907930859,0.04321694223025733,-0.012955291104647201,-0.07239083259106688,0.022773307667246064,0.003235181060209657,-0.0011194580389210056,-0.01583815794850827,-0.03728877652467896,-0.014893103404057492,0.023801225050207656,-0.004312037074964729,0.004945487657151282,0.010619018532897002,0.008367990502287807,-0.029286986832676897,-0.03212772161690685,-0.03686720100940788,0.01819188190375603,-0.013466358854659825,-0.045895442312921614,0.01873039436960416,0.009277766423924133,-0.0017323074961157169,0.02674093726184031,-0.04262364960865939,0.09115210915676523,-0.006565766433741544,-0.010928146666189556,-0.11892806783280425,-0.025269057645146406,0.038724841881771284,-0.005107906937265896,-0.028382670775957006,0.012257011423455318,-0.0997226999027494,0.07741752095337423,0.07619367037174425,0.030897197021938,-0.05576812371942763,-0.04422879070999636,-0.006032198067688876,0.05814571761268546,-0.01632882259924557,0.04675968594778259,-0.11429788530623886,0.051653616908414156,-0.02300292530135306,-0.020946270370968873,-0.019541858189094343,0.058176780876494125,0.010576205097831571,-0.007647366061311794,-0.0025983435808811916,-0.05164666582415663,-0.06013249551516445,0.011534490398148519,0.031768845276738025,-0.007459341183809226,-0.024228125416515152,0.02789394894851193,0.07513509744411859,0.06205852347854997,-0.01721063752886349,0.10971318356704535,-0.000917738246587826,-0.06896899000850083,-0.035855780485616565,-0.002997812636532223,-0.10206668766640278,-0.06277736801300485,-0.055694898172793716,-0.00020673977701331282,-0.008159528224660555,-0.09149198360558818,-0.021429542567656716,0.022300932136768894,0.05323894364971724,0.0379758309300021,-0.010395402234546549,0.011634596227406667,-0.011361909857699394,-0.05254634667456468,0.05644216975886878,-0.007340778282497472,-0.007437449921283286,0.017476948428187894,0.02417874925980512,0.061582525542517835,-0.027297411872273133,0.023900077348720208,-0.014417045871723452,-0.0038378043762570596,-0.020609161359595424,-0.04521397593366291,0.023100650281254593,-0.014761801197179724,-0.020491266253981913,-0.030142325602800897,0.05678006087544874,-0.03394886804665258,-0.03765994135217316,-0.024540793936236868,-0.08912429781873506,0.0338527765586464,0.021486876225748432,0.034036217607759094,0.032311641231339394,0.0008138229853434268,0.04940632593277547,0.06910470149596898,-0.04547850649534012,0.004387975290262789,-0.014324327049518155,0.03918382778409307,-0.03172210044432636,-0.023855548096792117,0.007969694347642789,0.001154173396316069,0.051563345177089326,-0.010150880023896379,0.019603604115984073,-0.01658654862874114,0.0014302643951374268,-0.009121700230421217,-0.01122627969646858,-0.058026603913965226,-0.028753700333150046,0.03440773456913772,0.02402696383074543,0.039914387908258464,-0.030463105570896203,0.01677231275109739,0.0004957529227732282,-0.021215868675926793,-0.06085377804357414,0.021151705959119124,0.04644530517617967,0.04179060283870513,0.05221068073738602,0.011300048619730788,0.0005818500992347363,0.1924567141105367,-0.04064310969115683,0.030121996495676588,0.0787976197321186,0.001690931312298842,0.023391664826453395,0.05317691135798523,-0.07030931644414992,0.059202045903388296,0.0048987459566100415,-0.008574834632618137,0.03464506954278166,0.06060277395461847,-0.012485516875355176,-0.04239306904161035,-0.0971120030305776,0.030421895030821024,0.0017401302548808377,0.04349262989098155,-0.024973744429095664,0.04569996488251288,0.06494982990130171,-0.004801959808089434,-0.027461042715175795,-0.04330707900023542,0.0043338269910499945,-0.04099956343085036,0.005907356755397636,0.05642176156122114,-0.041175169024971855,-0.0809603394885826,-0.028828028068478867,0.013778304866684203,0.04980946310988265,0.0037350454409939156,-0.0633758780821526,-0.01478725777252289,0.005625187653880555,-0.03134313936898026,0.07912117891569816,-0.035894166734223895,0.0071761706054324845,-0.05977001005817972,0.004598373067086096,0.03707509433993481,-0.003566938233172375,-0.01645156680261115,-0.046422248082055674,0.005450637767089797,0.01156364729861045,-0.0018488309948623666,-0.023851108165502025,-0.016061762490794808,-0.0019905380484301865,-0.003376982375285217,-0.0005969649196898257,-0.016915022170634363,0.026237838331605846,-0.053234880607082355,0.05556332215105826,-0.013961570312687918,-0.029005317364282742,0.07095304801510134,-0.011759757213027891,-0.0029054329629539626,0.02186496565315927,-0.06863666729136855,0.01104550830688945,-0.005373739332987601,-0.05214934428997019,0.009478267390013787,0.032026067788547594,-0.048044106664814464,0.002539706088381289,-0.027323316109320463,-0.024325408877587853,-0.027613372499753756,-0.014322611510036233,-0.015149280289790762,-0.0049569035331972185,0.0415260559944995,0.008781100713349562,0.03484978774229926,0.09328394713764732,0.04466637730265153,-0.037403852063776284,0.00046163584109298146,-0.008220254106566417,-0.006373711251784782,-0.01395403925718369,-0.015586346621610746,0.049431709107494885,-0.047066820113827776,0.05111181842572647,-0.0022715376992413334,-0.025431382133181357,0.0213498886514027,0.04006556715026634,0.007537142367733768,-0.014994496136626352,-0.020671942178786804,0.005696960248151136,0.019883497325043884,0.053289607970478194,0.003747636522742143,0.12403187766611039,0.03062707539752644,0.03138797996247455,0.04686781873023947,-0.026764756840997325,0.06460165206050061,0.03723883106283851,-0.0397913082379835,-0.043998145638542104,-0.0020701638185399666,-0.06649355654783476,0.0033134639187940413,0.037692572242074354,0.011484739820904,-0.032905971486522835,-0.02540845223164912,-0.03681635748291176,0.04490482951917301,0.007943114111253013,0.027811778443843936,0.0003377981481408576,-0.009439591251745049,0.011628222302575847,0.0076322076805772085,0.0132211450282104,0.004125166940953356,-0.004560347348686857,-0.016434833238750234,0.007319012043891784,-0.029146185762472677,-0.009594491904149939,-0.05042203564006158,0.03146516855698313,0.008212648613037258,0.00043564151245560753,0.001020994191813949,0.010793532257001867,0.029285559044019728,0.03015780222662613,0.01584896485951343,-0.008282181706600788,0.009229314997480198,0.0053829971199891614,-0.002407873063807916,0.03789504922335373,-0.062168703548873265,-0.0013537818701034755,-0.011054952740630944,-0.02322376169479815,-0.008145951933607055,0.023798802462604907,-0.021721692069832464,0.01982380638173454,0.04078017773666056,0.034172662249139875,-0.0008301412360653752,-0.03245928133414816,0.024347995500389723,-0.01965773063666715,0.013124111606059736,-0.0006256482094190348,0.020960886330061847,0.02115798587382531,-0.010412599792037474,-0.00043269623105666327,0.035205645502675124,-0.010518820078147462,-0.010565132664825139,0.020515382196509585,-0.04665407763329974,0.013113448843774663,0.013693852240038752,-0.03966775650031039,0.013106010286074466,0.010813510900998418,-0.0006946927066218348,0.01474158914627851,0.005667789829663099,0.025845974517364003,0.02874663135651442,-0.01585330040939993,-0.02113032352578564,-0.007303980778535954,-0.014311012069352928,-0.02987751126853543,0.01535337886175812,-0.009596134566023594,0.0064764915260029044,-0.031917481261986805,0.004888770316239062,-0.02910982548083585,0.010754284404588184,-0.01923620885243179,-0.012847887607186685,-0.02741956150005805,-0.010727841011166315,-0.015158961079122494,-0.02196813467428294,0.0175114409572574,-0.009557724357369306,-0.0048839052525421495,-0.01815496376356081,-0.023902888327395632,-0.015369421804123505,-0.018994471441114054,-0.010483369006815511,-0.0021292146602578266,0.0018562226423067228,0.012317118342006883,-0.05173047451530274,0.025049757315948985,-0.021141890190954808,0.013300210477963753,0.016075132884925958,-0.010412533887831577,0.001205439671514967,-0.0044945311408027665,-0.0028587960776789534,-0.02817053363626127,0.008072026186690949,0.12387931140318716,0.029899346946630132,0.10172785222543138,-0.032356236414569146,0.03284796927376481,-0.021933258975891195,0.026240133933089736,0.03239521434638427,0.0511555456053073,-0.015346461862036816,-0.09477568464399491,0.03405799621836784,0.04719470043417887,0.03566641004007522,0.03387439342231994,0.036576339226970705,-0.029550248088164314,-0.014849867727741625,-0.049726911711170156,-0.030737030898445563,-0.03562155469584376,0.026766535562784233,0.06933778754584718,-0.0006539850334300021,-0.07966174027479132,0.013212205820130623,-0.10506432012402868,-0.00015459402375556813,0.007603571953322829,0.0117855053483107,0.03840035659664152,-0.0634322243972809,0.01568576894157882,-0.008170232216656258,0.05661911500601005,-0.1205846986391739,-0.029606336514527275,0.09796622388732314,-0.03883910918066198,0.0007714529407536491,-0.025677825940324122,0.014463427097760783,-0.006033739197748691,0.03331612771342014,0.08110191390523548,0.021626420772442895,0.011399032638496088,-0.029270449362875747,-0.05022815093982887,-0.0405904641610452,-0.04210841460164231,-0.05385839302000101,-0.015475502134302611,-0.02020262570179675,-0.01876541852489109,0.056117829480520805,0.041772640036169276,-0.014946774775936787,0.01868890578932659,0.031296646148180604,0.053184113685403295,0.003499952540712792,-0.044139281151302334,-0.05005289131239165,-0.027769385863689065,-0.0643275227488848,0.009311846751830492,0.034289991989272114,0.011321350970408517,-0.02802954266887273,-0.018615055612586327,0.03344967449133555,0.010544461094885275,0.00944533262710826,0.018126170713936168,-0.003186756877226705,0.0460135816757307,-0.05462617504999502,-0.0618434213172969,0.05362340335200298,0.04153530018684446,-0.10656439515122403,0.011434758703414935,-0.027338971993073977,0.060259075680119116,0.011831079101466462,0.022273891162897956,0.01643647458516948,-0.04039844176195411,-0.022657383498447106,0.040352830183873326,0.018408552404607086,0.00384500299455474,0.01565590298086366,0.032036074962503706,0.03932411638827509,0.05579565914982925,-0.013304413408631421,-0.002668043188513874,-0.00670185194401949,0.04422324376710682,-0.003667122707413329,0.0360506537608832,0.12136318077725222,-0.011066352997278935,0.11824106468996419,-0.00025252462735933577,0.11592103472915873,0.061125822328986466,-0.09255062305629162,-0.1171597491843293,-0.062109258024244995,-0.0670221670064383,0.06555254711689901,0.02253382767035557,0.05035600611600021,0.08922299563586954,-0.020605441212100423,0.07695867429086173,-0.12162598358113103,0.023161114303013958,0.018228156560128737,0.060818945774483595,0.06585317492766618,0.10332510406191153,8.549246875785528,-4072.6368706812723,1.1938833618273816,2295.680143890871,0.0137927530656483,-0.20460510159323722,-11870.880195671029,44240.78207253166,-3.616270248063886,-34712.57336772226,-0.5196097436588573,0.02884911878817691,0.05595309953334006,0.24105570653648253,-1.3298285999355508,-367.25388962735104,-4.728987352131055,-53234.60882251607,12585.349469394037,2.3254458053822,287.91363436930965,13.65289216816794,2.1425503371721444,-17.601676447484557,-246.8672053793626,1596.367266385936,7.6866810487493735,2063.862346235895,17330.298592881783,-19.848583033481912,-1521.9717840817075,-0.0659244680019924,1.469897242763074,-6.499864638248709,129.56153233536622,-125.42788861518622,-0.05707071095192087,-834.9729879055328,-1449.073440642936,-23.590179188993112,-1.3722109272352971,-330.05460537734996,6179.473295567938,-17196.015374266128,-3278.5291879189676,-9226.738574773484,-3474.900333035283,1921.465670470764,-4.904476017422907,-23.441231177395963,-30960.323374118034,1875.8203110360932,-87.59983539723416,1.616667084291161,-1230.9450648442883,152.93634170467604,929.8889829999908,-166.4573869753133,-1344.4995246051205,4.673725348413666,1.5794462778561502,-116.51324922109922,-0.1519073338919366,-0.024129566624536542,15089.562836509587,1016.3056155892587,13.710099174076081,0.006845894065356613,10.78100428628454,0.7781352700081695,18.197795302434734,-3.0451672450685567,1104.6625623520945,1182.8341144077383,3.176428758807775,-0.012752901186541859,-22.072519853156248,-827.4620100155466,-189.1047511935087,0.04821489196993597,-669.95176466577,-0.003370933709673946,-568.4983152265745,-110.11540692223447,0.7982869187117172,0.027786374307231347,-0.029808527427686304,6.891816932326412,0.5931744092091019,-0.19469785536174714,-0.28033707638212507,0.7162372784459032,-0.058316723162205854,-28.01136472967308,63.2460129938617,-4506.057522412776,0.2212721311451198,1160.5444793778925,3575.913898646579,852.6840852642554,-1696.1817364843203,0.02588116517551139,-919.459899267437,9.864854962233222,-335.06944841312736,0.22788483485218836,-0.4829295277276173,874.1429028231483,-4.710890399085003,-2137.807475491577,-0.18391651044503118,-5.949174512098016,0.8349327846891812,4777.702218026222,0.12040611885889084,0.07211458805547753,-0.04722618305537406,0.09571173916061707,0.005934236058377642,0.06205520861859707,-0.11156889757949066,-0.0764350416564109,0.10617546911858833,-0.04788706523084416,0.056445289285107066,-0.12097449331338278,0.06367273904419277,0.006849660397019488,-0.02020992493228468,-0.10621532142152351,0.09872425570057382,0.025127440432582204,-0.04453467411283932,0.0002281078585051764,-0.09404439707673912,-0.009727753333080822,-0.03893076853473505,3.6632711914564253,0.45556371178878236,-1.8486499069526496,-0.45359629681556574,0.07353600504848902,-11.677305226724632,923.9920339226555,52987.40378506519,-1412.4905377973982,-1.0879094779468212,23784.960739541704,-0.07449134716562975,0.011164833538686582,-0.49227637682011555,2208.5329687394246,-2020.3641784053893,54.074531016775694,0.07369740562220702,2001.7723818215964,-0.015084083336890765,6533.115533918431,-656.5991706910119,0.9832060793524171,-87.34886936882654,927.8138174601228,-443.5435136214805,6426.826203158164,4920.442575384849,28338.543776422197,-4362.050315965957,2438.8455335450117,-13.240542874357487,0.3303849906181716,157.62542876872328,-482.7836894552506,-0.9202207925490713,-0.3633336152019261,-90.21090513233152,0.8446345084791718,0.15007262616196762,1.8154463067938236,3619.978371262768,18385.574582215322,3771.9703302890302,3083.6519169951844,-36212.32846457949,19782.51485950923,-0.524479542192946,-0.03386635930364649,-11250.244623905974,0.4865062633449836,-12263.097098643195,1.4807753991016686,11.895191075269485,813.5694640336092,0.3354642952254081,-120.66690404302545,-10.867247461597461,-0.5903991326270185,-0.9528371620999494,-267.6466742367151,9462.193036877206,-136.12486342235263,-54.71100784663179,-4919.314316079725,14.810671479398032,29.037547358632455,-1.293018010518306,-1.4556228020690418,-0.20581393428928035,8.966731548805438,1746.9924754176968,796.086232783686,446.6490128271066,2697.1778295776844,-0.2989200228497211,1274.6942744027883,-6.623739359768676,12.190410988447269,4.145009020837974,-1.4051903276720759,-1.2360299088028817,-922.9760946823358,-3.469485379699327,-0.910729464380981,-0.6981322902860572,-0.6181380655245541,2.378306720497084,-1421.220876079506,-21.6275135712001,1000.9329547879736,-0.8717877023037329,-1.699087856525386,-0.6691185408325391,-5.596567320983967,106.13684339878215,0.20472483013945933,21.689227529744205,-3796.215155433658,1350.5814713624804,-0.32830664946035626,-3.6244352077340594,0.4102319863166942,44.42522985695314,-1177.6021328415202,-1.2547366632763388,-12.607905755785966,6.492996902243526,-6.435613893311241,425.7505865458289,-1.0027212849769527,-7.126277174405229,4.652400343262575,-1.2814390917022291,0.05150837080837551,0.09027755459537318,0.11477069183781478,-0.06624762595618108,-0.047761541502995074,-0.03689822621977751,-0.01748677097262531,0.11529571788368347,0.06836604480997031,0.02854872955218972,0.0756091810804893,-0.05743785113554769,-0.06702510629554065,0.02946202891620982,0.11708501386434697,-0.05339584378218405,-0.041554947059115194,-0.016176389051614132,0.0744705072188046,-0.024819974215429745,-0.013231287465066539,0.09853698766094383,-0.020554940067459435,-4454.191188316616,-66.81203518354847,53317.69176590806,5590.218957007052,0.06681873175774343,-0.5222124741743452,-3.021296458338027,0.07504907074743403,-21.403824436827712,-13903.153762511234,-0.7272286166754616,-0.09741752675293394,0.0831307797971618,-0.09460381296799668,-0.6621304175497268,12.898165654974784,13.601498171129135,0.5527841352110449,3875.0419179873365,48.28876388552759,-4688.321187478208,0.09397838924424527,-5884.02340439465,-0.5985634006617726,-13912.17936958867,-0.2822571611197547,0.574817488157629,-0.1351276477365481,34673.87627968559,-21.64734543909979,1.8618413955801851,34.88646626284977,-444.74107135219384,-0.42248630151078015,0.0707051399099245,31099.03123635173,406.76973861479655,-1152.3726427870529,5432.203836000599,5370.828728897193,4405.635563584634,0.008190633503883037,6223.623732939513,3653.381675329518,1269.7077956414148,609.6032196670461,20563.26434301616,-23421.090414681745,-0.26494016618337046,3.1146300219015215,3760.446315526002,-48.1444233741906,-41520.13186451285,0.8537363125692845,14.186065679712504,-0.7130537951953752,-1720.2086481490223,-1793.0453492494437,0.4082608530356896,-0.27793091019242266,791.2286518876922,-884.1255400370469,0.3382524171790319,-0.9131701410004516,-7684.736340550397,-0.4304150936918473,3.532513974144754,-1835.6731800124767,-0.32396894288083217,11.647427369378763,-0.34510384224100504,-0.44315809024756214,102.61111771475926,-920.9105443432143,-1094.2620625438149,-0.14502914041584708,27.309341736624074,-0.3731494417944884,-0.3142308068259059,-0.01605882273868027,-17.743709319382656,5.7926545517328,-0.19704922007284026,-0.11420718784681354,0.9856185469546546,-0.1947706393982495,-0.032478105354730884,1.9230643660848301,-2128.2758351894377,0.31116696315333525,-0.07578688196693564,-72.122962731668,6.086510662648584,61.51982219045783,-0.7817978689680325,-1.40437552918028,-0.055818713416887406,-1171.713596149294,3206.674625097897,673.6086598302535,-3.735685474138968,-0.19130433757442636,-1.798010126585843,-9.376903648046369,-6092.894267324349,0.007899045069210917,-7.762577209707925,-0.25440771547250246,-0.06576022857260581,3489.156138355876,-0.1879106328916826,10.754326765806981,0.46136318800680015,-1653.8404234751083,-0.0060766404763554095,0.04553427000015033,0.06723038373588805,0.0913822942184258,0.010625502024620216,0.08542682578811532,0.11461374488809097,-0.02769677404085223,-0.046608555829246105,-0.03381621387560957,-0.05165887356225951,0.08403087901960242,-0.010759941940432985,0.06795984175478938,-0.031880757074405956,-0.004735017647413316,0.08445642132328202,0.05210865787458134,0.015019431625135455,-0.1129891653217624,0.09832753524802927,-0.09958588755850704,-0.018059694508581504,5.945879884356294,-107.58994571180064,-2.826388114144614,0.35995897376502894,-0.019944725321113233,-0.3083207993237279,-0.12645885634854878,21665.476180775877,-7006.179049448765,-3.5778109013686863,0.003919238454194593,0.06396865860858804,0.10246077588697272,-0.17975978007704724,-1024.8163396278467,5460.427383894957,-2187.1897747637177,1.4149913324658518,4609.998083393974,4698.901682102962,-7.309815915909311,1446.3942458821807,11417.256097314628,-41.889988727520866,38.43318567533525,0.07006932454055399,-5653.1365149877065,19026.49881633322,23023.098241571282,50.44658659309439,-6.268479042376731,153.14057681349624,-4116.444141793352,19.40677172940468,-3.46370170568529,592.875367189603,3.9793050100503096,50037.973087867475,-35650.035455368234,3646.2456412170814,-4137.610565468496,-1.3218136892613153,-717.9189321856637,1223.646001799687,1020.7714973732933,-36412.92280451059,12476.622017504085,11378.108092179022,557.3422378875842,-3584.526148093263,-107.5570833690486,-5424.030092368306,-295.8568961313116,-75741.5818906377,2850.4943411246504,-171.32563249896913,-17376.29392383244,-0.1550176785445741,-2.24126558860372,-0.20753815099752063,-29.808521407891984,11.694744529153633,-1.136448464476164,-0.7397003605808381,-15746.947923772357,0.06503466634265001,-7595.3492195016215,0.28678482286651064,-3077.977317334083,-0.0894639127944236,-0.3320526664186339,-0.14926151396235393,-9052.927517896527,-0.1077859986361291,0.040331523330476335,-3218.013021735648,2534.0285426287423,-3231.32162192203,-8361.288452253273,-0.022132148203322714,-3.191556914981058,-0.4439098480573709,-14.336354199835394,-4.088256152611601,-0.2900742812571132,0.08683940149834574,0.05029307785931444,-0.14924077599984195,-0.2631428766219453,-3.069654378057421,138.55795420546036,-3.403500795382214,-57.59003608497133,-12.281526782604411,-5.830113408787396,-17152.35342344725,8.638578251853248,0.07936762122242312,-2186.1999972970875,-3125.6914427793745,-341.36669323771235,0.019747298314577083,-19.64896767661587,314.05980187703545,-10708.917507834187,322.44705854095315,2.101056350047871,-999.0603791418449,-7.422356967416136,-2998.5595479119443,-2.1880511967641194,-3.6714076514080265,-0.11398334075815482,36.16579785743301,0.03131473223295587,0.006772538123531522,0.05056188667609828,0.11527636303132563,0.022774044628765824,-0.10266784080084539,-0.04278098108878827,-0.05398514043959539,0.10624243938924109,-0.09976487001882256,0.027821663487028622,0.016464403121620615,0.0214197716223441,0.03698927355901656,-0.08216514034587938,-0.10227765367712867,-0.08681542744592773,0.0514079755531249,-0.04230588482149108,-0.05295226859872628,-0.08206730221130755,0.09124959976922514,-0.034577313210773966,-16.40804863295519,-34.167495675801675,4742.138702303677,0.6328443354677343,-0.10338964432798345,-4.127529542462775,11678.713966989215,-15274.817258412942,-33430.80404046281,0.30297641426736066,24.032368211095054,0.05506690185674637,-0.11241025887036502,-0.6303232817983425,278.4133387709526,2423.1722275727407,6.006538321964062,-1.2747403182013854,-2558.063088512382,-0.20863026917309868,232.15915404914014,-44.67091104589531,3.3163516913893023,3.173319522397736,-6684.839680669589,-2670.376125886821,-0.0683978646892508,15985.293498976727,-29412.53147870619,-2.762633445701188,-478.35601235907916,122.20570007492177,2943.244960651868,-46.88081319300688,-10.519092679905793,4046.604650041094,-0.1380287422907031,-1.735421185431135,631.6282498937668,230.28619131767135,-0.5059751293023094,0.3846468344094026,7894.4492114264485,-26477.851332171504,2083.1089438604204,-7252.901478900346,2676.335419422509,-2547.112647006203,-6.802597140025424,2057.0338370443596,1292.7255077066218,223.01204923790462,-0.68342904665435,-2.131957159085533,-29444.604323783864,290.29338944015154,-81.94661406028644,588.7762301472644,-98.23917455776666,-735.2515714090142,-301.1282166745396,-907.7799600931402,-2.0738516435558894,-11.306934398243,8.801312706106915,-3.171492914254315,6.4828278389494765,0.39975032937740845,12.249175054832198,-2.2409868428924122,-0.754415206523222,-1797.1934083059032,528.7591305928619,-1.9593366754303627,-141.848553273902,-0.7222467757943111,1.6773439472081815,1417.9775858602834,-5.591484167490396,-3.011363086513124,-5.510772530632804,-1.7631237458485027,-3.436853523008073,-18.88983073917223,-11.22121156738015,-3.3706379185034105,-0.4937719235978843,0.03518235414365781,-2.7889747047268605,-3.2755515997123923,203.8491404115229,29.20107053425853,-0.35699667572655563,18.274732106966542,-2.8502378378573554,1.22096301005914,-7.766608645939752,2571.6876853960266,-4756.837138562022,-1703.2728315189167,-84.09185178328465,-8.168655422616759,-1.4350391196225545,-0.15202844110564245,4.441169705793833,0.04183657470103686,-56.11015187689211,-2177.8774006961185,75.6637566795703,0.8885041812804813,-11.01115053084536,-57.84865130172368,194.59759238108282,57.62809179567523,-0.08563247103439686,0.010046657963169829,0.045865653668330855,0.11800843297089868,-0.07680801203508926,0.0986196169427374,-0.006400230357185952,-0.008728212720752837,0.08089451281359189,0.09146131710554996,-0.10590997914557142,0.05496925414808586,-0.05454172004998329,-0.09057273240273812,0.024522640550463885,0.03096689612512008,0.01583088250713902,0.04615365743683504,0.08858791034534665,-0.00420952377221413,-0.04820679865106843,0.048235321836869356,0.007971714503212853,68.27507560899735,12722.077026653624,-23555.453184228667,0.23320809252655467,0.008687510467972195,9382.213013392055,-1410.3767781228703,1244.9719595616368,-93132.52173440505,-31884.547691096734,-0.018589076028098093,0.06911660736476015,-0.08218843126416153,32.51851229680588,-1.7192749039970565,94.6366538551273,40.31443600700264,-19.70865585707348,0.4505724107158133,1343.0418798842131,2.2302220664414176,4.009646780583325,3929.878082130546,-1345.3772398820972,-9.097099091204491,-3599.4181085742525,10.150808142729186,0.7070037219051339,13748.032708724892,4357.940656348718,-49.95591491771808,52.69383771383194,-9219.767671314803,3383.208866262618,23.753624454589474,98.97025222134363,-0.13603420550979878,34.75939005006761,-6962.089119010108,-10.812170689362045,17440.97833690495,2287.2751217026844,-2375.8552515922256,-13541.507789455864,-12762.433303247297,-18345.664566147814,31403.74349459017,3668.002724577551,6048.840368514168,-13035.068720706677,259.54821978025166,-1.291368158601315,-0.13857443898410346,-1.4164164675564321,2.884322261908653,-67531.72435559974,14.094013745248924,5102.577355060715,1610.6081516747126,-13.647602858451776,-45.76985558388969,276.7919815265063,-0.2530253319978488,-2673.8557157567802,934.3115801865847,-0.242702917083386,0.006650867444638215,-230.40638462477372,519.6202974942292,5.505885290590289,4.435673969355203,-0.12992329296761398,684.2662943288121,-0.5315605769542241,-0.6764202106357727,-75.27392297514147,-0.9023052263245465,2161.550374250999,-1007.1672198959122,-0.09019204741078853,-1.3907116744786863,-15.024678498168239,2.697967463834007,9.36562011971731,-791.2274999273624,-1681.9721716399192,42.255250431976236,-0.5032613605115062,-0.5817670354681248,42.038487713051545,16.52432148041848,-11.048485513291178,663.4346718451652,-0.39814546835714826,0.5987884269016048,-0.18844357123300934,5.862012510759725,1828.879961255886,-0.2610361443860987,-3164.3170586397296,1428.9638122774104,1885.6529135788921,3648.5223122493308,93.81892065371721,0.24510262749932604,-2.5747711017524084,1456.8495996765403,1242.4812650926092,2030.6040837509743,-216.80924925628702,-1.4625092388274297,1.0507026677020246,9.97596838841104,2707.0648029367962,-0.03592444603799236,-0.03777498838651599,0.09639034944923476,0.0852976682437057,0.07424817936243538,0.004918115473289432,0.060216832890389455,-0.05668655727496934,-0.08405460041631095,0.017952997601952392,-0.0817240829442729,0.05172790464697002,0.051565027653616265,-0.04175695995384876,0.022219531037764445,0.04932016623198167,-0.06374812482541134,-0.010167781639735604,0.053986024564541664,-0.0688105886412131,-0.09801908928587859,-0.052405753655052484,0.01904622038619975,17590.4145572263,17159.181798296922,-51017.33245176759,0.7563480617962943,0.0017317620590109031,-43599.40985271949,-4.70936277232692,-0.18390583628712107,0.9826624175201979,-0.1743833698308067,0.6641399596789069,-0.012779695597349266,0.057413549830663116,-0.16320244229680927,-1.7545134378593807,0.011746538351372288,0.5825087863372703,-3.974911349851039,333.4953684808373,-2.7269140231412785,3.1115530485843537,-4.813189287271706,-2615.562658240877,-56.753489751632046,6854.760471783841,9.840361276373754,3202.5068786012675,2098.54158978733,-27634.20849190699,-1.7123313474785342,-0.02240028051752354,48.85889525355504,-0.026753809988969562,0.889550126194094,-1.1753725760956766,-0.18125432846462955,1.544472710652347,22772.660810223657,-50573.619654778275,-2130.2103045091203,6817.757115120246,1.876470627544428,-9279.235887653096,-0.22979503258518705,1839.9791415599202,-202.99188966117123,-10684.504090160615,-6772.649264472003,7642.56716700822,-2.1325104434182136,-312.2989877786566,3856.9677238543136,-2946.420314728544,-0.36648191005896014,6.041883532892646,-1793.9117399971913,-40042.97981071646,599.4096671205849,-13.004662873680505,-7.833649127761502,-2.224197321334322,-13657.293746792191,-0.021159464928628063,-0.8780751758732571,-1443.23357988387,-5013.49786414803,660.392520886608,3.959135517017628,373.28539766241107,-0.2116864929504898,5.026338097891292,-3740.499257959292,568.6679327158322,-2282.4321431800195,7.830183968074807,-0.1197892263080834,-0.19129877960956346,-0.76755771335882,0.22539227972258058,-0.5745660333811597,-1.8984931493884993,0.02955484549169129,-1.3047058555525035,0.3608133301180605,-6.168112913607437,-2.3705384803890346,-107.64645927061306,-356.2818093125804,-0.6862647373906202,-0.284339832171776,-0.7647273424830714,-123.66144088058189,-0.8267761643761553,-0.7827443655189535,16.64573361896074,393.6525559190154,-8.87760308667455,168.1687463970115,-5359.133901786423,-5171.63219509151,-297.22486703293606,-0.16077549794971926,-26.666089362444577,-62.04441381079005,-522.983375854165,