encog,BasicNetwork,java,3.0.1,1,1322690882715
[BASIC]
[BASIC:PARAMS]
[BASIC:NETWORK]
beginTraining=0
connectionLimit=0
contextTargetOffset=0,174,0
contextTargetSize=0,100,0
endTraining=2
hasContext=t
inputCount=36
layerCounts=36,101,137
layerFeedCounts=36,100,36
layerContextCount=0,0,100
layerIndex=0,36,137
output=0.11074278220113873,-0.020011703405569386,-0.037765198314293896,-0.05790660765596678,0.03427862096639231,0.032882965394373506,0.012636290762114408,0.03017119240487881,-0.02638395710672316,0.0371974308283357,-0.018496273068326363,0.03305380905332374,-0.008334365955540823,-0.05276163210123342,0.02820182985859672,0.01034995216583726,0.010697306666511912,-0.02449334962980516,-0.05644563238339475,0.021341094737045957,0.02838136935983637,0.17333799503519393,0.03745373074573856,0.8655405857786441,0.033342959865425965,-0.025131843906087956,-0.022137628426934407,-0.03235813995692019,-0.01561880370945272,-0.02391322225100651,-0.032209011403987936,-0.0002820526115374228,-0.001218056510125319,0.04356212334329176,0.020975730240012716,-0.07610287938422329,0.2880826998067313,0.0001931199471488052,0.06663693120897714,0.023937241979979696,0.6077573686875982,0.0495454886964469,0.0001527645758295152,0.06815584986382031,0.3046610851659269,0.22835207641576674,0.08444271846400538,0.0013280417202969949,0.0011883885360009323,0.4218993007245385,0.025300061318386455,0.16747040542254424,0.024076751444041818,0.1104506725457292,0.13540453455786067,0.00000000159051496886,0.01817218574498811,0.012662607458792888,0.012114631361231445,0.1312487095807702,0.015331402390757603,0.04506610373117197,0.04834226569441292,0.00000935674633411129,0.0000000143138525869,0.025477729520865775,0.00019520568369177832,0.06820725196546719,0.04472230673519735,0.0031878672496853055,0.028553816867511322,0.0037355394558669847,0.17473924522533069,0.011316844989649216,0.011937337255372266,0.1513064755673663,0.07436783206061681,0.10435388928555168,0.0010529775563728556,0.38527473204671886,0.001102345855563996,0.17991413008499227,0.00000002389851402049,0.15093394613195873,0.00005553451298849302,0.00000051256302615339,0.01229531457228195,0.011955057641677001,0.00000005156381200229,0.00001618082057603285,0.27367621906090905,0.019499478635699348,0.00000002368476383231,0.05045082241391894,0.012013521187524332,0.00000000537071408303,0.0013673566284084747,0.2440995034171498,0.24954834869607825,0.0022161633781438506,0.04091986510856749,0.025460357454782617,0.00000002670686360291,0.00003527208421524984,0.00001390295289430937,0.005506886115390764,0.05428542222651768,0.004734968244366442,0.00538290983846543,0.0007613755863128638,0.00000000427482725874,0.37964890411931757,0.0010945197925609242,0.00006620437033594072,0.014234047892861033,0.017243951264050518,0.008190795079847631,0.00002197229161585499,0.13334096543376484,0.0015392886560437681,0.0013411350734409532,0.08507032799608427,0.0006769441090691426,0.01314133972953298,0.0314855601496443,0.27078999333241066,0.00851871283519185,0.0015736326202449255,0.1389454636802181,0.1194012050016912,0.3583363541151868,0.006218633962408046,0.00000000000004695422,0.0008689135497913289,0.045979567318271415,0.00000000031815534738,1,0,0,0,0,0,0,0,0,0,0,0,0,0,0,0,0,0,0,0,0,0,1,0,0,0,0,0,0,0,0,0,0,0,0,0,0,1,0.11074278220113873,-0.020011703405569386,-0.037765198314293896,-0.05790660765596678,0.03427862096639231,0.032882965394373506,0.012636290762114408,0.03017119240487881,-0.02638395710672316,0.0371974308283357,-0.018496273068326363,0.03305380905332374,-0.008334365955540823,-0.05276163210123342,0.02820182985859672,0.01034995216583726,0.010697306666511912,-0.02449334962980516,-0.05644563238339475,0.021341094737045957,0.02838136935983637,0.17333799503519393,0.03745373074573856,0.8655405857786441,0.033342959865425965,-0.025131843906087956,-0.022137628426934407,-0.03235813995692019,-0.01561880370945272,-0.02391322225100651,-0.032209011403987936,-0.0002820526115374228,-0.001218056510125319,0.04356212334329176,0.020975730240012716,-0.07610287938422329,0.2880826998067313,0.0001931199471488052,0.06663693120897714,0.023937241979979696,0.6077573686875982,0.0495454886964469,0.0001527645758295152,0.06815584986382031,0.3046610851659269,0.22835207641576674,0.08444271846400538,0.0013280417202969949,0.0011883885360009323,0.4218993007245385,0.025300061318386455,0.16747040542254424,0.024076751444041818,0.1104506725457292,0.13540453455786067,0.00000000159051496886,0.01817218574498811,0.012662607458792888,0.012114631361231445,0.1312487095807702,0.015331402390757603,0.04506610373117197,0.04834226569441292,0.00000935674633411129,0.0000000143138525869,0.025477729520865775,0.00019520568369177832,0.06820725196546719,0.04472230673519735,0.0031878672496853055,0.028553816867511322,0.0037355394558669847,0.17473924522533069,0.011316844989649216,0.011937337255372266,0.1513064755673663,0.07436783206061681,0.10435388928555168,0.0010529775563728556,0.38527473204671886,0.001102345855563996,0.17991413008499227,0.00000002389851402049,0.15093394613195873,0.00005553451298849302,0.00000051256302615339,0.01229531457228195,0.011955057641677001,0.00000005156381200229,0.00001618082057603285,0.27367621906090905,0.019499478635699348,0.00000002368476383231,0.05045082241391894,0.012013521187524332,0.00000000537071408303,0.0013673566284084747,0.2440995034171498,0.24954834869607825,0.0022161633781438506
outputCount=36
weightIndex=0,3636,17336
weights=0.07689162216209387,0.10202390027928014,-0.06470161577220154,-0.0037663500731053793,0.0320117983734792,0.07372883338844045,0.06914120025808848,0.010340570673297174,-0.005127125257268819,-0.1028144761750111,-0.10962959832847005,-0.041456436548160856,-0.1276905558589468,-0.0447062662306628,-0.0765946822036999,0.05795370257924712,-0.07386330467481075,-0.0002845003817931249,0.04995947385924185,0.12521310628327412,-0.0989581677953851,-0.0811028574374744,0.09098517708117422,0.004186100973418891,0.09239427471667543,0.031240734213103655,-0.022443878030291905,0.09723366266889094,-0.04895019769441979,-0.16733233463762928,0.1078540387563365,-0.017778976173057428,-0.07539899161558325,0.09536941220065472,-0.07039032480201404,-0.1029435708359071,0.12738856005691718,-0.11012208637057255,0.10641328502188205,0.0880595813262168,0.011929446675434987,-0.04496015572576468,-0.03077395552036801,0.036390557954244396,0.13481415993748058,0.05273561312118909,0.041430451387045875,-0.0839422375642801,0.09748233887636149,0.14288009471373475,-0.17475862926216962,0.0729544884223739,-0.03920795565539747,-0.02876479424518081,0.06665596667237025,-0.07119944060887713,-0.021098319560056058,0.007239919962257792,-0.02519973737555881,0.028323966678146573,0.16298721739045652,-0.12570506696883102,-0.04266420392516138,0.051954775033161926,-0.14733371963998068,0.10384330559913145,0.024588274766454518,0.047256424792236525,0.1223933066246797,0.0559755330806694,0.05417438051482179,0.021637700291324703,0.09769338825188631,-0.06675049807531463,-0.03858882215693495,-0.08494191617369354,-0.03759274747297424,0.029683000261755983,0.02977427203589061,0.042751983244980404,0.014587397710446214,0.08068248056626409,0.09966150683280035,-0.07101275926729886,0.0013971958791510525,-0.15051453479997026,0.02285050760228141,0.15807063672088506,0.02730913558383635,-0.00799535190669839,-0.1431741017585604,0.163316416201267,0.04975122141551701,0.08970262701363015,0.15938710224077632,0.10406745388022953,0.009559062117442504,-0.08168428584199566,-0.07776179529732606,-0.013382434938599783,0.06135385052514497,-0.11852681475274533,-0.1131304000026073,0.07602875805114946,-0.06177778965288533,0.0008686952395485728,0.09503590069920823,-0.0795625133510935,0.06291904821191253,-0.06300338266098071,0.10329406938389231,-0.02719206708771971,0.05340341471508782,0.0562359002309525,0.028275798158632008,0.049806111715001045,0.04164097985141822,-0.12960477714418056,0.13029984943923412,-0.07583602147566942,0.09407980601988103,0.05471729320458864,0.14337026092983612,0.02383996008153911,-0.03240610621120879,0.09843920383969951,0.0672920320563822,-0.048281357134689146,0.13696969869983533,0.012506773545193032,-0.11228826087014154,0.1220331719347149,0.08707349650771296,-0.08130145741735995,-0.018161193136642627,-0.04524085004857088,0.057245387985761446,-0.07637910230850295,-0.011454944958541328,-0.06544026488473144,-0.07839576722999067,-0.10561009163444152,0.056718406187934056,-0.05841416336467218,0.04814523904065056,0.14242657170898643,0.05698313999940774,-0.06229669407793762,-0.09830009089044536,-0.06691522946989681,0.11863673512953413,-0.11550642915707368,-0.08199421830466636,0.0019026713661792153,0.0031904783611330055,-0.0899169401370552,0.010074264578639826,-0.09019658027071172,0.09376577311051622,-0.06282186325489778,0.014693574829243116,-0.03193759256195626,-0.015659512063248976,0.04063739095249002,0.13542236355577597,-0.13342904694614993,0.01888179594265959,0.05589165272017045,0.022259041875840532,-0.09211460516818272,-0.08744194488544138,-0.06908034811956328,-0.04549114644298333,-0.09777607174502043,0.1281169540383219,0.023456164530974457,-0.006363459368227938,0.07239570153861834,0.10516460235602021,0.03735298377113356,0.024393153615794718,0.003915160195824478,-0.07417748530868626,0.0313626307973696,0.050755796459643544,-0.13429657159168573,0.07604799901401121,-0.08694058944445052,0.09520072354384954,-0.05682165348656518,0.0959932212984878,-0.01936813973718188,-0.011675740934893836,0.11802157303412185,-0.02533921313347297,-0.14084874897327965,-0.0848599936764475,0.017727070723481023,-0.047726230035095615,-0.10927835442630707,0.004416049407797868,0.026660987472912723,-0.09130682613106672,0.09913958536845716,-0.054548448246416484,0.04965010513365356,-0.12273727911016082,0.03315575498405372,-0.020993553539731327,0.019347994479080585,-0.08107456298523098,0.004357239661132946,-0.11423290871749076,-0.0010530920463172305,-0.03785112310935394,0.024284493634330426,0.10360899497231635,-0.06584789934602185,0.08670019047610296,0.09833717436804625,0.044643515146843726,0.07507881823874729,0.09381612722740555,-0.08320894641186444,-0.08371318188851629,0.06630282716590935,-0.10808463572474665,0.06625686129379184,0.07267285519098493,-0.1132932485324182,-0.047150554668981805,-0.028953357365105084,0.12375372161965964,-0.062152203160815586,0.1119986896319683,-0.07210315385667766,0.04622289111866977,-0.1001642777885254,-0.10292772727348622,0.09287330719150241,-0.08716934992793775,0.11279531127122537,-0.15814008559704135,0.12241990754414274,-0.09781190197066775,0.002181378841030871,-0.11732281382173051,0.053828246554228715,-0.11605700115480408,0.027590238025073332,0.011853000455590615,0.04344386983323156,-0.1410747685091896,0.0196417413966992,0.09629517153381476,0.0019943160535655837,-0.11812431910113161,0.027759157489230437,-0.022886408741725033,0.030206732246883982,0.0708637003298962,0.08713138148001486,-0.006000514454879851,0.0015485552346239811,0.1476724419683274,-0.10479806971891327,-0.09694216444115418,-0.04762819236387767,0.05510790839555915,0.12141618390598351,-0.11420749282064796,-0.03822362171938419,-0.031965486266118524,0.11060425682733063,0.07780155730606221,0.04069246127854413,-0.02586813479533731,-0.006882196878622831,0.05446098551167243,0.06873692199312645,0.12732919472518214,-0.07403115440269809,0.026143311922365,-0.12486851668812472,0.0010342918031382067,-0.13394343810503437,-0.12819111129511898,0.055063443075574287,0.16007639479191957,-0.12472188011167527,-0.00002025949880067471,-0.04344883145118304,-0.11580901819826908,-0.045945783839309216,0.11587341930783625,0.06471695610326186,-0.034843449246087274,0.041564196983938914,-0.08438212626337467,-0.029200956752252562,-0.05857425490765979,-0.08624494974460686,0.04955375544966853,-0.15236488247906746,0.045038530668162303,0.013245338516654631,-0.0669678969499761,-0.11220476546753828,-0.014968902380489079,0.0020613459710180047,-0.09276739029645698,0.12588580795332893,-0.09028136787160426,0.06358319096409351,0.07202768081848816,-0.03516296521582321,0.12507900708722328,0.05581862238214633,-0.08376854118544808,0.04501597431512998,0.08747396244986563,0.02928009875945967,-0.009842736627753652,0.06895568656271536,-0.03837043366682373,-0.1444391637009462,0.07208607733354641,0.04580425438057309,-0.0497699538899074,-0.13218805505700482,-0.025028895470924455,-0.05248766680452195,0.0035174049872969924,-0.030454919747594553,0.09208461306427161,-0.07399415593840872,-0.0066757309496232944,-0.008299928090727207,-0.10645916883866467,0.07910922252608195,-0.09774468759511454,-0.08785230107585221,0.10872271918030266,-0.038186186476896665,-0.12847240959356496,-0.12522634354454706,0.02075629410613919,0.0356405948347396,-0.011898937410675998,0.02078887466516393,0.004137919076879101,-0.03310979199424301,-0.14987961254247562,-0.07711791397721832,-0.1498947100652238,0.05900273420880451,-0.0662119623170073,0.020609911593684044,0.05096867887552613,0.030650591888727236,-0.005281239992973086,-0.03687421592917625,-0.15058844605169874,0.005051493870035234,0.06567016407921297,0.10013185243507523,0.06226737559936047,0.004945639916839769,-0.1291290822082131,0.006726787396864815,-0.1170262516207461,-0.04414511045920069,0.042572252258036264,-0.12042207094745057,0.06988668311251404,-0.14073522749289935,0.06856275494677873,-0.1261331807842421,-0.07045578669817024,-0.02121082106350354,-0.08285603223020285,0.0620874455318525,-0.14738897510777205,0.07302268213713693,-0.11556738613168943,0.08256952083188211,0.0952416537556957,0.15870961913109416,0.04358107177401052,0.09222014411518453,0.0796030322081652,-0.03990398486147919,0.005000836222320075,0.07389913965764573,-0.06777100199378712,0.0671075533996028,-0.06448427065995038,0.04475046501691403,-0.09317281410733155,0.030031594761738546,-0.034162592434816175,-0.018715870159531994,0.06999056926504013,-0.07700990187526636,-0.11337391444384563,-0.037824620262756715,-0.12300249865957064,0.003963457956411811,0.03474284085577546,0.012280577896616506,-0.09935246004709486,-0.06796113122371382,0.047389804925912174,-0.027465242081044953,0.12774771550833788,0.07420527403832114,-0.11505416869475397,0.04884471755630852,-0.0439727173055145,-0.036118152478642876,0.15719807440919065,0.07108981405839851,0.06626086435911424,0.026566286131872927,-0.07261128120268312,0.03023214071714175,-0.05173473957077301,-0.07952403860869518,0.011373239231914498,-0.02281489697450682,-0.02660709925335761,-0.014154442045434496,0.06570038774892194,0.1238983218262976,-0.09019366446961244,0.11140995706244755,0.10767641136189152,-0.06277153401506497,-0.08373057641699781,0.14245624588721328,0.12659999257987853,-0.009342513069998764,0.012688454791647827,-0.10052339775896124,-0.0033996159076095014,-0.0018273872842034548,-0.1109513140988812,0.07780531473819219,0.11296877818416995,0.007990151047823822,-0.07499871511491524,-0.04929730471090436,0.11184409986511665,0.0012386149620737873,0.09038326447734348,-0.08821445885046986,0.09879359461855244,0.1450499078598766,-0.0830784342347072,-0.05448418852524457,0.06423808834453816,0.05863811755952113,0.09626044180135293,0.0013987256903446803,0.10307593710059833,0.08988020847688774,-0.05778287256640089,-0.032776242458634294,-0.037765464216453715,0.08628550112142495,-0.006031727364041744,-0.10662259756725181,-0.10348877385240834,-0.04156127505389351,-0.09183615642201129,0.08263536708056869,-0.10638978762238271,0.1003158586157269,-0.05484533730073563,-0.03716905409999267,-0.10122359412522061,0.03935402812016416,-0.11633657426304977,-0.13297320580081792,0.03427284503069561,0.1216374257200197,-0.1426657096302428,-0.02389989617082054,0.040051656273510955,-0.032066194716280284,0.12910380640977778,0.04899606125848106,-0.023371516664461165,0.0782930269254306,0.002955619085172203,0.10288846998606191,-0.0509105710587244,0.06414830829354416,0.10341961600112877,-0.03936250492612642,0.1137525704594661,-0.09767697541462439,0.04407917920532786,0.04497790532904438,-0.029249904129913466,-0.04743134767098902,-0.028334694107110734,-0.1361081335039398,-0.09723559457974479,0.01020967234880275,0.05976793103899411,0.12534918522088354,0.03806760402831883,0.025317815694396034,-0.035059776848166815,-0.009853475844834278,-0.11485555308397466,0.07093955997343937,0.02624583287792119,-0.058589651225394834,-0.009900607854107226,-0.08052790701205303,0.011274656523751373,0.011399238280026602,-0.11340078410075682,0.0073910042027910475,0.13315214953640728,-0.058843819050890867,0.07622115743941635,-0.07143637392963528,-0.014189210557758408,0.04636044840837808,-0.07568789942055716,0.0668518902663177,0.12293636097266272,0.1079488065361526,-0.10011929639901317,-0.07591814696643076,-0.049345671366218084,-0.06961445423365466,-0.09015306278561083,-0.016036482484834316,-0.13158153174376788,0.060819045360436225,0.09396637591729792,-0.01806361307858322,-0.05273776216890252,-0.10313032483251097,0.07051105166135756,-0.06794892940912536,-0.05176840431296873,-0.04675326608580082,-0.009086984065111051,0.06039021526879808,-0.05790949501443376,-0.06260740930137744,0.031109331115151243,-0.07651786638443991,0.06518972693970278,0.08994730652950375,0.00944807378697075,0.08902032119263247,-0.0025430648386697147,-0.11828300045314999,-0.15257919669651654,0.10786573426067211,-0.07183334167507921,-0.02637786568395513,0.011066283541254173,0.0894186932905334,-0.1402811827311386,0.10853538452938186,0.07946951356715824,0.11088917397757594,0.1279500413006527,-0.06524865271016055,0.019980131840527226,0.05277575429143892,0.14046501795028352,-0.08465607467434308,0.10149833485683266,-0.107068400833741,-0.11939019083718094,-0.052955352388946865,0.06397476867711309,-0.10345396300532429,0.09118047984783281,0.06824747708283552,0.0856741258888751,0.09984478859032506,-0.11762204892548293,-0.061916535352451514,-0.057868093761537856,-0.0177367416179743,0.11472853528416467,0.09926459847404433,0.029114324435277845,-0.07165072267399175,-0.13029010663466936,-0.04154006885195661,-0.0933829771445128,0.08471890098294774,-0.06134205184999982,-0.024426404168103905,-0.07767566733654313,-0.005955582494403165,0.016327162589238584,-0.002174406924219277,0.08798079624414296,-0.09544073626822794,-0.0806125957210196,-0.07090761876648972,-0.023236466582228752,-0.007749194162371548,0.031667626134980045,-0.1273299229079494,0.005719918193671335,0.15848126003320528,-0.10105359782173771,0.04850848097626248,-0.008494383786971756,0.008684571334242237,-0.06352833373908011,-0.003887801806396087,-0.0017970233983785906,0.09968637765314409,-0.06662962813004929,-0.08645247114300048,0.1512936344334232,-0.07041649043488252,0.16560066792795775,0.03995898052631814,-0.058646431029054105,0.12060174797286001,0.08328272497259732,-0.05494026909746531,0.07051860025693674,0.0768384182181188,0.06287173574742638,-0.02575663389979447,0.10550485924957566,0.029579572375763596,0.04028575337686708,-0.06806776696077502,-0.07550937672186697,-0.06848554590938011,0.08796186312066412,-0.07263181833700331,0.08464136230144297,-0.005507288203810178,0.01953480918196399,-0.013990908087149291,0.07964888458392938,-0.06080311049322176,0.0031340364468622345,-0.13167903288747052,-0.09304790469199267,-0.06257904212839879,0.09013962514582298,0.0787618830575702,0.06262449377851953,-0.0006138756337221612,0.019392370288507953,0.1598729436495186,0.03160875105534943,-0.018614974498395918,0.12876268816889347,-0.08015460890011529,0.08809470088081955,-0.0039897591596019695,-0.0701177045571435,-0.0031811042841847436,-0.06830259800264459,0.05848287866780639,-0.13047598864496832,0.06271370931728398,-0.13212571967165787,0.02935929747971656,0.05549566342826637,0.014090977447607563,-0.03747767852958735,0.016301955420044315,-0.07751056259899262,-0.06652871311627788,0.06549646545367172,0.01927888854094815,-0.009071954849659407,0.05320932107699135,-0.0846065518328622,0.031424941606784315,-0.040074404612147264,-0.06507536941309093,-0.11337778528563394,0.04788102668970895,-0.03722587080648572,-0.009699706678610625,-0.07856937540765198,0.07645765477671505,0.0103432542341503,0.0038784534787254486,0.07334892399553652,-0.068528286267706,0.09502191747696542,-0.12837617093008705,-0.06470789239421616,-0.09608657418030649,0.04670138017730821,0.08359235007402965,0.0237189025488911,0.03766045394107671,-0.11366754107200605,0.14205621262898807,-0.11981332299630996,-0.08019362582636336,-0.10781630834017275,-0.05039041430420778,-0.09366054479575092,0.06856417997630458,0.02649180882814552,0.1270600485556706,0.03989270042927483,-0.01710189060677969,-0.04772813712276283,0.058825879421793834,-0.013976205305354874,-0.10670420660881,0.09777181478808823,0.07228722643304207,-0.09422374814992185,0.1288212670039015,0.10984898421725409,0.06869459523913954,-0.10511713564496199,0.005189263587139291,-0.05812729621278706,0.01032265673598119,0.03891843487425607,0.12097025677641589,0.1269590082162157,-0.030405242642276717,0.0768423410369903,-0.033791028572406186,0.014599730176241592,-0.033761476959364545,-0.01758662655597866,-0.11317473536340276,-0.07114832566501353,0.05204371062242087,0.049379349333890724,-0.03313596305236215,0.057293399557682825,0.09225070396721206,-0.1403492456571997,-0.037902598505008024,0.09869815728263466,-0.010250777212517758,-0.01696473846013072,0.06193583114593887,-0.040114382542500285,-0.05909621906488374,0.07983301260704594,0.05205696472214755,-0.050541878464799475,0.13426997448330097,-0.12188162317866662,0.00812476531745447,-0.11449389263159401,0.06155600426858265,0.09653649416952745,-0.10472720348358591,0.022482519608152736,-0.03410176502738534,-0.020945632851737162,0.022833976614010057,-0.029647071209418018,-0.10860475820856096,0.12691988044790686,0.11172916126556158,-0.030335908884189983,-0.08443964991641692,-0.09074907859939822,-0.11319724111872545,0.03695271757417082,-0.09873049723617387,-0.05413900603712561,-0.0654858235550838,0.08290710597372146,-0.03351094670495329,0.1380641521670269,0.08554101657984935,-0.02134895278978773,0.0072471218174777,0.07661544654375334,0.10607647703805044,-0.06880050253068146,-0.13795352720279966,-0.024620985097440304,0.056374214360567984,-0.08391045995938808,0.0991029659636563,0.015010029093085745,0.022457500840352654,-0.038827511566929915,-0.032597320753346724,-0.07251827953794625,-0.05100506051868288,-0.019355070599841293,-0.10344924073438264,-0.08806909151911803,-0.06853770402444935,0.05968467088234401,0.027233733425407563,0.04830950877654432,0.004460718427557841,0.12751905916997522,-0.10772035978128364,-0.04924101014610144,-0.078238388565465,-0.11479264227917167,-0.12892660839247994,0.03473813056257409,0.023781868936998418,-0.12182716166336724,0.09150358128766774,-0.055308250384879076,-0.06557034049050596,0.05189933881654564,-0.09915050853242958,-0.13313537230911612,0.04969830414995266,0.04136993618078216,-0.048918888736921365,-0.01822684895171388,-0.05198193434915728,-0.02128704074547433,0.0036203418973362106,-0.1070643393227821,-0.07274627448878755,0.06299417276269809,0.05296240035529508,0.07917730796251514,-0.01489944476696721,-0.07615751909190631,0.12287649897927262,-0.02773599331509229,0.11718303069060886,0.0987030912257806,0.07146188060540556,0.05365374215795021,-0.06483467278261378,-0.07496019928130095,-0.04970108448978139,-0.01791904322117464,0.010800611032820815,-0.07760268871842901,0.10569408325511756,-0.13886811919729494,0.011553393055537412,0.04273776735932506,-0.06502211558014241,0.027603595570760565,0.13553970275784785,-0.11583248260504854,-0.07096622769323722,0.13229473323428953,-0.00021802227976655932,-0.06250569475735866,0.09266416176113881,-0.05748210696116258,0.09282764927878523,0.07998525175822288,-0.11533244472522805,0.03190405668955434,-0.06172749363563716,0.12054789492391048,-0.09282151615744055,0.038148573414847085,-0.0030292447657141995,0.04120305962688568,0.1308911938665399,0.06114880817046235,0.009909486165196869,-0.0704162508229369,0.059847369447781004,-0.035147598933329964,-0.09803644756654806,0.01473777422333687,0.11962839709315229,0.09151270772094935,-0.04720342491268173,0.06324513455198355,-0.04368153428854628,0.03982376362756404,0.1170821470909459,0.10948911062448388,-0.0018401468866546644,0.14864949450850526,0.04217680674651579,-0.11550804552484494,0.12233837267707875,0.05022943931803899,0.058767784112585666,-0.11293730426663638,-0.07383485464482921,-0.02354368869743439,-0.0217043423990077,0.050019742076163595,0.08693073697510066,-0.04833218416681045,0.05776722199970154,0.12556221548550947,0.06595057657286235,0.06302474502748952,0.07533946914278111,-0.11834923162472473,0.03754763938774787,0.002292436550500729,-0.036058829044889135,-0.03720699316803673,0.01869313357275401,0.00729957410278731,-0.10282670117999776,-0.13426346468084674,-0.05136211527088128,0.04900490211376349,-0.043648122574497975,-0.05922095039687145,-0.014618967251637565,-0.0338335705719376,-0.1064894755591484,0.11432408091321397,0.07521267451087107,0.04612692695745252,-0.09528629673198499,0.0060366156774343625,0.041290680030342634,0.09456628234883477,-0.05172509362599338,-0.08073974555616986,0.1310465515001184,0.08503782309185261,-0.0791125996395447,0.09665129510828194,-0.14354801987097401,0.11468540400551365,-0.12458280357988832,-0.019940930794808027,-0.031207375491359084,-0.12821418478397598,0.004497198847249866,-0.09185448921789062,0.007988491211409255,0.11938981380361992,0.11897963710205106,0.08339483144072948,0.03613624034836041,-0.016690020362696546,-0.0545271555240719,0.15997921367781304,-0.16529415323156899,0.12140641990161331,-0.026307225395574722,0.10546077537145053,-0.11389387195937431,-0.08066918349389846,0.05805034559644463,-0.07463798935997978,-0.04923956715620821,0.10001138623483624,0.09954132675962973,-0.05662469168502479,0.06777772106049616,-0.11780891656784474,0.07056276302456388,-0.08318061167823379,0.12376908646655665,0.08771011640162792,-0.040176815441699106,0.007257441411570495,-0.11321262772553345,-0.01995900846974662,0.10487582083093688,-0.08615534263437605,0.056393511153425946,-0.014562242970115664,0.09221392591182631,0.031573459218171396,0.0855288234602368,0.029852423235129936,-0.08962438687510807,0.10671242570249223,0.09167637059375991,0.08399622055283551,0.03647176605245338,0.10413553396899791,0.1411448136791107,-0.086795799022244,0.0651381329442792,-0.008123063487090593,-0.03896823531167788,0.004139846300119116,0.035223655634490016,-0.06980627263367245,0.0735012479368463,0.03097342465761696,0.06542933694806301,-0.04427525171122171,-0.021248386261856086,0.04542875311522907,0.042362366264979606,0.04575709056688731,-0.02424683025453334,0.05739765608797975,0.025714513455120862,0.00523678315658932,-0.12182147164049843,-0.008965368572012276,-0.012597961065996532,-0.06457613430070891,0.010636218490217456,0.054960527890759954,-0.12806466575428427,-0.13133299377449995,-0.02953982908949917,0.08081091256088727,-0.03549315870088799,0.069531048549575,-0.12512011642396242,0.0901965381289477,0.09598260055499891,0.07654288680534313,-0.13685266535972584,0.025837702445190496,-0.10799009349435515,-0.06977391106975013,-0.08191583601210856,-0.07025348160107968,-0.1302769344884741,0.007324050635375466,0.07142366996385274,-0.018118143432505986,0.10267483100184047,0.043631322315865244,-0.1070550301638712,0.029066585861456756,0.04235995223572069,-0.05435092832214338,0.11288145101486896,0.10136281205001366,0.11808141843755401,0.05679660286447096,0.0046105730040936314,0.0006146058376168874,-0.0201648421691131,-0.0033413818271171595,-0.05461487322882325,-0.12257411661862488,0.04315295169347159,-0.05483471649378978,0.11907964529899905,0.038892459242278236,-0.04971446611469201,0.12952577797145834,-0.08460927477666227,0.014652451329998952,0.12333088439599117,0.05382168753188988,0.003351946206925767,0.039530188850114154,-0.055839309202395666,-0.055793886401596784,0.020974800281358782,-0.11179919576979207,0.0486983002810786,0.01074958344876563,0.00495164060200638,-0.1125920836066675,0.00019622726853727975,-0.07024645819424101,-0.0019816223903970625,0.13187454344841076,-0.12033036162220435,-0.0763918804261026,-0.02186485561369887,-0.0027008439450488487,-0.03730072714304803,-0.11841328270193795,0.13019878041588637,0.019028562225296055,-0.03721196440789498,-0.03142386777794195,-0.05823061179845457,0.06185607667025226,-0.02071949908266885,0.026176245957299435,-0.12550468259413322,-0.13273843207793246,-0.100452923331773,0.10348137196841702,-0.1079250534866767,0.09856931144696918,-0.12797040451948644,0.10903003101064364,-0.08329108743187409,0.07443147375379693,0.023226832772103925,-0.12849137183510137,0.09540668043387829,-0.0878660756114729,0.011369852197484775,0.028397869476808977,0.1253118952363248,0.05984480698573939,0.15720984168745933,0.0808539728607955,-0.07641864659682363,-0.03129331664330554,-0.013369150804426855,-0.03313850424494545,0.018988142565507685,-0.15488109375917933,0.03895693279804073,0.029650973553104587,0.05105123114982062,0.08969876392817089,0.07402758132608767,-0.050110954070948024,-0.07575919015345106,0.05489669945935544,-0.02422089974079354,-0.10551103961771366,0.12354102211483646,-0.11909582534007009,-0.00431845718128252,-0.03172995082440978,-0.11750368617571955,0.08030477942230821,-0.10259933493539451,0.02985893135830013,-0.01347148709821154,-0.0679131854008404,-0.06035834936045218,-0.09428958367351761,-0.09553897879938938,0.05292307255937449,-0.08393844492595928,-0.09430112177285055,0.07306611368901023,-0.12030045896066144,-0.12353553685989742,0.14984921759532402,-0.06670120501238119,0.03967887944111864,-0.10124071659451742,0.019750857578694377,0.08176997507227973,-0.010396412583256003,-0.07163859219513302,0.10419398954284798,0.058693241284783496,-0.006333032766505016,0.0360526747353299,0.1088198459898569,0.10417059154480326,0.020024994080833556,0.07125406687662182,-0.10817961437664268,0.017315862906381367,-0.059635379272335025,0.09405603875942872,0.09136006379198339,0.06108175039853883,0.04291746447427124,-0.0039838589231029915,-0.006362346809699196,-0.11298645400522028,-0.11923358622333653,0.04390190142432771,0.0924143155360729,0.09217945702709288,0.07454982642370557,-0.061951068299447624,-0.07213508944776222,0.09351103892099662,-0.06445983086222871,0.039974462977126486,0.013947627446186509,-0.06036771259334025,-0.06580508153355277,0.09467391362896306,0.014293801163570336,-0.12288150031988529,0.14102899396897325,0.020292886284163432,-0.023826435663361394,0.09536079527069383,0.13229798203538776,-0.09303317138681197,0.09228223085873852,0.06811036012815834,-0.01327963271219914,0.026558651674992648,-0.00009140919968447174,0.1292964447375006,-0.06298062380709003,-0.027738297400035535,-0.08562959411570678,-0.09090071565349847,-0.10361821515903741,0.05763278644851562,-0.011177181727481488,-0.04153302098548127,-0.17361138240174084,0.12879638838099713,0.09836385622809128,-0.16877780487034155,0.053355495568014735,0.0993957593608101,0.007647919578589418,-0.12626606434082063,-0.0545934815020271,-0.08753670215546791,-0.01900946433482044,-0.007829105694787198,-0.061906430248222476,-0.12551820657296583,0.02444308573897944,-0.146422058890873,0.10144926036317983,0.08770465639188575,0.08889243887821824,0.05426670522047263,-0.02653222885249481,-0.047363722000788845,-0.012152891993252386,0.05020437900693656,0.18805603933203913,-0.13554960892597967,-0.0879443805636467,0.08044069606602405,0.22133957019441805,0.19093814346567836,0.06498581122988974,0.025293064035888074,0.11930624930522488,0.13042913828149824,0.1092870709753153,0.08816866053794725,0.10857051449471111,-0.028697824310751754,-0.1782992012462865,0.13163645404052002,-0.1736983076796481,0.02609874885382509,0.07222003360035423,0.11219281982663216,0.11541877307346385,0.11427477788502363,-0.16895626145786796,0.15037777008614164,0.21045206608005906,0.0479688775947494,-0.10161372571461644,0.02355566386829887,-0.1694753410046415,0.08882316329208725,-0.12106018972636505,0.14245243947411765,-0.07006725579708248,-0.12754931276025822,-0.1324166731230665,-0.007062017749823495,-0.12269688307564991,0.017586445620867967,-0.13699852061593767,0.08764547370877379,-0.09232397279609528,-0.13547472826497214,0.09424516512618955,-0.20124825741846183,-0.044717652257409986,0.06751090159193579,-0.1838083889075331,-0.04555768717873805,0.05188214610329978,0.11881979241883603,-0.04307457667401104,0.014537087860797077,0.061699015477051734,-0.12672057584848906,0.11601887421659127,0.10540632198303829,-0.07733162210801928,0.06805356059107176,-0.06884295661890813,0.04506911441153295,-0.050167218110658496,0.07568563352158302,-0.15970428862793912,-0.06503809219953456,0.09948563135809055,-0.18268936425367371,0.050832993456352164,0.07922729040953974,0.0921686874539358,0.03116807860669008,0.05708889685756147,-0.010423976997599114,-0.09416683424230868,-0.06366983568311739,0.17575963162606603,-0.15889616274613888,0.05679276519378572,-0.07210298536439731,-0.04493233394650926,0.012619894301756463,-0.026189707384417393,-0.035079839739224884,-0.13729571701195095,0.13100009943312746,-0.017825250481657624,-0.08972185859279741,0.10842827260450866,0.13418667068834772,0.08559271546710401,0.055020616318294455,0.04136007154153792,-0.03209322047436776,-0.00046461606650276266,0.09277774302714295,0.04592557876949639,0.09418480325387744,-0.05549300327033669,0.04414986222440342,0.039294783309183276,-0.10006665178583118,0.055972006004016125,0.13055988914368927,0.09783178806487797,-0.1030028134666003,-0.06088029355108726,0.1401887934502832,-0.042024603898324395,-0.046853706964910515,0.049694624519186846,-0.10241586961123131,0.005077005034548321,0.008508383117563748,0.024595309619563566,0.04601123767213705,-0.036901171686101714,0.04163307071168921,-0.025327610727082197,-0.010490427086966226,-0.029642071020395556,-0.09689239634790844,0.008548628382097257,0.027908098160003145,-0.03939408230636796,-0.1006210868976394,-0.11444142944720011,-0.15558056405577067,-0.05526700946606067,0.02928774943735351,0.06562743875047801,-0.010971127454304595,-0.09458223282898309,0.07491692564784284,-0.01734564888250151,-0.02338814959795799,-0.11889808772591799,-0.10584837166040267,0.14189990951153258,0.06165983912336773,0.08767614670191061,-0.05593873405483547,0.09280638183221714,0.015290728147163004,-0.07384447867322627,-0.09428676591878031,-0.014987289356641537,-0.046082442559646386,0.07736304543316462,0.0040991500384058785,0.11010493773433815,0.0003178302108968155,-0.013688111979803625,0.09691078193222255,0.07437395514518172,0.059534961042747164,0.08091174684331515,-0.04701739811108915,-0.13541939131623576,0.07357891151993978,-0.10025510908053908,-0.09037353713813319,0.03548794827353257,0.1150483160623937,-0.08034917671297576,0.06161860428080851,0.02393161957752678,-0.06277562139496466,0.02360697419923115,-0.050622579890527465,-0.09113735050706209,-0.1289782778187003,0.01178612612440184,0.011190131691004654,-0.10142355391581225,-0.15586321385981092,0.08172084669246724,0.03549012104882611,-0.06483568055034754,-0.05631138031763293,-0.1320099020663371,-0.15875267816458194,0.05446559949140462,0.0925889545396879,0.05965536601000562,-0.1564332826073242,0.12187825344667641,0.15481938540298296,0.22166744658913115,-0.043589650783902825,-0.09083037281039566,-0.028317135813198575,-0.009238424136004487,0.009672801653685004,-0.11401644598580031,0.03387370478991289,0.112937840042011,-0.008569685639828264,-0.15649983893136454,0.10740947968752908,0.03307752899401415,-0.03650429441996965,0.05872980469921255,-0.13204095973605218,0.06973886585063833,0.12768724056236694,-0.006071751983363943,-0.038843459309232484,0.14651557869459797,0.1354503821452802,-0.008593793097149093,-0.021279841742475752,0.0723754436776049,0.11768985016619506,-0.1151643424599018,-0.08455704570346478,-0.01696837223593324,0.08757662421897955,-0.025512303927478882,-0.1166658987184964,-0.05760457470138754,-0.04851128744077087,-0.14316544021000757,-0.10362100941783306,-0.06753484536796525,-0.13765126616648704,0.15451740596829366,-0.09076594409919511,-0.021136990752163593,0.014430426548422887,-0.03551854586168211,0.07212038957248593,0.07011361966146558,-0.02735936551332788,0.10095549189712699,0.17690646102337093,0.09648989140682515,0.015500623088764858,-0.09183350142239352,0.0206426698302484,-0.13193284296748545,0.11715408004176395,-0.06288401960839034,0.040014524155443376,-0.03208120396865849,-0.005930214428786823,-0.08450462014481144,0.07949613057615834,-0.06913243998128038,-0.019878691972865084,-0.12508478120628708,-0.07951258861242502,-0.0413963205944155,0.08545024067891152,-0.05492734208524396,-0.04166759786883023,-0.1586276968641876,-0.041430367205377516,0.06566483934489868,-0.04397824504665046,-0.1258922489126243,0.0658429162707854,0.008641172181099388,-0.0481885335137443,0.10860327352175683,0.097813279529327,0.03985773162803906,-0.1057899183656326,0.1585046508749546,0.07114817809668217,0.14269882982788773,-0.08051214956746094,-0.006405856733589898,0.019078981665915276,-0.014753162600867918,0.08946128298509248,-0.037069190852085133,-0.027956422144846952,0.05483006044388428,0.07476953348233834,0.04893172687209729,-0.03087663774799128,-0.11265602686068303,0.0018195109921164718,-0.03112156770963925,-0.13840438499778152,-0.09326963307772679,0.08703251519988847,0.06294433980921246,0.08872348982690507,0.01173876220969809,-0.09660402116503489,0.13011865755913374,-0.04165184119851666,0.02772069674547394,0.08374895860460985,-0.0947147064776261,0.12424791785683158,0.07177692029485744,0.05509252885448598,-0.057501753715198035,0.05580929208315865,-0.1225923064872109,-0.020871335833486087,0.13888936373358188,0.12379848500785719,0.03863136390597817,0.047101087589085815,0.06210610687312935,0.08910549818463255,0.09517760030141985,-0.14594654958974784,-0.035951743047668225,-0.07018604732275414,0.015975704801019622,-0.1262153081499716,0.04197271083800617,-0.014204442523489971,0.05418370578125049,0.13222844057403652,0.04031152338055612,-0.14854344158850308,0.07647740637885489,0.02690519634370347,0.1390440727433666,-0.03603846223361841,-0.03275256377102961,0.09589533027455778,0.045670498862595645,0.031340883039804215,0.08805346156324845,-0.14400360703742895,0.02098258095808479,0.08613155045464481,-0.01679052734814832,-0.05075067706173399,-0.045402219207423454,-0.032688631288057754,0.06891824290021636,-0.018384467015266293,-0.010490592532195381,0.05627810092609568,0.06610190762904535,0.0666651792691707,-0.1132707433258183,-0.01049755892346805,0.017599036635117336,0.015476072925838488,-0.01759692279496069,0.07046850509601273,-0.02216162778414689,-0.0679705727528799,-0.09078854429920927,-0.006530375079477358,-0.1194988810111197,0.09413098957606457,-0.13895046501501573,-0.06958858247874583,-0.034555905643777536,-0.033677510603553215,0.09525453505911204,-0.009853615455424394,-0.08738012784824957,-0.12146090308091283,-0.07799302620098542,0.007604451285725534,0.012582601366226678,-0.11518555532345356,0.035149892934119416,0.08048178216478988,0.07889925364286182,-0.11361537406468661,-0.10835137340394496,-0.03946517366488111,0.08337754725711019,-0.031353679743403494,0.0024716990017929516,-0.06750919066520285,0.0622889201515083,0.03321474377698567,-0.14470662135686077,0.026045687470080712,-0.03039925294822586,-0.035205196702897436,0.10286891851806841,-0.09932054339209628,0.054598072976502356,0.038474614901682434,0.09988507304702211,0.44453479652196903,-0.11122430653028265,-0.057677261603116405,0.05705820010521585,-0.06316491631748522,0.021840576320027238,0.06528346903046862,-0.04154352426642037,-0.07498181489035435,-0.14977397248414676,0.049009601978590986,-0.18374935153898075,-0.03909708435177253,-0.19175833453217572,-0.003205476235313391,-0.09591323348617606,-0.10078196598165567,-0.05278468843968223,-0.050365276919012755,0.06873740422891085,-0.06119598866526548,0.12690707731541245,-0.026586632499032953,-0.043009845187305495,0.15715181561652158,0.06837717157139203,-0.1253484522546625,-0.0002538987696014236,0.14161896102893082,-0.10463348056689681,-0.05143289619142631,0.10987888134912892,0.10246500615707448,-0.1844468735279018,-0.14307986526063238,0.104702627778817,0.1309340384695377,-0.06004192656787443,-0.017624796120558,-0.14040050254995462,0.027898429174888537,-0.1653991625752021,-0.05787583537106993,-0.09977937914815163,-0.17566864721848785,0.1091731039155212,0.006775800725760738,0.08293897153418488,-0.18895837358535783,-0.11249247500187487,0.059377892026366334,0.10378352865654812,-0.04026070357061176,-0.16013991412623046,-0.06257489146523972,0.03453364041427946,-0.02359197439688764,0.0647511449903198,-0.058873279417006534,0.21123763627404332,-0.14655773152880427,-0.1937977138550511,0.3063678876202782,-0.16143642784301743,0.10325776622608343,-0.12693312819555702,0.04311839881751584,0.1056311463341388,-0.18566744906992594,-0.025019966324525206,-0.0011884552807909215,-0.08141790771618004,0.10677560214633869,-0.06236801967435437,-0.27841763319672963,0.0801638128834991,-0.15771764777392927,0.07200518639592236,0.0798558745013601,-0.15096912185116224,-0.005330107953334385,-0.12703143607541478,-0.019915262515113035,0.022394534504577856,-0.1290657317288248,-0.04263470026863906,-0.14561562718146198,0.10913862791613356,0.030369706907864707,-0.16504903990224867,0.09747857266903477,-0.1309747628583539,-0.08532983814016573,0.03028943519891894,0.01195188288525876,-0.15691478859966915,-0.0198465053803418,0.07040468538642722,0.04443425628266706,0.13301457360322191,-0.07786575780103011,-0.135029231970799,-0.11347200082315934,0.08294523430782474,0.0823835384515256,0.09481193144436534,-0.06471947374042564,0.10714076899938531,-0.035911377950499944,0.02719295744511681,0.09752220812385276,-0.0958113858726741,-0.007822399200614678,0.09521931802924374,-0.06939259782157656,-0.12812742147366626,0.1010473204661034,-0.05876440967437234,-0.12113966503856155,0.05265827946709516,-0.03425295049310179,-0.16402263621617988,-0.14404973133105317,0.05830235978173416,0.029418098755450386,-0.09587007107834196,-0.14397024288106655,-0.07032979792098924,-0.04498601147644484,0.03930604186576147,-0.022599315642797903,0.03157207100883626,-0.033470909603641165,0.11529270410376409,0.13510598866670434,0.08505501976810603,0.10587923785887376,0.09958284530272568,0.004597303319443339,0.12120957470779227,-0.04275468544143649,0.08958711524963645,-0.07085543782469672,-0.09759333501222515,-0.06197656742273124,0.025035896628045378,0.06961818606115086,-0.11685745418472182,-0.052529393713909175,0.12715134274858939,0.06517923131101538,-0.030249544395073387,-0.2854162545351977,-0.09038278189310713,0.24337960207250287,0.011260599747793996,-0.14023496101332536,-0.1257132631910652,0.11425692899649813,-0.05023678535604952,0.0849049553783588,0.3288082807995679,-0.29068739190017756,0.22131282095572516,-0.2676183601155363,0.12906599992757192,0.07183761823918411,-0.07603136512227632,0.11148910657970564,0.0032626271200799292,-0.07273532136363531,0.17827629596389513,0.12338885813616583,-0.14902240308525028,0.0648913142891227,0.06293610896585879,-0.04476324485300152,0.11413849978598595,0.060212672656697996,-0.11370103928067166,-0.14976601759404198,0.054963164147437085,0.00323618437616297,0.03029426184938487,-0.05650764811788659,0.11328202621274683,-0.03289400915192053,0.12020210041105713,-0.2965397460337352,-0.017397724352341784,0.1146145991371286,0.0370928006672298,-0.05540277971447574,0.038901312094670355,-0.0029549241966491772,0.052061772107624936,-0.0007003724977388318,0.06089201296470119,-0.05416452745842387,-0.09943443638766242,-0.051026285214377076,0.03723527715982792,-0.08989541866107079,-0.06877588486516534,0.04837455480809513,0.07256598170974268,0.01453973225376853,0.02301770983351786,0.027282861847151955,0.0726394884909928,-0.06928250124474827,0.05039135468890097,0.07970632139872677,0.021784241442192452,0.020357987435258386,0.03853327271267581,-0.019143288681258388,0.09998894214716596,0.06474567302457462,0.05065690531371143,0.09814376198759417,-0.0030324299641036525,0.08079878421407165,0.03550695897842362,-0.12322140026701696,0.059722668404789035,0.030044288655341204,0.04446618428954587,0.04719015795880332,-0.005821834620806735,-0.08335557019157785,0.13962719650581673,-0.036682902958411874,-0.14987910228436924,-0.053037138493563236,0.016693702550410645,0.019990022901776434,0.05972682877769973,-0.060876798437073394,-0.06164011101170113,-0.12514878707265925,0.10089208610316411,0.017089228826860158,0.048245210408077895,0.03855833928133318,0.07170953008819284,0.04188753362419579,0.08776086938839486,-0.019259881057554277,0.056766152465257555,0.08089643665895693,-0.11331256849113303,-0.09420226805099181,0.030757479098064346,-0.15703481981585188,-0.01562520877562307,-0.022588838242647125,-0.08944818542130314,0.07936684557269341,0.008049445095486229,0.02848784043311702,-0.013307482975909666,-0.09221085815637219,-0.011416560598039553,0.11093910662489531,-0.06263932505176834,-0.02078340412735699,-0.08857971749180611,-0.11926117001738704,-0.01015018757886395,0.03714103033304374,-0.018873540546041068,-0.041841141516195814,-0.025059549551489955,-0.07948328114605281,-0.03255024751391337,-0.18269656950674623,-0.16795305050775702,0.04142107084410439,0.026043053595195372,0.017653547544475907,-0.10352603030091168,0.02807350807571698,0.00394739413144554,0.044384597092549626,-0.0018686543037875352,0.009962548598571867,-0.0003104854339742165,-0.04097889081132378,0.021063458672182553,-0.0032060439359370744,0.05673475641812369,0.06732348893147284,-0.06971079322928798,-0.03496340776542837,0.006791743907177618,0.024321586531462287,-0.014177453084104345,-0.09754812914658537,0.022774810864829846,0.07825452813265209,-0.09134008304675953,0.07376970859940718,-0.03580818080941179,-0.03689075374327568,0.11666292193908007,0.15466353692927512,-0.1767613932431195,0.0197637097060672,0.12948760004935303,-0.09399349247486291,-0.001329660122863079,-0.005294278704253737,-0.0824273219848953,0.13095908584451252,-0.12531878765815024,0.1272737042957079,0.0017895227492548886,-0.028521053267532907,-0.11911759186630946,-0.05381959969539964,-0.10686084116651953,-0.04745989645750489,0.0837366448375002,-0.05662072693752019,-0.027510375244559227,-0.08331103596238434,-0.1673685900817598,-0.11746118917369411,-0.14093075917125214,0.08650282077112861,0.12390854883268362,0.04060009346047905,-0.10964835737138809,-0.0667154289540207,-0.0910622251297992,-0.0031699126694573563,-0.1067476225675475,-0.29253562025268187,-0.08748342921520393,-0.07023201894150236,0.06706863523348171,0.3301597952358985,0.11640863262045686,0.05362081601483548,-0.15563772853443253,0.05047217206002899,0.04930336628441086,-0.04785873066769975,0.12329918285224957,-0.08047853861276999,0.006767422923618987,0.10837508477811526,-0.08929506030698986,0.13024585283804813,-0.0992622410095663,-0.2883088373427508,0.12106435024660811,-0.07829272205233753,0.014844894591110144,-0.11854973221020548,-0.09098913040299086,0.10041380769136868,0.31541041360100364,-0.07946944040258458,0.08886176608743634,0.007408756708680705,0.1320649984714384,-0.03749919860853079,-0.041947620913541095,-0.0036862298212451353,-0.13120135441848496,0.04013148234646937,-0.08805566915170832,-0.08759380943016902,-0.08299416033242796,0.11925779526965048,-0.1391549202669226,0.09480296516944778,0.09877971801060534,-0.007812532871598396,-0.10069269921514243,-0.13328667496412944,-0.010525079911927294,-0.11099076918830257,-0.011905011824634031,-0.10910227294920737,0.05541806063854726,0.11242843339387443,0.14112764251620213,0.17624266830741758,0.0591113134141093,-0.07590066999319492,-0.03479998657337332,-0.047324527890625974,-0.05510319001253239,-0.0669604713558824,0.0840354032278783,0.01715319285923771,0.004361184015910669,0.11218912566499521,0.06552527128878215,-0.07996421818342705,0.09428131864827344,-0.09005259773076786,-0.12640825579211937,-0.07461379446636215,0.05640651103261015,0.12331097811211639,-0.12129272469965661,0.015368319661158931,0.08549694775324396,0.12431482703290887,0.0335123773745074,0.11560186535878453,0.01924568321893848,-0.04473751536102176,-0.048555322552447384,-0.09129998649759456,0.09336235643769684,-0.028499285823780897,0.04453987270102416,0.026996770696693807,0.036885006359935905,-0.10490023378489935,0.01345546398451175,0.043864237260271506,-0.021274587362497963,-0.022140161024107333,0.05318162033747028,-0.09971109293387505,-0.04531968265854933,-0.04221793829805291,0.024952506728537518,-0.040978560534062326,-0.04672217365265452,-0.10631194693978888,-0.0991648647005694,-0.07059314839218614,-0.09844402849571002,-0.049367569908527593,-0.01655926558228297,-0.10946825536723129,-0.021794969971634624,0.04391658545154842,-0.10830370445894946,0.07164315665266398,0.04939488100929219,0.14710402176011206,0.02226328960614982,-0.1088083193532687,0.12431913154377357,-0.060800618070945577,0.07398438354918203,0.09852939204801268,-0.05299822348380633,0.048655075788902144,0.0534200949161588,-0.042446235415771666,0.10025295181674616,-0.1025592188222925,-0.0761862460134066,0.034547641722722754,-0.0381874609413446,-0.02623010404248708,0.11436753442809816,0.08067596854202275,-0.03529278318367054,0.12443591527909671,0.019669882340920323,0.02380134834100901,-0.013932487406136314,-0.06633732529615487,0.014852866738537163,0.10045773541784109,-0.03215507212243938,-0.10004730663861137,-0.059015459574444616,0.09311042962631744,-0.09005900006362567,0.11074656593257004,0.1339682070338853,0.13398598491273717,0.0012868772348145557,0.02403305699147037,-0.0038852323881522124,-0.11034936466749797,-0.07550276530565536,-0.03083738085283453,-0.07343014483694713,-0.0861794117084684,0.10589109885924455,0.04705090813774617,0.018108188659229467,0.13217481510945472,-0.06948722502645718,0.09924197793373972,0.029789261142048502,-0.02356573923656318,-0.14312630886175198,0.11268705735623313,0.20640449140382675,-0.011657161163082063,-0.09939071336349266,-0.03908098225996006,0.07719698804185651,-0.23107151632214956,-0.07538506206583993,-0.04813307886594305,-0.14281483097051118,-0.07561985089703313,0.2007528726607944,-0.0309905931578147,0.000823509891836792,0.05431935356476725,0.0598817142919152,0.20807727877947763,-0.14580576910394566,0.0018916821855015447,0.17543811050847719,0.10565580888178258,-0.05118272769391041,0.14175165395733633,-0.12054380244188487,0.06083269819014914,-0.09532648357866859,-0.18834046194429896,-0.05533782178027206,0.04739049828010976,-0.17631843464763583,0.12557962719166077,-0.11666072753483402,-0.08063399341914139,0.10315794088521005,-0.06965747579777844,-0.06872790600818969,-0.12445345412943337,-0.10322507549065531,0.0871366451650221,0.09816782240253609,0.14306134965678252,0.14890247950944524,-0.13160077555724517,-0.05572167787808288,0.06992916421444358,-0.13267302319542404,0.05985252368372656,-0.034220955550017924,0.0006702435520383615,-0.07981068460900614,0.19152851115165512,0.14630623704280815,0.09441656164040209,0.08185188644681801,0.2197635810471773,-0.010003347999603882,0.16027887796556398,-0.022608848283230253,0.2193364742480537,0.07637978700351822,0.229412919431282,0.2409299774044602,-0.06395633943373469,-0.01584132986166971,-0.31488101194371826,-0.20835122453077784,0.18143760516015453,0.08669927681061913,0.11427530925194675,-0.05174196500671383,-0.0270766629767097,0.010791358699725608,0.07444243753318552,0.16778335773568073,0.1991647855964102,0.06677209689007912,-0.11725916509626233,0.20188101193123043,0.13135164723013248,0.056036054997217304,-0.056234649451298135,0.1944944256308721,-0.058532523836962926,-0.07446477570814404,0.01048882162335791,-0.10556402924588447,0.06769118070390945,-0.10081098699357975,-0.12945950103226236,-0.11367818570225757,-0.13704571929928644,-0.10361233433201278,-0.07608395021207182,0.06990888504123437,0.06344384179427702,-0.15445852559663695,0.09339502595492252,0.05923528670582201,0.06666967890149388,0.022664342743527886,-0.03303729682696603,-0.011322272306453225,0.033907571415198665,0.09191920702126427,0.04465002573563044,-0.0643868011676012,0.03780137649941722,0.031379844350233534,0.019715329253616,0.10697576154892487,-0.030573929695230515,-0.08713623637578491,0.028687664542674275,0.06372865558371393,0.11207590279890038,0.05121945405655236,-0.017024714832697345,-0.002426277256751425,0.08687856001676923,-0.0973581276476979,0.12610838016307815,0.11537088032897966,-0.05721765880031793,-0.04277169256012641,-0.035209549646226815,0.07828496536504348,-0.07724349326636772,0.1181483373325276,0.09914282087141037,-0.1011906402827681,-0.07741841789788546,-0.11841163606213317,0.050257988236003956,-0.11316484090676794,-0.03451333628037159,0.12600178739615278,-0.08257467256279932,-0.07382172267657046,0.0037539807796556166,-0.06259047789659283,-0.005137450987772526,0.12006225965668682,-0.09394512641750787,0.002747870731355179,-0.027585630227632208,-0.0891834986991009,-0.08194777124148199,-0.04105813294233304,0.011240170635812001,0.1066311030534296,-0.043383666764880355,0.08711458413613253,0.02558233756362664,-0.06975728074628346,0.07599134822060774,-0.06744281510569744,0.04795438142155041,-0.07228303068887815,-0.018604153933697454,-0.087812163708027,-0.1222992603944138,0.08491378203508142,-0.05401623833136844,-0.09224090909286452,-0.06181582244946682,0.12818014935157107,-0.08031130441128273,-0.07354561269965036,0.031101230641220737,-0.12434016946995195,-0.07375148640328984,-0.11960774512542885,0.08895557373659412,0.0900003517678361,0.09426013566666956,-0.0697701755909968,0.10164777476347023,0.006272241030158018,-0.10987020575424084,0.031085363880885872,0.12040226938483628,-0.02566360921199192,0.04299256466983026,-0.057605896140379316,-0.11712990724941177,-0.03493237781678303,0.0847553841447106,0.11246779660243698,-0.13598294963177848,0.11347702484615292,-0.137572578291374,-0.05416988768744188,-0.09099304329155368,0.045972876172009985,-0.025446052399070957,-0.08956708228392313,0.0993993145452133,0.08647947543404758,-0.03304878303974717,0.01531127505173509,0.22266148820553486,0.020828049154062195,0.02212294219213028,0.011614788953575166,0.12401015171672505,-0.0689558270467766,-0.040493151137326516,0.05914841182815491,0.2243924409925444,0.17061895661235835,-0.06427022186020132,-0.010680743167502222,-0.1596000942586396,0.012552446990742795,-0.00818785802624708,0.15816441474873708,-0.16383488201961502,0.042805166979912504,0.004364318053083089,-0.12334687056938987,0.04473011381529368,0.0016012472882942848,0.05483406356625711,0.04975741010347354,-0.010346289046112343,0.18084002420053802,0.14360392932518454,-0.10184583493829297,-0.15183529013844674,0.031145269753668284,-0.05264890279325591,-0.09400155115453557,0.00183219607332694,-0.04339972362757641,0.059766442539051286,-0.0407554288005104,-0.0017418146740561435,-0.1474759077888638,-0.03988679335363652,0.20371277054521833,0.12479477993812672,0.2699763828554751,-0.05392467982945052,0.06909841878044852,0.0725057854609198,0.2320945152510968,-0.09908073460283194,0.013848213626720793,-0.14789262471047787,0.08378384866607257,0.02517510945063863,0.1406331778212375,-0.24010095345829985,-0.009562976020452748,0.04959180030265365,-0.019167389563094696,-0.22361431832268475,0.037411438550715014,-0.07003314225439031,0.0663090737208278,-0.04323677107540792,-0.016340694360247845,0.08184764072575319,-0.06654885338622693,0.03488770739085497,0.23314465338053436,-0.12376071706449754,-0.07920187837717083,-0.03281508395994898,-0.11131945473348309,0.03196599421603111,-0.12272717384535006,-0.06805654474312789,-0.11997677083874497,-0.12145850920395751,0.09790957264903645,-0.16109160232788292,-0.06534162679074013,0.04895714808648043,-0.005815886731935515,0.036361615630746406,-0.03137787960356221,-0.042695284624154915,-0.12590186118758273,-0.17238775210881205,0.1171831443039842,0.05570639620839862,-0.15417587333098848,0.1866180879072915,0.2333105772880783,-0.15999364114031686,0.028215107541108182,0.1336756758496972,-0.010618278216303853,0.13663460145856132,0.012963808202852447,-0.08891101858706058,-0.18729543005927507,-0.001670034436800985,-0.06807284453870688,0.22037808506489465,0.08128824998193067,0.09358402464323629,-0.10938000338194759,-0.01907561639786645,-0.008095406060139955,-0.06321242253652919,0.06321987957530509,-0.02935538138217526,0.06070129488620754,0.09144904253208146,-0.0629976558689935,0.01295313457970005,0.015749623241242246,-0.10829197934757002,0.12119637508638559,0.09909802711351415,0.04796848002356207,-0.058761846894080955,0.08166389607079291,-0.05640478248426608,0.034132886664385007,-0.10783922623678077,-0.004839572954060506,0.021930054688936815,0.1016868750813309,0.03249123485099404,-0.07690791270409306,-0.029097433787621446,0.08672563525463943,-0.013738732047661491,0.12489291190521232,-0.08639394435568548,-0.12356846615684985,0.13774404914652572,0.02637712862231645,-0.11352411070461739,-0.074987496740127,0.0856377876789277,0.15762501030144796,-0.027076065739250837,0.04874087931397695,-0.06661790783296723,0.1204120418439036,-0.046044566800580077,0.03618335729351903,0.12534894591949133,-0.06543520044569122,0.04961369323255545,-0.06917366594080579,0.12963041018116994,0.0312419401153566,0.013158109696331211,-0.08576646569022475,0.08446192004494779,-0.13233430367977195,0.03668628640052315,0.021557427485380525,0.06477300482970635,0.10528614811840947,0.1480294313412123,-0.018549200053602822,-0.0058140013010912674,-0.07329427192050646,0.04037311813055985,-0.11478219159990294,0.06700395877109847,-0.006733357091711967,-0.06222238461681422,0.1494385940918641,0.10573173476230402,0.023988888324686163,-0.064381470504076,-0.031079504142608107,-0.027508855791108396,0.09233304149599865,0.06696863460581644,-0.12458057617644534,0.04845673825470318,-0.04096160632447609,0.02556401463797105,0.08470193210676871,0.16642623863192138,-0.07337644447703814,0.06751224022854561,0.04980689273901897,0.12064774336806633,0.1270271672061063,-0.0796472632195595,-0.016957660420596515,0.10170478356239757,-0.09469586284660786,0.04893901802567089,-0.01038028481207057,0.07700356729893962,-0.03526757568301243,-0.014790453591049049,0.015411116118915644,-0.025034496454471054,-0.05923094860158615,0.06894377619103367,0.036297564183523194,0.04559105304227491,-0.06011067332710432,-0.05439303186938639,0.004456692225680403,0.1335061868536246,0.05299032687089701,-0.14659121047821097,-0.10324857022222399,-0.0715327969549728,0.04024561322067073,-0.08853966053376236,-0.06044711002506667,-0.07355634658936747,0.06893556101446575,0.050299858699794614,0.08910599634101947,0.05893940032774711,0.0765995637113363,-0.011638736836916866,0.06870406684097412,-0.052679122608087284,0.10266083679935628,-0.0410343671447237,-0.11270184320710708,-0.12073667744172968,-0.0946701724631106,0.04193120349103345,0.10111773683570124,-0.10187507923576883,0.11403105083433865,0.03265220299941248,0.06674909957234637,0.06423547800548604,0.02216445818740116,-0.07506408417468587,-0.03769882958790349,-0.038832765633364505,0.008002122551772949,0.051465957665291454,0.08676603149639783,0.026200866531096562,-0.10681477721713743,0.0028735454409381913,0.06886208686488512,-0.017077825227041498,-0.04719724933728241,0.04739569777127434,-0.12072153475731917,-0.1288605450458388,-0.11575087310107053,0.051670602130512916,-0.04762331310331798,-0.01663359361577473,0.07321837721085825,-0.14661843210010583,0.10373512337829457,0.09300630679205385,-0.02174077813820911,-0.141344839685453,-0.11971253129785177,-0.005041980853753102,0.012736495343905876,0.05688954576625857,0.0744216717652823,0.09605372098170131,0.03660386345644006,-0.05089613015735328,0.025270464942066945,0.04533798827364717,-0.02262973840953615,-0.10775299617336451,0.134908818259581,-0.10119263028835127,0.12722227329946761,-0.08304854659264224,-0.08793351702694878,0.013249242822974776,-0.13915398071058785,-0.011671745003839175,0.011884182300316917,-0.0676083155544512,0.06829967340306453,-0.13596955094434865,0.06077251997821509,-0.03256648037308715,0.10611169073568993,-0.018392633505598797,0.08668201591207556,-0.12797302591565812,-0.12787848771531435,-0.054753561147714874,-0.06591546074921195,0.08908282653834647,0.03820463587280878,0.0448431368134361,-0.04542326242970367,-0.10451058986620057,0.08235288617521377,-0.016369352358122796,0.006600445258124215,-0.058221536726749255,-0.08394070204112683,-0.12877648669295114,0.009329590847623585,0.11562387517244853,-0.03764795846961229,0.04013979457388001,-0.03905544857110445,-0.07784166396111372,0.035023315858123814,0.0898394039144941,-0.07471520724293262,0.08351797669553257,0.06634832182521815,0.08235742851637855,-0.0030832366797696165,-0.10478332379435017,-0.00373892956399337,-0.018933762913801486,-0.07270016120893315,-0.04727848478393341,0.07828728476297847,-0.040832250231253225,0.03128616667458983,0.09312083111956064,-0.002948573371920931,-0.050020813438548174,-0.061621510641640266,0.10712841440234103,0.028208869449820855,-0.06350997147353743,-0.09735573576089152,-0.04569257071145113,-0.06224288718648481,0.11158021351038788,-0.038326719166755466,0.08852767270311936,-0.07042123497398702,-0.11756317533647578,-0.12441586154728776,0.13753402061411024,-0.040643232926002915,-0.026645772492664168,0.12742359100539974,-0.03566144126496808,0.09198034603066896,-0.09377103748926206,0.04012384323319844,0.04729790548721457,0.13897215369574156,0.0668459196323602,-0.17062927456522184,0.03414229750090407,-0.11486799818395407,-0.10818489577305207,0.06304413184999663,-0.0340262189708415,0.09133333342571587,-0.08177690351916972,0.1261758030838393,-0.1092772497301838,-0.06528617872383871,-0.04010160988197389,0.11696548756217036,-0.07115984521064879,0.13467489391342768,0.0805677679862678,-0.013155156953451538,0.06315308426578303,0.11151090762775571,0.06033044294890893,0.07161120575777435,-0.0012667135591927252,-0.09458783649768365,-0.015944295497926007,-0.061895460879627696,0.06171728675789273,0.07794482967408566,-0.08226796401523787,0.06654473632060157,-0.07386520341932175,0.07275962613636758,-0.055975383066342095,-0.0768320085128621,-0.09587105144155822,-0.037607626081683346,0.05238364440489578,0.0727301512779176,0.023654792390570122,0.09508192019964443,0.10711011917852364,-0.04340920584086673,-0.10084104556019709,-0.0017843898810264765,-0.009670888001466628,-0.09809357426616035,0.050170255697276386,-0.024894867705772823,-0.09087241398605835,0.135950998705326,-0.03158469392489667,-0.044472414742965,0.023545329062508284,0.08116115400400992,0.023606808657590166,-0.017607225053380793,0.10541945694330056,0.1259325109075052,0.12761488255022088,-0.10369570220637564,-0.10654423585944997,-0.017056131072948417,-0.0672803466826265,0.10667233680220724,0.06826200935895665,-0.061955541850962456,-0.042675405583446985,0.09878799418932808,-0.128426507396639,0.058754503817914285,-0.07275795705899862,-0.11895237148151039,0.028625035806790967,0.010271633335409869,0.04966354822456146,0.1814969550449612,-0.01177533923862479,0.012905115644333272,0.07466308933836463,-0.013292929421156074,0.07264535327809207,-0.09077575493523282,-0.01885143420863675,0.0972789043601268,-0.028573189440340353,-0.12111128862811672,-0.09273592217483462,0.10211477224628135,0.059921952832089745,-0.06516113664230092,0.04775052635492706,-0.0717295397506994,0.11456992717114142,0.10026682177249235,0.09063077174178587,-0.09010453981170315,-0.05907713917149026,-0.012269500459361659,0.017618375058520992,0.024107621129594164,0.006874667056320135,0.04840532618158466,0.15590882622496305,-0.008790479709350495,0.014175000360645135,-0.014202735922882225,0.030162751070463307,0.11466383200504496,-0.0833333682320251,-0.09493109843361586,0.01780924874082998,0.022194850502841985,0.061482898213087084,-0.012989543347214257,0.12314928815704941,0.040279336932411425,-0.08906628532532831,-0.04597832857522203,0.061751046310480506,0.056561613152762445,0.07435294173748486,-0.004499724174988458,0.050747753752031416,-0.10418330153778223,-0.014373726604011473,0.08209135408262824,0.0006494418284683223,-0.11235106803283945,-0.1497214618517945,-0.03500139753592785,-0.11627524539356317,-0.023943487994032002,0.17440354681071066,0.04479467082580463,0.02432438471736479,-0.033045231172745736,-0.06041293108945762,0.041161612709134196,0.11202144340377299,-0.03578690220198226,0.031451741180747506,-0.06881667364747313,0.09834231635681087,-0.06249621537248016,-0.01822347622341535,0.07230962027265175,-0.10391091145259572,-0.08401575228293615,-0.05068528559419285,-0.07629826539925551,0.1881820080364581,0.11512625649888458,-0.014935773423816613,-0.12530028753520145,0.058076057577914016,0.0076592123466296645,-0.01208392576287488,-0.051952758073291375,-0.05036011690348076,0.13370093671270927,-0.14325154853145639,-0.12126121410677224,0.036762608697288486,0.08056696901179666,-0.12631450723077675,0.09293886881635549,0.08750441168705866,0.10216239187266862,-0.016068561847500242,-0.07988865928553998,-0.026242554973366087,-0.03189958638628115,-0.15438484316633894,-0.08216426043499611,0.06842920496304489,0.1379441218490915,-0.07198171635976802,-0.029804100048200537,0.05530421568899158,0.020469016198700753,0.09262702996404401,-0.02345641968589644,-0.02669367969483547,-0.07721883633751397,-0.016068050151641918,-0.08786408468597345,0.060863002405812404,-0.09262104268872107,0.018370759184213274,0.16002828843014866,0.008886281241736165,-0.1451638872003667,0.08988728563239806,-0.04823845468713072,-0.08300452806006436,0.02331150676024441,-0.007154777929128162,0.0009030262776996189,-0.15099057520651837,0.10134162931424348,-0.04879529185870846,-0.01488058414333637,0.09407256700736494,-0.08680454491473175,-0.05595507589694704,-0.05790889325629224,-0.05660577964805285,0.054144975413309884,-0.1092907555603224,-0.06660354890730498,0.004001652755929033,-0.14277922224639963,-0.08925906585901344,-0.07865004391536852,0.01314492385673941,-0.02056738535095903,0.020535771206724104,0.06183164558461841,-0.10126236227254196,0.04780236708842429,-0.030251612796219345,-0.1472784283125219,0.11250117229583584,0.0065201423997849305,0.004507116820136496,0.1462063928892109,-0.11128643625685579,0.08530121959929171,0.07798748814687521,-0.06415518890110919,0.097903120368526,-0.06348788107452018,0.01494783426801113,0.059317664743315845,-0.028774297029135105,-0.03218794357248153,0.025600694243599714,0.1675269808817969,-0.04317792063616711,0.07154229855929534,-0.05037323630542677,-0.07072549848606345,0.060089097549849646,0.048513508851230375,-0.061898595051306994,0.05524552953445257,0.017866605359261514,0.12783534220791248,0.09376215891240644,-0.015662527935437872,-0.10357032811235578,-0.07151262108047587,-0.08089465866123449,-0.016097955231772904,0.16602572419997944,-0.00482046348762372,0.08135934490071928,-0.014648913073897476,-0.04331503895941099,0.1460817490684578,0.03908844410423065,0.007714433519441812,-0.03859971336227796,-0.003304649353896942,0.0925357409653178,0.07665143708927238,0.07732548111023091,-0.06328685966932827,-0.032195316971203626,0.0463605888793693,-0.0913362397187224,-0.14896064168437798,-0.04217724947193606,-0.15775263276922155,0.0825610015776671,0.0655758695986528,-0.17117402491616415,-0.0014909812757582478,-0.0628942035386523,0.025254782775604223,-0.11148178342280385,0.07368432490505757,0.07769626499139125,-0.08031283031403344,0.0031003059451870617,0.0692652463160798,0.03434901919393235,0.08556186158646183,0.011278889180005153,0.05538120748488148,-0.06793806246684377,0.04196023996667088,-0.013714615985444722,-0.0541244727377864,0.020508052969493294,0.07187513630421323,-0.09816194733793948,-0.09725713546878234,0.1621695028362979,0.08194052950655434,0.016178169193624675,-0.06760326940901945,0.04200881725164435,-0.06504589892866426,-0.027753290787610865,-0.08128196119656197,0.04138554756567582,0.029187135080349445,0.08764138953737205,0.0065232670374550565,-0.08266983200572392,0.07460863744961616,0.07739819602555661,0.006987848231772436,0.12622358838676662,0.13917175819959593,0.056042259344799866,0.052873813093607065,0.06249497011088474,0.12294891995985582,0.11402294112780603,0.08036372771051763,0.08866031560057452,-0.11256631425594744,-0.03463898680194909,-0.054136066893674915,-0.07842941982441906,0.12971405424944446,-0.06610467048843666,-0.02565716076727177,0.05713558178182434,0.014098876257915168,0.03139510259332669,-0.05465155624968677,-0.02725332229146552,0.14983268946600548,0.014943771660106821,-0.029230322780211614,-0.0057164504902592105,-0.18066985292980323,0.11105776541420846,-0.07957041362745525,0.11482514660112193,-0.041027875773055035,-0.12499753007149733,-0.05577744440269006,-0.09268909145357332,-0.1517424277729311,0.09873528968009157,-0.01258993547604866,-0.012709047502898595,-0.06543161106937986,0.04593407539917481,0.07549410712859607,-0.01719329743228865,-0.020478899177921162,0.11620636861262021,0.12104993964987137,0.11936101260749968,-0.09772536572818492,0.05548419379409419,0.12666880443933431,0.04663709571126677,0.04884326552524078,-0.020680482207326354,-0.04217285205119176,0.08057154937512392,-0.025158610478180955,-0.058830634568670326,-0.1000320825669984,-0.06192083618864966,-0.09353193335580412,-0.09502801221827388,0.09513257934937007,0.06180431215957791,0.05843414424840296,0.10419035748092796,0.010621072530676961,0.05191899962759466,0.11211860073392832,0.10494754465276669,0.0690620396859753,-0.10202539037293637,-0.01604536540702878,0.11148147177130754,0.04368933218966403,0.0011875189347992845,0.02875198484001635,-0.021530783929785507,0.07949765849211476,-0.08692786890952756,0.04648259132047537,-0.09510198410578313,0.10069203182573898,0.1257843258334272,-0.03716586091644114,-0.028535539132644016,0.053863304953188265,0.04295379909201473,-0.04973879609490186,-0.10320196772669904,-0.02407873370797903,-0.061237896083886925,0.01699657448501566,-0.019221461082227553,0.11939912400415884,-0.10401413986774369,-0.023715822584967187,-0.29011798928784266,-0.0768624777576787,-0.11132245260191052,-0.11917139195948419,0.020434600341441837,0.00015138907796987539,0.08989236082289459,0.0022398107394702186,-0.013032276929784656,0.026322169840383398,0.00280947156386934,0.06892543587618387,-0.032132279404681066,0.11792685432750724,0.1161334820011154,0.054178708633264225,-0.1404891664434313,0.02146335677784613,-0.06000796147366377,-0.012015449868755045,0.08671419471258358,0.15585308870676365,-0.10097766738726179,-0.012374033149167744,-0.049262287969837906,0.08346771098314733,-0.020967474412292318,-0.01901572293620189,0.11269730823769158,-0.06506927418816286,0.12022472763479192,0.1098350023543905,-0.10443676676229627,0.03858376479937327,0.04669048592043894,0.11234765498984137,-0.08895621631890767,-0.05499379134470185,-0.05633757324718071,-0.04341061283073157,-0.014043856078843342,-0.054284355581740426,-0.12727109641719953,-0.09609615891917439,-0.10194642567648034,0.06290786104837438,-0.000805634690934115,0.1285880121756022,0.0922708477521798,0.06901112841812534,0.0065596854088152984,-0.010018323524539453,0.09737838377115936,0.09422671528108308,-0.10405641524445963,-0.0020706510476727175,0.03787741230017692,0.08866265806974478,0.04082644354978541,-0.07816344281960651,0.0421107695029954,0.07413046899625535,-0.11984285271189184,-0.06718823100392929,0.008569823317236895,-0.02064824152845077,0.04036628721575864,-0.09233933234498773,-0.08590233804973128,-0.008724800374759038,-0.028292406716977272,0.0980307887817012,0.058899888920285165,-0.0692557853828784,0.0007065229218366428,-0.07620593283793803,0.08092189016644959,-0.019673306437641577,0.03904334667251496,-0.11782326975498747,0.015534373619312576,0.1968397121054771,0.11663278680637228,-0.042959206305411016,0.08652614795238588,-0.0815522580521137,0.01566551719161401,-0.05651422751950776,-0.007697594669493709,0.06238676952452247,0.14034876665054952,-0.11257084521958739,0.06704268012705633,-0.04402230754717415,-0.05794115162692395,-0.07718315449955433,-0.11060724476623159,0.10954988666836765,-0.026052178858709283,-0.0899633294058701,-0.05839795717148776,0.08987868862543781,0.0024185217165222173,0.07698235597955112,0.06055886502829439,-0.11189692493850648,-0.05860876978197515,0.18370297076422024,0.06504352871287945,-0.001896167178020117,0.004486958313719433,-0.006820688229361782,-0.017469189585163362,-0.09424960525200671,-0.017750850262993282,0.017219004588566292,-0.09628963725293986,-0.050291252592731546,0.05462352370122574,0.09589888303292805,0.14135036971566403,-0.04466016710724149,0.11075833015054092,-0.09180005761827585,0.06640517994789967,-0.11432727354615743,0.028873547818126396,-0.0738635224755091,-0.10492113199159245,0.06038406292440607,0.0883690464612966,0.005736944278336156,0.004570273438226596,-0.05053458687905601,0.18370112521236456,0.010300130333103124,0.026555690312681728,0.10549488793733362,-0.12384265143092385,0.12287319649216949,0.010804600810586583,-0.09909975276631496,-0.015320726371170363,0.026816552397835657,-0.11083009123624295,0.1105743870921994,-0.09691522014978522,0.11914892540952507,-0.07568849115392293,-0.060804076151842704,-0.11492419113682584,-0.02105109176556314,-0.004458413575950328,-0.011574303758995295,-0.025203471488370075,0.07614964405309015,0.059391342987579344,-0.023879639549310775,0.032363539461765456,0.03442427739563107,-0.03203309753794002,-0.10648458255750638,0.04355791290492346,-0.05107698788813179,0.05263868849114533,-0.06747370074527552,-0.06117035145716446,-0.059338304891291486,0.025107734993916813,-0.01847787514503091,-0.012400234639816729,0.06160280849126225,-0.0951400945762289,0.11749648790823243,0.024282347819032057,-0.08281148576947592,-0.07147349285700642,0.08239554232677969,-0.05461189516590118,-0.1203120392910182,-0.10833384371117244,-0.11445101300416265,-0.011251900190592962,-0.007982162347086525,0.03640478249054062,0.042931611148926144,0.10206930506281127,0.13517397829311006,-0.11531729782459034,-0.12020770513285679,0.08924237250458615,0.03033683717555376,0.14822846442690776,-0.06282088075574838,0.1312461051672339,-0.060971810905259057,0.10464233189787056,0.014081579992652747,-0.06413528628967413,0.16333262108969016,0.0858313448972412,0.10888970206620789,-0.03672212114523691,-0.037734642094516026,0.08057829527763434,0.06102520335422016,0.08169414099398571,0.04781488288417029,0.034326214182050445,-0.10437288470298813,0.02179088883148201,-0.11453744786170092,-0.08743771015585165,-0.038380478296349475,-0.1314425834810872,-0.004300447671099549,-0.11519434139184692,-0.12353078206080743,-0.10888568027580416,-0.02275440057215516,0.08894682510735549,-0.017330598546576804,-0.03667379284225973,0.02667913040049345,-0.0639851553724022,-0.021464011302205547,0.021887376562037816,0.17390071846000082,-0.07808737451195999,0.06250736160228515,0.018026245124753936,-0.01231185459028523,-0.08973255044499669,0.023644295677772164,0.042844651198233254,0.06385480635368676,0.12154157009784476,0.07462527227483025,0.019538161440877402,0.08695886797947912,-0.03527908231007102,-0.0655064552518415,-0.00973448567228879,-0.09553168550190182,0.05703752110874175,-0.10128927826536713,-0.0024539263123132364,-0.038439204616990526,0.10597581948410092,0.03523898790591024,-0.07509189352449987,-0.05582524406794894,-0.11014439416199179,-0.062276247598901345,0.027623503875732074,0.09084207740342355,-0.12798419761891533,0.015550510099263875,0.12558662436527332,-0.02887760705593692,0.11572348926540323,-0.04537593104350753,-0.12695705313937278,-0.011405437566717965,-0.06597114711317274,-0.11166253355098756,-0.09589811982022516,0.10411021983309435,-0.017261372892965345,0.1428063927284273,0.08981135282318117,0.11292048697102153,0.027871156377743577,-0.009777650733850918,-0.05725459711134553,0.027146351174180714,0.14089312946895247,0.03607989410026891,-0.05363090312803588,0.07492514730153302,0.014337475726456257,0.08516364988150243,-0.05449709443998172,0.002972469871196935,-0.1319894367225492,0.008374466418014589,-0.11224405006985134,-0.09761670913943774,-0.08289968795359168,-0.07927177066120566,0.099698466086044,0.15923385810464652,0.04510148105231463,-0.0027492879184405315,0.1042981186045858,0.11475243070533638,-0.07946723886665202,0.0891129163804969,0.0598119376304397,0.01506259808170765,0.045996477990131256,-0.006849754193204955,0.13030989422725664,0.07868818081540255,-0.05621287269862766,-0.08258390236243635,-0.013752843427525398,0.030836356714507466,0.09081705188960654,0.06427328901089356,0.12110152351037855,-0.09256439586654314,-0.09402897328291235,0.06389956397247308,0.01727217966967588,0.0008410620038144592,0.05674913593777069,0.03294732653660532,0.03592136348534318,-0.0009282506671724512,0.053519060563615946,0.11789240777465124,0.07290240005518281,0.09903421821191244,0.10312823851871371,-0.03163671646785716,-0.04147585831363271,0.05508605005067315,0.034646657903300335,0.13280022665779992,-0.11270331020524799,-0.03566499448610031,0.11262942301762471,0.017882225111355107,-0.0735323043280227,-0.006881986243564665,0.16766698911412875,-0.08158961235672647,-0.04501198264924385,0.0638081170017032,-0.09207634596381911,0.08198688110949745,0.09951028631598466,-0.06705474328892388,-0.008186097299339504,-0.03690491572196177,0.10840011786078257,-0.10305742062527702,-0.01781485953580646,0.16750014562528076,0.029242166200045057,0.007937831756294799,-0.06447790326297502,-0.22001388733163335,0.019816922086146348,0.1090464750165467,-0.04708751785631959,0.04515267914203048,0.033624170737303435,0.075595702767563,-0.015097197409913355,0.08137541951892563,0.009474909546151392,0.07696059539383229,-0.021869823303362367,-0.043634610775203156,-0.018818107036457407,-0.10924064815298558,0.02115895533589656,-0.11218382015742429,-0.0898716985071422,-0.07420473944219651,-0.08383565423367917,-0.04005914527874369,-0.027387943168439087,0.08081943485624586,0.045162617507547055,-0.09909446880218736,0.04731330672293426,-0.14897797551412229,0.037010230404483514,0.023201012962666422,0.056072189807901324,0.0014556878683306494,-0.017119967918842054,-0.06231630806421585,-0.06427533655142839,0.09584965940970401,0.12001752439116829,0.0565217006756932,0.07174935300926094,-0.14307767071870545,0.05034472972891868,0.014326566540293895,0.09371791827247641,-0.13552657986218705,0.07192587104910403,0.054866308701093776,0.00000726611194629828,0.0600013126227917,-0.02818653696242088,-0.06623468682333467,0.007782504621116844,0.05601593013422777,0.030074963267432968,0.026346076296611166,-0.03924769851756733,-0.12157253569743033,0.11399804935507382,0.08023199682753218,-0.060176054478611046,-0.11051954023658163,0.03886443785035308,-0.0020302101926059054,-0.021891923820908907,-0.13148204756000645,-0.10506084626724514,0.007557330933974475,0.09212762203587177,-0.011885439046571068,0.02773611908910813,0.028723802453240677,0.001953916292848073,-0.15647008482840533,-0.04574960399115854,0.03968812649388546,-0.05973004714154896,-0.06384890229104051,-0.11967695978532467,0.05432578290768047,-0.07043707933780882,-0.023112348468566114,-0.12920042877677157,0.022719897145315773,0.12776883531185493,-0.01622491281002356,0.038997037125007274,-0.042029373222341834,0.0799200554457014,-0.03202125542201644,0.08641291055250502,0.02539500497587443,-0.0747266734735157,0.041014894278943344,-0.12078206814074322,-0.10005745845861824,-0.028326154129629983,0.06423420881686685,-0.015559368077843923,0.04904388863574191,-0.058266105766264654,-0.07701773838883111,0.028154723086836964,-0.08175025241194686,0.08074553265893421,0.11281514178959635,-0.04379347603202832,-0.04084318825450907,-0.000548669436702477,0.09270828629838386,-0.04542622956303998,-0.029611590984676736,0.004818486603010585,0.10983041115687482,0.060990190715819584,0.10889409171250901,0.0001324128048102377,-0.037838244541547904,-0.022764330662000978,-0.07843606327598625,-0.006309584531259241,0.09601191957261773,-0.07455486234519094,-0.04791967428012213,-0.04423672794164759,-0.05152847621784861,0.13217243876078108,-0.1200449338806487,-0.005017851995979014,-0.19485588124840605,-0.007602065278515067,-0.08324572866116312,-0.05785202827273385,-0.07479500620622292,0.10450144926398403,-0.007612119764938313,0.05987368762034479,0.11910436535142821,0.10137548998749661,0.02524310095863742,0.12573066662430274,-0.10190300793083873,-0.01858298679991841,-0.004788547490488687,-0.06717461034099755,0.06055630080638257,-0.12469542626637593,0.06625510887354097,0.023424769081681427,-0.019961792924358887,0.11773510454144721,-0.09010778394395899,-0.009889142972373784,0.053593104028056275,-0.06342867343748282,-0.1027101635813806,-0.004208152079901764,-0.04483790899925907,0.02962939779847277,-0.08557683467001455,-0.0020323317486469717,-0.15108478561217203,-0.0979646798151044,0.034737896783185465,-0.06074682517655098,0.040652432701262044,0.017066305592652247,0.03212631972743221,-0.061504823957598105,0.03899152071011548,-0.05347890097851531,0.11201452836007385,-0.06421883888297689,0.08754226322776212,-0.08710620883280308,0.10912744904243381,0.11112036704335912,-0.009378862517442063,-0.0011959333608162173,-0.08215161195173133,-0.12167833538127999,0.11513166203569393,0.0398119332706112,0.10220300337887375,0.028441515662479253,-0.10802579170106717,-0.010402695798273624,-0.029985085268146267,-0.06403853769816792,0.10587836530269232,0.04329742873427586,-0.09081488846557775,0.04559542954863207,0.13139804632129867,-0.12902568656280097,0.10864142891212372,0.11270463791721431,-0.08645808720664414,0.08515729902759903,-0.08296639883825166,0.024339147517792644,0.04049474793377924,-0.09927622082010923,-0.018372838945142748,-0.012735396545048185,0.011762221477446606,0.093716108676812,-0.08540554606456445,-0.03543123887619095,0.09875194890930888,0.060079351030095304,0.02031941315067825,0.06553637242446013,0.07391188704364347,0.0794442936916536,-5.58191661492851,0.10087129754256147,-0.24524863742841438,-0.03661382937514928,-0.13617609116323937,-0.4075754532994386,-0.11290261294191435,-0.12723700393581322,-0.0976192890090537,0.5405526417285516,0.06681323479225161,-5.490895361961602,0.03883458894216902,-0.10639467175343771,0.05792185166855722,-0.08675211762685889,0.11021534903670449,-0.0795244975910851,-0.037242058898158535,0.064024035851537,0.056460232502271404,-0.06764783846744905,0.0838443937053521,0.022220219512685394,-0.5282023165446983,-0.47381433481010415,-0.4735744380560871,0.27092397425058007,0.43170901973859127,0.05932943703304377,0.02988419891578471,-0.23376939853836826,-0.300948750830431,0.05516052719327131,0.29338635950883385,-0.055269255391266724,-0.07776415771482,0.39697030720809395,0.04370949137262677,0.06819590123968498,-0.14075218946382162,0.022407473346098723,0.039694010128211256,-0.6901815709962005,-0.1658692765152863,-0.1854425566199879,-0.016237067909916116,0.021076460155851014,0.49536061748499066,-1.021992008552367,0.8233679506364093,0.025466769037924813,-0.8348902290257685,0.17751573890284938,-0.29394451075433586,0.11537820469829413,-0.5232472267324568,-0.2461180024362189,-0.09404665767245549,0.6016169107146885,-0.27893648232037527,-0.1946455717385363,-0.24230027710765883,-0.2947892889520642,-0.26679195618151613,-0.5291324488662357,-0.31716943790504065,-0.25686494969438717,-0.3718562736651985,-0.576558989481458,-0.35255900300839876,-0.22024893793957864,-0.5284591276359156,-0.3560688129413429,-0.47695528346175936,-0.42004268669714445,-0.2287078602010092,-0.2883029571361106,-0.2583273655956367,-0.19221188328667266,-0.5492072658636007,-0.18778723595775854,-0.3413191788720212,-0.29240426719148366,-0.10828272765638486,-0.3821570985021899,-0.2681139143066598,-0.25393258879927066,-0.3211330116997219,-0.28621115986771134,-0.38757690196948275,-0.28412905710058206,-0.48986017569792145,-0.23889004921603005,-0.3931630342294609,-0.3011013287509447,-0.4918686321378682,-0.41326458139039507,-0.3122903047752255,-0.09177048856637704,-0.23735953077144467,0.22076333318989066,-0.38508395786228194,-0.2371588257286213,-0.08634516887836909,-0.38202500048403293,-0.4140053316110563,-0.40720038009308984,-0.7643514708545717,-0.4460507709939779,-0.6033364115265945,-0.254578146114191,-0.2556790766028934,-0.4006265462264513,-0.17874931720667311,-0.3228511186115522,-0.5042979722588963,-0.3550102153603238,-0.10641389983126442,-0.12063562399141087,-0.4946337421241817,-0.26556551245645893,-0.11428124752272109,-0.14267507793710082,-0.40670676605230577,0.006780688861467059,-0.04451848562313034,0.11565847502662789,-0.04759468522522497,0.028650261651457575,0.01687871642810356,-0.010556909103438532,0.07075711576134851,0.08095012317327974,0.004916676842363588,-0.01733684809612571,0.07602640429455666,-1.4686761899518048,-0.0897383259758588,0.3693616297944442,-0.07915501484697646,-15.520065645873728,-1.0626774407889052,-0.10879018619096101,-9.607428784456891,0.07496526099871856,0.6717657618418995,0.0323977877713902,0.28280129765525736,-0.0883204269520032,-0.0191436340048483,-0.11351321345176185,0.0036983424028511677,-0.10626059583916067,0.002141284431633756,0.001715887361002216,0.09592104022321932,0.08583502735687892,-0.012433386575772493,-0.05079765658904772,-0.08452423141076403,-1.360198890736164,-0.1284147556568182,0.27461922526607196,-0.2699745328688147,0.12542349878315126,-0.0673855939693246,-0.0010889743327700807,-0.3997146774785647,0.10622789786273613,-0.2532713045944496,0.10168911476101089,0.08613983406212106,-0.0212873145146016,-0.04537790633715626,-0.014278366620700166,-0.2794718852649047,-0.037393771425901196,0.09134544998684366,-0.6180070923584082,-0.17237005528555785,0.01707167085078644,-0.061891182352499685,-0.9886142279363903,0.09737479401500432,-0.15015053617644358,-0.17705501803337287,0.038239178870431094,-0.07651515012221119,-0.12846812827261286,0.17626169921605828,0.00043799294563634517,-0.40447372419183086,0.1702401824687529,0.09251960159178049,0.5264167163251048,0.07422163698422324,-0.0038844415170279298,-2.258086179424976,-0.6333698976777493,-1.204511715202487,-2.098121642928203,-2.4784615999869386,-2.024561863846622,-0.6951693227627402,-0.9851608651630711,-0.6453068867109563,-1.2890117049430612,-1.8996210144280963,-1.4961768105662712,-2.4826448295741383,-2.274470927501024,-1.1188153299378405,-2.1935034745116115,-2.3714989950339467,-0.8364167137163865,-2.464314296358821,-0.8133982525678058,-0.6046072870315682,-1.9130757206768947,-1.820996443657382,-1.1423004960718977,-0.7869972843805326,-1.7693325520434833,-1.7838884652076707,-0.6910798989232674,-0.800148721238714,-0.7387046762983849,-1.7217136888565134,-0.694879830735615,-0.9010874529369415,-0.7023133193207276,-1.7285544334203609,-2.3606163219769676,-1.808720345452361,-1.9871018675632852,-1.7724826622333922,-1.7938258314756523,-2.287767802937049,-2.3013262368180434,-2.367924990694719,-2.293978421830427,-0.6547512472186996,-1.8233630077017762,-2.34846344879218,-1.3624326860904599,-1.374018478998618,-0.8010844192120674,-2.1337192461816294,-0.6723998254504104,-2.279432083093302,-1.8535737511326884,-2.161754681698786,-2.338853262191204,-2.4297988545619655,-2.29685819666289,-1.245145126530656,-0.764629281464724,-4.228262512214925,-1.5955172784555334,-2.0839499132372374,-1.8500834205438648,0.019118352690861727,0.05137705509857407,0.1122557672045305,-0.030016157407220113,0.005519651619288987,0.05107471302245787,0.010005084749275264,0.12655995099564127,0.00000824300248698548,-0.05134395628369533,0.03296588717781894,0.013273854819066724,-0.7793862352279507,0.05258283356559812,0.08268297830038986,0.035986032100850975,-0.8271479813472002,-15.455603702472398,0.02373722337564566,-0.3384447871849101,-0.038176011173127355,-0.14605282189233568,0.02549961930485802,-0.26910425757964523,-0.05252192679049863,0.08554628712500467,-0.03554751680606407,-0.05174379160391802,-0.06836671601291519,0.01649357190067107,0.0833948006259371,-0.11227381612625056,-0.12374723147842029,0.09824568257883118,-0.0194840392080145,0.033623835276455155,-0.6876639742035696,0.18485158690398132,0.5389625263131859,0.10275054698869301,-0.47657079126236224,0.9235140358771612,0.0818026924677393,0.2265546956760603,-0.34401984798848617,0.10884975426520534,-0.10743913837890992,0.055922648430040765,-0.2263872653492861,-0.049672566282682545,-0.07135496787733492,-0.19653879620498657,-0.2746953488826296,-1.2683935606849905,-0.0018932483353046887,0.10602174554954291,0.03341514002472397,0.014530200106174753,-0.14976249213453363,0.488163985669759,-0.004164082775101784,0.7282639742682346,0.019031475003997125,-0.3030119096074894,0.5459195867405238,-0.2130521587161121,0.026728077325400085,0.09193460622192273,0.07196271788499994,0.776816174533143,0.29485193241671115,-0.47437144233460793,-0.19480405370168194,-0.8009437124059108,-2.7571439664633735,-0.8090026389084927,-0.8535022667154574,-0.35173602336813403,-0.32087126894835094,-1.0071314041820352,-0.33306107605128576,-0.16728205411749514,-0.1167101172573293,-0.8306158067126779,-1.5644400450908347,-0.725458324914361,-0.29807404201189913,-0.8576817911702274,-0.9023579667021154,-0.8867064834918853,-0.8421176266099059,-0.8270216850547188,-2.9027066252799156,-1.1999608787397584,-0.9243249328439659,-0.9115597703928132,-0.7234697763004695,-0.8375040164190047,-0.7452602050727688,-0.8353561618451361,-2.854960578389768,-0.7929148155722693,-1.0016480256676834,-0.9716781377451668,-0.23538139071796502,-0.8147371341853779,-2.840242571237181,-0.3536054648701522,-0.2591776013737676,-0.9887414680215855,-0.8963488537332448,-0.6747355561324799,-0.7682438632452265,-0.7250962301049415,-0.7975366257525919,-0.20835361870523172,-0.319057214669784,-2.743608821202753,-0.6727605494492416,-0.19450878210993736,-0.14713038433101586,-0.883171625467344,-2.753951508680558,-0.793881646111271,-0.8949936062199292,-0.7233137873080481,-0.9105110121640013,-0.84663425724881,-0.2108435916385528,-0.8808162552464346,-0.8418507508103911,-0.920774439156803,-2.841650835371932,-0.6813023554937383,-0.29453142654826947,-0.913539124707016,-0.3606270957668555,0.00353473880687027,-0.10159171483587152,0.06943222007347784,0.09097054858274128,0.11537470621955936,-0.04880715991666721,0.0006169728114179796,-0.0732331812515734,-0.028359575413203893,0.018634020805820804,0.0010952543146782367,0.09840692659730041,-0.21928922883503577,-0.05600769567094918,-3.7099469375247613,-0.09470390914131306,-0.1250174580737216,-5.993424123020839,0.1053136040804463,0.2779229626650122,0.007593054081548523,-1.526286334752697,0.016476651729789658,-15.589660815112858,-0.1102178799359439,-0.038399752857913985,-0.07841140719302273,-0.09965215839266753,0.04117150940901265,0.0600999655706197,0.07839001229975363,0.007002247163557999,0.02975575789935317,0.05248328860675572,-0.03433574005530461,0.07488131939536308,-0.3037639950985451,-0.11882082168672503,0.20873698505224744,0.3272095591272174,-0.15444455983465186,0.0999174330273081,-0.17603757862869743,0.6167853372964154,-0.23050019085695522,-0.1578476210595437,-0.18711077718356442,0.10526023429373978,0.09371176142083304,0.1763828433847107,0.1925643319261604,-0.47683342390362204,0.05708448394912845,-7.111258775279303,-0.014597202013655015,0.7334612550838426,-0.012641448509429607,-0.044195966395189114,0.06576224357079499,-0.024943691795870637,-0.5654595199095942,0.17642590425089533,0.13121294550423518,0.2424254833003357,0.4677651275472979,-0.32278896360627446,0.14881662322924188,-0.13385776660486776,0.37706569268957735,0.11882815237016237,-0.20970215401364098,-0.2564970163544497,-0.09698798447064635,-2.0781999786581435,-1.7933440777717549,-2.0085254708607447,-3.180865870105669,-0.33521536592632584,-0.36185834277831164,-2.9755192809445488,-0.3960807760440389,-0.2891690693512987,-0.21648237444985094,-2.014190648891539,-2.995895158980142,-1.0730064049610442,-0.3737713688046479,-2.123308604981955,-0.9431279583250975,-1.0960659682418603,-2.030163891926132,-0.9188604639830513,-1.7429329213254117,-2.996906144565348,-3.1558930231510827,-3.109846799193953,-2.0976101288436126,-2.1051561749904577,-3.133500911857883,-2.9514431202459344,-1.7550524409487205,-3.036771946664083,-3.090368242262863,-2.0591000724808985,-0.3235021623213527,-2.0066533286834103,-1.8666474801533417,-0.2710791181964739,-0.29893734340936196,-0.24157870138908782,-1.0216951051031298,-2.1011220382441294,-2.2169028129181143,-1.7182809376539334,-1.3586151503645971,-0.35551940031942564,-0.3478647595260576,-3.135256544416303,-2.028106951454622,-0.2655775066315024,-0.4021897879497205,-2.1859755675035,-1.6607566164695122,-2.5891592552955176,-3.043661638178209,-1.0542651571676889,-1.9962459901847764,-2.095377928185916,-0.262770638349629,-0.7512228429321144,-2.1226397910841595,-2.0775661426956433,-1.8237459584838682,-1.0280035487863228,-0.23438434834901825,-0.381960039152218,-0.18491870678744757,0.09233997725297119,0.08199548178694878,0.05350005599769319,-0.11054388185336698,-0.04342425558450307,-0.010682126865132285,-0.002454731010438139,-0.04739142888991482,-0.0653848834403648,0.011736436925386007,0.09777682918509288,-0.07293624414534747,0.1804299366927334,0.03454182976596019,0.05610761910163731,-0.004998618026457128,-0.1864098717499442,-0.026684179285361775,-0.07557070962534199,-0.5148340879642932,-0.07694958304826796,0.25566629743945657,0.10366801708047028,-0.24736764889020657,0.052293351435521856,0.10739167642018536,0.03943118429188251,-0.043647491460672365,-0.049473738314162234,-0.06393169072322967,-0.05431071766871236,-0.04155020310358201,0.07340881305492288,0.04684654032298015,-0.08183950118344326,-0.06585295920921018,0.08070031479252035,0.12053070723829509,0.0015562281110155576,0.7696855993797185,-0.20776503667143228,0.18443704957017218,-3.004212583332916,0.39258492614843793,-5.610634732551897,-0.5565869732885558,-0.003226467213484435,-0.19832604453954789,0.3386991476173067,-0.13723393203394646,-0.6413886519791181,0.014164152885856427,0.6277332038834027,-0.19600165761349256,0.05584790169322852,0.02930178040623156,-0.4076600355393856,1.8238457812396915,-0.2397661468095463,-0.2660914879908439,0.584993257146518,0.6390922936960177,-0.5862018362543922,0.3739695795804876,-0.11583026366805799,-0.15631607068288553,0.3461637604610709,0.09389605698770678,-0.08182976324351281,-0.12809915738351257,0.6035155367576523,-0.7440193940822044,0.52140898688917,-0.16266903389594545,-0.07525307948234519,-0.1398120653366584,-0.1368627750761009,0.016892617975028456,0.05984747677231194,-0.14013720111776906,-0.08390513063770597,0.0914798611153682,0.04626745240808963,-0.3090429504408739,-0.07814920060065038,-0.1138780161285465,-0.04688191581216791,-0.15941082362065223,-0.06046689484136267,-0.24300298299685957,-0.25820641193663707,-0.2002971213415931,-0.13483727592476047,-0.13641638926924193,-0.12934899761980057,-0.2696190110098079,-0.22584658359407694,-0.23952164150078792,-0.2200758039819415,-0.06397259061454,-0.18048362067884494,-0.11961526374968476,-0.2845680652481334,-0.21562005313566118,-0.048417621710201794,-0.1994641791543092,-0.08430919681116167,0.011612708044783964,-0.03406849294514029,0.010867951617885388,-0.19986299031572868,-0.1869311220051175,-0.27380420071067446,-0.21489283878308496,-0.08034066262774006,-0.018854951159564856,0.036104541116168065,-0.1138335148587716,-0.14075347775665004,-0.05621758921510519,-0.10747833327282486,-0.1462831083131551,0.0030159398822389074,-0.217285413208653,-0.20232712876030468,-0.10707118574565876,-0.2644072444947117,-0.262578049725289,0.022418618089364725,-0.29013804291125644,-0.23348599883546595,-0.17940212217690474,-0.12269975748962733,-0.08066547664115724,-0.0396864106803113,0.07447931394227823,0.04917664522068929,-0.004537732052865849,0.040119039017147286,0.07703680850770489,0.0160377192422932,-0.06080449269811835,0.08004008244924447,-0.039930196172356124,-0.07404189804809111,0.004241887993714958,0.0730835789018991,-0.01781715171582693,-0.0965642817500806,-5.854143392913428,0.08245123304404768,-0.05848326738536025,0.009961831551497755,1.5189971350239426,-1.997301140512615,-0.09249907984239869,-1.3337436608220592,0.09204648695209876,-0.994194499482111,0.0650695356600555,0.6360778813863748,0.01768963780247753,-0.044598542634363275,-0.04678312525695564,0.09192052303532078,-0.04779514433861959,0.002076840225494322,-0.08651609009526709,-0.04989314403084428,-0.04829781661260985,-0.07278828657696766,-0.08087641405287614,0.011495242660511116,-0.29240946991904043,-1.3028282519813732,-0.24740728906776524,0.063993510168868,-0.30997312179619274,-0.2057740807606345,0.4180881044631389,-0.5564769798800985,0.2472832600694247,0.8334120967916956,0.22513342918809448,0.03222809619415332,-0.020173063437136696,-0.20993445224710042,-0.0680985257928193,0.16738746179631042,0.3458951815903782,-0.0332339457309231,0.28010493271960474,0.5380669445779331,-0.5945540604162246,-0.4554062951293684,-1.0064496690785212,-0.06242701331169295,0.3822494125119607,0.40450949781609485,0.11240958366894374,0.4333514750653515,-0.6087730094408834,-0.009191873458773564,-1.406345632409781,-0.08816970325801023,-0.7730108008754775,-0.2753142007945492,0.14205322088409142,0.5116217563860599,-0.39961952370811055,-0.2425277078072841,-0.4261088504715791,-0.36830706663532387,-0.324304400351561,-0.41827735954894957,-0.3346717294031771,-0.4726739669612437,-0.30877009166783176,-0.25772026998137415,-0.3342307479304896,-0.359476820239102,-0.2668459304571044,-0.3511530758658568,-0.33862604524409295,-0.17747574523736417,-0.42968139140306794,-0.3075512742094732,-0.36298871249196274,-0.3871599467618734,-0.21485067608580302,-0.36932007396109967,-0.3746800247806295,-0.34746421651206405,-0.2937643478015905,-0.47643710576480675,-0.367627710872369,-0.35006070254740634,-0.3309769958180293,-0.042690926400406906,-0.20884732883842555,-0.20707500545175306,-0.22574971525718146,-0.04803623832647331,-0.16760141437099474,-0.24682929453201433,-0.32038854701477476,-0.22424542694752952,-0.3894877723599932,-0.36727319978442385,-0.23977760569452936,-0.2919808162513965,-0.2677150255151317,-0.2581264433276074,-0.37233726265633305,-0.22309504975904337,-0.26422846169307806,-0.3920433269976143,-0.32331700386182205,-0.3376374452189871,-0.09711593925202402,-0.24697629783007347,-0.33125369536838484,-0.2236728646720043,-0.33567362388812766,-0.42689887739150656,-0.38547382264974517,-0.32026639431792603,-0.21110843381759292,-0.32141694393590486,-0.0529616169663025,-0.32156795339050925,-0.34719252456674443,-0.3591157886079252,-0.30702901384477393,-0.08397356401145539,-0.03285782398205776,0.04878120355541178,-0.013301717802249187,0.09077929457093521,0.09539272584924455,-0.11494358859193515,0.06831134980388562,-0.08268539912370156,-0.07901460627256046,0.07881196011781402,-0.07299548306939778,-0.18035596161503767,-0.037092363361962526,0.09778335716974348,0.08322602514511987,-5.26827433075646,0.24276026152022806,-0.05521004506619264,-5.312928235230325,0.06584882746216497,-5.294745864841825,0.033965571145483195,-0.2662336114910152,0.10199084197140207,0.0355171872634376,0.02204566822810616,-0.05355902838094613,0.08584104059692188,0.03865875186376666,-0.08746109536243973,0.04903770515428317,0.0222327823183174,-0.042147043422718355,0.015424881139365684,-0.06106967503819935,-0.26780235304189615,0.8273520187743715,1.9136506885688744,0.049956497764111825,0.18646202846833118,0.5104824333693794,-0.9240648176121551,0.27763599788044907,-0.06820168204356551,-1.8730979223827005,-0.05032929935602545,0.5104242389171587,0.05860723518340622,0.20961224761160738,-0.3107482325127858,-0.23916440366328393,-0.18617385784857418,-0.6842466254328878,-0.40709133718099544,-0.11093373573091969,-0.041744675006424245,0.07461753879709346,-0.15222423756191397,0.09923249251393407,-0.08516305945016253,-0.5288864880323447,0.11119387768081682,-0.05757232730924666,0.27349972454375976,0.21677087504429718,0.361049056526511,-0.05275318854844261,0.32275095569635437,-0.22594575077759227,1.931556255053048,0.11296994444570027,0.7447887340743384,-0.5581738786408216,-2.6635292568483484,-2.468778947068914,-5.423689009779304,-0.04963492246873537,-0.490856947738096,-0.3548964895656462,-0.13765899546167765,-0.3617979075800218,-0.45428200501000193,-0.38419646162381293,-2.0362327446161133,-0.3955955864079165,-0.20153228958892946,-1.4200135579727435,-5.740907524608072,-0.3187031814552979,-0.35778441503105324,-1.0399409580103813,-2.8447809960951482,-4.3356915748492915,-2.2130886714334888,-15.580841797882861,-1.161912860854234,-0.43608357433835226,-2.1494402338877054,-1.33977611340527,-2.815652287759365,-0.8268125351071962,-0.33455275437673704,-15.446823295653683,-0.23920469694023075,-1.1427575443318165,-2.6911733315095008,-0.2902491162731332,-0.39313578902123364,-0.328870860628256,-0.8588351052758865,-0.6966989122097775,-1.410365711445191,-9.581330184237627,-15.37055620236487,-0.454214833349271,-0.47904846097372117,-1.0124249364478692,-0.34122207224182544,-0.3688532867445484,-0.6444576726866871,-2.445442718389712,-0.8028171245248656,-0.1113484501149215,-1.0537771174407253,-2.5369429251672515,-3.5741030470348916,-1.2398281291278432,-0.5092262669570675,-1.7682589820282602,-2.08520578373928,0.04278405307911562,-2.3877936212602813,-5.3846677755509145,-0.5040843901619146,-0.27808251475284407,-0.22421359102085622,0.0004671218188166838,0.09098028101044395,0.009073210581421885,