encog,BasicNetwork,java,3.0.1,1,1325026194585
[BASIC]
[BASIC:PARAMS]
[BASIC:NETWORK]
beginTraining=0
connectionLimit=0
contextTargetOffset=0,124,0
contextTargetSize=0,50,0
endTraining=2
hasContext=t
inputCount=36
layerCounts=36,51,87
layerFeedCounts=36,50,36
layerContextCount=0,0,50
layerIndex=0,36,87
output=-0.0001323246893861619,-0.0001355200865678903,-0.0001351310587709358,0.00013448350456817383,-0.00012981028376470906,0.00009236800653761236,0.0001335642686818878,-0.00012763522560918576,0.00014308835983112029,0.00013352314512333932,-0.0001326632627395528,-0.00009618669809144056,-0.00012848910854751665,-0.00013768190722236718,-0.05801517036152291,-0.00013713145656795263,0.021227651433405048,-0.00013154147011822706,0.03679843727869356,0.024179859184509135,-0.005958711322665986,0.11404896066139653,0.00009740217561105203,0.1254826853406688,0.00012672451079130572,0.3064037303017286,0.3289903334424045,0.0001366074336793727,-0.04265660712611703,-0.036329445320622,-0.06066756146972084,0.1411243089566722,0.059195805373253606,0.05750522554878204,0.00012821214977041574,-0.0001359295071311227,0.00000000000000000001,0.00000000000000000001,0.00000000000000000001,0.00000000000000000001,1,1,0.00000000000000000001,0.00000000000000000001,0.00000000000000000001,0.00000000000000000001,1,1,1,0.00000000000000000001,1,1,0.00000000000000000001,0.00000000000000000001,1,0.00000000000000000001,1,1,1,0.00000000000000000001,1,0.00000000000000000001,1,0.00000000000000000001,1,1,0.00000000000000000001,0.00000000000000000001,1,0.00000000000000000001,1,1,0.00000000000000000001,0.00000000000000000001,0.00000000000000000001,1,1,1,0.00000000000000000001,0.00000000000000000001,1,0.00000000000000000001,1,0.00000000000000000001,1,1,1,0,0,0,0,0,0,0,0,0,0,0,0,0,0,1,0,0,0,0,0,0,0,0,0,0,0,0,0,0,0,0,0,0,0,0,0,1,-0.0001323246893861619,-0.0001355200865678903,-0.0001351310587709358,0.00013448350456817383,-0.00012981028376470906,0.00009236800653761236,0.0001335642686818878,-0.00012763522560918576,0.00014308835983112029,0.00013352314512333932,-0.0001326632627395528,-0.00009618669809144056,-0.00012848910854751665,-0.00013768190722236718,-0.05801517036152291,-0.00013713145656795263,0.021227651433405048,-0.00013154147011822706,0.03679843727869356,0.024179859184509135,-0.005958711322665986,0.11404896066139653,0.00009740217561105203,0.1254826853406688,0.00012672451079130572,0.3064037303017286,0.3289903334424045,0.0001366074336793727,-0.04265660712611703,-0.036329445320622,-0.06066756146972084,0.1411243089566722,0.059195805373253606,0.05750522554878204,0.00012821214977041574,-0.0001359295071311227,0.00000000000000000001,0.00000000000000000001,0.00000000000000000001,0.00000000000000000001,1,1,0.00000000000000000001,0.00000000000000000001,0.00000000000000000001,0.00000000000000000001,1,1,1,0.00000000000000000001
outputCount=36
weightIndex=0,1836,6186
weights=-0.00002703576769840861,-0.00001157235029359515,0.00000186123513980957,0.0000069024729339069,-0.00002789956613709592,-0.00000776870726043253,-0.00002112209080946083,-0.00001453029567267819,-0.0000124666000822845,-0.00001120043416670289,-0.00000805504657955939,-0.00002828275532133871,-0.00001522027541231164,-0.00002810642011746645,-0.00003450609416575246,-0.00004076637314419634,-0.00003007826632636746,-0.00000819132523385934,-0.00002235061049654815,-0.00001033044034783809,-0.00001580584457972439,-0.00001205897198640108,-0.00003720054881013163,-0.00001016951387088405,-0.00002497487384701346,-0.00002506445700210152,0.00000717412399426079,-0.00001676213578690757,-0.00005046960384566411,-0.00003613054096280209,-0.00000903783455288491,-0.00000015180809802727,-0.00002837032740688342,-0.0000162256112172763,-0.00002070666414540559,-0.00005171908838091471,0.00000034221044367059,-0.00005801486587933784,-0.00001800788670658188,-0.00001039556203529376,-0.00001065123151536317,0.00000074750201196176,-0.00001216696496391986,-0.00002024313207323294,-0.00003119332822068955,-0.00002198964266772095,-0.00003522401560576425,-0.00004317931154535066,-0.00001963115015874257,-0.00002214131482532734,0.00045127617945097163,-0.00002973708470601102,-0.00001647536960248859,-0.00000087004087711936,0.00000430987635933009,-0.00002984194915642639,-0.00000650887168875639,-0.00002288062295743972,-0.00001533888794881667,-0.00001405215037427498,-0.00000954154100536948,-0.00000849960366677572,-0.00002650832337195712,-0.00001189606810972891,-0.00003429020621937191,-0.00003429090130474353,-0.00004488746914822833,-0.00003539993252481243,-0.00000079250542194657,-0.00003209009825171162,-0.00001330324164794856,-0.00001693666289891872,-0.000009292059099769,-0.0000356966795526883,-0.00001195436199106968,-0.00002713129272629742,-0.00002595019450735691,0.0000063607361212623,-0.00001708059968242459,-0.00007368203526997129,-0.0000362717545782982,-0.00001602888645126594,0.00000526055298022003,-0.0000245731243636982,-0.00002294658684911317,-0.00001666399276461877,-0.00005398017612750271,-0.00000609509584343032,-0.00005803233849734932,-0.00001417790373782488,-0.00001789726150778698,-0.00001383062706571875,0.00000499745563603503,-0.00001542679495517336,-0.00001763167879833422,-0.00003424795061455947,-0.00001526381575156959,-0.00004426154158934236,-0.00004597998637137657,-0.00001389213549615561,-0.00002320660281897178,0.000489208902847438,-0.0000299205407410781,-0.00001279601615660286,-0.00000108764303870322,0.00000762278240763672,-0.00003146397433856714,-0.00000558934193720147,-0.00002418036957720171,-0.00001737259069238961,-0.0000165800980150358,-0.00000504552767541466,-0.00001007815935014973,-0.00002683040462362801,-0.00001450356120356046,-0.0000303440253092887,-0.00004040873071994046,-0.00004095047498953665,-0.00003239534041152897,-0.0000010309891176792,-0.0000287702430448887,-0.00001425445957201025,-0.00002092345683945761,-0.00000769549432348762,-0.00003384236873126976,-0.00000976555974586507,-0.00002888331982335741,-0.00002750696392656696,0.00000783887907088935,-0.00001867453227919588,-0.00006676306663444376,-0.0000361607481920985,-0.00001526444295900712,0.00000398846218522991,-0.00002539401580071678,-0.00002614226970152604,-0.00002321377266937351,-0.00005351235692647382,-0.00000151229957181547,-0.00005868266877435667,-0.00001633151138095773,-0.00001245260462963812,-0.00001559814053439691,0.00000501707917871554,-0.00001331871670093573,-0.00001563234162670243,-0.000031751752175073,-0.00001485244088986545,-0.00004267544958834551,-0.00004693556346244316,-0.00001399519479302272,-0.0000210107779371453,0.00048448039278523215,0.00003559342634147926,0.00001216006185562562,0.00000262323674281003,-0.00000464608899043933,0.00003514473899172799,0.00000220197670565223,0.00002168657564269266,0.00001509720911074676,0.00001707557861674926,0.00000786677772204997,0.0000095820394080279,0.00002801042222134925,0.00001588000506531901,0.00003068289774773851,0.00003586806170996154,0.0000406722178311872,0.00003330453196305662,0.00000215074888234758,0.00003388982274957907,0.0000143610255336069,0.00002127174233376269,0.00000563752871357943,0.00003510432820447826,0.00001599603182486762,0.00002736991977490395,0.00003321151870038812,-0.00000626196973557978,0.00002070273626167809,0.00007881736874257294,0.00003494502435586476,0.00001630035029565378,-0.00000186481960636509,0.00002757282405922057,0.0000269325870348883,0.00002030821212384826,0.00005662527184161676,0.000002884540114097,0.00006033695498898846,0.00001672131205827139,0.0000135028186730627,0.00001270211975170144,-0.00000241813298001791,0.00001834272288354005,0.00001484488081923983,0.00003177590921938908,0.00001509901725337721,0.00004725855959341383,0.00004268788672181667,0.00001274901412569043,0.00002485510689747963,-0.0005085814258096174,-0.00003060338795349195,-0.00000880536733759013,-0.00000338992711943003,0.00000223006052646921,-0.00003084401342853292,-0.00000001064451735895,-0.00001920418937515067,-0.00001631944973311287,-0.0000137247144271011,-0.00000586542060728152,-0.00001272318548824245,-0.00002839803824944951,-0.00001351393400659815,-0.00003140255793633097,-0.00003581679274959242,-0.00003854811172708945,-0.00003219232340077722,0.00000065913748982475,-0.00002658429870540735,-0.0000122193725734406,-0.00001849938909005451,-0.00000514976315184264,-0.00003493772454750828,-0.00001250801474662512,-0.00003079689652368769,-0.00003029175787030429,0.00000812488515433831,-0.00001580243693908886,-0.00007159907668704033,-0.00004151534073344276,-0.00001403356999129522,0.00000516575694712979,-0.00002183276133347307,-0.00002290145705795006,-0.00002123764733225589,-0.00004855217300889088,-0.00000013795285973652,-0.00005552685579739097,-0.00001624165180522625,-0.00001238483056455457,-0.00001233863980305032,0.00000304109143685175,-0.00001673602918427688,-0.00001725679890875506,-0.00003301886369241637,-0.00001383530793037008,-0.00004100334899976182,-0.00004168125712231384,-0.00000890535158128229,-0.00002376530714977396,0.0004709998727154075,0.00002666701083347654,0.00001296674558081845,0.00000293668076809087,-0.00000350030301429263,0.00003252035215259476,0.00000085300254728338,0.00001897698184096257,0.00001583158505231777,0.00001366146502801208,0.00000624085620178865,0.00001095321832102133,0.00002654520865950538,0.00000935332392768107,0.00003388174233048251,0.00003142076501970631,0.00003494783851903189,0.00002847708626920207,0.00000290789192961486,0.00002234620033199098,0.00000854481677957702,0.00001505377027978836,0.00000814491144451447,0.00003761373556586438,0.00001608097516437793,0.00002578451326066023,0.00002941235050514865,-0.00000965428367232327,0.00002061466547571725,0.00006300489451524106,0.00003578866473784332,0.00001220861045549341,-0.00000373826157529378,0.0000196982948086047,0.00002316166592458781,0.00002344783632097342,0.00005400210603183702,0.00000096286615132489,0.00005457702651243243,0.0000132825151963285,0.00001456367484889145,0.00001035829245501697,-0.00000129223021846363,0.0000142817585716743,0.00001463760047826403,0.00002993533402205006,0.00001394386435929454,0.00003556795088996871,0.00004363097732354385,0.0000135599213428319,0.00002167909482889626,-0.00047382838440339803,0.00003004010961101245,0.00001360257858402284,0.00000011943341052632,-0.00000547155942481281,0.0000303904905643506,0.00000122234435348034,0.00002043420196269348,0.00001362793080752091,0.00001547388356532933,0.00000866028513104774,0.00000898871525503464,0.0000275460117641908,0.0000146126811366482,0.00002729020933094492,0.00003753263914278022,0.00004061958876351995,0.00003304934141691805,-0.00000011170865072201,0.00002772790649231678,0.00001559415113484069,0.00001769087987651872,0.00000898015780700684,0.00003723601702181831,0.0000126040678925543,0.00002955865512740012,0.00002676306857162844,-0.00000834577517248119,0.00001953426893812885,0.00006810173985138116,0.00004005994516787699,0.0000143759302979668,-0.0000057651063763594,0.00002179910937300253,0.00002351911672697549,0.00002047941799256636,0.00005110572508558519,0.0000023608232992329,0.00005653705586559318,0.00001480661118460954,0.00001278426459595501,0.00001404939462284358,-0.000002846635521335,0.00001626579480451138,0.00001720349757887816,0.00003169401895476104,0.00001610917768873844,0.0000382441038684458,0.00004400028566368519,0.00001288180901811828,0.00002568579716130117,-0.00047423473362119865,-0.00002785475888467794,-0.0000082184712396281,-0.00000272896359238781,0.00000741514380457624,-0.00003096660501540941,-0.00000592876567967099,-0.00001971285883403219,-0.00001447713327301755,-0.00001076089099860334,-0.00000895522985158899,-0.00000764773870238457,-0.00002652602336302425,-0.00001718271260504194,-0.00002683232145345942,-0.00003383056323318744,-0.00003686799839174232,-0.0000315328894935343,-0.00000211548013477069,-0.00002108626966512703,-0.00001364178573599357,-0.00002025169203365181,-0.00000587617856472955,-0.00004116966290413306,-0.00001361076165647312,-0.00002354703874602285,-0.00002983756642596494,0.0000095980360689112,-0.00001406812465159314,-0.00004395430040358311,-0.00003731932610125038,-0.00000888906157426691,0.00000005502769565593,-0.00002604259192674212,-0.00002591570214553947,-0.00002192025498816687,-0.00005200513012601041,-0.00000070094207548428,-0.00005638190841628583,-0.00001645928459932496,-0.00001342779012108129,-0.00001501793781446594,0.00000422068170393099,-0.00001227516667018071,-0.0000179141373468323,-0.00003316617205321301,-0.00001570019232032325,-0.000035787457382875,-0.00004655474844823302,-0.00001859943498225066,-0.00002494599452349613,0.0004516136959452322,0.00002928967375045373,0.00001342579171544736,0.00000060960037379098,-0.00000602123099847564,0.00002833915505523533,0.00000392139865352436,0.00002065857317590457,0.00001665709438135124,0.00001640163521642713,0.00000758855325079266,0.00001032877910088112,0.00002794235324384214,0.0000148307887159665,0.00003168294372193651,0.00003496162563802814,0.00004450669692583223,0.00003137766790448665,-0.00000025223331492822,0.0000309593296631171,0.00001301712021160253,0.00001993675838314406,0.0000066371058343939,0.00003563892516794352,0.00001134435463503707,0.0000319949874109609,0.00002884701900501215,-0.00000491833793036157,0.00001591877443251175,0.00007660400194980817,0.00003891925160188661,0.00001484913575574737,-0.00000813274503984829,0.00002321363919253936,0.00002680223901002522,0.00001926759885312616,0.0000524140549948061,-0.00000045630342623415,0.00005692781826869686,0.00001647278895295509,0.00001113288618756499,0.00001566576544402062,-0.00000383229705927713,0.0000198644618006047,0.00001839210450437835,0.00003555502168078288,0.00001253321118922496,0.00004157308415917513,0.0000426753657661853,0.00001108598273039984,0.00002417078553132625,-0.00048776098129754643,0.00002764731126707178,0.00001211988572984751,0.00000479036986290879,-0.00000819228492329672,0.00002813017442521539,0.00000333150939276508,0.00002190024512090121,0.0000160524557527572,0.00001851346728952434,0.00000767427541967614,0.00001075185762862758,0.00002557582962637523,0.00001639960408400547,0.00002787410171123656,0.00003452420748278297,0.00003928560402473323,0.00003454871533317014,0.00000173711114896175,0.00002248380757346904,0.00001232233674040145,0.00002559417901161158,0.00000477655377993881,0.00003576934133925585,0.00000881770324772355,0.00002765274903717039,0.00002584407514954277,-0.0000092047306136251,0.00001683860258292534,0.00007104999308874983,0.00003678756593976884,0.00001474527814886148,-0.00000888973936126248,0.00002402922784449872,0.00002404241487637559,0.00001876485521744904,0.00004893186458169421,0.00000267667051565495,0.00005331388834528134,0.0000181980914943729,0.00001331669378298804,0.0000115481198244356,0.00000018449702539705,0.00001601293982097051,0.0000160832427093994,0.00003035816053956983,0.00001426945614048593,0.0000381606755070632,0.00004227768318104319,0.00001551189973986375,0.00002642467520385279,-0.000466615769964317,-0.00002758341091266661,-0.00001444592356761631,-0.00000129916401142348,0.00000721101566476534,-0.00002921002593207239,-0.00001077375487328093,-0.00001552060949559508,-0.00001682516600548946,-0.00001285468316388688,-0.00001097490026281221,-0.00000798814555074986,-0.00002817795217434781,-0.00001291307392990882,-0.00002508871181915449,-0.00003224957854065068,-0.00004252950099379364,-0.00002981646144938059,-0.0000035547378816655,-0.00002330746480170209,-0.00001024857509623427,-0.00001634389233529134,-0.00000938502176201709,-0.00003974586618248581,-0.00001153231114583451,-0.00002618335305335422,-0.00002604711415309601,0.00000464966867903479,-0.00002011525306588826,-0.00005206527285025496,-0.00002560212461658449,-0.00001080780781102623,0.00000196580141349546,-0.00002578502005872752,-0.00001471899020133811,-0.00001962309775324497,-0.00005129191298574845,-0.00000136475270979515,-0.00005434180231547168,-0.0000148094625811429,-0.00001113554947841045,-0.00001498757597535971,0.00000643144419301848,-0.00001542983663719191,-0.00001900675084668689,-0.00003024308017661636,-0.00002109524124404592,-0.00003443861207544732,-0.00004175075322262084,-0.00002180362409110196,-0.00001970272647361001,0.0004417418510531548,-0.000021114268999009,-0.00001028876689365128,0.00000238114827174951,0.00000813224076791322,-0.00002964133523634193,-0.00000279575638449412,-0.00001728907320206218,-0.00001140343841364844,-0.00001206657449889227,-0.00000868611584712831,-0.00000624043510456577,-0.0000254093128010705,-0.00001561253552600633,-0.00002511851049027006,-0.0000295836298170126,-0.00003747692521751034,-0.00002807410791677859,-0.00000546882446642722,-0.00001981750763209845,-0.00000891914990524716,-0.000016455731842599,-0.00000676389963462527,-0.00003766647735193187,-0.00001564552083247207,-0.00002233607236436857,-0.00002368096693802666,0.00000943425298553997,-0.00001537993072754883,-0.00004417477683298951,-0.00003351558058142313,-0.00000751589586268271,0.00000055391563050834,-0.00002017072267293984,-0.00001832604316001499,-0.00002680370725008116,-0.00004564482876304594,-0.00000096934639330935,-0.00004949979996070928,-0.0000172754067030144,-0.00001244754474356949,-0.00001051934361127847,0.00000378776480528712,-0.0000115362004708063,-0.00001609132686295064,-0.00002654162366055099,-0.00001722936816463866,-0.0000317627042555044,-0.00004283238347535861,-0.00001783949511925406,-0.00001775021935682305,0.00042756144987781715,-0.00002893483241888735,-0.00001217408845190762,-0.00000451891048328508,0.00000352943439408069,-0.00002915410994790968,-0.00000135579816602931,-0.00002216540057962338,-0.00001294045780809456,-0.00001489128783181386,-0.00000867816799464445,-0.00000902901522817956,-0.00002806952266337681,-0.0000142883702438507,-0.00003218525538300961,-0.00003578251957139122,-0.00003408826820148767,-0.00003437418663092478,-0.00000156310128476777,-0.00002879826031167698,-0.00001044700992048487,-0.0000203854859955341,-0.00000896561104183191,-0.0000398698510637366,-0.00001233123906810316,-0.00002648260867851258,-0.00002790591075495082,0.00000993898127102064,-0.00002157473579975595,-0.0000665681562888863,-0.00004087785408264247,-0.00001385307366662589,0.00000945599824568074,-0.00002404797174739194,-0.0000276919698831694,-0.00002324040138363764,-0.00005077303131116755,-0.00000029894274815533,-0.00005583278890585285,-0.00001664772093705375,-0.0000145259011939657,-0.0000128073677405314,0.00000188913690168418,-0.00001432515674143159,-0.00001921375718350045,-0.00003014320610090382,-0.00001249199692253162,-0.00003770146627795314,-0.00004370922974301519,-0.00001256755894009209,-0.00002392746814596764,0.00047313257760643547,-0.00002986146465740157,-0.00001448790101678154,-0.00000157290035171387,0.00000576038537890801,-0.00003151291022951273,-0.00000366859985393503,-0.00002007483080758546,-0.00001518403604473867,-0.00001659175575282775,-0.0000099462959341326,-0.00000920485514721723,-0.00002696652372133113,-0.00001507641681283659,-0.0000317671062853486,-0.00003646109629389436,-0.00004279786082805256,-0.00003419965004771452,-0.00000267520606646127,-0.00003145620377933056,-0.00001090156897679691,-0.00002152117950423439,-0.00000718339116051225,-0.00003696979527122579,-0.00001204396244382976,-0.00002763197098980705,-0.00003234338675685485,0.00000758373611946026,-0.00001835336041159761,-0.00007517899392986283,-0.00003804974578356685,-0.00001440567920622532,0.0000054437550355755,-0.00002451835501509721,-0.00002385494215498694,-0.00001890278896669315,-0.00005148961638744225,-0.00000128999231139747,-0.00005626076127396506,-0.00001592931684945996,-0.00001362519654316168,-0.00000980142663530546,0.0000016153750926542,-0.00001665337857318752,-0.00001604225166872855,-0.00003222527086834907,-0.00001253866453791287,-0.00004155278390064792,-0.00004489410649501285,-0.00001366205811422741,-0.00002515230846557708,0.00048772832976733897,-0.01797150709578089,-0.00853260796453661,0.05775625684826514,0.04084008033556546,0.0321318047104509,0.028792116723466668,0.013265507845474749,0.04830382371332708,0.02984949512763217,0.04628284689168563,-0.05125222022284102,-0.019263993171394322,0.006846880359966223,0.052119716990136455,-0.08834434009311075,-0.05300327350640767,-0.03196703765383587,0.04658615669491982,-0.007205633790089557,-0.05510192685400857,0.0627231701082498,-0.037441766353445836,-0.011137061682973707,-0.05693510416022144,0.012889960908657287,0.0389739746751824,0.018100653325000007,-0.03942192405077504,0.005693447233058573,-0.01833214981364681,0.00616100031726212,-0.04252885064361993,-0.019124347168781402,-0.01845928646268443,-0.06365153803865242,0.018834770543648804,-0.00038982948232974235,0.018530565427702234,0.00037848646656690873,0.02229154391535741,-0.004867473845315253,-0.035447712777994654,0.0157758186366206,-0.04204574921932261,0.08143630037712805,0.009724841274541816,-0.008747522997162019,-0.0010315210155653499,0.015419757375074374,0.00862490926302183,0.046018548257212584,-0.00003131081268092544,-0.00001395897789433249,-0.00000225852243662148,0.00000456859303187692,-0.00003038210080377108,-0.00000132080719855117,-0.00002073134762544141,-0.000018508635356853,-0.00001506534629155723,-0.00000943543512009584,-0.00001207229576787688,-0.00002687347229475634,-0.00001797353262836129,-0.00002926094569950486,-0.00003280865836564604,-0.00003876884623808111,-0.00003451324858390895,-0.00000273738475727939,-0.00002586151769780459,-0.00001122946237414092,-0.00002018089873472174,-0.00000805133989366898,-0.00003598485688102061,-0.00000991027707343726,-0.00003119999563401907,-0.00002609969553406045,0.00000942301634924134,-0.00001746746149192767,-0.00006702081808184746,-0.00003963098414599523,-0.00001345817913347654,0.00000479416306357884,-0.00002530782811077982,-0.00002936186773842437,-0.00002075194726038412,-0.00005377357268695448,-0.0000035388440107823,-0.00005742649536861888,-0.00001607275311631989,-0.00001043798256933059,-0.00001278661041089669,0.00000034744790950727,-0.00001618408572456339,-0.00001657352328632414,-0.00003262125174503522,-0.00000962339363102366,-0.00004171151509716084,-0.00004383853599936019,-0.00001430115175915132,-0.00002418357249091017,0.0004771036356700236,-0.02456220794425527,-0.015101771019963234,-0.006660620352346815,-0.028852132800740726,-0.05346344735814215,-0.0034564593116662647,-0.006294849462725955,-0.0340645323693896,-0.020779318756343788,0.005959927060450166,0.013960335408451242,0.0014089467806983427,0.019538454940716106,0.011644885783722653,0.009533271799173248,0.02519888863781586,-0.02012928999677022,0.027314593764452798,-0.01509497913263078,-0.018669116219065716,-0.0008884394150621822,0.002327296580788745,0.026833431969729257,0.0034871475382755204,-0.02645291016800876,-0.0006749678373893819,0.00597058298445996,-0.06395975641977134,0.017740036821202752,-0.019576277309492778,0.023641451924788653,0.009345401565796949,0.0004907407421209706,-0.036812180867025604,-0.024314824943305457,-0.05287777632247219,0.0036530693323581775,0.024062777668591096,0.00048400083751894385,0.0076128720673174916,0.005894116506845536,0.05425843378188748,0.00935547990061428,-0.01866534893582033,0.0042366829691495005,0.010563007642863132,-0.017076348128580266,0.046239719271166754,0.00038999853556178986,0.02925017283140049,0.009784850165447117,-0.00003259839783204647,-0.00001867644849981152,-0.00000350490247653402,0.00000846175004953632,-0.00003101517998359067,-0.00000223729236677247,-0.00002110160823424891,-0.00001486372707859097,-0.00001479856576620012,-0.00000725772244934682,-0.00000918636756408181,-0.00002730522297705791,-0.000014110855748761,-0.00003097734935225424,-0.00003493727255367736,-0.00004287581660188857,-0.00003453991157868219,-0.00000048949825692087,-0.0000311584442600173,-0.00001317091057845656,-0.00001769816247896206,-0.0000070579346436562,-0.00003610617930234418,-0.00001385480684961151,-0.00002878550444307132,-0.0000249998852870763,0.00000919469515331983,-0.00002201327574945718,-0.00006883897001614004,-0.00003536638738641116,-0.00001394747297030186,0.00000108494905057234,-0.00002562156234143554,-0.00002497041468728534,-0.00002334884667459906,-0.00005430979302195856,-0.00000435238811603022,-0.00005890364623534363,-0.00001357008025842297,-0.00001525873404352483,-0.00001573057616052073,0.00000442044126241038,-0.00001595051181838642,-0.00001660924564983348,-0.0000314942263641263,-0.00001546228392012174,-0.00004146701000352316,-0.00004614927507238696,-0.00001225837938491103,-0.00002547440825506389,0.0004864865200421377,0.028618308220375015,-0.005443959950137467,-0.05780564162562423,0.030956829417158917,-0.035948702387299435,-0.041718026243526586,-0.014398169411366108,-0.0038532437291178643,0.043516356263538156,-0.04152786923352556,0.023746672488901617,0.020956818937807212,-0.012318338126057005,-0.02089967912583404,0.007459371174302171,0.0031668682180386863,0.04567430530853825,0.014684035877829531,0.027166323444355645,0.02403115632106537,0.02822884180791432,0.0005718792080831704,0.012344356605438965,0.03857718516591512,-0.018337849066160056,0.022906146553821574,0.016370817328032163,0.011847912072922078,-0.04540461667122192,0.009771975797963512,0.007504273307130849,-0.0447461914581364,0.0768207280705758,0.02409466709535904,-0.0326865157445739,-0.06522883879624927,0.017379015380126542,0.0013674636796489328,0.018515216284520804,0.02780873445597075,0.045578214696454095,-0.009687323368497045,0.040168974219996684,-0.06252655609631132,-0.0016509921836217582,-0.013298368376730152,-0.03792100336140854,0.052795084132952946,0.024558318290737246,0.04320506479082089,-0.030054342088087174,0.009159700958980404,-0.02005481046962724,0.02716789279219957,-0.015740972082943918,-0.0013513309885387014,-0.005819839686491247,-0.01575093819816565,0.007770579612859492,-0.033839980978878345,-0.011901082997936973,0.004053597766713097,0.00003260496324784979,-0.007687463771310863,0.012135854286909836,0.00436132315674263,0.010075737438569432,-0.010354158397819434,-0.011599082024743875,0.011671621268827715,0.02366357603101474,0.006831056872810259,-0.011389486238732168,-0.0036719357717746085,-0.007531814909463665,-0.004753510205070822,0.006311607396016593,-0.022449693582948363,0.024786713443331273,-0.017053075129056135,0.014098854811259,0.018687814447728972,-0.010672705387374297,0.010323298013603351,-0.007002706808732591,-0.0028951955989460244,-0.0034033502228028446,0.0014866304839931813,0.02205612002240735,-0.015664987567855938,0.03041968555407123,-0.0034473792117717594,0.021312675113652167,-0.004541217110996175,-0.020168384341682978,-0.017960709828568146,-0.008595546275272875,0.0073060416356015056,-0.0028172202118580325,-0.014067488876753888,-0.014196467810615425,0.033840289512791895,-0.0207539027431305,0.05814645968324911,0.07176088488934837,-0.019398127918492682,-0.001053839522617768,-0.010508247286681923,0.0076561959555836775,0.026041680446520624,-0.03672939541847306,-0.002358195015318689,0.013337252104510325,0.0075500598760144715,-0.01655057196049837,0.023668270371542125,-0.008590410784773577,0.022408495749894113,-0.03348021364351637,-0.011439461209283807,0.02135971797542296,0.007514536820517061,-0.01007996020304297,-0.006068812339154603,-0.01615341479643731,-0.003959909520188162,-0.029868105848257515,-0.004069150382308305,-0.009674459290576394,-0.011182512910795118,0.026184264089429865,-0.007722975782062273,-0.035270339834344064,-0.0034588085520280447,0.0024268136946394986,-0.005250181766535019,0.01811950531045284,-0.002428677954011904,-0.03383549918628682,0.025741625855019896,0.0007904772736255299,0.001215096525992561,-0.001266418187635725,0.006190242937741295,-0.003096172287780228,-0.0036077535011362965,-0.016392000032568174,-0.00850892853913832,0.005280646853907001,0.01104207409587748,-0.019350045768520552,0.033624118154104835,-0.0079469848379367,-0.06360590084097971,0.004223513937721492,-0.01675697674373783,-0.06298831986328401,0.1516081189568023,-0.04455823454187209,0.057686170910239594,-0.09178852279731493,0.010220102444406806,0.04835881836880539,0.05739674662783067,-0.012448881555396215,-0.007795620798019459,-0.05008858041807061,0.07346205555173868,-0.015767446025670245,-0.0010131137059086787,0.007298294157729992,0.08712342899116965,0.07102178922673735,-0.029563645410613598,0.014166710194681981,-0.011870279405184331,0.11688191836305324,-0.04477993596890018,0.03616458697093703,0.02614359654699228,0.09181929997191121,0.014303524126483445,-0.000823808077399184,0.03350849370338722,0.007069949108995494,-0.06125176054025116,0.0755313588451611,-0.06323744012799572,0.02520280702125445,0.020888955945341618,-0.025837711749400846,0.022489621923484655,-0.029141770124934862,-0.008185854359647304,0.07103157092409793,0.005797894660051009,-0.040539514091312345,-0.09600721114432854,0.02095478012827899,0.0031010694114099943,-0.09400760916132082,-0.02283165061292962,0.018112096469907146,0.02066077453217053,0.00002894682729899555,0.00000963748964749079,-0.00000044465802335079,-0.00000574592211683597,0.00002960139722980774,0.00000172696757824299,0.00001990730420604008,0.00001210149260149857,0.00001309749857088327,0.00000572301308441052,0.00000796123406370631,0.00002600440028220196,0.0000101564852249973,0.00002730846964868411,0.00003340664048095511,0.00003738578745415032,0.00002617252395464433,0.00000628244102680937,0.00002352428065363101,0.00000933483545514879,0.00001959796552376226,0.00000431628106569433,0.00003198893325547837,0.00001662560909812272,0.00002262172826227957,0.00002794291140571547,-0.00000731483847109941,0.00001802565567163502,0.00006577574724470379,0.00003179692965285233,0.00001115012556226436,-0.00000412734515380376,0.00001932292275802252,0.0000201492556817037,0.00002473783567528026,0.00005207832512935391,0.00000201800801108329,0.00005537454525462289,0.00001638792156450528,0.00001567995887105889,0.00001036756771510211,0.00000058884153513741,0.00001335145849493765,0.00001653938156423386,0.00002651397126777552,0.00001476549386223047,0.00003618611301198007,0.00004130572071453747,0.00001710933357618782,0.00001947627752246844,-0.0004632089109526788,-0.03360317990803776,-0.12421544340032284,0.00833282167582567,0.03433729427720312,-0.014194491094838202,0.004769681093824581,0.023364594807498633,-0.053364244826265575,0.049359306971601645,-0.012070590268625711,-0.09983615114411314,0.03644477649962636,-0.053915312418678016,-0.015107229772330148,-0.033016266702130516,0.03672083313658157,-0.008688575015490805,-0.045612222357578405,-0.03857976745788121,0.017140791945664712,-0.05463466210294702,0.034749617665972794,-0.014838228447098086,-0.023048198619273843,0.02146719347218605,0.07656998198731321,0.01652797176043071,-0.004503378985238153,0.02590987118845076,0.02044748783178777,0.001110773992997576,-0.042762272267216066,-0.0023046898425304234,0.119028517467893,0.001492928785849691,0.04995686710167227,-0.09326150585078578,0.039151298492938365,-0.03898464395726769,0.006430872910548735,0.026645670513414134,-0.03823660890386948,-0.02086056786442556,-0.0022281182219480986,-0.041583800528613345,-0.062486149881115054,0.05136036503106839,0.03685552951034087,0.017141180730184877,0.023345032667669182,0.1432123135941004,0.00002815961589259684,0.00001217484715462071,0.0000015241355663944,-0.00000341305802319156,0.00002908970542176068,0.00000499907644874328,0.00002126630379182104,0.00001382055280498728,0.00001329260465124727,0.00001068425238805587,0.00000839382871032185,0.00002831135893165614,0.0000153920878141616,0.00003096723382096003,0.00003302279335161674,0.0000413114074582845,0.00003438765082406945,0.00000638010806262867,0.00003008587405772303,0.00001176377778412778,0.00001759149610025619,0.00000547059994143629,0.0000383293721029363,0.00001465592121325948,0.00002993867420977181,0.00002777885757243468,-0.00000508504058840899,0.00001857418270497799,0.00006532967407565594,0.00003222243194842634,0.00001719837426924347,-0.00000176296486953787,0.000025869330767271,0.0000258887702901098,0.00002021808797991271,0.00005337784450670124,0.00000832887510277224,0.00006330498568974276,0.00001552425627172456,0.00001258464915902313,0.0000151621207235272,-0.00000547677827920918,0.00001487815582838848,0.00001412772339010009,0.00003130920891134772,0.00001462139326660446,0.0000425563927389613,0.00004542384353147878,0.00001785056518934952,0.00002014111375687481,-0.00048127136464679536,-0.07439485035082832,0.05374206412710162,-0.03430740905211211,-0.009632505632876865,-0.051224906741765296,0.035480699859834416,0.04844852136461938,0.02417852804336703,-0.05336011362400909,0.02448833201211307,0.16655890232640494,0.007230265162116281,0.04097191503128088,-0.0745240683000711,-0.03670749822118233,-0.018406184693078226,0.006188452459411006,-0.004763260653058231,0.03440217231921197,0.04461296539059666,-0.014857536441337825,0.008043508190785977,-0.05444118845944822,-0.005312639546748969,0.08134874099677336,-0.06076795584933899,-0.02185985991477612,-0.0029996160599526068,-0.003970121968439368,0.040671190246131105,0.003611124675549615,0.10769096801832853,0.1087075893543955,-0.08241018024897666,0.007323430483275383,0.03502690612188421,-0.00699094338847449,-0.003561534339980273,0.01739550656370992,-0.013076889988091502,-0.07722601041949696,-0.04482732342055859,-0.00000950486751746172,-0.07190383907942842,0.06649611485788381,0.031142566933217455,-0.030057013481820796,0.020443660792320222,-0.04288592071659,-0.022229436249254123,0.10591218606759015,0.09746114148891104,-0.008709142376407745,0.08831857555302783,-0.057688478367616314,-0.03586573899609217,0.09055033788346735,-0.020584479879754695,0.0054620696194154295,0.03448099161275491,-0.08134221145503372,0.03606875744098404,0.044643561508338626,-0.05473442459440199,0.051764305434856404,-0.07420236569357758,0.054132953107777194,-0.009107783055479714,-0.08167941183571996,-0.002669862340679591,-0.0795495933166606,0.06159885574141816,-0.09781932209002725,0.06481345804806393,0.004609533169864177,0.01546103530652062,-0.0005460575046897003,-0.04228839266221394,-0.037530546577223815,-0.0033742478978489483,0.08308461221218129,-0.024754677451316223,0.029752789793989702,-0.0017971448750814865,-0.0753474348960383,0.007571468639639074,-0.013927906568178605,0.02541926983787173,-0.011493213910009438,-0.10407735028528092,-0.010723653136805596,-0.017907954209726063,-0.01882380023828477,0.059047084218629003,-0.04656418911466,0.05186222757820144,0.05204477389918097,0.04472900174152262,-0.010737857890973559,0.08731763538750181,-0.025271611923292227,0.08656285407299855,0.00002726085860352893,0.00001368878323661613,0.00000422588905094341,-0.00000539021110665204,0.00003043222777444048,0.00000080218366714927,0.00001862947483704192,0.00001561343693637918,0.00001582665308090863,0.00000653214253210797,0.00001020022973294714,0.00002603920868991597,0.00001467734365924993,0.00003123828522870515,0.000034206647203603,0.00003870250772436792,0.00003182623812742356,0.0000002923063548586,0.00002909954900014008,0.00001176235444230072,0.00001867260500999776,0.00000718615134865606,0.00003633605691421717,0.00001139947094133351,0.00003101783606352531,0.00002740327431293193,-0.00000889753442018201,0.00001952029520617258,0.00006702242178389427,0.0000404900801422795,0.00001402055515443562,-0.00000160367415601113,0.00002611178072922636,0.00002444802273751842,0.00002181375145484474,0.00005092546053068246,0.00000061028062134935,0.00005823478794434688,0.00001682892410874533,0.00001368276402354633,0.00001441933643537912,-0.00000321872228268581,0.00001638938650246929,0.00001900599760188249,0.00003437773020676645,0.00001153343459976498,0.00004265596264055759,0.00004473016644535827,0.00001345041196701491,0.00002600272315431121,-0.00047960127947447234,-0.026158599845029985,0.00002072190190547819,0.009367452980275784,0.15647911196755807,-0.01923468086255955,-0.03342620862633186,-0.04484805132938106,-0.02501773821064156,-0.017175931712221346,0.08426346312875041,-0.055845533811663434,0.0824083251780347,0.068708478741162,0.04758872679862966,0.08256133647056502,-0.06650871086686395,0.007514189607063792,0.021153598742246888,0.13767117237828239,-0.04350783143343416,-0.022183776131038835,-0.008231535456965375,0.03704060403904577,-0.09534111705858618,0.015487112692836053,0.05854377401123136,-0.0335639014619377,0.0903759699846239,-0.0708158068958309,-0.039101671593894057,0.021118882714913214,0.07603548809136558,-0.023118306439565618,-0.002463619373939711,0.09146960464311432,-0.009523167020154032,-0.036151693893774234,0.0010836205093425009,0.053296740793450356,0.025141060151358665,-0.09353363116016591,-0.020665541630203756,0.014312601595293524,0.03961263035894016,-0.10528609832360336,0.05392024855534911,0.0033764337091485323,-0.06430631461635992,-0.059585502665466396,0.01349682725291877,0.06060651056366148,0.00633188463782091,0.012688631274964154,-0.01460103371855065,-0.008428125094082615,-0.011768074884669634,-0.0014360419720473706,-0.0030433662335454257,-0.006278863679131684,0.008976298938605291,-0.018131481093130203,0.016750048298243572,0.005834512518038101,-0.014307566534505864,-0.0061204273237436945,-0.01093538146504806,-0.04086535728303756,-0.018593518434419514,-0.015019307262385213,-0.014516632075175437,0.010119225008209744,-0.011613408260211207,0.008518164968501543,0.004046615772692707,0.015261369010583515,0.02025750007358991,0.017639647162760994,-0.019195912464035025,0.0531932315356944,0.0035362402499255685,0.002301662446234197,-0.016559394309649242,-0.003503227162079345,-0.005864080235616295,0.012662035606949536,-0.01942065751902657,0.014016899740850014,-0.009465693588485313,0.017043145670742638,-0.00829827342153632,0.0009647985356193114,-0.001764066123876455,0.028345015890112173,-0.010098279269226594,0.017494204099123226,-0.01822770584388552,0.03564292618418357,0.04679711683159333,0.003140092505400469,-0.011350130961468242,0.012210386502450876,-0.018643391525870065,0.07170288561230685,0.06651516070896436,-0.004635487187011819,-0.02098795152827462,0.0399734490074397,-0.06494051465760561,-0.020950278270482233,0.06328284725560687,-0.08314875244461663,0.05042081987800226,-0.0002260828437767053,-0.051538036062187924,0.016381668311759454,0.05890002989105671,0.018067456848950433,-0.07680605998216385,0.092680847814579,-0.021824084233799623,-0.061269657310331606,-0.04426295825883711,0.004152174975674042,0.037929905653404004,-0.08515591593792346,0.023513259579326214,-0.011286561763481464,-0.07163409008856335,-0.003818651895396919,-0.07987163513905056,0.04123130012113539,-0.016110175740639537,0.07414333374688055,-0.010554748673495514,-0.07121254392396043,-0.016982808248275826,0.06041352072166268,0.0020482324505777584,0.022907658666530974,0.04326821922821171,0.0766198273772394,0.002392151517880639,0.018149252652065084,0.02064328087415661,-0.04139115150498452,0.10920559617336299,-0.07702795010444734,-0.05981548940138425,0.07096099840399209,0.08822324043792684,0.08223921286943278,-0.027051219441459665,0.07119320378552298,-0.09351678744722307,-0.08390642035802916,-0.0061967422282691335,-0.026220098211367532,-0.011544678915467555,0.001681270798592111,-0.05452157868410473,0.019012413421622135,-0.09323605147921703,-0.06888173432739719,-0.10525272248898755,-0.07456229876160098,-0.026634840610089257,0.0378205195134982,0.07278747122969005,0.026107629093451046,-0.06743117686054996,0.07303839076632124,-0.04847990074381306,0.09356854091172237,0.02370436479439652,0.10617185202982424,0.014477263259744147,0.02045170795101786,-0.022199454136386392,0.021662759505780248,0.034424167772866,0.016832610729608424,0.07332681525634674,-0.0036737746213795527,-0.06927140489527686,-0.040225658844226415,0.02949839083180514,-0.010116814564383127,0.02860557624414082,-0.01426311703035,0.08230145201204776,-0.03856571210381603,0.012575247929394904,-0.017323874871473192,0.08084604028544543,-0.017277943451585145,-0.006851114220189277,0.06025580171979929,0.13561024220311518,0.028266838555655243,-0.014022077126448372,-0.020776886412544302,-0.09894716378520162,-0.08861370326317833,0.05667877496321583,0.03371830717887584,0.04559022426147685,0.023968560645098728,-0.04321314431012393,0.005596990881192073,0.023906424713992874,0.01917120617064627,0.004075653788994836,0.04733165434441143,-0.025853257612445363,0.02737732033512649,-0.005131623758212687,0.014476677224010154,-0.0013049422187149872,0.02952608893604488,0.01723580851331247,0.02603058738248892,-0.015899370864048377,-0.04659029226621746,-0.036398161780798854,-0.0071063844337923305,-0.01035315907768551,0.019901667563824537,0.0051464873652893265,-0.03665000632804598,0.0015096404687658545,0.022764479323670164,-0.01601683379347655,-0.0036505383998388227,-0.010660569210347068,0.008253544877448202,-0.0420998472187297,-0.015569845751352394,0.0010110891081880585,0.004661645011791264,0.011161951645129328,-0.014572618698598609,-0.008826852954063942,-0.012979419710985499,0.007868683727313534,-0.02856700858188835,0.012136520646208652,-0.028944600745786735,0.022210521211108305,0.008723775671392327,-0.05350234842383235,0.003042531974900101,-0.012244012606134658,-0.012226164436778602,0.0010522531831687126,0.02626857826633526,-0.022537648959051002,0.0031447887936715147,-0.05371801899828173,0.015843787179047632,-0.02031546009521857,-0.02280067154187406,0.00023932537825675435,0.017092555281899274,0.011246638929237709,-0.03184695646879647,-0.025934985448283675,0.0005822118058754127,-0.002581911549111088,-0.047728699534624615,0.01052141230381127,0.03454198716890731,-0.01620121757692533,0.025735242717628073,-0.0061309941689172715,0.012941184523973177,-0.015321215523720922,0.002171775284116367,0.04612155074713074,-0.014318433875216868,0.016761633246907243,-0.031865456722103246,-0.005864100673740406,0.009994653500898235,0.02141413251691896,0.011979375666778322,-0.005519090078204567,-0.011524763109371576,-0.025102607296317136,-0.01059212311576245,0.018497677968421,0.007018477617643233,-0.027906724563039727,0.00960448105313147,-0.01070991519014898,-0.013334546628159067,0.025838411977677042,-0.013986174295285326,0.006846048322242145,0.016489298592987207,-0.0067299197544506625,-0.010812214260658835,0.009717330472695157,0.009809257301474169,-0.011886422431936137,-0.03660024330942835,0.058928501488342666,0.00002768082748233554,0.00001346682839783932,-0.00000037717202193441,-0.00000500666763715307,0.00002753512221249954,0.00000343459624905048,0.00001829369170260726,0.00001722249982901266,0.0000134288712768597,0.00001162474571261163,0.0000076686010614897,0.00002989245695815929,0.0000169634319496365,0.0000279625729800036,0.00003550837238200751,0.00003919590979624621,0.00003012511035714804,0.00001062642540562887,0.00002518868903603761,0.00000862903208769568,0.00001499022770878538,0.00001218949142543181,0.00003734153209764225,0.00001251689218214689,0.00002698215985566004,0.00002527137425142402,-0.00000709742405782717,0.00001940578125118109,0.00005203323664596431,0.00003219436863452548,0.00001472926348472088,0.00000048724448059817,0.00002886156311887001,0.00001961309975803008,0.00002110312618525298,0.0000534438674161223,-0.0000004989570826298,0.00006098517807865917,0.00001845640366459549,0.00001021231389764277,0.00001428012152406057,0.00000035115924827135,0.0000144538169345072,0.00001849956885321141,0.00003280504851568197,0.00001912307814122646,0.00003689256378993231,0.0000437916324038173,0.00001982583863825692,0.00002086070478583098,-0.00046444492930481545,-0.00003337622440026589,-0.00001504940488151904,-0.00000428329623529264,0.00000715357029060808,-0.00003036578060182174,-0.00000227890116348593,-0.00002052134826326405,-0.00001603051070768934,-0.00001425291834506606,-0.00000797271331428739,-0.00000911828928608194,-0.000028696302903782,-0.00001365405490123533,-0.00003025562389711565,-0.00003411710207974148,-0.00004354339891671947,-0.00003534751872038986,0.00000012379140242692,-0.0000313965206083905,-0.00001277310635480439,-0.00001938805740168449,-0.0000098963819750843,-0.0000390994719337894,-0.00001215812259118671,-0.00002913665920925546,-0.00002494351227516144,0.0000058372104383338,-0.00001717875999263726,-0.00007372035486260187,-0.00003699715516099878,-0.00001132209813150655,0.00000624863032081698,-0.00002460965590779925,-0.00002562766101929417,-0.00002176322934690264,-0.00005346957334225681,-0.00000416135007379097,-0.00006164107684945643,-0.00001489110943972648,-0.00001426260535551239,-0.00001464214435682093,0.00000329462995151219,-0.00001876481162116426,-0.0000193969686161515,-0.00003116383096584096,-0.00001182071354102562,-0.00004151815345816845,-0.00004636448081200809,-0.00001305544126420673,-0.00002453330874790219,0.0004953650262291143,-0.05468721868065216,-0.03167191276829633,0.05041089542179187,0.05879412188983439,-0.137903138616648,-0.08574629216112865,0.058412573780166795,0.007215382488509475,-0.006402275578927401,0.0301547791409989,0.04792005876625733,0.05113749485232467,-0.036499837851180716,0.13347567392342188,-3505.4900759980355,-0.04484572538700413,9216.00880660556,0.06290565167433718,-39810.82282311887,195874.2665182136,37024.54402953695,-21920.999850465294,0.07640124710773867,-1523.0916908831,-0.04217135688481371,-18.585454572755594,185.09553614233445,0.13387743334993457,62414.106745286816,-9781.8842735711,-16979.03197336211,-2280.8530559878973,419.22550979708444,47173.56618567883,-0.11001261656328688,-0.07002490302148108,-1.714811114754474,6903.030081833017,8933.716227248084,11577.937306702079,-3570.7071686262448,982.6028265871611,-7457.8541576358475,6223.603386035798,12073.066983213414,-7007.849955904906,-8255.389073532819,11825.159460157553,9570.433436351843,10111.806295092112,5309.309184265037,-1473.565036944241,781.9086133518962,5828.801092352576,9409.03636350674,-9431.088358525318,5024.3581206241515,-1987.6930102577057,9524.654952765772,3680.4164277762256,-9177.179778387774,5042.3199247925495,4048.052154620017,-28012.868060472487,-7031.002877500912,3735.2441066012475,738.645622894875,-4567.49820569278,5969.819759549096,-528.830188228643,45.20880548146614,-12870.45414881156,-2395.7806468413382,-13788.221971249222,3865.0977385987426,-1780.2737854977802,-33.289245089636374,-413.240057833712,1293.460271108988,346.90570397994026,-904.9955298361208,-26.95828098963333,-29.232988572878106,1372.0686180703503,1931.8495283418206,-187.95677523877313,1144.0706929736446,-0.04580461260458138,0.04508721400593453,0.0585141138908812,-0.01793038045819993,-0.03064816259169378,-0.12072916333616822,0.0021204781083092525,-0.07602652312428855,0.06068400506183548,0.09905153765305093,-0.004668534012665553,0.012602469417505226,-0.05301318761774091,0.13164218153926888,-17882.788737006267,-0.14029222127942445,-7487.932695127326,0.014995904772743695,-1507.7537169269754,18724.885787096373,-1802.7442256328623,1729.432548129446,-0.04179047086130601,-733.1590304333043,-0.07746028900581489,1719.787121993692,2045.1105024828846,0.12391723210435272,67564.86029696684,-109981.96248708079,2432.6647056386073,-3649.368844221357,-15091.043537877005,10694.337748578579,-0.0875665716504794,-0.052316691837118665,-0.7496267227528143,7554.9951518240405,8322.403270369248,8086.251088420456,-11394.134455868225,10134.63871026758,-14790.056385516566,-8646.459010976134,11167.70844474813,-11409.117334257015,-4839.565764851013,8210.196370513646,15887.147435383138,14405.248426682872,10443.750809725636,-2210.0002542453576,11138.451736059678,1098.9478921004343,12155.963058053725,1094.3369088046857,2355.1150823544417,1793.6355564152718,7402.442789829835,-6044.579804456526,-2148.4360082896083,-5154.141306346406,-1582.216423225412,-4081.602311383635,-13270.362320541873,-1411.2105004380844,-5875.855993121725,-4502.545603664276,-6660.335877269447,824.5882478331096,519.6869921887874,-8627.25518421695,10490.408290300682,-347.2488729153778,-12387.62898342472,-7.592552974013728,-7609.311636767398,219.1794985860722,4.858078901233293,120.95161495983447,0.2504987289697255,-651.8047858950007,3.2107002629819554,-0.12711640070746147,-3449.1761391511445,-1.5841760243990421,-377.2143499741489,0.12169572598517885,0.060145297423031034,0.06442228093003739,0.03157037900265959,-0.015775151049346643,0.04546686144646262,-0.1373487071098018,0.14864531017952687,0.021416326534636536,0.026265426815493258,-0.10051773757340918,-0.04035749858147162,-0.03354578365919461,-0.009251302250552842,12554.892476030991,-0.03491931610197885,3881.537869305462,-0.05301817172860058,1115.602518768208,-148615.70482706366,110.56158205815478,-5843.341015099518,-0.013409418977694751,9848.829673888144,-0.005465158443192019,8504.615207500785,-4996.658255211262,-0.039180008136192684,-16039.30977358227,5542.327301313113,7931.1752429381495,-12400.976594936737,5738.375666706074,102504.959889477,-0.06608130549407334,0.0753103646086308,-0.8829465962956652,3226.339443765712,6040.553965881655,2318.152318327507,-3935.379433931857,2110.613610192186,-2334.7368857546567,-8064.828264404154,3719.080194959671,-6624.310478480036,-1819.6736351870015,3145.7326817151347,1783.188105519813,2171.779780428884,12673.521775009265,-7744.6266063357625,6793.4763791679825,-420.2137064302492,8377.415462533208,3.247561437503856,7.295140349860699,-990.0872443311541,164.60887586638083,-5545.779901075129,-1913.163398282492,-1006.3830484606074,-2138.7447960950344,-12236.4145941016,-2140.211514042484,2865.7119040814273,-2039.2306728144029,5927.20365235357,-4419.0406317265315,-4019.409349237254,1216.1316384956258,-3396.500102944438,4762.999104870048,-17.52320390135395,-653.0426059861823,-30483.546963142864,-4256.21864119597,-7.265080797384941,-7238.419615780538,1200.7613671125343,-2077.370131638626,-622.3461754830429,0.8868120737434289,-110.12122463299444,137.6404509035516,361.2170166199089,6700.654092362069,-0.038567370404333445,-0.07382776278038751,0.06379853876180973,0.06135424384912449,0.13366410050499528,0.09997133766506616,-0.11671875249423991,0.05891621180608608,-0.0032684242973551776,0.07679749100542123,-0.03257120681917602,0.11999526891277888,-0.07898450347102758,0.005700478856728049,-6275.421281852156,-0.12725864299142284,664.4287101098807,-0.01680432804271658,10005.08201227877,41527.16279508533,12310.620812373172,-15500.767595115076,0.0344567180635768,-7027.903872736666,-0.024547621580379323,2205.3447166623637,12447.396431765184,0.1255800181118477,3630.878546067327,138875.0523516115,4160.8959386453635,-2931.56223843316,13609.77879369796,-44413.5638593121,0.10837598627379176,0.042875264817814236,0.5958094711368396,33996.0730596046,27978.027143164887,30758.680949126563,-30625.232239859422,35129.61077623824,-20798.219112457446,-32812.58924716905,29245.5464944665,-34966.188609105244,-43518.08583488505,33251.04898322135,36428.059436932715,37556.89111403241,24873.740794322995,-4859.824266589651,37681.67196545343,3145.08705149402,33545.759216235594,-6419.092510593429,-2919.1158928184705,223.32946098883068,596.4256199452656,-32483.4953351547,-746.5668206872151,-33936.282872927564,372.6645427177044,3642.692277393312,-33371.84012004431,-9067.92636746396,-2512.0688012078713,3285.480906917771,-663.9240041322535,707.3279534433608,5647.225944639987,-33804.561131812545,26941.582495843137,1.413927396426343,-1180.7702448488067,-1.7079971754264662,-15616.42935888058,-5192.754389587734,-6931.159172730941,351.3926027093377,-0.31668479306340924,-57.50450684450042,0.5329381104157085,-3134.691781780923,-567.3738011125406,34.44997516008994,685.8514338436613,-0.07191322990134877,0.1091698119075335,-0.11802131864109705,0.11345107181364725,-0.02353673446226887,0.1304570705819107,-0.04734040041683006,0.0012184608829257947,-0.13031821978846175,0.11296665850851453,-0.10171647717966423,-0.06202688607555964,-0.11631031956630199,0.016582644702189165,5202.755197604048,0.016623378557799103,-18269.082644988186,-0.1272382710239631,2248.8647816350926,-144376.6539769771,-15021.244511746105,12450.100348052632,-0.0396751795881222,-1734.7380685577684,-0.12711577697076898,-8133.155334586543,22.214732917333325,0.015023943090136526,-18147.298613948038,-5174.858652565289,-2122.590699629843,2473.9681770136613,4074.844682922543,9453.926967847718,-0.12369570362383227,0.08499065897036691,-2.073815903790598,-14918.102846838894,-14974.14142465527,-4904.39488503483,15521.256683323398,-12497.617627445561,14736.754573470416,7683.072496922718,-14287.647180678377,12537.240564960892,15249.183849070627,-15149.534354015112,-9563.242103711636,-14228.442805007251,-10396.64574343415,-15.040812167545347,-17480.212985094244,8623.103021141525,-11922.33780573328,-170.164422240237,-171.69867086885077,765.8761324944088,-19467.283685823626,14426.494449440725,-2615.265597955693,14936.622841172917,-5032.644651405092,15857.56915262869,12195.71702452531,-643.2830753845765,369.8352638508296,-6144.380504359071,1988.4316004726097,-2021.5766908877301,-3002.209217051548,21855.52103742096,-13599.922309445743,-2.6902144971545825,712.8009015450554,6224.357906701222,436.31222629057675,-17873.444247553678,139.64208432519868,66.14819700762594,113.35818970877395,51.04135357733922,5029.479344686624,1186.892229620399,-6140.201130020572,-75.9519453083805,-3469.221631146684,-0.1237478970655223,-0.11110524781025949,0.06095232841720031,-0.1379079374634206,0.05489505260627911,-0.006046109435787829,0.07631079358561285,0.05451944334515904,-0.02159980025718826,-0.047150897518061126,-0.06474666569520765,0.06298844046364721,-0.05297870543140642,0.07491997093980839,926.7005474613364,0.054912842680064834,-43942.84946372132,-0.08793860344279116,-24732.251736957714,-122696.78751810374,-23139.47185386479,-5743.441208845527,-0.030379827350944674,-2847.8027337328745,-0.03810168147273396,3318.5809645000622,4436.5044063138985,-0.11783833089332625,6109.064201817725,38755.89170587117,-3734.1724016215335,1320.8735036512787,13774.671240645006,14506.499567567547,0.15015484647673308,0.13340531520539894,13.60425721743056,22811.830515316553,21379.03615586636,28134.544054585276,-21451.966745176433,30044.509243347424,-19945.54343382299,-22563.11122845334,20420.16256701824,-18828.73383108284,-20616.013184717303,19116.54426429375,18636.955191170902,26072.857882728673,29677.33612394507,285.9738282643612,20766.690241789453,-1977.9863304362252,18840.36026939552,10506.178175140916,3072.5895393980118,-2326.918460538724,7107.205649046609,-22266.196547438354,-263.83591838919085,-21409.6339387965,1579.8701491763777,-1734.9598793145358,-20334.81266630979,-433.227975089181,23.861416460754228,7799.4726600449385,9091.641559477914,-1133.281766431507,-13708.226662464103,-19408.343234699016,22836.84945898524,1121.6491524966857,-0.9101425656739852,-2820.2206396233228,11.99906460042099,-0.7895932196726283,-13913.12404280447,-1.7743913013279105,2767.3609719042884,3444.3465453008325,5935.554093415819,89.48851809259371,-65.70166621517441,32.41166435874803,30.2777497778692,0.023276246777072938,-0.0563561663845367,0.04624306585348269,0.10230414767451095,0.04863203533066971,-0.039627475549064976,-0.08065482384654049,0.03360880329385842,0.06792377958879504,-0.0775313640524254,-0.06016058405591083,-0.005634734211552142,0.062010338453013264,-0.058605207762918284,5333.73053141558,0.07153794435608306,-3468.092830435457,0.08993871419479814,13370.249394673352,-55570.44383937029,-523.3019594711093,-6214.33614599814,0.042946414360431374,514.042831903653,0.1333302179307254,-102.12753372746053,1062.871121752098,0.06129769553506071,-1079.6805666183961,3323.8799234605176,-10292.112126784734,-4012.169838285684,2137.0098755535378,35497.810792198965,-0.1016374033924702,-0.03454700241176516,-2.3640512740774122,17710.520880246397,12101.133304362735,17645.276430238482,-7367.514950581807,14388.83232441898,-14276.193939571405,-14084.757812285827,13226.060798510507,-11291.135026346314,-12100.350386533066,11162.318311731253,12803.692125018017,18538.51475874469,21425.95855646533,6956.653452682787,13363.018627044346,2770.5119973847513,14450.52326503668,11059.855319252001,-4367.372094351603,-1857.3980244267884,1405.963272449036,-16293.468997973843,-2673.3217889986336,-16278.268524531279,-18.28329084319473,-1565.3353440337785,-12795.826589367673,-2970.4032209657835,1533.810996071934,2918.614782336961,-1945.7722054096942,1959.3092236940288,19811.46488725475,-12404.654832554468,17012.688687306367,-1.2393177908147586,661.0564207910853,1750.7851846409762,2578.783744505469,-4317.506755718918,5853.637211003609,-18206.736447222775,39.80591643645698,63.10280785660647,-28.99393335570079,3187.36197278128,-1461.510381831935,-746.9987481008764,3.8604883722000385,-0.045656573236779435,-0.05576934185773182,0.1259943134609589,-0.07116764567034266,-0.13963712209018567,0.003306141390504278,0.1409791024869799,-0.10884645669908938,-0.1379871449814731,0.07511564822290259,0.1144373939761485,0.04307947523124333,-0.1059988719857627,-0.01007855473057552,-12788.00959381023,0.03720587375064162,8275.644752522483,0.03420592064690528,25949.485264115865,102207.44362181574,-8577.180932913634,-3834.825754420034,0.073923007088289,2681.42824811308,0.013028094187216562,-2327.3142500185572,-3861.0267190326326,-0.0034146441728269278,23010.916253365463,35103.04923738165,14659.419524630224,-34369.773079465755,965.9841403625398,-69781.76872549724,0.006391090013928829,-0.10738043453022801,18.946450829683325,-20286.221681064293,-28803.221366987957,-33769.56875265985,36686.026911966204,-24736.070503758532,22907.604158597398,30374.65792752872,-30041.19444219557,27116.04555996345,27084.244018276666,-33156.84772359636,-31433.33134534689,-28026.84477410815,-23580.592919529357,5468.281726888944,-24600.943023404623,-14293.888149496272,-32491.719278318527,-3955.217483959592,-11751.153133313102,-2469.05706214341,-1355.34742201262,24309.592001453093,8274.850400783935,20162.308406313772,9907.137761430933,1094.3431153496153,27240.323707323874,-3611.437586203252,-7921.4900017211785,-180.74453993133085,-2590.770923763345,-173.19644129342333,-15646.689634878889,34434.74562434363,-25900.880061077918,-3489.7981395515026,16.060838011071723,12.203649648636183,-108.93818016941931,-83.61411984700956,-926.3424468899939,-11.148849496895636,-20462.37447510592,-2.1443605406587993,678.9705633980539,2357.728345321922,-1477.7000975062956,8.980704588404274,-2410.925411257402,-0.08921891771878888,0.08442240913180171,-0.03582118858086133,0.13794956472908204,0.0461654007677485,0.028251450549974775,0.0051701355801413605,0.01639577445980041,0.07659663898755101,0.029087729554507474,-0.13954838007565631,-0.03812406891322769,0.0876620020283184,0.10533481517240365,8673.704111892273,0.0936950714071277,-3820.3646732964444,-0.06495607382100126,-23681.51938015235,36169.35679887853,8205.908383714703,-9518.65790398039,-0.04728552843255993,1168.815991043948,-0.018902954139354913,3838.738144601098,-8785.301254821952,0.09470384234714833,-12465.569173374564,-5033.528069623957,-853.8528665008718,-2182.4583777124567,3037.4280584216426,91309.58779856228,0.013732685194122152,-0.09323186216618641,-0.17146533337627645,23146.252626653946,27764.78183129486,26365.776216809005,-26669.614734526836,28971.38020579657,-29187.31252343084,-28563.460328561636,25595.902140715098,-29989.98921864317,-30053.399372376352,26452.45409538077,29636.168236901623,28905.235979208817,27424.322709940978,-11797.558984626812,31000.73839618197,1144.1620831815278,28114.100219589196,-2041.8997847683984,10360.83693232038,-5335.081351365514,-3730.439257826565,-29087.196452739303,121.86992158033259,-26817.464284746227,1430.890593424831,-16442.80746423649,-24924.21470247331,-1065.501945416387,578.179759984746,498.64300121911236,-3818.710496540779,-1393.9098473312042,-2921.8790452823023,-27584.66219339798,33002.64529362715,175.92777770474277,2191.1446328179186,5257.333285060735,1948.6286104041903,13.547294849076321,-44.43844589275953,18.435877970824055,-0.19298165929256147,-10703.551956013269,1.5711590512778524,-18.656521201072945,911.0538846022829,-99.3076033559669,4091.790853471137,-0.12823521965541998,-0.06631909301292449,-0.13971621410551613,-0.1385794246530032,0.09254970468399767,-0.1158114371614521,-0.060190267067372245,0.14336516084496453,-0.02269063920458587,-0.1368943337911571,-0.04044680749487515,0.13656883941199732,0.08399078897706518,-0.03540345430673796,12112.933739678228,0.05415539962282143,-6421.840609914513,0.019367652737577127,6728.786298527521,-6401.834037310677,-12260.87360460773,-3753.1442669875496,-0.05437617723270714,8267.664920473298,0.022325079464986127,4950.401712782759,3630.2341129827946,-0.10802961755427166,948.1434525785795,-1711.9251016310081,5716.8679369493375,4961.485582239088,-21299.337966231997,-83502.03593621805,-0.0680452407740069,0.0880557939327525,-0.5823223293979328,-5180.928392307517,-3278.1264606359596,-3747.82389211312,1256.892001306834,-180.29828544395147,4407.781011573069,2614.8939121188437,-3374.0572678309504,4125.9083567990865,3310.8493175058447,-4195.305688122502,-6054.159138013765,-968.4633720984593,-4467.85302227002,158.37828278873315,-4930.666660544899,-2719.8541350688765,-5386.865441925495,-4538.059824777845,1676.4952392450116,1409.975155319788,2325.590711458331,2703.998377016788,-2108.800399026493,3313.7659368086083,178.00005683620594,-14260.374808095441,4544.764629420775,-2688.0951750779677,623.9165992792822,-5920.976517668364,-15756.524644968564,5455.25371373893,10501.43457633437,3960.234102745184,-8027.525965850832,-149.6489562218077,8.638637397866905,-1643.9975930417684,-2625.811164496071,1148.239184599963,-459.9582076267328,-17.62532530506925,-1.8885950095270383,-6.6109657980045995,-28076.878331874308,-3400.5692512659452,488.3512174357484,59.12815407033212,240.10547486979473,-0.08287936019995051,0.06524063255254964,-0.11161632936612555,0.12098775702552551,0.08718098088930423,0.10616832719672961,0.014011665004006186,-0.06680892356116934,-0.12438571769564094,-0.1006575971797041,0.07785815553910153,-0.029435818678461272,-0.11785904111645074,0.10407336895776044,2000.6201283574824,0.10557878040607789,13953.969690519496,0.08947779654245604,29953.55815960738,112970.79677538565,-1230.7528000248049,-23997.92679879588,-0.019846888417101697,-1248.5330788961148,-0.12057083648665981,-4317.674889826468,-3094.5476912487575,0.10799060402187471,-17800.111440110584,-36463.598101074254,20205.20092686202,1410.4851025517123,-449.9491905837097,52686.81960471092,0.06409040990353053,-0.11608179424964077,0.8107681127558583,-25664.946289270934,-22018.877772823824,-28506.495947244835,25367.507170544908,-20954.17230376979,29218.57304173159,22065.177376022264,-23468.88659895915,21664.21461412721,20142.92821143385,-18728.34314469847,-22969.82807791062,-26681.25777179156,-25814.16657900331,6530.822997214627,-24059.84566274572,-868.4241391364137,-24455.704188292028,442.7860319144218,-753.6026591707217,6857.562551090241,-4097.43835454287,18616.11355520233,1204.8746831219407,17379.920140799662,7719.320656183446,13100.331659151523,22571.213141879252,-11932.523794960136,2029.1737837963274,-1137.2540068840008,3144.8306997505915,98.93659143113615,795.398329414527,21612.089368805664,-24103.76055830233,3213.7845882934816,697.2412378977749,4466.431798671414,-109.05350530313703,569.792972654999,-7.51403480794627,-2.6458987503075106,-0.1650137039091216,6.78439992117894,-2515.001294674731,-13381.185224398196,162.09275306167777,-61.33976530261008,-7.438806922555392,0.08060574381198107,0.12239584762877621,0.005461344960668833,-0.11649616878701101,-0.030947235505450976,-0.07644198365534702,-0.042790444847613,-0.08964893068430349,-0.07278370157428657,0.10057414301623713,-0.11288979183709583,-0.12394539809370195,-0.04434760106671364,0.11767112677450295,32053.034589664487,-0.1299395627906057,-9737.670553386766,0.08903795070205661,-13600.655329334191,-24918.92128216931,22841.538057807775,-3082.4137314713353,0.10465469142661538,373.20689971389334,-0.039689954169985296,-1682.4166039235968,-35.725107071026265,-0.04503370720038086,8992.869047926866,-29717.139416139085,3569.208998367833,18888.333872856543,4893.92322769839,-62745.88079046572,-0.09543077558673545,0.10677795960518932,18.9498097232524,26794.514531576686,23977.195583998273,17444.71709340587,-27741.47200958726,27905.239582143255,-29508.429902672717,-28321.025265294193,22888.154622310405,-26610.48069084122,-34377.5377891948,24049.352886593013,23960.665303391575,26996.744428440048,26255.018536252297,-1325.703685800562,26060.110745324466,-8711.501640484476,22037.930054303404,43.47374104620961,6684.071101834295,-10607.015290430581,2157.497426377779,-22632.848801916516,-302.2496135524311,-26454.48111468232,-1.9595846462469368,2487.963767713275,-22867.900669527702,2348.915855508631,571.5596040249335,2001.0075065872259,370.8283777142698,9169.11039449876,15728.215018425879,-28650.604815690578,28009.99306508321,27.63070014616476,-0.5047026499226682,-17.759398490491442,548.012904407767,1198.8708907064938,2389.240024422822,-16.55659982556907,36.20840719426285,-1255.5417089267362,-8.381025829668307,11924.968975524165,-21821.470590189667,-23.463122304029227,2889.4699957460516,0.1452218125295448,-0.1448559461134282,0.03881579637040769,0.10436591196607663,-0.10162494506563388,0.01686823619415155,0.045359117591927726,0.022873726742199726,0.05272347038878322,-0.1204202464616651,-0.09278736246405415,-0.052829833773718825,0.002259366903209036,0.04534025201304454,7320.839879693814,0.10038045646281375,-32818.583182413786,-0.033142704527874496,68479.0694231885,-116987.62451528062,-96969.79707175324,6699.687120916342,0.0734373115214398,5189.848216373356,0.09676788582454264,4566.209904912324,1935.6291829731829,-0.01834820656067855,5021.506792906156,46593.90998858637,-9371.652384352268,1338.0442340745062,-28729.795197086638,-6347.839817831237,0.06494250888425536,-0.06436680158024945,-5.6591505335187025,-32423.308692063612,-36984.39487374198,-35706.03277417584,32844.32861682613,-38816.08868666259,30686.80279230357,37853.8868406039,-31352.74263417624,37603.92573694178,44211.84336434043,-37261.3568117085,-31870.38684397209,-39403.12768322376,-37436.47460026773,-3061.986374938973,-35478.00570770684,-7406.700854555089,-39912.603699628016,1300.364029687913,9742.25297452946,-173.1786029374815,-8607.586204890798,39226.4027769245,9003.005245865732,37919.27964661186,-1581.6821854828293,2882.960772995333,43321.49432787993,1746.822454341125,2749.511641663252,-9449.352495229894,-2435.7125664577825,-443.75995184284903,-12759.654505412933,23631.97140464123,-39445.06881299552,-334.68056351933825,-4622.6232124674,162.95785564551636,3.315962244208929,-171.61024445607177,24.589696473788475,-220.5877684918394,1.0278347082647785,891.3266458745693,-1079.6132740597707,4942.623742740263,-3928.0169382786153,-13870.33839409835,-1052.399059573426,-0.11558328023168242,-0.07545802319126113,0.004903819502131424,-0.013005806741474165,0.008684565643896953,-0.042751343016008345,-0.10738116000673117,0.11655362757355883,0.09890234682652507,0.06421386240727148,0.12156050268308831,0.00844361048605923,-0.031167439807758535,0.12798899120218052,-18080.317380848985,-0.09540790341686432,27052.150072126267,0.04829991892832437,27756.948969037032,92933.67884125837,30425.81434367657,16785.384642113066,-0.13292526291994777,-12138.570524156452,-0.10087382130676165,-220.5643459036022,8177.421426643457,-0.08348099610296845,25317.045500268545,35345.03783901405,2382.4128136577256,-1280.536248188106,5597.8035207229495,-86566.56275907507,-0.09466622262085685,0.017731180346487435,142.54305305330394,2039.1358980312782,5006.014535940481,3436.195890761007,-7590.605899184257,8761.080315489982,-6060.745085209496,-4016.6831892655305,1992.1347957933156,-7987.468064719345,-726.5378090350979,3520.3632463504214,4001.9828311499064,4663.265056414978,3720.2739688903457,-279.02886091024527,3404.9840141166674,-5452.8674976146895,3100.860977979698,1480.210238591276,817.1384475815868,8713.235591711498,23.738043660024157,-6678.589942753911,621.9198972873667,-3704.706468884857,4.437424242974223,6827.258484924018,-3646.579318404311,1495.939063555312,-15005.631488202924,-8066.778330043387,-10544.159084974337,1302.0200262170158,4873.617377144634,-1669.5963484930285,4114.790175069102,2062.5738763620343,-513.9412610026102,1110.5603735404895,3146.6391694814965,2498.9738159762273,-255.77572111713948,564.621573449609,0.10732728310462208,114.49039673902512,-494.4694136878278,3.4532532063319827,-202.08685673228027,-20.603371191613185,-16112.153313403285,0.054816998647641925,0.12561172330567436,0.13714211110746738,-0.009968799649005919,0.0660162054712379,0.13588640146091366,0.11904910525912653,-0.005012323728136477,0.05750710465964214,0.1230185258593965,-0.11388911546801066,0.1345878890548762,-0.10089870192136145,-0.1235200537385951,-835.2774100797354,0.030050984666133797,-531.9992791478295,0.0400334539854206,85270.3527382585,-137487.25227518106,-41295.15408461295,-2516.583361102295,0.06277799620353987,-3292.2281265700653,-0.04167262872111161,-4896.352134142719,10100.764557707109,-0.02198352825106159,-15883.826099745229,228816.3424522204,30716.755626866285,-2477.3777489927156,4943.895743300297,12348.426107246261,0.04243912556285894,0.08250490623727005,2495.128363206843,7022.945802699439,13345.030159306934,17417.056926184978,-13924.687958274186,22233.259083974328,-7414.566233281046,-14375.118056236084,482.0820034950961,-13813.212360854184,-13853.573812426286,4385.169941241631,63.240235798926,22668.512088837902,17469.550153052773,-3772.2208826747324,24188.947695396986,-4148.407622501878,9669.17338999327,-3918.607147659429,5405.572127299176,-3291.953552716517,15.604075931970064,-18421.002148650376,1501.270167338953,-27580.554813948078,-1937.3228174618507,6678.62044075068,-16728.473846056306,-11258.447781183002,-4858.986556671701,-5780.0761481264035,-7897.667699112797,1108.9718505821709,-2173.991528869615,-10256.067252954797,16492.506582427686,-2.3040365456614076,-5631.429237640004,1696.8295400618838,-47.54765494693238,15.140548640902654,-45.727636734017906,-26.021759825705875,-3.558676634481945,-118.9663395236359,-2145.8257654523377,-173.8094643245674,3635.6182858501675,231.984230991922,0.244288338660351,-0.03347179057374557,-0.13306180382974192,0.08326757908015466,0.10395800612369617,-0.04842876320255334,0.05836010695464422,-0.04631013347746155,-0.10720725213350346,-0.017563404820352405,-0.12182751438450712,0.07636876174213376,-0.11738836925664017,0.12315936893181144,0.11282271371163387,-3605.5559356489052,0.037131842075814686,7444.034549409798,-0.05962161868202818,61043.10993806236,118996.94662424707,21197.39677784272,-20282.516374353283,-0.07972389297371012,-25271.130088422222,0.1380671412801088,1819.5157566694509,-3127.981788307836,-0.08332243479228117,-13897.51427291253,101552.18972705488,9450.88815717436,-12538.337172941172,4133.764215741233,52620.393206516885,-0.05355523670212896,-0.1239532019211602,592.2187930774263,15689.32070698467,21911.66976734653,32418.486801188017,-18825.874144244033,14798.370116595026,-17114.463400911773,-16507.454885576237,14104.750039092216,-25980.76062962843,-20264.31171637195,23448.540405875923,25706.087363184186,12019.2835556861,17015.66324443284,-1701.270355173915,20698.6629898719,-3949.53974639531,22688.54052733328,10.275142928250078,-3959.0636305856697,-4315.21543420881,2112.1818975263527,-24085.196763952477,3073.847501125989,-23146.03887737388,2073.29097947201,1837.9717643308004,-21134.004839582056,-11032.43940014635,-468.9098357699696,2628.6735428816846,-250.82230350751888,4380.368892668868,2561.0219353475177,-16523.65080706292,21761.677259695774,2322.856181986011,435.4510042580349,64.45505207498938,504.2894025137785,-0.7807109594553839,857.8660509739296,50.39000767828966,1.5481349692896675,0.18781048320483618,-1129.5208489068827,-5661.495944998393,-468.137900373894,-2258.490215141477,5471.836830559498,-0.018397001096082725,0.10511669865967897,-0.097205365694522,0.10824573129420312,-0.007231774487736336,0.06341800977071235,0.12192442715668535,-0.08603399325028735,0.05125813671763273,0.11337969593160244,0.06702214999258062,-0.0917929165058022,-0.12927794083581637,-0.038188068198011765,-5925.955740671458,-0.009323562178071813,-23470.216624289755,-0.028309904257298537,-35507.18011344814,-69631.87378330562,-1673.9782746097112,4301.286338661946,-0.12964252525680667,-17116.27852042047,-0.07074500328344759,-4670.334776002375,2334.734990096289,-0.09071682405137166,11073.464920799328,3592.8872950612886,-8478.740476385909,2488.9588726846573,6675.485789595372,20125.778604498915,-0.04704666667375797,0.11237052777329237,-1.8501698130248174,30219.944478309233,41447.008965579356,32724.63472206478,-37694.95654876304,30990.15759948928,-30757.30713463569,-32861.16755002989,34326.31472810567,-32783.73474158065,-31337.093838362704,38126.98340292487,38597.74626001714,34764.668226189046,26808.284436116635,850.6689403507138,35637.82058266664,1238.7373558618378,37479.20568222037,2712.4829249853947,4155.019616641831,-4.519794313971339,1868.8402059729774,-29444.71105100455,2181.440045855406,-30108.14262505772,147.91989772303143,-1346.841929880184,-39905.72335571209,-2068.0828756520827,-4999.271147979623,-9767.224676472362,-1359.1282790361633,1248.516274664751,1354.392813400792,-37167.64529688067,31135.454036249103,2281.5601303343083,1194.0789798200815,-119.27331075782443,-30.845644923790978,32.959407141328334,-2728.7207791673786,-245.7344875887926,-647.1711799209111,-7334.6352389884905,-2077.9544543316306,975.7711276851395,12.823049902446897,-3540.1302302189647,-187.489026733017,0.118665778114328,-0.08320933662587358,-0.12567013966219479,0.052832591821170616,0.08301943066940867,0.05116343811949219,0.05370222324555116,0.04177918791149533,-0.10588310850025298,0.10649744703857544,-0.06612391857837711,-0.1258398936334838,-0.04832590157685136,-0.004487484992517419,2107.427024885652,-0.01049884022096903,-22226.675507058815,0.08854920849331052,-11641.594519305607,18786.142231530706,18568.993398153172,1098.4425100708106,-0.011250219113996016,4038.715962527549,0.11377544030901297,-1255.7157884346693,922.8153853592381,-0.052196384347972365,-62846.921980684456,-48344.69532301828,-9206.442870882642,-845.60742439324,-2132.321886596196,2259.844796849156,0.08571264083235541,0.015380255374923782,-271.99687775061733,-12060.820866565744,-14055.353592921152,-13240.084550750465,16243.765508167275,-4175.311822852778,9963.36962510711,13657.254881283827,-11202.201767077957,23656.757409972583,2707.471353161599,-18394.36624730878,-9859.047534197507,-14662.108909869996,-23917.389271225493,-3.207262537111642,-4681.8344190708185,-4547.812799877477,-17526.379734914397,-2561.5933396766395,-3742.5552653989334,1307.3837771563472,-2114.6344111629696,4534.019100633189,-4074.072430809924,-4169.720955482143,-3023.425767273869,2483.847177523752,9266.464536928468,-7603.766477062181,-3613.6102493010526,587.2636560382194,2302.5348543410464,-1439.7935772499688,-1231.1591871782664,8016.7474190793255,-16941.824793106323,-853.6530257061885,1901.13393799249,-2152.5724464246005,-3.072107503517371,0.2967309425549952,894.9630362896487,-0.11734567313850755,-6.640025260260003,11.883739586111997,-656.1355208827051,111.76770058401239,29.971303988278905,1.6668968814668024,-2933.6925778841946,0.026195771573598665,0.010022570762217721,0.06012576241088613,-0.019171136298705715,0.12235786499520299,-0.14114192931491554,-0.12240135040076339,-0.13755773408331112,0.08451181820004802,0.013027481853924043,0.02194391163215794,0.05149163204863896,-0.12935194237904865,0.02252787919999272,2860.308115838041,0.01654185406949058,53909.17585872405,-0.12211367965470642,59359.11818229141,70298.98342439004,-23632.425958888667,-25861.88772957102,0.12389006736809738,9322.812520089274,0.04700344902958063,-9501.707882208117,-1518.6126310023865,-0.06995460656092607,-31426.691359461125,78668.22080561172,4255.606815255586,-12822.41411441095,-11110.436124227372,-72935.96735576937,-0.0203557374732815,0.06000930307615872,2.7604793923540987,-11608.841776285153,-7826.084066136856,-4321.236172577714,9400.9723632075,-5967.71504759301,8879.635130528526,3660.983442420751,-12151.948513113053,11697.086692370358,11460.731108938671,-14289.361421033422,-13668.434653983124,-6888.915537926501,-3911.0235176978226,-3383.010257305617,-9924.64142544193,-3104.3987960522295,-12794.069715454361,4919.622543381835,-983.2973565453914,-5314.842702077564,-7469.058382089986,14826.78564312095,6771.750732546219,7417.676075854831,-453.48840981726266,-2568.022988107379,13000.717089654696,-7250.5710111615535,3720.1983269050615,861.4284705543095,230.68231827752564,10881.487024154221,4985.812302334366,11342.978377075788,-12010.224280917455,727.1022531128317,6608.478536899837,0.029425508317200307,1754.9022072182884,-2.939440718865845,-3998.8101997820618,2562.885757387786,-1.186268025894746,0.25798531025834803,4.661208716826955,46.90571873481132,-3611.467186690098,-24.674689250530218,-2126.897717634743,0.06696736023712031,0.04696230861673312,0.1045072020138346,0.058963823588267295,-0.12916399695095132,0.02525994778104579,-0.10173875086547073,0.021708664709459518,0.0070959366476158955,0.10437930695401258,0.0209112439377997,0.10323476148386496,0.02317953347899612,-0.12371818991542671,134.8105984501675,0.05118382167458855,63819.46164472727,0.07459606944260366,-45673.90174750785,34476.394767052494,8271.528532305589,1665.0957356673691,-0.05659083487246131,2017.6463734761996,0.00011649438909316391,343.5925370648244,-2559.003044114843,-0.05538937421617832,24952.14844644932,-123106.10049550574,-19689.277830280498,-1290.1168254654358,-15047.221827156518,-10768.694188545749,-0.11232517747496738,0.09102867515956832,-1.1580272601898385,-1832.2421003221136,-3675.710082982677,4169.978593285503,-4507.091073245734,-2322.9912825860847,834.3599253253975,-2107.0067928138214,3861.3670347858256,-710.8780486564103,-3345.9567892907953,-804.0014425970793,9545.205132490171,1147.9380199181517,167.9180612133601,418.7387084914748,-3039.359614179829,3763.7892669969706,11896.214483473834,-3888.2168947693053,2305.5779275986024,-6526.269546210587,9956.227453515494,-873.2875240069637,998.69160284578,1979.027039380189,3599.636400071936,-14129.672321273707,1053.2061168587925,1168.2380595614734,1044.6608337568784,-2183.421858581652,4.384459269018143,178.02060043202536,4251.006042247862,1395.4818220213895,-1984.4880068830598,-1294.0280733472903,-2.3270914013647994,-2946.288545008163,-944.612621643267,846.8699173664206,-2137.1253695977557,-768.4422582264805,-0.1373537822503041,144.19239854155478,-1.3841063695687348,-2928.8113642012236,-714.877988867491,-3.0111403689492313,-557.9094440280277,-0.14075216431203993,0.13842973697179728,0.1328128831573209,-0.04414210412758126,0.1146527399608656,0.012698656525119097,0.08808026786559245,-0.05540338700392056,0.007969988864177612,0.0898888438056247,0.007037799550324536,0.1288994461495814,-0.12784990912115665,-0.07047916040179207,-9777.079290351223,-0.10711517296210504,28757.224390603566,-0.0724148127091476,4387.656677971803,140035.11731577662,-1028.7649913585808,-1138.000307636242,0.026096619300647696,-9396.19965588331,-0.04995808814291231,-6803.962616331254,-1445.640915790921,0.08613564115740434,15601.404798828074,68479.91619774555,-746.1453271379621,-3483.8654372594156,-7600.599998168069,-33896.89828723876,0.028106728197094196,0.11226792750778365,0.21254640566980018,-48143.06583407383,-51142.375837231586,-48374.71968306442,50915.963524336876,-49660.78673071382,47840.74263483897,47606.96960935507,-49337.05862462538,44464.60152611371,39740.36614943407,-54193.296338306674,-48179.93542720628,-49701.32777577578,-45910.51709815261,56.23922406261899,-49544.763117390365,-11369.868837084021,-51406.45427663394,-10370.82190995225,-4620.404212109307,26.909542619746254,-530.8756610414716,46547.783142731474,-2512.938232995646,45735.48638247601,9302.346240501709,2775.492443401028,51523.183540289145,-12058.392459411778,14098.419682767175,-1780.5415780925978,-6045.569690285655,6978.697147645141,-10727.35131597815,42530.5083356155,-51358.84392767599,7140.644560589522,-3.977662688631645,-3.466286946232444,-1548.1661975487864,-99.89367012908868,7901.190130415905,-0.5717853040948936,2729.4287436544996,-2011.1535270003824,3496.4972271671654,-216.53664740530448,142.8152548982845,0.20242475719261308,-949.9498732327385,-0.01032172853203773,-0.13889818433138892,0.028132658417428166,0.13615372103097906,-0.08210966093026406,-0.005797024497095905,0.10688002338930981,0.09277984379270915,0.030967854291289686,-0.02103076613492705,-0.13114977394335822,-0.04318729006469362,-0.12377620833511539,-0.017815534468488024,-1033.5408736631216,0.09139875014180211,-15821.292790234365,0.1229464194732503,-47641.03507581535,1888.716007389715,35004.91269174008,-4859.226789126684,-0.04800493537069969,-2744.296445439705,-0.03356510153619002,5838.16884884984,-7074.749267820248,0.12061376872393181,28433.4379740889,-978.9017211959133,436.9708676745402,6039.869096240167,4593.7059058891355,-2059.755417675127,0.020640913126800508,-0.12950967751598252,1044.934656857605,10895.309935263085,20191.028206664396,10053.854216204634,-3093.5641687506886,13203.28896527481,-10914.560622940979,-10326.969812440235,-2927.546996059498,-7212.550865927264,-1449.3712433344508,6040.475530400959,908.7102129277191,-386.2368280218808,9535.45378802713,7067.754484102768,10692.545438996594,-8346.093774974206,5932.720136340551,1298.048398426307,8293.838630341032,4646.194103595872,2708.7233031247297,-20692.16079623729,-3901.6952522138417,-13736.482139963298,3388.300092830561,2632.4956523011,-3386.734631426368,-6809.722665379758,-2532.970030552704,-4160.921568752106,-0.18103893271373947,520.764073594982,-6717.488893358145,-16087.831694585935,-536.7283032867786,435.2121932604607,1236.117056209612,-127.33889956038622,-2585.9042670167514,-2.846157080604138,40.39074022180984,-3228.5099635040497,2561.799765370122,-882.0651156862898,-30.05974402657349,1775.3128394708833,493.65819081629735,-156.42318867742063,-14.727830939692744,-0.005250044688507024,-0.1265713127734791,0.09847474104325353,-0.04735237140028597,0.06929401448012942,-0.08051416071386096,-0.0922660053522333,-0.07729285488746888,-0.01046497394569977,0.03576274910317033,-0.08973035720011695,-0.0648346105325103,-0.07637967979535647,-0.06892315445522634,-8726.047742105526,-0.08332344947787142,2237.300496647289,-0.1271538500383019,84342.34693511449,102525.83703761378,-54765.525683164,-78074.45997245953,0.11291324313740018,17780.63160476811,-0.046069843715165835,-2919.059610161334,-3658.7251109489025,-0.009747949610751898,-6315.014878386857,145413.16990298964,11644.76475963572,-24544.757893776874,-4367.692541154692,75130.71880118812,0.121179926925627,0.06918850260184216,-0.25126703314304144,-8498.47561396677,-6653.955977011833,-8633.47286415115,7696.584535568996,-3422.735815367954,9743.385079556327,5004.414121949331,-10539.440558277793,8821.426745243685,6802.472198458111,-5183.159597217786,-12026.397064011311,-9622.341587310164,-5487.068019055054,-2497.374843563462,-4751.320116684162,-1358.838489622365,-7878.2378745126625,-4186.555978352939,-2746.4425119942307,-1050.6997802878718,5488.654891553881,9126.646522949,5070.627379158988,8617.118098899951,1667.7130181207704,42.74854517333458,10311.700180245347,-3216.464654054898,-1964.2592174769247,-1353.0701846303652,-833.4662525478636,-3513.0457066007775,3557.901949038043,8815.71596359225,-8376.204006260472,2186.7642771982364,-1305.3317810908982,2589.4816729823533,275.02259063655424,397.9274054501497,-57.76846698457711,19.806314720972516,59.16436856341193,1866.8734862897627,2753.340272631155,-1415.7217720558056,926.5238118409546,3721.987150981781,1335.0649543785948,0.11193071470821861,-0.14205197889374588,-0.045207491450697426,-0.04728143193181767,-0.03045683355666827,-0.13211344157284033,-0.13019226387021593,0.10456078848613667,-0.06010218444809788,-0.12356285177495417,0.034357773715568474,0.14443138911627226,-0.009975306500624613,0.06574359412926586,-11351.999291842756,-0.052713107438364375,-8022.81191225337,-0.021028255723132175,-74006.67532858276,74690.69327451407,-923.7193310943181,-993.374448750938,-0.024825199086707897,-1067.8746340488015,-0.07893749700501887,-7702.025930391157,1914.2150667539383,-0.10040577566918599,14097.663958374938,-82271.67884668136,1730.2476542594284,3588.4805037744795,-8522.907738277183,-9656.140430262583,-0.09800154445083595,-0.0685412234986345,-4.454501892197814,-25837.65296089695,-23839.60355539838,-23572.094297889333,25999.613970966446,-23515.671825272675,27976.84208771306,30860.411775269284,-28249.57565615425,29100.287558706157,26737.200994347266,-29193.365652055858,-24446.42035251398,-28668.08532099183,-19869.414486897826,2132.3850343945937,-25241.30457816783,-7165.854850714385,-30842.75481866634,4315.586038371658,-3115.9237292570238,9397.639793751836,4422.497119796397,21605.15248428493,2109.2099111181674,30062.438790606786,-785.274210536085,5189.143909650226,28296.069558914558,-4169.597886450625,-1468.9397280081714,-3953.4748286624895,-6912.746252064019,-4176.759375031285,-4582.0392373670775,29031.397314895796,-27347.833362022648,1404.6623092098278,6460.136058817047,135.28570970768,-3277.724074421188,2.547301789698932,-545.0648018463393,-4814.425493778075,-4080.635822353561,-24.069678793770063,-141.80999086370298,22.10923021114987,4561.251362050549,-3341.3003135101276,3181.746798689451,0.07208854493312664,0.0728860707677642,0.08963733836964041,0.05033033936382666,-0.06306166752544028,0.07926680801956208,0.05187241190001171,0.02961863656147397,-0.06977120570900891,0.06466295415833015,-0.12019614498434719,0.0405155713700228,0.11887556078927267,0.07349355460300262,-2.1913682937892958,-0.05462560357569923,-34619.77319038536,-0.011637062648354925,-72503.24090237365,-84633.05243567769,-39016.01931851809,-1365.8681577914765,-0.10458926432426134,5304.825419532863,0.03853021119173064,1209.263357644069,11921.876600135844,-0.1270338274194337,-9459.469161220342,71237.52151503613,-2209.385437434612,545.5383373225492,17820.164297938718,-4732.826643182426,-0.015967878889371095,-0.10852407442870292,-0.36599450343649276,-9188.716971972919,-4782.250191642851,-3617.983668557753,6550.82590556143,-5667.097206285058,7866.728516475728,-1951.6731208033027,-11193.978585201883,5107.994279583048,9638.25814035473,-10386.166978443402,-11103.645385281816,-6825.124271035978,-6897.467861010062,1598.6578983875436,-5850.224110044667,-317.3140175786986,-5529.967810838312,2762.9029448503493,1082.4376947765797,-6501.2821447981405,2289.9201405881563,3040.868482111712,-4254.306219624889,1416.7165944674202,-8956.647899097514,-3085.491645428626,7776.315893847098,-5228.807989663621,11271.267251419347,100.09826554318731,6321.297283984282,1130.5699241252266,7534.814788209076,5249.025262101467,-1170.384449035172,34.537568338733394,1.743537917158746,-3761.63083663677,2933.6433475490326,4.673447030230796,1.2219631974883598,-2.342135351545471,3419.37867581227,4240.694372911379,-2053.673860012044,31.1837519392175,420.05201041298585,-7768.484305400084,-516.5771016891639,-0.08975748066282077,-0.14625808785503802,-0.0018048365703936045,0.09611700357529546,-0.0789971160090402,-0.12366760340778547,-0.0028616004258333813,-0.1439510614038638,0.027133843847493164,-0.014349842621169897,0.03289379598317027,0.03785499961141964,0.11622772133741847,-0.0011344065243461823,-3636.9802361116913,0.0030083311523223934,34164.82499871624,-0.08204575839613053,-6771.0067252436165,175239.00358638374,6571.269147921012,-2479.427513094778,0.05359965060416214,-3829.8343997742886,-0.004658277539257632,6031.079161530365,-6881.927874938799,0.12511130270913498,54519.446630777944,-24218.81122453618,831.9642327619787,818.864600580778,2816.637390486317,49328.587509265766,0.06950209719961517,-0.09137284990734969,-0.07617435259731961,38259.330211822016,40260.98534485858,56050.30361126951,-43861.81780404832,38550.37887321504,-45199.38043610626,-48353.360018589956,38118.284921040984,-41792.499429796466,-37332.86645317516,42686.4502530882,48005.109577494375,35282.0939419353,39931.170801760614,-3315.6423633647523,35147.99787368893,2299.212245929746,47808.995340204536,1261.091725242599,109.28004248343791,5003.241543045715,-690.5984731599933,-37889.896654269054,158.39950814415596,-38312.73255699606,2290.7672449023016,-9662.601107983297,-37629.59904024988,-4464.182423092661,-4961.083977081874,3985.738119843621,-5669.262826478813,-5255.347819262273,27522.192296368412,-49195.50218368669,40635.29447159105,-1864.2724595560298,-9154.704087808259,-3643.231741488047,129.64374638316716,2073.416606336269,7880.759303100211,622.7878118060335,3722.8196474669044,-1366.4080387966517,447.7190237544003,5.649511114892638,10.566310774386872,269.7848400195073,-1221.1675994106906,-0.07789555357292761,0.05513195606931227,0.061252270378688536,0.08588237221996227,-0.041000345001290336,0.03145174055698753,0.11107718552383858,0.06923474384761348,0.10381061950324848,0.0917714225412656,0.13372609263329152,0.07933819206904827,0.12475213671784949,0.11389674334050766,1677.817806868209,0.07601649591571803,-29997.666643169105,-0.05811731858670206,18417.931968232,39716.72680055931,16191.303842478714,200.48630183580036,-0.14932161063047447,168.82677426229543,0.00010737418854256483,5847.768608637543,-7626.017046502319,-0.05681532068998969,-13558.697304523062,-16273.916828372903,-810.3107268159123,173.72794372883007,-290.1189591442384,64757.991002486146,-0.13732279790706486,-0.06399186714257997,440.6700234260427,-3451.76896935787,4441.672329591462,1522.490871808909,-5936.7517040854655,3839.2328552644312,-5021.498128654137,8900.415760068257,883.8722005302321,-5304.5659395892735,20402.284596806767,5120.876075783992,-5420.062552800895,12288.56757921276,8828.012206427773,-9495.64460164138,7590.957839102653,-21309.317394936086,-52.63271202002719,391.8457618856332,13070.437685779323,-8131.049883435517,-6733.501000679781,2596.16671953965,-140.20274165597513,6489.537883272593,6179.840658876439,12702.164541319948,4859.849202600927,3052.5810761699786,-1505.4295202714402,6695.884219917149,-14521.072037071786,557.9007181042913,5163.770350949733,6042.192964629883,13684.751590604672,-29.684719067051237,-3094.3836285385773,-2438.3634171915055,2603.9093375045613,5890.05306107102,33.55980342159508,2061.5162380683846,12.13126681612461,-66.40290532304627,3822.681460639172,-766.9665052416686,-2653.8144520137675,18.354315153615012,-4144.13107716104,-0.030954172210114258,-0.054862232692035266,-0.10886273002992947,-0.010733006592339943,-0.009936228467963175,-0.03899980404339446,0.018051567351698623,-0.11303661714175052,0.1469453139704742,0.013461899784523064,0.01015941557838487,0.14460720215536824,-0.11580526657922811,-0.0955397940632236,-3342.013592282151,-0.11848934937538577,9648.935016811824,-0.03189667461804907,10489.897035381064,58477.132101319745,-5453.459494719532,1840.81796642685,0.12431351685471778,-8028.8266137553655,-0.12356078376236883,-4415.642066291812,4052.9464211299714,0.06415149663041489,-26060.633458030417,81310.41405108367,-1507.6907976334041,2460.6412731133264,-1800.5248400489338,-10808.859440596105,0.10375048277310765,-0.02255138495077769,-2.123596027840625,-32222.598160612844,-28183.681211847303,-20354.283099249384,29819.861390106176,-29919.412896848542,25347.661266032508,22012.63500553367,-24062.43353712941,25399.751494482316,28860.309501937973,-32373.70338819574,-30947.23170433092,-37027.22266876792,-26624.873392061934,3100.4004641955553,-32928.96811881781,-13041.877171781016,-33422.29001735179,-14607.655705222794,5734.6325524027025,2077.9961745294436,-13999.900605014522,23683.829463308113,2777.903555826726,28953.634345164184,507.66251419390505,-2037.9798511765437,36029.991710711845,-5925.646504461822,-885.5325327660796,-192.05137204048805,-4653.828776484864,11396.229287957722,-14823.103450584422,34224.30593946983,-33340.18778242547,82.35844505902047,266.72526619189944,-80.56190923165987,-1.9380344077566405,1509.844139927489,-16.59147420227246,-85.27379326684982,-4744.346295736653,-1450.5303806030834,-2189.0537936648766,-4387.429693879388,2270.767376424859,667.0833249365849,-327.8393737635795,0.07761979024519018,0.03686000484235814,0.04229379792708926,0.11493793573903884,0.00685708126165631,0.01995809013913915,0.022131301806121852,-0.011790093695450537,0.12632221851575554,0.007259993989977371,0.047779704238223225,0.10207794592124689,-0.1297004817129175,-0.09032734381497107,5897.197820461267,-0.017730615174361433,-69607.5775916759,0.02741606640340128,-1317.0802976486077,-194499.43667384278,-4326.033790105258,80901.40640750376,-0.029444831761533126,5112.364753504481,0.04177461078929123,-723.4272205915047,-433.94037212155195,0.015177451189424613,31716.16843031027,-143800.38023720644,-739.387534683476,13820.55191211855,19399.589320328374,-65110.70250734266,0.12086588554678188,-0.11483226513427677,668.6721631403537,51669.41941218236,50209.30917636702,49893.03768925731,-46347.50388580349,41175.32626396717,-39155.04405578767,-40715.30609558938,39187.19907353541,-43441.07317290096,-38648.954637200135,41629.19065502817,37760.567216636875,44647.643109861216,42296.18902590155,191.23619346380468,41935.85657247722,-5445.967236914329,46892.730354163104,4481.951791391746,1669.5346338843854,-5452.7204121552795,-6098.198468158438,-46831.39896961085,-155.7977020271863,-42560.34240587164,4733.673983518355,-987.5736626431667,-50579.16204442319,-2289.3814524129184,126.27348325420031,-1322.0484766331433,-4538.197220318706,-4529.883945806,10744.325114244717,-45572.54057170371,39057.66335295275,-14.27040417442851,-2373.6385849189187,745.5993331678106,-669.1277511439915,-22.54724136519047,50.470752779420984,-1.7788879068196468,1969.7185350776037,-23.577650057561016,-443.39093061840833,3167.9409718131224,2320.283737034576,-515.6751331684753,113.08202237160025,0.11788390099644024,-0.13983469047536146,0.08592825518381736,0.0720219841787564,0.09445719250769126,0.11051347014509118,0.04963750826877809,0.11665926053715282,-0.09288573176042951,0.08676171773564274,0.01882762802826682,0.07231078731293701,-0.13769109259408505,0.040783517148291815,5464.150668586413,-0.14213457791994905,66551.2901582782,-0.13138874336261985,-87280.39462273208,124089.60555089018,17090.774274229087,1945.7770185023135,-0.048718384416088265,31415.745047110762,-0.10990776784017786,2946.0167324302215,-5494.041067254748,0.023582393007511557,18890.813868393572,-175043.04971093938,-860.5051266778697,1923.7906879482748,-33599.08729490227,-13280.000770902852,-0.012446265073739818,-0.06328783480036773,1402.0781721719948,22500.250381459922,23723.39120968388,23247.634334943206,-22246.026782382174,13045.003013163398,-25262.418667614867,-21763.536725553495,27784.960316212804,-18651.576024654805,-15115.426582374845,24696.907105910377,17636.677931740753,22262.427977597163,26607.21344468768,-1465.0849643978918,18598.750538829816,1692.5109276155645,20233.49699690594,1106.2559415809617,4902.238394116269,-4391.359203614992,-938.315044040384,-23161.69605604556,2634.8705772425924,-23789.925812630805,1249.7633829678218,-2979.254019599623,-17326.759253146534,6388.242574610496,305.79834099743636,1360.8344105672386,-7662.437684612604,-333.31740554967826,10326.103795211582,-22342.452373892695,22716.45638401874,-12.389136067044149,-2.964969561421261,-1878.4791090008355,-2567.6837608590226,820.0868812181417,476.53134743559224,251.0327359450593,228.72050414655914,-118.65654261745757,1.2701771994788276,1.0771054524942065,64.01776131609186,-397.0820748166139,-1734.8292085984733,-0.0025925230709712655,0.10175070400051324,-0.12996720991251748,-0.09265382989353567,0.027876449237299383,0.06394104956084182,0.06095489488719099,-0.014440832449470023,0.10495657536726857,0.05164375369339902,-0.02223023100188838,-0.03935000706426282,0.12834078095480128,0.11093953354048217,-3136.727517536492,-0.04009819721395844,58098.5754126364,-0.05142138487187067,-1109.07569387793,66189.08427102525,-2189.2005492732064,-11574.334604296746,-0.1420491404248991,-127.60791572562995,-0.11355963562143331,3942.5865620098148,-4609.884025235941,0.011076510763069376,21025.912751010488,-82446.87832679179,3824.337196182419,-5361.327308769218,-4598.657035813482,-10400.571702667212,-0.07052792197224313,0.07753626422385741,-3989.192879582872,21695.934610309476,20186.654742143903,8788.505217285303,-15917.725297661018,8875.059173748585,-17437.005189954216,-12451.722167777421,15757.955436787915,-20655.60383886795,-15070.157883060212,22464.317566190482,15527.90594123708,14223.241287391904,20867.4353769525,-2829.476381344554,8894.456764640363,3430.4404536197144,20257.959565910962,1887.4305672040116,1100.4697928198777,511.96462886537483,-6178.989352110375,-12361.073515895912,-2326.102385393142,-11538.312587729344,6200.76422622499,-7542.341404676097,-15769.006263496389,1802.497911416547,3470.8673260334335,2049.874121671785,10420.18290962811,-2508.885347159673,4245.103406810825,-16865.86879560763,18325.920355258484,-251.74535350466692,-410.96713918782814,-610.2886219348459,-11.475016681912416,-775.1814822613255,-2940.484712838607,-3055.0700034999163,3143.5714139753436,-124.69321678719912,3657.5241531939964,11.752666311363075,-67.96771263957284,-2.794627162267964,2965.3279948648183,-0.013606662323058823,-0.006727046628936959,0.03644025392060382,0.0978287593904782,-0.0772200011843039,-0.03163524245307555,0.07427163661859337,-0.04542765167458132,0.04920610521435156,0.12388807399725695,-0.08575469427917011,0.004613914726088788,-0.06722697733641878,-0.10510557980783196,86.71840416374137,0.050470797139595645,-28348.11759568265,-0.11537058519545734,32850.792364228335,-203485.4057101076,-56361.41655153599,-3868.8426038463786,0.1341652133563309,-16328.261716474053,0.009258821722054156,2306.086599009829,-93.60901529448466,0.06955321392592492,12755.788514603735,156965.8488966161,1344.074391733981,-250.94998470353192,12738.905441738803,-97208.40795305664,-0.05745652911914526,0.07391650467885272,1.147208608906166,2170.165211058814,20485.556550275178,13962.56028643254,526.9956701387362,848.4105934232176,-3359.6413782441227,-6880.981317897309,1989.7460451242946,4269.632010669399,-30.714037766572183,666.0266899719024,15438.355590421115,-3468.6576375788654,-4546.645068863396,2041.828798376637,-6026.0128481603615,-8278.598935190748,1451.1628868838156,-1655.3666542660271,1731.792211603886,-3152.0640217004575,5443.4645741382765,-2565.508764903305,-3502.611041184758,1546.566257285513,13950.210004156374,107.0679825877882,7308.481053205026,1.1024769285193323,273.2418668399223,-2055.945008690265,-5604.783784683971,2476.4479138916217,-14624.756910341694,-4860.388873060624,-8756.82254577917,1434.3755396949286,-1296.6552916353849,-663.860479833115,1080.9916468013798,3.7089704394497023,1899.5951894706366,12.65075782665325,-98.64215556246269,-1576.538532261258,-16.711790182131136,-72.62128718562528,-838.8734917103252,-21.868964050892345,-2735.3588431782637,-0.03378071875198496,-0.1225111847691578,0.04057428964378617,-0.0944432338023808,0.11695505719792029,-0.08157155114947752,0.0007817227844441201,0.09550755046313052,0.1123419716014709,-0.06925688394964175,-0.07325800648008361,-0.005116356619994133,0.1034657719800692,0.07508906110834075,-2418.9894526034723,-0.050187175575084765,11504.005042963812,-0.13124246938472325,-55592.568349161615,200449.75680373012,72175.62223964141,-1290.5628545951242,0.010084563875308813,6243.29527170895,0.045056238475922786,-1159.9195606764913,1190.7379167510665,0.10567777842381393,-41794.928623965,-150037.6363209348,-47648.54122923715,412.5862370166049,2838.703595573638,-26947.883781735676,-0.04365951130241718,0.06977004674109434,-3.684604016207446,-12961.367791255885,-16277.273040697546,-22248.933825328648,16603.91726002506,-20775.783519002023,12281.212704523838,17585.94930271987,-9580.456329084545,15969.109963940748,22843.860904087425,-3734.08692908632,-16081.279319916635,-15937.20086108162,-8902.752491464225,5123.4788069316755,-12829.957611912967,1956.18401842335,-13440.757926460657,-5143.653655440064,-1729.7714087596469,6755.769387616748,-3954.782897309782,15909.34240299069,-5089.704300272092,19492.51408188637,11.371317101769193,6661.041221002999,16277.898274756968,6346.225345193726,1626.3358263935831,-1490.4551763934808,526.5650693337155,-4134.44862819577,2094.728109697356,12068.678625383185,-18291.61595373082,133.85421922371037,-1439.3613836418863,1452.7268278759486,-504.5548604902105,-7.750844813411406,-3580.970100267951,-172.66288073074412,-24.268996403781472,-1380.9584865440038,2778.4688844404996,-164.13084183567236,45.71327929282505,-1593.2118628283279,2764.8273758728183,-0.014980541658928936,-0.059352279205406006,-0.08262135149811271,-0.08322837751647648,0.0974448495117618,-0.13278867291470986,-0.03082672845485371,0.08412501015064737,0.005251345173315822,0.11125861556336132,0.01577811190861657,0.08137217954146714,-0.04845781217776944,-0.1345226259825696,3189.795013041247,0.07901270520759748,-15164.265146489914,0.06693157556179095,23374.302513555707,10790.503248817588,103833.8117588895,