encog,BasicNetwork,java,3.0.1,1,1328305063244
[BASIC]
[BASIC:PARAMS]
[BASIC:NETWORK]
beginTraining=0
connectionLimit=0
contextTargetOffset=0,124,0
contextTargetSize=0,50,0
endTraining=2
hasContext=t
inputCount=36
layerCounts=36,51,87
layerFeedCounts=36,50,36
layerContextCount=0,0,50
layerIndex=0,36,87
output=-0.001507627071064454,0.008158304839304166,0.0006209172162547905,0.007391172280359817,-0.001632093002010289,0.008639855155537071,0.003600684065005022,-0.009004186626581104,-0.00989253040964623,0.0074083007620008995,0.005406289123834299,0.003737436504448209,0.008028458004479586,0.004073737661637156,0.011946534136129852,-0.002711899622796554,-0.015282733700475226,0.009992439789317381,0.003769949305560877,-0.010009134137079309,-0.03994189364858347,-0.01585641827234452,0.031636240814099596,-0.00428889036183544,-0.076200169921855,0.006279600398410412,0.19338171110832222,0.051155020613239816,0.2334210306555503,0.08685670440244665,0.05094659731546519,0.4563092553919489,0.13019602490767812,-0.14596935422193857,0.03138624130203921,-0.04661106851391901,0.00000000000000000001,1,0.00000000000000000001,0.00000000000000000001,0.00000000000000000001,1,0.00000000000000000001,0.00000000000000000001,0.00000000000000000001,0.00000000000000000001,0.00000000000000000001,0.00000000000000000001,1,1,1,0.00000000000000000001,1,0.00000000000000000001,0.00000000000000000001,0.00000000000000000001,1,1,1,1,0.00000000000000000001,1,1,1,0.00000000000000000001,0.00000000000000000001,0.00000000000000000001,0.00000000000000000001,0.00000000000000000001,1,1,1,0.00000000000000000001,0.00000000000000000001,0.00000000000000000001,0.00000000000000000001,1,1,0.00000000000000000001,1,0.00000000000000000001,0.00000000000000000001,0.00000000000000000001,1,0.00000000000000000001,1,1,0,0,0,0,0,0,0,0,0,0,0,0,0,0,0,0,0,0,0,0,0,0,0,0,0,0,0,0,0,0,0,0,1,0,0,0,1,-0.001507627071064454,0.008158304839304166,0.0006209172162547905,0.007391172280359817,-0.001632093002010289,0.008639855155537071,0.003600684065005022,-0.009004186626581104,-0.00989253040964623,0.0074083007620008995,0.005406289123834299,0.003737436504448209,0.008028458004479586,0.004073737661637156,0.011946534136129852,-0.002711899622796554,-0.015282733700475226,0.009992439789317381,0.003769949305560877,-0.010009134137079309,-0.03994189364858347,-0.01585641827234452,0.031636240814099596,-0.00428889036183544,-0.076200169921855,0.006279600398410412,0.19338171110832222,0.051155020613239816,0.2334210306555503,0.08685670440244665,0.05094659731546519,0.4563092553919489,0.13019602490767812,-0.14596935422193857,0.03138624130203921,-0.04661106851391901,0.00000000000000000001,1,0.00000000000000000001,0.00000000000000000001,0.00000000000000000001,1,0.00000000000000000001,0.00000000000000000001,0.00000000000000000001,0.00000000000000000001,0.00000000000000000001,0.00000000000000000001,1,1
outputCount=36
weightIndex=0,1836,6186
weights=-0.00010623371189506246,0.002077804014438172,-0.0009915499212962001,-0.005298709819788943,-0.0010289303368219754,-0.004270622427265859,-0.001423676657089208,0.003559625570719149,-0.0032717543504595047,-0.004128575649296578,-0.001279372308971374,0.0011937215220822104,0.008547459230248003,-0.004472664872899431,-0.007138259522721797,0.0003656292198843587,-0.0058581385299626195,0.0009817535225151994,0.002278349316780237,-0.00603176169206517,-0.010490891811031107,-0.00809199786617231,-0.004880172814487671,-0.007236251081032087,-0.0014256195524701095,0.0011816750314370998,0.004866020576916354,0.008624999236133583,-0.0021272591283861314,-0.0015133861675128179,0.00340114315277561,0.003104181457785291,-0.007840610766360508,-0.004636221834447663,-0.0021036183995255292,0.013097843698064101,-0.00421506824431522,-0.0016254251086623961,0.006622046670649505,-0.001575164283170424,-0.0060143530228085815,-0.0003769724139896873,-0.0029371823259513818,0.00002405193443258508,0.003072182120836504,-0.004103793514953935,0.0005088033104475993,-0.002971947802611967,0.0043421964784753474,-0.001595588093507521,0.030210219699729483,0.0018594848355301624,0.0035504783150196,0.006172986658779622,0.0016051149947506312,0.003019670419081745,0.0008734087058739774,-0.002175660018636169,0.0011501540363345658,-0.002650316816313224,0.0033409427532938127,-0.002068661616783012,0.002567084853128461,0.008272797268174228,0.012631154096450494,-0.001542531456900146,-0.0002780067599856405,-0.003205494123606798,0.00396183681992496,0.004673963440569992,-0.00008249675728994673,0.0029732159933033853,0.006199323184107392,0.0009573983145985101,-0.0022076126445826046,-0.003105559242042859,-0.00010799338483238416,0.005216925456149198,0.011114633642277027,0.006794023265292176,0.0013658514366145047,-0.004527934403832805,0.002395038591839338,0.006001055957561829,-0.003960718119916723,0.0024734896189941877,-0.0003780944082478049,0.003406122272072073,0.001489833156643452,-0.005551966340912489,0.0033372177607589896,0.00012428877313816673,-0.005133397314463495,-0.008045189578349874,0.000268208400605493,0.01017488378763935,-0.0007411423481912652,-0.0006147758865404583,0.0011283368271382348,0.0010186970528048048,0.0008099007283530055,-0.031899413032328766,0.004854106987961627,0.0060963896866123015,-0.000666654603836479,0.000789856084021889,-0.003085109041046157,0.004595417157649746,-0.0032640022315731767,0.005357291833339522,0.0015220315058757591,0.007476784323560446,0.007453168082428771,0.003904509464054349,-0.009219057564531235,-0.003049535675198857,0.0024061453605925026,0.01209805028722764,0.0056761010733042475,0.002449955932226266,0.011481878772807116,0.008694969226895614,0.005543660232757934,0.0029286512913417185,0.010989255485331605,0.011831112558277014,0.005698883891402604,0.010967687545054079,-0.0023557076338367802,0.014994449512459498,0.008230161969301418,0.001766965363157863,0.0014250534072607003,0.0028007408710179925,0.0020500837666753216,0.0018370510299701658,0.002974856988371654,0.0024617664036911727,0.008432562606567969,0.0024412958298200304,0.002999385847155811,0.004021789366508427,0.011318658895211258,-0.001118425553190453,-0.001634227085577169,0.01587279356125734,0.0005539474963732601,-0.00132014693941291,0.00846423041688831,-0.0018246194722650953,0.0007702680802609192,0.008471493517215347,-0.10077722718382037,0.0009439092120757894,0.007047766440080573,0.005629942200620175,0.008439194922409328,-0.0064858259952681125,-0.002746876983955863,0.00482753331114452,-0.004325526080521359,0.0027161125260261945,-0.006150710349837136,0.0035104235645722244,-0.0014075708782845568,-0.004060381151870241,-0.004078446456957239,-0.0030922081780946145,0.010510134236875489,-0.004344360851412997,0.002932957730271274,0.0009608442053328992,-0.004281914909214713,-0.003924019001985482,-0.013660216914260417,0.004230213506630807,-0.003445611848608282,0.01014016562525333,-0.0066847151442769774,-0.004630819488895486,-0.015782704670857847,-0.0003100597395159,-0.006625979537360754,-0.001990227215052761,0.015262413705999704,0.0050301867108965784,0.012224199217216788,0.016843188657964036,0.012920885838172221,0.007652128076618994,-0.00539770157543377,-0.0015612056317766624,-0.014675691927947751,0.012181046721237212,0.006084267559843193,-0.009630692754993038,0.015315551159950216,-0.006806036409528328,0.0038668476828602437,-0.0016670571740363606,0.007941217464079543,0.0034291774324889538,0.0011378184999103983,-0.022084622093549725,-0.003430216998264551,-0.00003524182320881138,-0.0005687494084989007,0.00017350392868779416,-0.0005863904449398279,-0.0018345877790288158,0.004041545599467401,-0.0006972930636514967,-0.0035260916185376715,0.0019535066172861977,0.002367530368970383,0.0015664027442689737,0.002082202992851105,-0.00468306326468641,-0.0030353604880308154,-0.002756877190633612,-0.0047097524613747745,0.0020148243584408123,-0.002844176616387452,-0.0008533247628828483,0.005940328466054656,-0.0008146368235585794,0.0006027378578247294,-0.00668850702743031,-0.0023041070777379455,0.0017445598309605936,-0.002564366377422544,0.0023624379397762193,0.0036984049656670647,-0.0005232997702631846,-0.0018859723427962045,0.00002125841056128536,-0.0022035098238746137,0.0015372831488214948,-0.00026750300607350963,-0.0005920950896269316,0.0016484021560852376,-0.0025499282704441258,0.0001661863701128908,-0.0013494191317245537,-0.004792489078911793,0.002964852271176279,-0.0028006888910906886,-0.0051998028424792555,-0.002000971183420907,0.001807822420334692,-0.005848908361958545,-0.00284416235346513,-0.001686259283116397,-0.004089609480653918,0.023284682386476234,0.0067333136422547,0.0037698984755910616,0.008497260005923747,0.0017688675398594145,0.004134954957615739,0.00850943983958452,-0.0008609368873093994,0.0007603851007155507,0.00010696824995952825,-0.00024178564623508934,0.011352069208718438,0.0038861855929587133,-0.005295952840101712,0.0008183922840776923,0.004683110191721408,0.0012621510968636766,0.00022855475313518029,0.010568485612898975,0.003459089455811466,0.00018929139831355045,0.005654117475690574,0.010040689275498314,0.008442274455814133,0.000565279127217724,0.001565812521722589,0.005326039615180275,0.012189683144536695,0.013392306983300645,0.007278432081559281,-0.0006966645975539312,0.004721416690270328,-0.002657274418316035,0.0171253975794943,0.008000461817130265,0.008096511177756671,0.002078194177480472,-0.005361647273582033,0.0000101667727749818,-0.0015711124246707245,0.0021457770816648973,0.005321988270673846,-0.0012365545887062762,0.0004077098647213839,0.0063559913542906,-0.0053151136091241944,0.010377150359345721,0.0022718010943450495,-0.003672511548839428,0.001330042315043339,0.008461870423931806,-0.0930899287094274,-0.0015803218858004005,-0.0013692363899144053,-0.0022239135975407206,-0.0007344203031541674,-0.0021030553485289418,-0.0008177224416740677,-0.0012571698432469378,-0.0010334044392388377,0.0003086715997986001,0.0004411890321937535,-0.0014881408504588643,-0.0019135018517879756,0.00357047898074482,-0.0016156418488995751,-0.009429185236227215,0.0002690400795115581,0.002995200213568835,-0.003584016182206975,-0.008714826411151491,0.003770629886207047,0.001594562303469373,0.0023624365464786847,-0.0011859527781092037,-0.006737372004204265,0.0026107568139404564,-0.005570242662897868,-0.005713656026284333,-0.001495027040417068,0.0017541338073589242,-0.0002027774919905275,-0.0043123718237721214,-0.0036741331925281115,0.0012182313665761862,0.002342584804010262,-0.00933412379740878,-0.0023683219941567084,-0.0004141533729482903,-0.002251011518880839,0.001588496045241561,0.002678358532699412,-0.009009876284770313,-0.002257046265132346,-0.005519965835627441,0.005495855382099198,-0.00465426785792223,-0.010217376217547616,-0.004701695177654971,0.001396127312587331,-0.0019873246085836474,-0.0030910945595410155,0.043837937851683675,-0.00776802784266692,-0.0011338302201226377,0.0011552712788818577,-0.001253450259543202,0.0035200668070164212,-0.0035559094645182905,-0.005660932358646747,0.004299664575040352,-0.0039649747165376725,-0.005468269368387046,-0.004477862405160936,-0.0029522397570644733,-0.005942439992361623,0.00296456877924857,-0.005511695986134243,-0.012747804229861284,0.0012254919393584615,-0.004205911072675521,-0.009890461147079074,-0.003953319325511976,0.0017281230732831194,-0.006319134472254857,-0.001489380005641885,-0.012097270784682966,0.0014616197871837758,-0.0048153185546696555,-0.010729778092156262,-0.013988003920272425,0.0026791801140914418,-0.0017326736732085604,-0.0022081072343919086,0.0005263250974650904,-0.005611859778691483,-0.009674643081059116,-0.007084896463296342,-0.006250740361968573,-0.007385253550356892,-0.005770485656543585,-0.0088550323633472,-0.0069428288757122135,-0.016844693430558586,-0.002137437366064099,0.007573491715101995,-0.013860681813034154,-0.002374782029077836,-0.0044447161469966905,-0.004887528546463835,0.005236930552002368,-0.00183927759733244,-0.0024039988945508232,0.10368055193287293,0.007615311056222434,-0.007546765379589462,-0.0029199174228313205,-0.0110883385561832,0.004576844113870737,0.0003439031450525013,0.005424199208831609,-0.001009214338817497,-0.008867251613440697,-0.00018982734079329947,-0.0022988769516616926,-0.00028810831373777044,-0.0029317462279284307,-0.004133211333876289,-0.004785624519192871,0.006012051240492431,-0.011474329026945658,-0.005369071593050561,0.008381410186245346,0.0012866143843824089,0.0020055663641011796,0.002024473845848628,0.002097633249811984,-0.0080593921252164,0.0024604244712648593,0.010987522638570682,-0.0052117732893624735,0.017708618567772533,-0.010607309065066049,-0.0010730313604032046,0.0027218328893067146,0.007794301397530753,-0.009771019171107764,-0.01010691325323467,-0.013054837738870177,0.006004824476225794,-0.009327946729759558,-0.0033668180455103235,-0.007223511402532809,-0.005897758327251431,-0.008013455162980604,-0.007556755900878479,0.0017847579083690303,-0.008424950066659206,-0.0032153022821635974,0.0014069909481553918,0.0028760191334771166,-0.0035666060256902264,-0.0011055484207300452,-0.0035708300427738293,0.04737211739616924,-0.00833836859214136,-0.003325024322906546,-0.00017467580767050752,0.001123513537227931,-0.0024726207702247976,-0.0036010788393322298,0.002394058547668351,-0.0037610223204808794,0.0030920597052813957,-0.002209348579135089,0.0009652697018557867,-0.00013358399583347945,0.003080143925833951,-0.00933271645150028,-0.00837540311929675,-0.004060546041166603,0.004924537032418782,-0.005540282112120072,-0.005534781527645464,0.0026606719517246087,-0.0018994225764369646,-0.009514555519523484,-0.004335541366385697,-0.010635632534226369,-0.004097091922969657,0.0001200549439170672,-0.001453516765761357,-0.006226470571289019,-0.003071277436932316,-0.006035469227899765,-0.008775745618279268,-0.006173101117797102,-0.003024532302793029,-0.000950234463483399,-0.0018192701229543127,0.005697815511550245,-0.00041728734099584036,-0.00007808374639505192,0.000023310656506976,-0.005371303994270155,-0.0024927874797345704,0.0038093223209177242,0.005998979012485577,0.0010783416838276464,-0.004263188207747859,-0.005404568286172485,0.00008517745726691827,-0.006721224739609809,-0.0052467333926540065,-0.0026810350209920757,0.06206199923696834,-0.007820699724258414,-0.000703379195865388,-0.003244815407937238,0.0006716959633617373,-0.004064217701178719,-0.007902140826922472,-0.007124050879440431,-0.0011358508971556804,0.0031325577250608263,0.0013995465457904187,-0.0033680543065987088,-0.004040250766432582,0.0004960785744890068,-0.004114646625619661,-0.0019494110907379361,-0.007259529805928608,-0.0013656787312672006,-0.0019974415880934676,0.0020199636210877074,-0.002420562402461708,-0.006085822067687224,-0.01227813362978792,-0.0008082569056528198,0.0008169070668100285,0.002418985154608169,0.0038865340197214104,0.0032089337139802093,-0.014383055223306554,-0.012241171582612106,-0.005282721800261526,-0.0034043498608346697,-0.005474753699575946,-0.009447708315173354,-0.011157433498781441,-0.00949033706252603,0.009382541154743384,-0.01111643567177442,0.0017014485912242772,0.006443740164650804,0.0013331354419251387,-0.01482117165242733,-0.002933459048261498,-0.004892112808261901,0.0003996781335996074,-0.006488120225435568,-0.006482960997700605,-0.00025804355016712487,-0.0015130618841177137,0.004075907412043073,-0.0033330218300445416,0.08005462573349638,-0.008267623311207636,-0.0009884559733830411,0.004095856294167294,0.006258222649939636,-0.004409364510550748,-0.005458378433713796,0.0017546841773000692,0.0008740376368118998,0.0036849227728225006,-0.005513243914854748,0.004742188776376214,0.003030060961021895,-0.0038272326770252257,0.0019245821043869693,0.0027934055089751126,0.00495566655488763,-0.0015706748444353268,-0.002711885229664585,-0.005867286826151085,-0.002869884707372405,-0.006301845600355578,-0.006818902928915329,-0.0015467034079156342,-0.006632755996768116,0.0003982909755628412,-0.007354311878780404,0.0010844709891316864,-0.002004944138833567,0.005023753064372641,-0.0011961491636408165,-0.007187999290951543,0.00047869255796512936,-0.013088259641431817,-0.006223959547626734,0.009024514087771142,0.0020245437447089865,0.006698914322248722,-0.004743117826085347,0.002441694548828468,-0.007512350759142648,0.00312093617585449,0.006393351524980086,-0.0011685352201555432,0.005483120535386693,0.0004000507736258014,-0.005640882250061075,-0.002423333216595583,-0.0029088088095707266,0.0017918429027415747,0.001336791927325656,0.022188694143250868,-0.011389683995766228,-0.012083378793723027,-0.008659789418894837,0.0013010633732684484,0.0010427314953202127,0.002235385976076327,0.005942118535132661,0.006938643913142479,-0.008963248570956933,-0.004466587772834806,-0.0003710166789216091,0.008272748609601461,0.008379409386934064,-0.005799671468725249,-0.0009282927189131244,-0.014206139088680106,0.004250612208121902,-0.003968146784120266,-0.023060913505660384,-0.012014885297280708,-0.012287819538719588,-0.011154682178805182,-0.0050590495681734305,-0.010438724055950345,0.002111110258121922,0.004892909478126773,-0.013294017314171328,-0.004902803211011897,0.002434190118869092,-0.00892633982889107,0.011473521857064222,-0.00465021648817713,0.0031610717597041534,-0.012236148964169783,-0.003474349012786205,-0.00004683187703850698,-0.01430686491585874,-0.008150215973048408,-0.007902400496209518,-0.008155038587165809,-0.008755167101000908,0.002496589551419646,-0.00172714085756706,-0.017316198422817546,-0.006158440571633915,0.001904756868367991,-0.009186135374685642,-0.0029555333916940906,-0.0001704507761825496,0.0005001888492369471,0.10600603017226415,0.010707736500487137,0.009786348015805578,0.010602637572662802,0.0033381049902713273,0.004482366285783687,0.0072688044969707035,-0.004826943978180007,0.0032105212626555944,0.00791839304650968,0.002469523292871615,0.006435185032757942,0.005958835312272186,0.013084648887732855,0.012134773825833625,-0.004055233849635823,-0.00019879900885028538,-0.0018892703733720568,-0.004091561446497792,0.00489271192794885,-0.0012873717520897237,-0.001051825058094857,0.013758310231270937,-0.0006094933373245848,0.007791221250483217,-0.0006179660033173125,-0.005078055565503182,0.006679505329293743,0.0056006188804678825,0.016774850091729115,0.0012950010344438922,0.008538512618577247,0.0015055112016408522,0.01496153191859889,0.008997897848026404,0.007830564090331064,-0.004448878983172615,0.004323456601046488,0.0077262224422388484,0.0004368093886512659,0.008293557552576722,0.01783442355572969,0.010467436268916207,0.0004528170597459134,0.012755477023948476,0.005211687382315948,0.005654409246645915,0.005846645352947248,0.007148074609562035,-0.0025351574861943375,0.0013133974016907631,-0.1212450068873229,-0.016352318989188572,-0.008817493632471618,0.002129088545217335,-0.002048724476189056,-0.005938532542074287,-0.0068560052646077126,0.0008684849357817758,0.0009237329148390088,-0.00048601900596564386,0.003166226389409856,0.004733624085140266,0.0018659754228367454,-0.011379151295350913,0.007985074056779083,-0.0015447419920972872,0.0042069167715303325,-0.009599373930909252,0.003905248718050109,-0.005166814690810137,0.003328018132221376,0.00746886973856081,-0.0064677101838887885,0.002833265253278444,-0.016022867732383244,0.00011672769339083463,0.0028648749952714016,-0.0113710810519191,-0.0008101561105863148,-0.0007538330554261827,-0.0024908810540267526,-0.017052902973359166,-0.008157438907651844,-0.008918195732576517,-0.01887387427788873,0.006881517325806897,-0.0009844625634870628,0.0009803136686108583,-0.014949511483283679,-0.016020577147378742,-0.004967123606800024,-0.01214399049791951,-0.002994888386300553,-0.010386292334814319,0.00017083409242492053,-0.0008525844777062179,-0.010970850844372495,-0.015536338943800153,-0.011815385419283614,0.0008358584555656924,-0.00003185197912586572,0.10345513299222786,-0.011913940415938977,-0.005535151524490127,0.006007854770245535,-0.00004731442726446961,0.0003934202887274099,-0.004869865891642465,-0.0018135064100634206,-0.0006074884807771811,-0.0013503808859872371,-0.0010299043634179991,-0.0020975602388113644,-0.0037713922257689757,-0.008460973249435884,-0.005388228464226742,-0.0019336913982258813,-0.00431243957213624,0.0023198539512049123,-0.002053184980743292,-0.0005713123382659944,-0.0013893020053069715,-0.0018222891215957527,-0.007638310835343342,-0.0002478987596632059,-0.01178250086408292,-0.000597395978619086,-0.0033955188896170573,-0.002181060647820992,-0.007888869044943238,-0.003528479891096961,-0.002988824945322904,-0.003885970720074364,-0.001751771854488056,-0.008090879694602354,-0.011266761205133147,-0.002213501948307439,0.0032468965125376594,-0.005159074250579956,-0.0025894079961706964,-0.008903708773423861,-0.009347909012668017,-0.006959880463488553,0.005825287198701835,0.005245582635243115,-0.00891311815518464,-0.001100674701200886,-0.0015594715582350452,-0.003541432197167354,-0.004369655900060174,-0.0008824797995466225,0.0008606294395750507,0.07990270963844555,-0.018180244958493706,-0.006673223145711259,-0.009037414962505801,-0.002655475776807937,-0.012523102484579014,-0.020829507387325655,0.00939914034407541,0.00204471114886126,-0.01806038831211676,0.0057667775729009834,-0.008915156503624865,0.008924770744198146,-0.0037142703773635093,0.013734090958135083,0.003738497479061681,0.002331705273706857,-0.010362606878952168,0.004717711938514501,-0.009473353907988414,-0.018792664498493948,-0.015159911916803125,0.005380494262400344,0.0015292333892723547,-0.00621853056583737,0.005833641442036665,-0.01132718607768212,-0.0030088241011498713,-0.009579827122522103,0.004009046213202469,0.0026697917880145975,0.0012418515811001736,-0.00606302622129594,-0.03835822392698491,-0.02597850304792589,-0.02164740157356532,-0.010809716416528753,0.01214330285221015,-0.010440571269035448,0.006684290276757884,-0.012575788193297613,-0.0192587459282651,-0.014521009449745576,-0.024845212366241744,-0.015346625982539658,0.010361293184584485,-0.010872553802106177,-0.017508492006856773,-0.006941421808091676,-0.0033901819341435723,-0.002336908904316548,0.164049170894981,-0.0038436458532642836,-0.007295322904304154,-0.004653978494547896,-0.008318849009902289,-0.005404854533062464,-0.005955389348249626,0.011155300002216467,0.008585927376632866,-0.005607914208329575,-0.012173886283773049,-0.0057105491001305875,-0.0090528417822409,0.0003005878281892885,-0.018480580903527825,-0.017721966267683055,-0.0035573914822033897,0.005989802583714889,-0.008876601222015,-0.011282675402099138,-0.005969471446489041,-0.014795609804385395,-0.012150088797700968,-0.009366754336849751,-0.014622107670441828,0.0028115978268360513,-0.004631911326156102,-0.01450517434041173,-0.012291290111313415,-0.011118961655034804,-0.005385352957566288,-0.01620402889791454,-0.015050531612841736,-0.004214018960523037,-0.0053499335582674005,-0.008250793433006994,0.012092719639467205,-0.0006952588693570443,-0.011847614458444958,-0.003218991676963685,-0.007530923914754265,-0.03302854924944961,-0.002799861011216149,-0.010926920599263777,0.006370500894867913,-0.008414184200780226,-0.020637656080124932,-0.007952031811038828,-0.00660725886060018,-0.0048044100460979565,-0.013329883115322589,0.1864213038819649,0.017213818296012227,-0.00027177094981821947,0.004271363373222202,0.0015957558467912369,0.0037107103444150957,0.005110925062515131,0.003091129945517469,-0.0026476613669191495,0.004047018676353829,0.0035427497982720487,0.0020635746466737184,-0.0006972706510935773,0.014128053894843486,0.002878486462038547,0.01184147956523755,0.006808879810340814,-0.010705192743757051,0.006472314185851278,0.011169930850502987,0.003247871504858349,0.01601928022880139,0.01669881511248028,0.0018161772851712056,0.006608379084094038,-0.0029759894716667955,0.0032854299712075617,0.004258746246426154,0.017679545798809194,0.007674535567687999,0.0032122520326097114,0.00615820497651372,0.005935781942933537,0.013614099483274708,0.015783488100246042,0.018653116497775422,0.00567196752992418,0.005435296250373272,0.012279434126803879,0.006427947765397833,0.01107742553604265,0.018426781082227985,0.007870766268241446,-0.00569317436874645,0.012692318405814062,0.0057533885983768246,0.013184959711511372,0.012941156448884737,-0.0019521313594426683,0.00359114898514592,0.006365458109114392,-0.1690901703463893,-0.014084918425834769,0.00032465989037178084,-0.019356110375489174,0.001149392505405317,0.0018329456817441781,-0.015092874672162802,0.0008870165496378611,0.005801949175551998,-0.00452053488841464,0.004209425419633898,-0.012004109023124977,0.005150248474839245,-0.0073794558640871664,0.0040489214034947095,-0.006147468262397434,0.004724230849817978,-0.012146073329095635,0.006049352110954021,-0.008839337659646345,-0.0005655256968646518,0.001216251732084985,-0.004320829194457483,-0.00666638156169254,-0.02303395358974248,-0.0030760428329286446,0.008632709333352534,-0.011247773857256017,0.004441701091865081,-0.007773434372902603,0.002226917857481639,-0.023475961939993437,0.00909708631436578,-0.031586057522808596,-0.020913936640217765,0.00034976746833138324,-0.0029953743183817956,0.01122830988980254,-0.005343368355068932,0.0026694615479392787,-0.010921169892361344,-0.01278526613297457,-0.017278430728095817,-0.006681980979884411,-0.012990397717421876,-0.0002241818423946164,-0.015121754191289354,-0.0014542676142989554,-0.0010848562563119432,0.0018047926523013685,0.0021160211772355505,0.12294390589047997,-0.013411490314758162,-0.013810554822414863,-0.025491419017664843,-0.02819828751302001,-0.025060936720975188,0.010891865739187398,0.019589566909777728,0.07218910149068866,-0.004468515129040875,-0.02078678182184788,0.02172335639285663,-0.06523675330431117,-0.03820705677693635,0.013334735942638277,0.009847676381183206,-0.0334000915313982,0.009149664345962222,0.004689840169451604,0.030336829635482142,0.00500160780201009,-0.135604423653457,-0.01587419534399268,-0.020968925577569512,-0.033553002598985866,0.007455510747623688,0.014827234749690348,0.05098001942113691,0.014295323464322851,0.025685382621629015,-0.04962899952637789,0.037119232280945186,0.03959367190470666,0.05573028071696496,0.03078086354311422,-0.03200746792972057,-0.04811516214470323,0.06807262376042052,-0.005632553405958086,-0.09281317230952875,-0.019615297033084823,-0.0024331862660638827,-0.017839361925061244,-0.053318689581213774,-0.005014614526969123,-0.021018511719363094,-0.005673223168481339,0.01700005447590568,-0.018438226298894696,-0.05212637339083356,-0.007213539076690833,0.19503043970564093,0.06581555253154256,0.017739664862507616,-0.027551688249486752,-0.03881605378984945,0.04563250185507483,-0.0023152136788051024,-0.025578903656429397,0.02666712197552767,-0.01951489878589463,-0.005321844894784522,-0.02590470616577191,-0.013707049975509323,0.026989758428158317,-0.006184095270285423,-0.010658192692690907,0.015212723535002338,0.00041099491423471807,0.04182618216283249,-0.0020244173966682665,0.026068250569384156,-0.018691275466831508,0.010445520582084835,0.017415110277757235,0.005431040288956448,-0.012827615591148537,0.01929252970394063,0.04938644535107283,-0.024083267893001102,0.05842635999709754,0.021594806245230184,-0.03310559252976905,0.05959525104472923,-0.04099611229784282,0.0006548851202629329,-0.004219558600715565,-0.05048041072162822,0.024240490079375867,0.010159559745490177,0.01634421572432645,-0.01931345333850015,0.039919636091829934,0.08120611786140304,-0.007425257681051979,0.02929286350941655,0.007397489467204133,0.047526504649581365,-0.003592357901778084,-0.027978394257104695,0.011040454080682485,-0.031862847356543544,-0.13756772932636355,-0.027118753023516545,0.06388179744730074,0.002444102849097665,-0.002713721879453699,-0.03610721114868016,-0.0007979078629663163,-0.03305392814348378,-0.016745162928038234,-0.05235921012851916,-0.030422048705490805,0.09035536421025152,-0.008593474414917458,0.039430937429356,-0.010343850024207903,0.0009090061762935547,0.047077071085564144,0.020821464870854935,-0.05188102894709848,-0.018538700046664424,-0.006970865405201227,-0.01926748632720385,0.0008139278451390049,0.001115057261748344,0.019372009381340698,-0.0016894341275489025,0.007249086225771298,0.009252289252554188,0.03708883201405281,0.0022109089954286073,0.01845917549984759,0.005099619871830014,0.0284183668816987,0.054892150921025416,-0.041285735943465185,0.02619801573812167,-0.0791126328699071,-0.009219249291342732,0.03612196093876296,0.009965208953119769,0.02634819907288221,-0.04125104127873734,-0.016057196147324943,-0.007527542949112751,0.004014945498958736,0.017520206388629903,-0.029556397872047387,-0.0031773670515731823,-0.04855311381076168,0.010486918857354489,0.05838493848835636,-0.0002271025511744152,-0.014178721502769547,-0.014181666560051797,0.00009602294142321718,0.004925365083069174,-0.009868077875220496,-0.016175202844475548,-0.015284946397868003,0.002300766866991359,0.00675660182329802,-0.004862338586154205,0.0025361592842461037,-0.003659437469029145,-0.011764758548646205,0.007143185822503829,-0.007995229872547794,0.001108639481855093,-0.015953808685890514,0.0024074414748345334,-0.00893414119039422,-0.0020261991868618925,0.0003971599059195049,-0.011931617854501354,-0.005561870277778259,-0.015260074148336328,0.009019693104478631,0.004488196094396276,-0.005158014630280452,-0.010625661550663457,-0.0016230655998965924,-0.00003150949967794911,0.0005602369435083854,-0.006110552817952513,-0.026423511723511386,-0.02282566211418671,-0.009785133729263496,0.0094840623185534,-0.015612626675115527,-0.01642970101445654,-0.0054985721751443,-0.013026532633331263,-0.01239370356675734,0.002008179202675346,-0.0030191151450937267,-0.009332500906733553,-0.0029084828193100963,-0.011685140576185575,-0.013632971852435853,-0.0100591608920895,-0.0029956681548052905,0.0023437431404803454,0.1488506493358381,-0.01757992496899582,0.015160399062886984,-0.015626716205007506,0.02842962186759142,0.012720552040185882,0.027824844036061627,0.02197690019862781,-0.023314835032903495,0.04137394109364032,0.008571171335745203,-0.006741069981692867,0.028332449836794858,-0.06475438508886501,0.10524731699721837,-0.032033335836248095,-0.009474761924488343,0.01035785410436389,0.053998964609739304,0.013211626517729792,0.010352976146579844,0.0032374714549181123,0.046709182640268285,-0.012785339925431584,0.010925077180389261,0.04627008207071215,0.04108867494495395,-0.0266286608084233,0.009359104376613105,-0.002339481291799588,-0.027964923388688688,0.03125684160580433,0.03465302439444825,0.04291617493644615,-0.0478757126024255,0.06596713220617041,-0.07468346159352496,0.010494955140559705,0.0960002558225703,-0.001954713885039011,-0.02790653193016287,0.001612972956172631,0.04964187080927827,0.05594347606059634,0.03046663660681748,-0.023415662553631075,-0.08100752434354086,0.05725453853215072,-0.009212593977619053,0.028416816937971028,-0.032062660095803504,-0.19376255736962636,0.01822685130674422,-0.012642713275145085,-0.002090735284464533,0.03150984716696004,0.042843363185019405,0.05612778035060585,-0.04989429393899193,0.049397463256408564,-0.012296522100745381,0.05812328957062825,0.04948036963801436,0.02662291636811951,0.07476394705646336,-0.025439373042647987,0.03028795815651107,0.025119106836844495,0.0026876401092067416,-0.008258822464206545,0.023467527319384895,-0.03355772302198194,0.0372674616816425,-0.037276421427119205,0.01913665589441171,-0.041992230408929826,0.0935019698148063,-0.08018649116796353,0.049627835210023716,-0.002221975878632222,-0.050868867604940485,0.051742925063608426,-0.03397493677139726,-0.07197062209649245,0.05741988129411998,0.09201220980087385,-0.05842562950303679,0.005737518784393325,0.023366832616950186,0.03522317329199775,0.006242570542991063,-0.04381893583393849,0.04658682988105616,0.0074926041674495516,0.04718006543067721,0.05829293453731528,0.02601319915311099,-0.03405182891393565,-0.008636130467197396,-0.03044964181268865,0.07579717724457395,-0.04144339118939058,-0.14366390752598884,0.0020964957841203284,-0.06425437558267089,0.13189711843256835,-0.04379091446272738,-0.006477903895790499,0.02379004584288416,-0.05964846541486888,-0.04453440081926728,-0.011448433594120561,-0.027781027514015788,-0.026578773930102655,0.0023501942901283045,-0.015548593673506236,0.020423274542119316,0.007960629596799908,-0.031927749821039984,0.010191466837630815,-0.020278667087471884,-0.06387535180168022,-0.0531006690775005,0.049255642708649496,-0.07361979056940456,-0.04762758218243888,0.022341820534946197,-0.06090704522913983,0.054542836587423885,0.031398574213973934,-0.009544060422939957,-0.0032398514260167962,-0.007509619027069454,0.016416806246422975,0.011046174896772386,0.029343908546512597,-0.031998969453078646,-0.038832546277394915,-0.0418211763918976,0.10923136931242405,-0.0722077847223238,0.04450217804008328,-0.06864419573224381,0.04487256751660017,0.045159800527937034,-0.0687877850587691,-0.007386753250743154,-0.032052692566494984,-0.006409357234680839,0.03544242022594931,0.053755183670619135,0.032402475979806736,0.032403577735934094,0.12792013859687892,-0.013538583684838505,0.043870338247597625,0.08184500296851677,-0.003775464699720282,-0.03874354388069606,-0.00586155437866923,-0.03823431877431861,-0.05721743412797609,0.06506671166678271,-0.032294306529123046,-0.005013257370863828,0.026624075931412867,0.017873355263521316,-0.07813578443949969,-0.0016892782955379537,-0.016999989810711522,-0.03441545012994694,0.0426719127475016,-0.02583203561471626,0.043420132394799575,-0.0659001355133369,-0.0016052652458172063,0.07243168743839143,-0.002817857175489882,0.06731761643517513,-0.032937116507323234,-0.045994397843923514,0.0960462067125787,-0.01914532604842697,0.009109050737653243,-0.046737343729847655,-0.021507701923940505,-0.04767944330827724,0.03252960028261797,-0.03537368358576875,0.010295987093244988,-0.03476656809262886,0.07647785193936484,-0.022932464820449684,0.07603446814628792,-0.011316860295178612,0.024640840559478155,-0.013960529094483578,-0.09085170004310517,0.07185869070331072,0.025065299756757514,0.08298244643227021,0.008273534667166516,-0.020623389383575656,-0.02567341277601014,0.17776596657825033,-0.07567747209824527,0.027003704221310224,-0.040120804500055784,0.010625133373316385,0.06464369972563551,0.03198797426345385,-0.1132914846315817,0.1014635915020481,0.02307017301913819,-0.006943814084562962,0.007131617516002717,0.012279306537321079,0.03210489308642838,0.03706708241321911,0.008819143035757456,-0.00974460374835668,-0.04199332534994572,0.020965778242568574,-0.014913877347938418,-0.016417479020742747,0.06098664412474582,0.05023465911589518,-0.06547836823328224,0.027562460907119956,-0.016592408752799048,0.0059161003000335645,-0.062420919271332254,0.06521540728591158,-0.027639973318846416,0.01911836021338052,-0.038427554811217665,0.04283164777921364,-0.007217522277223753,-0.0061788215822931114,0.048755787092430815,0.08220731039734773,-0.03495784223561652,-0.09793165711413965,0.05228240295986631,0.03412332703176261,-0.012807313920481367,-0.034712804135036905,-0.023802243993230235,-0.04232461557600895,-0.03482875514318278,-0.004885888290503262,0.05193760195988951,-0.04706291472714501,-0.018834027278185672,0.05592364633969403,0.012615300867728102,0.01630711944435825,-0.0022236896050865226,-0.019576221257535574,0.02618528658902706,0.009900375310998659,-0.0038229118704545106,0.046275368759729305,0.031249895532406514,-0.037724187375482846,0.004517336702235715,-0.09008122212756281,-0.08110856255967158,-0.006530368931432119,-0.016111446496797098,-0.07395210416475269,0.012601416125287467,-0.002567324198614722,0.0032983340132798607,0.01702985423217749,0.10197752067883731,0.0004529159397775802,0.034089139623558834,0.05440590812386364,-0.021286698807971113,0.017045035529981316,-0.0728747294868786,0.08361966096633273,-0.050544196402685385,0.016775478314130537,-0.02930220904041964,0.04582109564086416,-0.025653211855015418,0.03508870247615278,-0.05312875026261475,0.07022436191597334,0.1433431131356215,0.023413723049868735,-0.03021611814284104,-0.09798872701110412,0.05242334764839409,0.08215319501696235,0.03267023646585126,-0.029564980941981057,-0.12042178660992359,0.023366452616972684,-0.046653694537054737,0.03931715763141907,-0.02798629901456445,0.039513692677117664,0.024508099073460302,0.012840379992820682,-0.07788712655470015,0.022582456675527506,-0.06888885352137687,-0.018278251045965976,-0.03463509638604813,-0.026174068803955005,0.03153196403451076,0.00032330412687751946,-0.09027661785868105,-0.01015897378740866,0.0199184251962652,0.03285091793036874,-0.04803270386649766,-0.035602151990451254,-0.016680761731298527,-0.04739699957380728,0.03762189994601996,-0.015727846503737177,-0.020788992682199445,0.03158927662280489,0.031871944412004014,-0.04930688147045063,0.061176780905399616,0.026460195454648137,0.041753212293999975,-0.024448704751183208,0.0592762672239213,0.061832592329620524,0.11563250068630326,-0.03330714404963298,-0.010886233966965825,-0.044196343755142434,0.07365813587327329,-0.06790705078397853,-0.03473571110860519,-0.01070949144595822,0.003964451056879322,0.11026002536894762,0.07189347212810342,-0.05345285101868234,-0.008937484629082794,-0.006206872945144121,0.023002274998092768,0.0881826213962071,0.013533756209563989,0.08174153596880782,-0.021719575891312827,0.01660182166088933,-0.009221906627424828,0.021318089294523494,-0.04723618845669064,-0.033897714764211356,0.023358736857432717,-0.01802618422074252,-0.031703414956297055,-0.013037270336780905,0.008846935455599643,0.09280741715260331,-0.03251027972439502,0.13331830416162083,0.11354564300326817,-0.013132580645831504,-0.020555564039614293,0.07035877376490145,-0.05031318918465431,0.05868123775435621,-0.04622941353586109,0.05710895935208474,-0.022688352828554727,-0.04505086596192822,-0.012238407661544595,-0.08373653263640342,0.01714219746127391,0.10742076155236088,0.0207668424243852,0.04670002371210999,0.020258775081976856,0.15226060400088529,-0.025730106004392562,0.011189312739264753,0.018362320165557222,-0.046586690752719415,0.020410390540738194,-0.02104895000468148,0.021693164193715725,0.011196185195130427,0.005748406133391417,-0.030051373803165003,-0.03625006556470376,-0.02436640842704693,-0.032473983849653616,-0.01297501091312175,0.010626342464937141,0.012493211026104291,0.09085926324518505,-0.0496920567813397,-0.012323043895069314,-0.05755300481854096,0.0454126603015294,-0.017742267163040903,-0.02308067963425969,-0.0695950714743654,-0.025503657036695587,-0.10253813428216164,-0.011354650912618634,0.029730874027808194,-0.006556293483408971,0.08564074417030922,0.00592574149012771,-0.09812416856548238,0.03855871066400457,-0.016494065596534952,-0.04272471561195195,0.11929358078424852,-0.02411799712560721,-0.07811743342535539,0.019918805103748514,0.05784231369707014,0.05944030493685109,-0.029711646420090918,0.0666092347446963,-0.053303216227419375,0.046270193571460436,0.03172462680409023,-0.023234769794862453,-0.026526756478992667,-0.05239769195019659,0.013240368773042186,0.08179758768521612,-0.027019843556483434,0.0937540655571044,0.012940111211477416,0.01147274506529421,0.023972487427556435,-0.034901491995343654,0.017991817231340818,-0.023993821756852263,0.023812932895548714,-0.049632738607229256,0.013436574931546139,-0.07856344184234315,-0.0012958918370343003,-0.06078895890388587,0.017382897779774635,-0.028454199093993226,0.0901741693799011,0.10017852815638525,0.028587806235087727,0.06447768739312348,0.06924894005333242,0.006274042934484784,-0.0018791535061454187,-0.05823049464659101,0.06443048251749695,-0.015428216105253927,0.08702425703604998,0.11130957150990459,0.018703426236796074,0.0022180544629519534,0.06765610626664709,-0.03490718703107478,0.013943706516798658,0.021929752647009776,-0.05579739717100794,-0.054157625608775475,0.01234849696663199,0.011707428423167448,0.02433389369139931,0.0498149957568638,0.05002037266914986,0.012629557175941553,0.08087846026282232,0.031841829370359793,-0.05102011459092948,-0.08346673090453906,-0.050591946357603904,-0.0072586542643716554,-0.00583228269602775,0.05241005543308016,-0.03665842850529184,-0.0001660511378661333,0.030719749823218595,-0.0035378603374179377,-0.006065088431363022,-0.04971346507626096,-0.026518652858089672,0.03596101282853162,0.010308830668540976,-0.02664908833136991,0.024574054519179624,-0.04148215913199907,0.05287703344287284,0.005133261039277068,-0.013664887004629936,-0.0009523294924630016,0.046864000007013656,0.02202016924578086,-0.049353905784971557,0.06565606682183929,-0.02565300929072521,-0.03491168893974787,-0.0025986035781761048,0.0748603175332881,-0.12138985051039416,0.017387862337733588,0.033304944842427915,0.010532666853343734,0.0197859999089366,-0.032275219263290904,0.025436282884490662,0.05198899978620898,0.04550994773768528,-0.009893635169896537,0.016502371697999847,0.05680108872365388,-0.008625631330207401,-0.019431755348246708,0.02875219053629416,-0.01761596527499367,0.06110260154769291,0.007663203469610143,0.01664534843542391,0.030532368354770995,-0.005080101291833373,-0.017487624875799187,0.04316366136044779,-0.030074061875840746,0.04813070744089186,-0.059677093954371,-0.035038704069418676,-0.05698525700130381,-0.012231970962829792,0.005280203197845236,0.035758867123733815,-0.00702071287051644,0.03796430019067733,0.021317207867857093,0.05582916796757902,-0.057075586905450594,0.038464317652507914,-0.05207325967080881,0.05117448022783275,0.027829671462547906,-0.05766006590647223,-0.001900461010983372,0.04307584572046433,-0.04207663151131313,-0.059241372240320125,-0.004123561713125492,0.03343023560767085,-0.022075668258216552,0.012908278351359395,0.00478936390321125,0.02501525727229975,-0.02327485663114706,0.0733864511857679,0.04629937471188328,-0.06641281413485446,0.04551143543027676,0.06624288184971255,-0.019905177256433062,-0.009420046230380756,-0.025647644063599404,-0.012570654179794,0.048400889702545205,-0.04500088398059963,-0.015684166637570475,-0.09634299399357757,0.03427521627692394,0.04008631857842749,-0.0026484688999235005,-0.05835958439829447,-0.019115223210067287,-0.0541084722867754,0.012579990012692568,-0.036584351415487666,0.04874831807586218,-0.0040560841365153266,-0.10123304897295686,-0.042597611151123316,-0.05527022785513396,-0.09748097598311747,0.0098045677095571,-0.027316459437401474,0.006999374790742833,0.02278311298067502,0.0013664606932558788,0.06130334171721472,-0.019856053679801033,-0.00001005662932620339,0.023724294485892736,-0.05421397360406257,-0.0593904788742801,0.03715935712278915,0.017769736886781594,0.04005359096455016,-0.03168016401000208,0.06250405570025887,0.02533852941641938,0.01656164340870071,0.015577836173766497,-0.019968448299419093,0.06919232058837767,0.011299882923896588,0.03107953045742109,0.10556558855141164,-0.08266236998530956,0.08720219012399327,0.12251330693474224,0.01146883056078568,-0.07859631646089967,-0.10647835444430383,0.026008485848877886,0.12104062018744545,-0.08363658537852504,0.05313337519390194,-0.09891521746921138,-0.08073053231362738,-0.06624461011402906,0.11018284940727806,0.022429678436411603,0.06090287915857503,-0.1451957764344259,0.0679599337955513,-0.10589065103660557,-0.14235964060393783,36277.782998711715,6005.423007247036,-1125.681242658343,-0.05065374502070168,16634.036650538146,-0.5479459557523406,5631.22381811333,-16.627679546679037,-1.386024329295247,-910.1890610015307,8179.775899587773,-21497.68686546683,-11538.466165564634,405.2047873020888,35191.71520266201,-2.046803530510914,-43.18738446922033,203.05154300892661,5135.587372720806,-0.32711998918894586,2361.3604451938972,-757.4254246410876,-3.8097949084649034,0.2926383268144511,-1217.9840408406203,1252.1158259647098,1.5698781980728205,0.29200484015384764,0.11639443258100261,86.40652369834295,-556.3818760157582,-146.87200818062024,244.78637192652684,-298.6666564243652,22.19518635047844,-1138.3563496520726,-1623.9942836378061,1135.0133267376702,-2315.6759591284517,-20.026938217887345,-15.906406687479242,-59.653121403342176,-12560.321537475544,5425.769277571691,-32.868785697633186,3443.7903608410147,0.5386476503658375,5618.9721352042325,154.18121089959294,43.87491173465507,-0.545874426487907,4.955078776180395,2979.9140858426513,-16771.47165333792,-0.7060003382795972,-1.6916767406387199,-0.0670801137947278,-0.2723660014574166,-2.329649143362166,1.366000067124294,-2169.278707011001,-127.91932714200885,1.7307558536788008,2.990786710972848,0.4821069780486596,1.0273199505618238,1.1884849008552925,0.007923718726346797,-0.023533940597198787,0.03061301556905726,-0.05954907939428335,-0.10333282823237643,0.041880961429939724,-0.12347963735348934,-0.07780092326359847,-0.08676431890479706,-0.11532918979558067,0.005913883935497312,-0.03454159017516673,0.11390109159490926,0.13553935671171286,-0.03637285894143657,0.025232163628051245,-0.04435536235226159,0.08650672413298963,0.004098600479597164,-0.01864956900266784,-3454.622100244972,-14.700188935830283,-15976.75481289424,0.1219350820064894,20.467373745138726,-2.6052407053341033,-1.1162092288205454,-15.648734388829757,12335.15787511465,-3133.548173644403,-1689.5814943596167,10279.929078528628,4813.9307365580335,-12257.134323959624,0.06596283977328783,-5391.027085658246,-35.12476222392992,-306.90962488825136,-1761.1996100693325,-3808.715023608122,-567.8794308553831,0.1733437400311221,-11008.507366618353,5.340101976882089,3150.326084287415,-4.145852838601882,9113.852003677282,7378.134576549217,-2982.491853663574,7022.540232954521,-3065.8593142411155,8310.299981690705,7033.068106217678,4250.395613862384,7740.649261337649,-12069.46064622062,-1880.3273188877176,-4677.765775166548,-12602.797315611308,5639.28127733137,0.102217861531598,0.24202004950285042,0.13812785799179178,-2893.9083489332256,4135.509967755391,-1097.0639948127164,8474.264105334281,-2986.340628282845,-2906.910370526608,1212.990186376468,5154.232018068352,6678.988340364877,-2467.477422752002,-1.6204749576105935,-24438.3699148535,-10.336754190606928,-147.3946332583616,24.72331365432086,-65.891973305627,-549.9358345362218,-4.297706231032979,295.2525903954956,-1001.8573392068512,15.72361397032075,0.13880475987919988,-362.5347481872581,4.795409535660711,0.0905879842356077,-0.12854315162468075,0.013240705776209095,0.0008612616455195486,0.1332556984380486,0.12189237056526224,0.052782330754289314,-0.08548723556150342,-0.034276646817901456,-0.05121638336117988,0.0754182388469742,-0.1121904911101878,-0.007419974573730211,-0.011747433810019001,0.07743130846277156,0.021014918214085403,-0.04855224124510793,0.09191562659191192,0.11023766999475863,-0.05501911066880451,18260.88883873582,-3183.803455243775,10907.146741471624,0.05635909007197581,-17.19525004978664,-53.731238049581194,-2.3911905979531753,727.0601808872251,37014.25306115513,1633.718899957399,1207.9416237317062,-7951.33856786248,-0.444560952839209,-20158.69431861999,3.058351787878946,-1662.332869777794,0.9568569229095549,685.9394695101063,739.4058148453532,-4.9179737634231335,-0.18188557029794375,-0.5408819324530535,-2529.0039165251296,851.2855916817243,2059.2660511387703,3685.4170202072282,-755.1811746957529,1120.5521255435724,-1236.1002538843109,3.2192283189585584,-115.96509587119043,0.6986708392062496,489.1862429298311,2652.7490245554463,2697.517150472378,-2.5041800426969933,0.43677894122543975,-1753.670442287078,-1.759524826516179,3097.7058440343667,0.28614338041617654,2039.8226507501415,-1.429317420498482,799.324661538061,-8657.030200780264,-429.7110945199755,-8635.61955072127,-3946.450436096525,-1071.870942634508,1522.815029406405,-416.04367389481837,-141.6112836283878,3027.0077491677594,-1.0033268964885143,22.149622081771223,-10561.393718136598,-0.6776648388384086,-0.9391869841082784,-1.8587060476110235,-0.7761536225936058,-0.5027752546588092,-2.279877414112009,-7.819466451084985,1.5782731730888349,-1609.176852239324,2.699591906886415,-0.5045913311482968,0.07195455151039597,0.029855266360543444,-0.0672145725709478,-0.06698397682692099,0.09292751824231477,-0.14014513743239607,0.03713889857501998,0.026371732734469036,-0.03629251844965119,0.020003239146218238,-0.018581594467345874,-0.10234138502618607,-0.09099730615517797,0.11747343932353446,0.03657389016424135,-0.040234997611117505,0.011560182144224428,-0.03641215186159712,-0.002428733641967153,0.01038918519299195,35434.444308635255,-18746.188781201385,-10710.869858053806,-0.11298985315533285,-30764.038853398604,13636.4433515441,165.99564675979568,16.312431600459167,-335.1860815643656,0.42351167273779117,1178.640145082792,-18197.008966366993,-21388.15029066241,11252.545170184647,33331.849288866346,16342.077546161145,-0.518926915401431,522.248124913583,-6333.428939343248,-948.4566939925331,-8800.116930076616,710.545715270323,-2076.434700576541,305.3881447080386,13126.313718167175,6400.131844424367,-4967.3161822283055,-16.64896191165772,-1420.9394339405585,10411.891575723206,-8039.160439142478,8197.913451537728,10630.956778282221,-104.79327412025422,9424.536549080925,-8202.729835281285,3233.748077168179,5.585529902695275,3866.953356811691,-7604.30141852979,3072.313919501736,-582.487539940075,-2648.5863713028975,3436.1570103665576,764.0971777909837,0.21125609687108088,-12645.816724560986,-4.134930930534588,4202.428246304956,-3449.5058993831567,5713.891929589563,1161.8711085051673,-1739.5007948714006,2.5938588099825854,-29.391499380227447,1244.732557654738,-15746.900169706943,290.5588914720563,3.8964545734338767,-1.1459724308514727,-1.3350441715302936,-10.450231077038476,-0.44203245622975645,-3035.69986924953,-1.3114678089368281,-975.2306132848455,240.4118417018139,-0.11617530939403217,0.10196887406377282,0.01609328898108657,0.09602087149877361,-0.0449664362792436,0.0825968536656841,0.08972186784753027,0.10261499631064475,-0.016197639029979845,-0.12814462403659577,0.028879385956493656,-0.13997326954413228,0.09751381984589955,0.029351933609101422,0.04543316646310478,0.03312236368325318,0.1390882753337141,-0.03133179101677736,0.047408978280087846,0.1369964609914436,-11.937748068937562,-26768.658268673113,-13421.33594820567,0.1173698166177142,1525.2144929551534,3088.4580216107665,1645.602061763953,-21062.412285445782,-4791.803653307365,16182.61613764722,-4427.601954839268,477.1986713723788,-32.82529833313223,3970.1861960058827,5466.132922795368,9033.858761037765,-0.7580781269221607,662.7673463368477,-2248.475659434458,631.7947672957067,2783.2510296030014,-79.16464807580182,1.1230340940589305,55.319500105481595,-580.4264037753618,-134.10810033073196,10198.436502402297,14316.296054898608,-23.73335515357469,1.965824161699401,-6801.938103645417,5290.161480302823,1601.8002463680943,-798.3133006918887,20638.330735726904,-15459.140427880939,4.7621795051530365,4800.386493596405,2694.384589230998,-1449.7859550143512,259.5937517789592,10.144460137116141,-362.8225683649656,3209.607675002544,-5818.763498384873,-8260.617440206861,4.639536072210692,5720.62924051479,148.8258056469162,-729.2426960626497,28.018178343514624,-1246.7074316931867,-2969.383165597132,2.0954767656054734,4.546502664655636,2.8790449772009743,-2.991002492940727,-19144.093052254193,1879.914453802466,24.44036781021902,-1.0249574873917573,-1.9031360859028774,-0.5451275695380892,-1009.5305998885029,0.4065577692349181,-9.339251417868711,-981.816823403536,-0.11227341749514012,0.021216264694890543,-0.04232837634765783,0.12662590512022645,-0.06965230557582137,0.06751811496577664,-0.05325921967699217,-0.10579590429080517,-0.1207030979297514,-0.024916782510959305,0.03569087311881051,0.06195224300558274,0.13327559791756327,0.11240246553357253,-0.1035256183069379,0.07805264477486562,-0.11158373169893054,0.07817386153931617,0.10505278120201506,0.0013392211670492896,-21.95555545841137,-1.2596740007206342,5771.595043316027,-0.006447174423162245,-1254.264833091198,-312.7561134690868,39.93114737907101,1834.1709878102351,15071.055198603724,25618.55824801298,-9088.715660996108,-29005.40597755881,-0.06170197800555858,856.8763827936908,-12.265892107444662,-2739.5578610627226,-0.664262361228276,41.51533135292005,-0.8299271891431693,-0.830571931687095,-5464.3456034849205,6747.914925018758,-297.4337218234171,-176.49056530656324,10813.492252722772,-3257.1640026413074,-239.61671344016887,-8.16924148585438,0.5964839705858755,-8413.191191400438,-3792.651568529064,13966.558152810674,2053.1189684460733,10527.551962345784,5841.002347991138,-6182.643930653311,13222.750189081979,7.2008603006961325,10065.41755961748,-39.733772043956115,19540.53883417671,5962.707921048733,361.62078552365676,3788.1617778139607,-457.399459218068,-1674.8308933425408,6242.918749670422,8518.201398212335,5359.265384874375,-298.4536736062473,-7.610879848657887,-1720.849128833215,6579.284237711456,236.65178943517327,4024.910367076037,5.07140928636985,401.31393996002726,-21.55579160384316,-31313.671185401763,-64.23049569336948,5.413691038813302,-0.004383692689202237,-1.2856536657390285,-887.2589134887113,-5.527661058228019,0.8346112919805856,2.0581160916946666,0.00915833035445695,-0.13069225057739037,0.1128353109043006,0.11706096168722267,0.07331919976257625,-0.13358358042149926,0.08633395556760852,-0.12795901886099822,0.09135130762549196,0.03170819724218959,-0.008226431469232678,-0.01053434228888088,0.0850868943840387,-0.021387831892956715,-0.07737804108337179,-0.09722341042702794,-0.10230748559662015,0.048731718808026,0.05368669359354976,0.04928760019135715,12672.213656753904,12.010057823572277,0.09366701361746035,0.06726292228792566,-10.334848592906658,6705.138712863169,-5017.086984395481,-193.75365233806542,-47307.67168401553,-1352.6279705958991,-6387.685291003888,524.5200464010945,-0.38981498389212543,3976.672697418128,15933.163428065263,-0.8731832414443023,-0.4667353733634153,4769.056766842624,918.9443438819106,-1723.1970877627646,-1556.8530585443839,0.14127308810503592,-0.6718271853595603,-0.2879406263408142,950.3588397979067,-6.173159423201789,-1350.9979034722508,8665.283822289108,0.7089812839949456,1480.9917557299968,59.9266699919817,5709.5991352176,-1017.4085809685008,4878.283545165864,14989.34115210895,-97.6250262083223,6201.0829960110295,-479.45467938721384,134.64642169417866,-829.613393399924,0.507522547011139,-4146.640513287857,3476.9736121695605,-8515.359292290359,713.9034404838704,-2.3689748364076904,5991.304023115283,-6731.257960497099,0.31769389344090176,-3.115503273189705,-7615.829693156283,15.64840579723287,1635.5847647042046,-0.5766665155274076,1.4317674938865843,-0.7537108547052894,0.5710222762955341,-1.7795575509727954,-0.7047526076180046,-26112.16573579017,0.5402982551012002,-5567.276933264461,-399.9745408521618,-32.0611148726747,454.9978061738945,-25.387840834837153,0.12662012869117265,0.06559876826878183,-0.08105568125331279,-0.11679355203653596,0.002018210805483632,0.133977313081728,-0.09338115638861674,-0.06686635787539869,-0.07768303587008904,0.03266139092342063,0.0907663696149312,-0.11769989399916518,-0.1068428321161825,0.08665890362143548,-0.086718619671017,-0.07510050258775862,-0.09678528468735918,-0.11511230232392014,0.07392138065234645,-0.05029035529734329,-0.08556708948847266,2.7721107909886205,35459.767730686304,-30453.77021173104,-0.11377254192533907,3187.91524686375,-0.42095639423233344,25115.599307543816,-24711.8541449039,-22364.180440382544,23783.621807415904,-1.7890839072786315,-1352.1060457669705,-829.2306198539591,-38.013202540003554,-23.856190220683484,6974.460685671347,-1.0736701984758923,6166.568871659118,20.352930672002003,-6753.048367528978,-1437.8308412411336,491.64495444412245,5247.827143205714,-0.2854659523309837,6054.634461179448,56.78347810952129,1448.7076604083384,-994.8070759659203,-0.5597889987947291,12563.261701868734,33.03843126891406,2396.6935375516746,2897.378110209596,-7947.023404409901,312.25791441633737,20.30080944285559,-1127.1860203628416,-4540.632050343082,-2712.230002179559,4391.557941607213,129.52414432893937,1.1562539602607746,-5503.232075282704,4.110746055791941,7969.229922092755,-2057.344095482473,-7414.940147618374,-4770.170300480503,3678.136366235424,18.40118680984456,-733.9317406705964,-12956.311356064261,1607.5153815787726,-2.12106721457503,-5.544037919237437,-3557.28701148393,-3.8975864577373502,3746.589183322284,-0.47924164676675945,2.689121356842864,-16894.012343934923,-3580.0591393328386,-1222.6238535324978,-771.0914090812433,-1627.8429301062174,-0.27780198425086283,-0.7869798091675679,0.08560691483655063,-0.1349361357583227,0.10635479918868015,0.005110197390085315,0.11991624379230229,-0.03874044887670097,0.1114157791052639,0.01063334551133868,-0.10533186630435774,0.05137772346606558,0.12185482329252705,-0.06322658966246585,0.07919080865832165,-0.12668602836130372,-0.09253073315573064,0.001854103873220921,0.08288938276981274,-0.005423746419711748,-0.13997500819441105,-0.13507841706927945,0.6525090076816809,-5.311505993609283,-2794.1765830024037,-0.011675212787967591,1239.6480477668945,0.5059246132776881,-206.31235925786254,12646.977872037794,13438.048294992206,6920.032268083051,-14413.989271468845,-0.8778490923999394,-3.185160773450947,2796.898054636665,1068.0833701512308,-15465.581738313103,0.8285831195559901,2266.13853686475,0.8646912958535062,-5129.94786782848,295.7589954168473,9636.396795519866,-971.0144066973311,-0.2518620760039494,-549.6188516132833,3357.6806308307396,0.21965563923074752,53.01379169874574,1076.9700054540297,5969.454784699891,-5902.179216281962,1256.99204609894,-13508.309606356981,146.76119874901957,324.2256993106625,0.7529719316602187,1.141449112855669,-0.1075604990000797,-53.406162842453405,-985.8204659207729,-5276.448219585895,-2450.5095579089107,1015.351704829137,-0.22390573096106825,6413.413340087281,-221.5655729179224,-1123.375362559689,-0.18189753005295775,0.03546969023467677,1415.8006008393472,-4662.511997684703,-6817.466650256859,598.527787845756,-1.3180741155842053,19.237302409681213,-799.0946405510518,695.530692912053,-3.4417793416555704,-0.46160194599572907,-42.04169750228,-2.4852265071715465,-20184.548062088135,5.733379544427346,-595.1391205166235,4.58732059349241,92.87949036330058,-2.217906897251452,0.08996639392392107,0.12495682333883615,0.059451319312148025,0.09816957919649186,-0.10452157340054728,0.006176616366038197,0.13125615510133187,-0.11071132048719746,-0.03418115100733996,0.12112616488284127,0.0684291728533333,-0.043054335179909184,-0.01771999685410202,-0.021012417075483705,0.027140616585291454,0.13366429937867608,-0.1208769145003588,0.08165148112735186,0.11054365343721909,-0.10936649080750839,-0.4102826118371653,-8229.37297920788,0.030580541726668194,-0.09274777573365704,10.48267657040787,-8.368634812831957,22473.55007285019,529.9678623959537,-25832.13243857996,-3656.51385211374,809.8997274164279,0.15768236562745913,1463.0464826072598,-31.733682412777977,-7.121847294002424,-3319.3101939339676,-0.12437131229262668,-15.853595042281043,2.5536862463969454,3435.337248191907,-13579.764011724776,-21.45491178263083,2898.673376565902,0.4111184097683012,10443.338553440573,3.1052740929884908,-1193.0644176908786,-17.549334030418937,23.871735310173335,1842.4259157551157,1063.0287038508645,1819.4909199270285,3180.6355685452563,601.1625689246004,2.328498168142896,-46.57964382886354,5775.9152862906985,1780.4986917234514,-15.04357523706979,-4396.921756243755,148.66885745342404,3673.4370241631523,-3065.3887077362824,-1.9244892478697613,0.5304382023754879,9395.253161013847,-8260.726891936676,-7.1456004168605824,-18728.2567701213,-1.0143869442938651,-1109.5856117328335,-3100.642284421713,-4344.017288292422,-0.0449492720294667,0.6658272943560366,-5397.370838661663,-1.4295208685584169,-0.13726198588517285,33.810796539331974,0.1989403152654659,-60.545916250058646,1469.540827385759,-31399.042805999015,402.11339349626274,-0.13486653026433143,-1.743660112541614,-1.6386802679543655,0.08038731204800008,0.05837115908370813,0.1338368404450416,0.07793475509543304,0.059382352875198045,0.009153566001841085,-0.09689957801653376,-0.09827321091318172,0.14172260877130985,0.11323984255675945,0.14197367509927317,0.07786885554995517,0.082265011207737,0.086803304929358,-0.13556522441959548,-0.0036921188003492932,0.052247546763141035,0.002406809154755786,-0.032806298142334815,0.026783791551186643,500.1499572936548,6.501651610387608,21.999331508352608,-0.031995064920472015,-491.22225778330767,106.25744197569514,20245.3161258302,-0.32079651634515416,-11820.726908122537,18804.797901625865,-19873.266120108987,-5882.389921142953,819.0365767484748,6.242754992263227,-2645.9871675096483,-1702.8671871657773,-6.947189425703853,-726.4375534957696,-3219.4983651060274,0.020243271726842888,-202.82235813234442,82.123149869499,3.5622644661659892,-3343.387093260117,-399.9801336240274,-6340.836616995611,-1.619227443043037,517.9510142436446,656.9748201539685,5.363193868769224,419.3211351245058,817.9547053122252,-0.028496117588966915,-10078.479978510464,0.19953388555994456,-6.264853589147764,-6567.946116725691,-4972.213571837572,7286.061665277421,-1318.6213888671248,-0.659106349953005,-3896.9639626640296,-889.8284866374195,2931.5809553687723,2740.5716157711386,-0.10274561180544438,3716.529475935625,10275.474663753244,4632.192190508491,-4880.12268212242,-15.359041337666376,-9315.921615230085,3210.0412150667535,12.168934445683094,-23.04334825671093,6.018369982774352,-1.4560513591228805,-3805.711475450502,1346.9230728309024,-2033.4173574574395,-12.768979923994367,-2.585762291011425,-1.3703805311543809,-40973.77553631484,-23.06116185290316,-2.656134796477859,-1.6546526991764403,-0.09267235118188015,-0.035570788385377784,-0.06927068636791885,0.06612761725795165,-0.06331674287338428,0.0960225503190172,0.07522728125416982,-0.014474170145974128,-0.08597324058341589,-0.12289941715094511,0.07656023842931844,0.10400596192482241,0.018594119834029414,0.08870833940577647,0.026218149625902163,-0.08568419046942073,-0.08270110746565819,-0.08230219045968434,0.1009030353599793,0.12981227298817327,-23698.791533701533,-16679.64550325249,-323.75207461221385,0.13564770392826592,-21.696537983524188,1512.1740762853424,2893.236541160436,4250.848160032853,7669.17062406446,148.28319990490087,6402.251624014894,-0.48595317250861425,-4633.761751312274,25609.085352434697,-16808.359942668492,-4165.161551486415,-0.6556146556981445,-1329.510107061585,-25.342448501603126,0.19407597856312583,-2644.6109517735777,6787.047499424015,-959.61730304216,-147.88427761278177,5097.27306388648,7.721241395005534,0.003042035356524772,43.30045936239041,-6339.489283477192,-0.18166298525885827,0.8217886800638955,-6.220544828134404,-2.038093735493275,184.6314006368223,-616.1555897843716,2.887750581870547,-2.803721097233686,-280.92618972393984,1127.7800805669574,-0.05717207747289018,-7.469313205975352,-0.7167142016063267,4630.1662046988895,2.053517056846598,4036.0584320365638,338.06341285290557,-6500.132398218746,0.04046857486031949,-154.18411536395544,-6.695875280589006,3949.2635070865813,-417.7205042996813,6.1682290472206835,-1.1955310521688545,-0.580566220882381,-2757.5569509234383,-158.28302417394067,9.838040157110605,-0.4085823233041002,1.6625157931910368,-0.20686428600359136,-1290.6114709780213,0.0472171420098742,39.40562243519605,-21633.714782141902,1.1718827862974264,-1.5335825236589813,-0.03315986731654135,-0.1184547005442828,0.07100698198957073,-0.08538507810881968,0.05431247589670015,0.1080239477705393,0.0721589091406317,0.06383000318848406,0.0068170673526656055,0.06766128257947722,-0.0272834523320099,-0.08775539766533014,0.051420517418088826,0.09570405827605857,0.011038699726513466,0.09775708736296704,0.12070471589540431,-0.10640058440536783,-0.058589317479400535,0.06734254215830938,-0.4437466281787791,-32058.9379206627,1498.0065866376187,0.016619731161981788,16526.171465817493,-31995.836723413577,38229.382865392734,7051.26698526661,-4392.434182116624,-1.9288653865512413,-4945.596636314239,-96.11840332968912,18409.44289145719,-24255.7213120022,3.151604715543966,-2.062870042684699,-0.36103522125553134,-170.28351490270097,-880.7283273192892,335.51150179371194,-758.3782077440692,1901.1513906449604,-2816.910564302014,13.536663735148384,3160.419546782438,-1944.0402097663755,9.448662169940782,5093.928576202177,-3139.529407659076,2949.3008632622696,57.37934238358198,562.9272918240587,-1468.0777510942173,25.460041931192798,12.26929380013609,-14903.215409461252,2307.9944819839516,6090.431734055911,-102.86708356625444,-3384.6653396123243,11485.229464796263,0.33911347118081325,2305.0812747085156,1195.1138700427784,8561.837437673676,-0.058474063049161064,-1726.7724309029538,-2.0505823854173895,-5753.189472652544,3107.91641527067,-4.117916700846159,426.8903383167231,2242.513770627318,29.574090729306146,413.3227593750757,-9.288349831050919,-16.28203801669647,-36.46184477431498,-0.3595760597402824,-308.84595958689727,-0.30609262045465435,3999.3003752700147,0.03881790349121406,-3.9396922976884348,-0.2863599306279444,-14698.72110805954,-0.48655956522875626,0.019578402647383943,-0.045997233640009495,0.02303670544614359,-0.05887200535648076,0.059011704188371525,0.018720963289377016,-0.10603825299703229,-0.08406180072584211,-0.06414847728116133,0.019059300535450362,0.07301933301696249,0.1191671627560554,0.0663849748040843,0.13855824535105846,0.027220767314116885,-0.13546358548614973,-0.017589271778930937,-0.06851160605136598,-0.026943336924033126,-0.13919336119489092,0.38846414065495743,-12.554674138904154,19978.151786260973,0.1202753624390585,312.1845945531426,31510.674118102164,11386.14814367484,-21651.421232742505,-17846.47363240623,13302.624212263325,-10434.379657887572,4895.928789496078,-787.9631488861795,-27018.69557031537,72.58030622533207,10033.469388696785,-0.6363205976413239,4578.756657830604,-0.09747053272243078,110.18970890699765,-6478.312052754998,0.3073889394289475,2.0522888314236307,3551.047283669425,-912.9653895300362,-7357.415040868977,-635.2182000775781,6679.27295643794,4.365812602765085,-632.5886992280225,-1.566710338420132,2785.560627461955,-1.5762209008496693,-2848.351231298092,10033.2943706036,-16.85198548071562,1909.5512168556616,1542.4376007722155,762.8211007547364,1797.0869226554614,-17.783321062051716,-25.144112847014167,-207.62785773969637,-7040.7879801397685,2405.9598568096353,1872.6117604656142,6054.02597374593,-2993.954777001312,-473.64384840905024,5082.186994879079,-7266.684018998644,-10297.266100230692,1.374954491048392,-1.6477552879945958,23.743482264245564,1371.049599858877,-3.5840835970835716,-3.3562968316041975,9.918294072823045,-0.565838874850532,-3.9489390643691276,-2.0565526126737677,-10.57392658605863,-965.7680404938656,-0.759245249841043,-3.3646886016300366,-26312.11101383118,0.11634492789953613,-0.06549941576416538,-0.0003995236886727567,-0.04533290972160565,0.06822995112729005,0.06914246521477792,0.12976296418160282,0.09856263582204579,-0.07550886992157257,-0.022875591050016807,-0.11953605648087091,0.03218909936319314,0.09688061154511468,-0.013492904203478468,0.0003675802298496696,0.07392842089522414,-0.10543239759769212,-0.07638285050380056,0.03834515588077192,-0.08941400829759431,0.022380593778007864,0.974199257407412,-3739.93759556845,0.07490214533613035,110.06889899915974,-2694.727626040685,24120.444624853382,2112.4300286864636,-0.6808823178264313,0.5849593098556986,-492.76165594775375,-0.2302025792941558,-250.3730029273162,-2194.4799413701658,8800.933052521426,-4068.0630527138874,-0.31339508955774226,-3029.1934457759235,-1635.2588904324803,245.64401858833713,-0.1130536771655269,-1188.0279562422568,502.1651591657168,4627.628094106398,1686.9859188448797,1604.1312731081762,160.16238357995655,-0.22537688996782762,7.241652889568082,-38.274178841984224,355.105784208392,148.78704543934236,965.9080923979939,-491.2420573534762,-40.679837089901895,-8348.613095117744,-9707.343665231094,-122.35355235824852,2488.7129375812638,-6626.224846140484,-4.458607048659034,828.3060948362283,-5785.341200574162,3510.1799461153414,1.1490131477719474,-211.78875196561103,4974.915424245028,1378.1900128130371,3894.802318881216,18604.10309028981,-904.6547837243821,-2746.3743026801753,-15030.342901177755,-4.759029188596647,-0.939666559330737,-0.11181160276283456,-0.16888740669717642,-0.49876656746206793,-14.759141052363136,29.73991194615253,1.8348524271977744,-1523.9952339749282,-2574.703081511607,-5.1746716821410015,-3.1188183333165926,0.2509987152134952,-0.16289155475041406,0.11025244908776066,0.1157716413207136,0.11401098758542794,-0.10534063061867434,-0.10310883989694201,-0.021526209679799707,0.04826916079755702,0.002312114122632331,-0.10251183909552397,0.022403475107606548,-0.13435942634532314,0.14395322517646536,0.033913051720270586,-0.07549177346496186,-0.10966731403641007,-0.13933367780974704,-0.07488804382297447,0.11755731922991898,-0.13142212585779553,-0.12206169202342282,7865.019714793809,-1294.9038119903953,-4049.152814135738,-0.04905199514370786,-7.279412267424015,-0.9383973678452986,-0.5949020369126812,0.9131190947067336,-33503.81819661469,-1.920208762651557,0.39171600884959945,-5765.724221022989,-19143.44536747689,40485.50170742954,9217.364594700268,-2.3403574417273068,-0.8077379238918772,2461.2944232530385,-0.06095255894200567,-3126.811739232773,-144.82736356699166,1818.1176905392915,3.268715791620445,2.804278047593894,24908.049276869722,-3792.3066248560735,135.2910299238659,349.811110930031,-0.27562124117002335,0.40793751598748124,822.4302783506994,2969.773090670726,4460.032654158948,-4880.464534837351,5730.591043154926,-737.9550750977312,2503.6307243535516,3484.08756185704,-1999.6517317912596,7.528191537454997,834.882700838732,7.431763047475501,-185.96620550408838,10099.11895188671,9940.933676986762,-1.187225812360748,-14.162825070720318,-1883.2926941457813,-941.2995156738034,-13076.968509725493,-59.528375867637415,-10447.802703736876,1.2713230337375507,-1.3296824024341802,1.4181051778295142,0.5566405762330131,0.3803059591141765,547.4219302443506,-17.271558477330178,332.3128249510344,7.498247466038024,615.2510712642676,-0.9837299224973552,-5009.622001362326,0.9185233606777806,-2104.2002802511274,-2468.236245261014,-0.0636898287160681,-0.09818403324539755,0.1132010525526471,0.11792205953115627,0.005162263517545242,0.05659251154881028,-0.10479125797760437,-0.08691103933372803,0.011280436642338519,-0.02659425274074794,-0.098468725441501,0.09749932478548158,0.04274525948095498,-0.10534732905563343,0.02206365506483856,0.0029532901299057497,-0.12926140100714759,-0.13750474684021005,-0.11359185665957189,-0.07925521177051668,4.226288235818801,2.8562081384829705,-21.496866611024387,-0.12221885393841067,13.024502907966484,-1.7520503052577354,-3286.7160297685127,1509.1211627045432,-19766.635719879392,1.740346791292384,-21511.569740918334,928.6201099941882,4655.982788799737,5971.012882302437,6.159491749593687,-3988.320173259816,-1.726849535631658,6596.569648550219,-0.06402383042454854,-2654.585901659093,3616.3462498718404,-0.36217687153763356,-1568.3572208578178,-0.1217008259333469,-3298.8205659426176,-200.92263194502326,2029.0798840695068,1.2230722536541334,-657.7438377326587,-33.967985772524564,-151.4422601878341,11969.097083453764,-0.5619140046917802,9425.655661936884,0.06166754572525176,0.003143593409583509,10701.312538082793,0.9044561677018349,2.817729747516548,9914.842328970737,4486.230282658853,-566.8526698827183,614.5251840570082,3.5269389643706197,1135.4509927967079,-11627.055832643646,10327.923717796979,723.7532584365925,-6405.641328389614,-1417.904442879168,-89.19360540709842,3.9899736592123105,11048.12372672211,-4.899803960472781,3.976596825470366,0.4747071677707214,12.976225302778305,176.16549596099426,58.25087770408631,-1.442372108276614,-1.0366916088485982,-44.69866135093499,-18.330230255389907,-711.9213322753495,0.07890613654101798,-1.2822941155772207,-4.529874345780898,-0.1049001105366056,-0.1437473091394174,0.026776679034078522,0.0291962082102617,-0.015096112865792478,0.05623337100223394,0.13913082182249356,0.11845062215316596,-0.053563719166563314,-0.04041818300481628,0.027880514125570275,-0.09805248873805775,0.08374261488407284,0.05972717211594497,-0.07448681157694591,-0.08215049486124228,-0.03551998473144455,-0.057534476561195924,-0.08006646502310448,-0.12840322821457903,143.59110520999428,-3.5309344643800062,-29997.03742599596,0.14082199405890808,3863.7137855751484,4560.579680454935,-0.2921320645519179,-3856.441877358097,16462.14776848267,4480.160818427236,-7987.450058772342,-9172.36618608294,-0.5155275965660813,-11032.522204286792,12.995446425188517,127.47410383842835,-0.3446616822157684,-2.492299386629609,-3760.893441208439,-7860.551853392392,-34.27748386816871,-29.46579734660555,-11882.913112150389,-2.5948159527636143,19292.85270391561,198.33612119883023,-1431.8488070909168,926.1035762869346,1551.4224709171838,7146.391194485943,-6491.088285979197,7.1044937028258905,5434.945095762557,4323.297450096377,13180.140371463704,-15099.647100439763,-3.3034166115466497,52.48258204574448,-3629.8934660586183,-4.9098205522002845,5400.518362802156,2.0635177099400366,3.883189422920514,811.1916104438864,37.75667267286255,-11.559688795028915,-6187.429462008119,-116.75284436149701,-4828.966240180757,-2359.3963941079714,-1672.2539254804942,59.977956989412114,-1087.9034768002764,-1.0188037346418013,9459.490423505255,-17.68967059627653,-11.546892635030186,26.191192977242867,-51.351356237313304,-16.83639060118421,-2.0209356822109106,-1.1833894552922883,-0.6741096781942746,-2003.2529923047512,0.5910506755900465,-0.9220891132744451,522.2473516155649,-0.056830169658947945,0.04862445373912745,-0.04787813139929439,0.11106488028800204,-0.11990613499081061,0.07883372223330166,0.0007004443366535286,0.010812335788796187,-0.06518732365441542,0.034838839454944905,0.060886951654294114,0.0652019128415145,-0.13972968699215332,-0.12248111756997411,-0.07589211777543038,-0.011803481280887828,-0.09133276463248867,-0.03200650307146692,-0.07597119762796734,0.1390709831707799,45058.70636436161,18699.208265506364,-9564.89893951347,0.07034507788694233,-11623.425889539205,6825.902518481681,-2.336148539821893,0.27279193127754825,-9122.222645039326,26.805615483732772,-972.9717677166459,-6379.240080422852,-33271.61006976567,13519.431088162984,38830.91301209579,-3482.7592829520954,-0.37116436438606853,-35.71517817471017,2.7813278574198974,-9595.423674438156,-8474.658561909428,8052.995482876781,-4372.1503780844,2675.935986108495,13813.446702988373,-0.8325041826916109,35.39537902236458,0.24470375509342865,-4169.390191951942,10385.499059139298,-3237.457251128443,-2414.783007132477,3186.2651180861712,1649.683819846419,5550.267305682804,-15300.102438495065,-1810.7391739824466,2.0262999023935944,4376.885356917079,-165.05876923971041,-13.935550792179457,1412.0031861312782,-2683.7676663012167,4069.3457638269674,-1993.077604343392,-5.3070761735882925,10246.062185757091,186.63279787283523,13151.688644061387,-478.54896568324597,-3258.972447196562,5434.65816330502,-1634.2831845508654,202.85023907938526,3.3455121694904904,-0.0468546038188118,0.1986906625944643,949.0844451397373,-0.0998454781519024,56.2195792525581,3.678164268330084,1288.539494222722,0.32816677998679,-2593.6978728910863,-813.1175865751751,-1404.2371328420595,-10.764056778283287,0.06894268730133156,-0.09926546893140821,0.0683072694393753,-0.13135132936159458,-0.016393092166442184,0.06884568898553267,0.13667561419883334,0.05733548062027715,0.1109353415453225,-0.0017457149875287504,0.042168645281110674,0.08323372581493718,-0.07464423836403956,-0.05160748027642238,0.10768685893400719,-0.07046951285280227,0.07718522848248299,0.12926761238224949,0.06977830632495831,0.12067000742897258,926.264302895605,0.03269608492782595,-31355.803808235076,0.15018914367821887,-2.580589034621506,11.738917518985557,-1800.771071294647,-790.0962812408588,1515.610898283069,42.33855968829409,28858.489799128343,-0.0037374856649503014,350.4133684135465,-34850.55122854711,322.2587247829827,33544.33112801271,-0.23638672205407332,-1923.5406664685893,-1.334829758340004,-1530.596343309965,-46.86783619903366,-80.38079369037904,-3518.914280782137,-651.3657960971209,7339.204147660589,3391.491393250275,426.06693935678123,15009.124613711318,-507.8135658921911,7106.270901528963,-8.618177901940028,1.5500430975249553,7451.332896274582,7979.24568170073,2506.9512058671744,-11998.071027634072,-35.11004142851895,-930.3372254343517,-3.502300178818003,73.3322097797743,5467.250475339786,-8.360860142524825,150.86553303918757,-1430.6393910975773,51.45574696976464,-1463.7751903718336,-15730.740957892387,1.136875207301101,-880.4074754292344,1670.4588364333288,-2354.159315158641,0.8106176089089211,-14141.880330643087,-0.5228082674571247,3916.070033588214,0.30170431958878463,-0.16900915811935788,0.031041368783543105,0.8870901194027061,-0.00964572423336496,-0.15677011492417947,-60.21303362224391,635.8176414180806,9.197903598248883,-5058.333331474416,0.8461795162390418,0.7735228511323059,0.11611795386668777,0.0505440813561081,0.031103631482472853,-0.025526301053003332,0.005500785144257923,0.02895181361657127,0.12065792383483873,0.0731312167461788,-0.0853391532544902,-0.08882665002397147,0.025093849425980797,-0.1111382315938945,-0.020728285935335527,0.12432178159711457,-0.009187393089734418,0.11407038481569481,0.05523803435367777,0.06488829742315576,-0.10349534331435112,0.011864414663494442,-1928.2203634066916,-44277.66975124882,-4.748235461023195,0.13344810891323491,-5742.755236791616,13090.750468460981,23191.975630934252,-1277.229295013186,-21451.35286662375,40589.40224949739,-3991.53721258489,-2.9625804671414397,-2202.1792329489153,37291.026284629,-3329.7887358002745,11804.625807440727,-2.829753854390682,90.7502830771269,-1602.9503973778612,950.6373972113262,-130.56062077492524,-1.6052251954200523,3.2842502105183624,-879.4108547287389,-298.7018910358931,-82.94288722692137,1.2903402490809603,59.59356716789212,2225.7608203469044,5.069103889949056,769.6608511829776,-1891.6577255598675,1514.9723076859111,-2219.284690162249,-6.437037603006428,-0.4883698405594292,1350.3640551972007,5418.367924108255,-3371.728746251097,84.86184281825474,-1.0598598219932465,6153.327008531396,-78.17536820373226,0.2436322331972492,2271.307024857893,-2382.3461596044217,-0.04204878962466924,3.600746476719108,14895.553513306288,-519.8776435486917,3628.091533626131,-8143.109194696755,12142.299396931325,-261.29147349137196,155.4292640886662,-2.197393539494102,-0.06036237488955069,718.2117212766108,6.359655206624626,-2.8943744979041988,-1.4263918627652954,-633.3124008194378,262.4226055950776,5.863800311630714,3547.817333187235,30.54878891367865,-1817.140584807726,-0.04834535609333469,-0.045512856720068925,0.06692103638643698,-0.11517063663556497,0.12054191882093465,-0.04581187377771553,0.018912835624306356,0.12663747201970105,0.07097406816425057,0.06593273986133927,0.015087530489427195,-0.049054431063225726,-0.13174941497472956,0.008062017585544031,-0.061666459845207945,-0.11984338273547111,-0.011293419968278864,0.1350763590066055,-0.08453409928354429,0.08792158877801444,-10753.447661473398,-2.037448620066627,-32928.33064072815,-0.10923327187566623,5541.045646251685,-2.1158250872351436,-30831.255312340047,-1.6679677431495084,-7796.607874466248,18840.723266678553,1857.7968999313014,-575.7980489975747,5716.465595154479,-1.2858359447305285,-4.209690507619962,2001.8581247375414,-0.5947090843581154,-42.24811949870839,1867.696446030657,-97.17117849040106,3207.7846136318626,2383.7704691817626,-3071.311273631446,2219.014758556987,18620.266769099908,-134.95554726765872,6744.183086232718,-532.9777231042272,-1415.194060989072,-13.031342463940447,-6.014785978411947,5771.996576746781,17027.88084473602,488.6055627368946,3260.464818178915,-19946.68961557772,393.9949991851201,8.135033543192561,365.84793168506815,1144.86500531735,2588.3728247963068,-991.4225263450124,11086.552578201536,19076.655240757125,16554.662888819417,-3163.897391531354,-14.699165570756803,-379.0860217056476,-9381.502355332745,-17.157425166996692,-807.4193673516363,-120.66425062414936,-451.31224215408776,2.1509737955880137,15.628820454075857,-0.22926303031346582,0.838494351598695,1654.213584145218,2.8287846510521257,205.72313052769505,0.8745091047469544,5.7496115351191,-0.2841192779554779,-0.4086852990739112,-0.09977529850580533,-6.976898302310555,33.67757724103769,0.026000356567716633,-0.13694114370418783,-0.1330351455307497,-0.04296025100461468,-0.10860476501489016,-0.0034367006105746976,0.05621665738054983,0.006496130669989595,0.00679589979971678,0.02707640765933858,0.11758659746206715,-0.050195052228589256,-0.12101357074457048,0.11483417013335545,0.134255075630185,0.04578097763618208,-0.12378045751787656,-0.01840641192272268,-0.030585422998288873,0.10032192858210834,-13287.763212646638,-4137.573146496038,2547.0700498927417,0.05211209675072692,632.3136571993668,1461.7080018369793,8288.596229048962,7981.083411952509,6192.624319346692,-39059.79867274045,1875.3510222771502,67.06172887150765,2879.1259726392436,-24525.552038567035,-35125.13084096108,-120.65942870146097,-0.35903658066300537,1185.6857019234637,-5939.290590056767,-14.905568305733947,-3530.642376071535,53.86786460356455,-207.86928763213473,-4071.583745130164,-2495.779556529959,-166.5906114368285,1963.4741649488858,42.235319979916156,0.30446891784809815,2309.910653187578,37.2145735404584,-2359.8119326013307,-1316.6920334341423,14211.823321207075,-0.7809273100057836,-39.837339407902746,-1009.5141447744984,1640.474474113584,-12108.57336526039,-3009.593860217792,-6033.026579058951,-151.45292464525537,-18180.05224841529,-13900.253487588356,-12529.312151688375,-3812.6703461082384,4295.338084755339,3491.525081726521,-2304.354535249451,-1.4569330016046464,2311.735002109129,12273.301604813667,4891.941687844462,-3973.203229960855,-0.3069263859194038,-0.29210231316046104,-0.7733471977579105,-1.6231894178160013,242.6291148676358,-104.41501070505821,-276.39981316280193,-3.2206344485498444,-3.328032052158541,-700.7345752103722,939.7288001373915,-2.2443630788762308,-92.04208430556362,-0.11979445065815564,0.12130183306005843,-0.06419975384583937,-0.01511408087695038,0.08751380460481092,-0.029038131986138034,-0.04915884036900738,0.009278733518029094,-0.007704948875252755,-0.11671374953285496,-0.044496382767385045,0.07207202802034081,-0.07186456087792825,0.0251633192168857,-0.08853140753737296,-0.06191608753337637,0.1204083800233671,0.06511653433367803,-0.06578011618613105,0.07074441427782217,-101.25805961046153,-5453.32151872029,-1.4096561329194166,-0.0008759233534502788,8270.196110754629,-1.4784123052264437,-33162.755086338,-5.933487000959413,313.87984469535314,36812.55835343806,-671.0595237939322,-680.2639584775084,0.07257484299711926,-4877.927272912684,-5372.511963228337,766.5491803428512,-1.0615667468790273,1074.2245897525006,69.24129417381994,-9.727135901947314,19676.051511584614,0.054543530736488925,-37.43944025628733,334.1469940527014,170.92959945436425,370.195903572926,-4.700839354917579,-10.10506839392427,2114.2210991609236,-0.241545011967434,-31.97383673603741,7724.556816855283,175.14111657175522,-1219.456901833808,0.6975108614037655,0.06258203948513173,193.0384110555675,1164.4885495414744,-2924.271256534633,-4621.160746026872,4355.884698723083,0.04155271347967693,14575.993908612189,0.045633846526036595,-11.628863348308746,1728.891063704555,-10382.31990658184,1276.2189882374573,-1.1729352245674418,7092.215777356704,208.65365170305967,-631.6383020962209,1340.889102936086,-2.3178263716403134,-20.410435499809132,-6.1442752933777856,-3.133917918229995,-942.5635104621122,1.4204457971308828,-53.90508288024637,-0.21589838164585612,-0.5929239417277763,0.8139227436758254,1651.393107463858,-1.137025095965272,-1.1195632706099738,3193.5071131120453,0.03956299056937531,0.09708918531764628,-0.0780851860242753,-0.06359624028999905,-0.09938436812873874,0.025632468165419007,0.051433402575025426,-0.03287820145368086,-0.0026197296708272847,0.008705802958486105,0.058097248186964205,0.005334909336635726,0.10798800598227011,0.0723798883233856,0.13177818547392287,-0.09099023877094546,-0.06543438868749711,0.14195059974417712,0.029690827152597698,0.10865315756651915,1181.1154500247067,-0.1984985224037573,-47797.98147631051,0.026745269832678817,1.0891104326547167,10900.78009799523,21146.243161040755,-0.5744852252132068,15807.493890022057,-7110.538283483337,-2920.856831992134,-5.02943373153543,0.3340813803771627,-31114.152522901208,-24.593049279086888,-1586.6674191245281,-1.4451454672286794,3.743659389041536,1396.0181141348942,-9296.556850913163,-1.7325512742349702,-16.007739521862895,-9632.11912288693,-49.2882329265795,2904.96275547196,-1084.6123334623023,-1688.3700325227478,16088.224725173317,-2.4777316498033364,7408.10403441347,-14335.640122849632,6032.212300179806,2321.6077497597753,3175.0937017124825,1444.0947439521663,-20613.415682272454,11.562457931148924,675.6213028058764,566.0802760281624,2919.3480438600736,-222.28116025625422,-213.49335587222217,4246.862183989005,4808.568211826499,-2390.0956775483473,-0.719944723580732,2749.338532145588,-53.76532688600835,-2801.6464162682955,-128.6004842204503,-8247.846930265507,-555.7202558256143,-2.731312941901361,-4.0814823644764004,3.393205701631332,-0.6963874803035875,-2.3557260457624545,2.463792127459864,-11.33081053060263,-2.8903949980230563,-1528.0343678598847,-3.065965648928716,29.99917287272926,-1.6358319954089855,-2.490783536803587,-2.48512834807195,-62.55212000249523,0.022622791362182135,0.0855994256243482,-0.12463216675958708,0.1308603223036804,0.11409628632713312,-0.027385252575864546,0.056926962775010546,-0.06445292899447852,0.03330174035240595,-0.10185124292627588,-0.1300847477785547,-0.06710567395352572,0.06115335769333789,0.023492469307764507,-0.017219152592846645,-0.09877791044810597,0.06534946524045904,0.016192300747512513,0.04752073567035021,-0.012490605976721018,5790.322218783063,4205.995734329614,25237.715589005966,0.04091509204615599,4146.938913878335,-0.2927117241302183,-25904.807538976474,-196.84633427296123,-5.683468193820603,-8244.585954268003,-29396.9892635535,-1258.6724115620527,14061.51441091032,0.09498754424806642,2.717362386028173,-21050.621522107,-0.21320459796756996,1544.3526613348652,0.18722155621759912,2580.3683368060388,2347.997899822984,50.33552201464795,-2164.6538338510077,1567.1236489397227,9.488176429492963,-24.918677371101012,0.37825835915388467,449.2319384725379,4042.233017571617,-15.448868906454244,-28.563500343899143,682.6389525171412,3299.612986237117,-2277.323110229788,3947.8986267998607,600.5670338834186,-0.24928289637131723,-0.714363755799146,-5685.777423370823,440.3894117487072,-34.82745171391138,-2655.8116635325487,-604.5372421846824,-9609.349839860217,0.18359535182483233,-5116.308198875722,10226.169603584367,1.861163021329694,-12699.997465541244,-935.2580995167781,-0.14679192611954145,-3372.495895271165,1.7414151675262681,1190.9270726847144,1927.4193685877883,0.19444552288807132,-0.3564302442643395,654.3858594843178,312.17239487388025,0.1645018691337273,-1213.9593373098473,2.583349264912428,0.09019547625768448,-0.7066860644142597,0.8474254280800934,11.905320062978697,-0.43036843714032963,0.10417136747645904,0.10249624327520432,0.10742775963754189,-0.1037898031941684,-0.11434298212511154,-0.09121961858167886,-0.08600505786834609,0.0051258285664629415,-0.04558644664031612,0.06598293145251635,-0.06716261465142233,0.021446598158780916,0.1197985254494135,0.1093881339615553,-0.10663385689619259,0.07902662346137643,-0.12344631476473729,-0.017229856822295254,0.021241308999528953,0.027046925144981585,-4230.137474753677,2052.1431184139337,1067.4503771265565,0.11203061995296251,4900.743550157527,-3912.876045506228,11.529103525917844,10758.29700302434,-25432.171971043233,-19634.61550626384,-0.19982018974498342,-1562.624100900207,7295.077519258253,10333.400297981396,-22233.678750709343,-17.640608465009613,-2.0138838715769016,-0.6355598635590227,49.230479634949155,0.047479372119369236,907.6855261622709,1.0806151273439346,5.2547615808817545,-3907.0977900052185,10818.131849718044,2237.3062072800526,-0.7709719318097407,1238.1664593698981,-2593.0246256508885,2033.640835540633,-952.5336065239765,14.229050993535246,-6.781916775299952,989.7586438858102,66.43074677997294,54.79938420644104,2046.568383318339,-3482.061070490361,-72.50541722192742,-761.7025688092189,-0.4511863289538265,2928.8597359984938,-1395.9611447888906,304.9032474013124,293.7977638937149,0.04727513613014926,-58.38948169867067,0.46393842387392,2946.924143354904,-0.6238522794281175,111.54490639374106,-4.437285247109544,8647.799513939155,7.58531441423234,-1.8603327431449397,-268.35943158199444,-1.5863505340460675,12.803722909056779,-34.77025443677265,-1.776697760174635,-1.1672251482029703,0.6526096087078003,-786.3511142283012,5568.164730848417,-2.161193920965191,-1.3664789644610478,27.25259367699544,0.1489049122376576,-0.12500228754827813,-0.05723323289973073,0.03078329295832569,-0.04689760223079674,-0.06035848393667258,-0.14639093910941642,-0.1107766778556706,0.0339040828167257,0.04218408442253856,0.11937628306991484,0.1328296278555876,-0.1258538808619219,-0.023342088752943073,-0.12366335226365067,-0.13099384244056067,0.11265940629676449,0.0007413960365848888,0.045049884718162465,-0.12440937596555852,-647.729141143291,0.04892723564154216,-77.17162349654699,-0.0343778156580993,-10.84058587659148,-0.5056907917320528,-0.6695718096169253,1675.1841574564876,42981.538674775395,2370.9199628375345,-6842.711938912633,12080.628766967111,403.9347783618598,-43179.592985204865,-7.887452065233977,389.12723495423893,-0.7806055972297076,-2.375365820293017,-2309.688444170675,-5039.804438547873,14744.055564473876,-3361.1778444665924,-16293.61902453158,-8.645139048397144,3817.6491546729185,-0.2906764881530292,10667.058024011754,14159.458139788327,-1.5794459387861561,3122.6902259142153,-10480.330398507516,-5991.45372133162,1582.6110222132588,-661.6824658835767,4905.793744902383,-15713.745102914872,-331.7649291867639,985.8909192984719,-0.0722139886595249,1834.922382136553,-2804.2525160680966,259.64533995000596,-0.13783526646151434,-3328.3731764024606,-5023.197994077245,-300.66073848400526,-3721.393455431293,-12563.010089002784,1.4284795396102439,11284.61416714684,6594.735860791646,-25.67083770282789,-3004.2392223473275,-0.6931368672720767,-4.501375090019292,-53.897683649716946,-0.8528388568764289,-842.0983351504011,-1.4230375821938912,-0.9306762469249291,-0.7763852385276218,-0.7921018711365954,0.4062809001837784,2719.8505743199903,-0.2787078119966629,-0.9909417963550015,89.70101708112134,0.05301465795208759,-0.1378087770252115,0.12890591122307912,-0.03540105931085883,0.029148977854300758,0.01902491623420922,-0.085742763666198,-0.12866752352527022,0.10590947346701644,-0.08578947449509373,-0.04195494733562728,0.13517570030249257,-0.018749230657171406,0.046916493984899124,-0.03102646295857033,-0.07277991700663795,0.07788720457649216,-0.12354389161310689,0.12058556754343262,-0.06776474386754988,37721.43678572762,-2.9281537244800004,-4454.742801376568,-0.08660307958119534,-197.0562117035627,0.44133921134096293,-6148.725832412317,524.2028418114944,-3000.164224227299,-4.501996694693272,-4845.075288753361,-1411.8876218894022,-1620.5873057335539,33775.86461908578,33526.22626701723,-18.32717737129642,-0.27507870907378534,-112.72018397884345,-2701.1717566610223,-5786.307462012902,113.98190016413163,21.32089371953307,2.0704632264349447,190.7598210563345,3.7988239433494373,2.9320868595543135,102.53273950111445,534.1398746730337,-151.74060405615984,1180.7782546275448,-7526.391635698539,1457.3430693090952,-1429.5592945652818,-9.26020119029128,-10.04161559145817,-1314.821155068858,-705.3205912305453,0.3983404257086259,-4830.9237386585255,-14.578773146642279,2012.2040318867998,-57.838391870073465,1.2691123208070183,1763.6554152322149,-220.15434572113642,61.79169429228239,2900.703571976488,10427.802916426286,8380.344539137543,-4352.364411239675,-8164.775110669186,452.64783557167954,-4908.416426168086,0.01868688421277407,-0.8320992903806298,4.677208769709408,-0.33242720062030917,-6.527434183954823,-0.931017005177414,0.38561383363959334,3.122562095106903,-0.41253104175498967,2.7399483540881118,-0.3755717956811401,7.809060149443605,-10.13476504983327,1413.6223115599646,-0.02531607952361932,-0.0362570830710207,0.06923658128555893,0.0804963478484546,0.00901715963128592,0.061654100777800376,0.06279678839352322,-0.11536524472885883,-0.13875332662514916,-0.05227475663510438,-0.02228794080459699,0.0221427418612544,-0.11439285333118393,-0.06450608823867812,0.09740558909318109,0.09858988653334895,-0.07290332134063142,-0.10312368710031952,0.028206647745579128,-0.10731245325753434,-212.64134974512845,-15140.879758219746,4703.053853567039,0.07546777297594226,9353.53377963381,-14067.963333514845,38397.41031811459,-46.727526598464536,-109.70993721928747,-9.089235446081915,-2.6549453111441226,-14.274558631213209,-79.42698171735705,-73.0992020370269,-3.1724288144066115,-456.0804899533402,-0.8485618203878693,31.431563824509627,2499.7633830260847,1.1300274390172576,-3095.957796983275,104.95424674028408,3883.376931462853,1.8242545956778158,11118.085736010225,1485.5947123152166,-631.6878852935181,-2416.8797623929217,2054.761976858133,17617.006681426836,-1.1512114331596526,0.17890605458228406,9160.736584384143,-0.4482391304342438,-129.1056228750766,-11968.317381827726,-4292.8584176864115,-10799.93216555244,-11252.977726675377,-3.5418667845848764,20.385760122011998,723.3859441706594,-6290.359080040101,-10664.326538880485,1.3093286846655698,27.670741781355648,48.42111215505053,-20.801783265268334,-259.045445757739,1442.8846157636624,5504.916997858477,11.738006644066264,0.4685227362978077,-0.4830035062924479,0.8763367860009941,-1.940026975100052,-1.0335649103728795,58.402093090676466,5121.270990953983,-746.3775206293726,-11.080104173810268,-1.4767511466092698,-0.9557841335773408,-1.8332840138377715,-61.92578801550558,-1628.4327894155178,-2421.4788262241555,-0.09872157906226799,-0.11520624890435616,-0.06828187743869345,-0.02882450648128242,0.05654825975890745,-0.041531269336519225,0.03501097887740106,0.07199202071124988,-0.10490935820588256,0.08500526384428454,0.14228462664609268,-0.10894812751367611,0.08976761955787872,-0.1455428702197939,0.008474812967216163,0.03358922147038929,-0.06075781247122614,-0.04402530311301114,-0.06650486039330836,-0.08973972034779416,-0.1981471377024775,4862.017894903236,4051.233057038686,0.07829505723873535,-10082.790466129512,3.146679698875391,-32.64853944834946,-10117.859049301096,-48957.16275719496,-144.8788147212598,23155.345257872195,3.1876815784170067,-4.6626098452456874,21454.130197610662,10.999979770606231,25418.247899032685,-0.23406792085717115,-2.572902138416013,0.5416862789896474,2.199095947871112,-814.7309598886613,-4191.870477842145,1597.2357817473724,4.210557731014962,8.335444448572352,-2569.4714926577994,-1932.2125857434419,815.6938103033262,8105.692093544163,-4968.0471553168245,-1998.0237397262392,-72.51701381746653,36.97351897218799,386.6553019299737,14.507693627769097,7153.647235227832,5150.2224737343595,5281.72234309668,5005.954482345447,-1.1316149689966974,844.241710137435,-48.691745708416306,176.24867995679878,-3766.9703603759785,24539.598832816788,218.84145047856902,-15710.875329052535,2422.4679083725814,220.23168626653333,1.1161335608155383,8930.818714173767,-2307.153989600453,2256.551632934848,1800.822630371134,-8.654512768722489,18.327713097812698,-0.7144624759059977,0.965932823886346,-0.2296619615260226,1033.1067498462742,-0.37292985001290696,-0.353957459271071,-0.21151114139000518,-0.000739778332459618,-1.0316253778999005,713.5853737240951,-1.1080208185240954,0.08001642026619565,-0.1340923799398407,-0.06079080627413278,0.06499861629294929,-0.08063295807476273,0.09062620507386057,0.1004454939409821,-0.07015155136442722,-0.01036455837828556,0.06068666848650194,-0.10642064179463451,-0.11779986007270632,-0.04837586094007012,0.08283234485578084,0.07292986484489282,-0.009156250468620697,-0.042613829455560595,-0.11226742219901147,-0.0028319042181898595,-0.13501262837560365,-27539.665898033305,11769.5015543614,-5116.683490429802,0.011573252508662972,30958.336162259933,-41.051840672702035,-39328.32933917742,-3.846452987489867,-505.89425660042366,38272.55143308536,0.21556261640703908,-2074.235195709735,918.5236234467769,-1050.9425348297398,-5066.122219083657,0.24677418662060607,-0.26865237185398183,314.0489481717087,6.676565429196939,-46.33185254717747,2002.4167401203567,81.55911770227472,8371.732480806415,70.08659510700714,-2.4338832741783283,-2188.601783401314,-99.27325043556925,-9.530425097075684,-1804.0621801789785,3357.6110036667396,13.299751347588536,2275.243607940561,6254.044734596886,-4831.722431371445,2850.387750802938,434.00670493683936,-367.4870190456428,-1054.774439178141,-3453.22339586267,-748.2087522707133,-937.2316755319205,-142.76892198780158,6641.283203932779,7509.573424421263,12863.029893472256,-8394.651920258932,-8456.317093564532,763.809440511743,-1573.7255410460898,-0.7419279340730196,3373.7510157084757,-17145.26082175461,795.000949464653,0.047317059027382286,-16.341838630721764,-3383.200425524036,0.41961074725849357,26.71467801560027,13.116560194444443,-51.61411997904354,-1422.3164333751977,-510.83404935197365,864.5056993055373,9.304460088337601,-4.935046363629422,-4.53524858409654,91.7827659510473,0.036083573526702516,0.1343443351078044,-0.139361690009453,-0.01748959002601609,0.06427901282685466,-0.12230135195159131,-0.01095980045708565,0.08274772211279142,-0.13428673224817816,0.10021310230489315,0.0721320815042595,-0.08455851252011343,-0.002780406072782969,-0.11224330549917046,0.14296789948533176,0.06627013986617158,0.025538341480982985,0.045591321321305056,-0.013067062772850515,0.03539815867797861,-0.9963202134652149,3147.2478763035024,-6.3875308125654495,-0.1306579777334475,-26296.777039844972,1155.450930704049,5895.009117366774,-4373.156929150297,-35447.566219056396,1368.166489769903,15138.139286021365,20414.55366006437,-11806.343063677874,-10737.983063667767,-0.9654838883032696,23.086016609607274,-0.12889615374014288,748.766151646489,85.32923929243303,104.09584335864797,-3892.164565684867,744.668113389515,-0.23886799415140741,-2.038267809701874,2322.051845476998,-18.082625552247762,-417.1669879633522,2191.8603078576234,26.300994720101514,-1645.4885706930386,-16632.06817709314,37.13576622175361,325.6268121108468,12868.225060210212,2112.018293508366,-3219.8582774178667,9253.610577480837,-2520.1717608292543,1327.9730115237724,-4.893240868112164,2117.306342512,-780.598547702612,-32.773700841235886,2423.1703793300007,-1400.9630860473376,-0.17580073137617103,-5648.911123930384,-5585.315822528441,6112.91360667871,361.0334307360657,-1157.331100217496,-1293.3801550437156,-3158.9561726793277,0.5368864709032419,-3640.2758745533247,-8.111840812172,0.43087940011222686,-0.16804404168875117,8530.340355701679,-0.8950716722218247,-1.5013260520905882,10.100413816332635,0.059159531046500714,-94.97646484215527,0.12812997355386122,-828.5279498248648,0.12164715473227522,0.05310706431871739,-0.04824954080821563,0.07907809927495214,-0.03539580297116822,-0.07689861453836824,-0.07310465391795584,0.00607390559435569,0.07876056569156192,-0.08749643070006852,0.10659559114110799,0.11529010687603783,0.07774852924786825,0.07286148257213053,-0.085598239105513,0.12423168307233028,-0.12181370117567697,0.11740186718876433,-0.08805542927679981,-0.12787403407527778,-0.09329898459044177,0.10637224282061844,9418.153530724674,-4391.713862817835,0.0464424278008374,44.376322279632404,-4713.894737782658,14549.732167488864,1475.258860224587,8472.598096636702,-2.072418644390026,-1699.9290858025222,-22021.422176070224,824.184267693846,17393.001227637655,0.30271754101779225,-3931.913179570058,-0.06752655595046382,-358.9504290040237,15.65491385480311,-1193.5678485039668,-5263.484944549146,-1043.8214221112596,-90.4052925295281,-0.5074230510768895,10786.27232262119,970.51853357106,-134.1423783256916,-0.7344231184717097,-1.2207974677227682,10747.335191324462,-2.656149190218565,2604.1292998152167,2007.254352412216,0.23500343523664796,-577.0313450829675,-132.64496188403382,3022.891094890484,-7.780892957130339,1902.2621841170637,1938.415298587016,0.5674205727490066,-4880.937382876982,-8907.14692913974,2446.368917472679,-2888.6580833508933,23.522421670203716,1149.5306970978704,130.5655820844064,6.46964633686292,2026.1379273051837,-1600.4360730814888,0.8361415378140081,-13.470475577185693,-4.262622953108233,0.6223234193071733,-2034.0740944862278,-0.17396344653205756,-0.4239523414129541,-0.005359971676056913,-4.739714152065204,17.06002054647944,2.5982154251889797,1684.0786526981437,-0.3486506824654294,0.5620666539836988,2028.1184244976926,-2516.814037855039,0.04561085161660841,-0.07465988323804838,-0.04587505733071105,0.11512997316540374,-0.007707465205972332,0.07314038880943233,0.1349275824287792,-0.009251086390181176,0.07790000510701997,-0.10993296382755789,